{"learner":{"attributes":{},"feature_names":[],"feature_types":[],"gradient_booster":{"model":{"gbtree_model_param":{"num_parallel_tree":"1","num_trees":"400"},"iteration_indptr":[0,2,4,6,8,10,12,14,16,18,20,22,24,26,28,30,32,34,36,38,40,42,44,46,48,50,52,54,56,58,60,62,64,66,68,70,72,74,76,78,80,82,84,86,88,90,92,94,96,98,100,102,104,106,108,110,112,114,116,118,120,122,124,126,128,130,132,134,136,138,140,142,144,146,148,150,152,154,156,158,160,162,164,166,168,170,172,174,176,178,180,182,184,186,188,190,192,194,196,198,200,202,204,206,208,210,212,214,216,218,220,222,224,226,228,230,232,234,236,238,240,242,244,246,248,250,252,254,256,258,260,262,264,266,268,270,272,274,276,278,280,282,284,286,288,290,292,294,296,298,300,302,304,306,308,310,312,314,316,318,320,322,324,326,328,330,332,334,336,338,340,342,344,346,348,350,352,354,356,358,360,362,364,366,368,370,372,374,376,378,380,382,384,386,388,390,392,394,396,398,400],"tree_info":[0,1,0,1,0,1,0,1,0,1,0,1,0,1,0,1,0,1,0,1,0,1,0,1,0,1,0,1,0,1,0,1,0,1,0,1,0,1,0,1,0,1,0,1,0,1,0,1,0,1,0,1,0,1,0,1,0,1,0,1,0,1,0,1,0,1,0,1,0,1,0,1,0,1,0,1,0,1,0,1,0,1,0,1,0,1,0,1,0,1,0,1,0,1,0,1,0,1,0,1,0,1,0,1,0,1,0,1,0,1,0,1,0,1,0,1,0,1,0,1,0,1,0,1,0,1,0,1,0,1,0,1,0,1,0,1,0,1,0,1,0,1,0,1,0,1,0,1,0,1,0,1,0,1,0,1,0,1,0,1,0,1,0,1,0,1,0,1,0,1,0,1,0,1,0,1,0,1,0,1,0,1,0,1,0,1,0,1,0,1,0,1,0,1,0,1,0,1,0,1,0,1,0,1,0,1,0,1,0,1,0,1,0,1,0,1,0,1,0,1,0,1,0,1,0,1,0,1,0,1,0,1,0,1,0,1,0,1,0,1,0,1,0,1,0,1,0,1,0,1,0,1,0,1,0,1,0,1,0,1,0,1,0,1,0,1,0,1,0,1,0,1,0,1,0,1,0,1,0,1,0,1,0,1,0,1,0,1,0,1,0,1,0,1,0,1,0,1,0,1,0,1,0,1,0,1,0,1,0,1,0,1,0,1,0,1,0,1,0,1,0,1,0,1,0,1,0,1,0,1,0,1,0,1,0,1,0,1,0,1,0,1,0,1,0,1,0,1,0,1,0,1,0,1,0,1,0,1,0,1,0,1,0,1,0,1,0,1,0,1,0,1,0,1,0,1,0,1,0,1,0,1,0,1,0,1,0,1,0,1,0,1,0,1,0,1,0,1,0,1],"trees":[{"base_weights":[4.2004505E-1,-8.674102E-3,7.754892E-1,3.2508835E-1,-7.8600824E-1,9.205608E-1,6.587156E-1,5.985663E-1,5.882353E-2,-8.579882E-1,-6.052632E-1,-2.0000001E-2,9.2941177E-1,7.1020406E-1,1.9298245E-1,6.5055764E-1,-6.666667E-1,1.1678832E-1,-8.82353E-2,-1.4285715E-1,-8.780488E-1,5E-2,-6.486486E-1,9.754601E-1,7.6237625E-1,3.8709676E-1,7.5348836E-1,3.75E-1,-6.363636E-1,-1.5789473E-2,7.0634924E-2,-0E0,-8.0000006E-2,-1.2359551E-2,5.510204E-2,-6.0000002E-2,5E-2,-8.888889E-2,-0E0,-4.117647E-2,-8.095238E-2,-0E0,9.814815E-2,9.7260274E-2,2.0000001E-2,5.510204E-2,-2.0000001E-2,7.810946E-2,3.3333335E-2,5.121951E-2,-3.3333335E-2,-7.5E-2,-2.0000001E-2],"categories":[],"categories_nodes":[],"categories_segments":[],"categories_sizes":[],"default_left":[0,0,0,0,0,0,0,0,0,0,0,0,0,0,0,0,0,0,0,0,0,0,0,0,0,0,0,0,0,0,0,0,0,0,0,0,0,0,0,0,0,0,0,0,0,0,0,0,0,0,0,0,0],"id":0,"left_children":[1,3,5,7,9,11,13,15,17,19,21,-1,23,25,27,29,31,33,-1,35,37,-1,39,41,43,45,47,49,51,-1,-1,-1,-1,-1,-1,-1,-1,-1,-1,-1,-1,-1,-1,-1,-1,-1,-1,-1,-1,-1,-1,-1,-1],"loss_changes":[1.3532524E2,1.0494156E2,7.618225E0,2.0572159E1,1.061409E0,2.3083649E0,6.397461E0,9.610172E0,7.9862604E0,1.0867996E0,2.146515E0,0E0,8.9082336E-1,3.1347733E0,4.5408697E0,6.178131E0,5.333333E-1,1.4368489E1,0E0,1.3285714E0,7.8048706E-1,0E0,1.0766888E0,9.5739746E-1,5.7759113E0,3.0936146E0,2.2333908E0,2.503049E0,1.22727156E-1,0E0,0E0,0E0,0E0,0E0,0E0,0E0,0E0,0E0,0E0,0E0,0E0,0E0,0E0,0E0,0E0,0E0,0E0,0E0,0E0,0E0,0E0,0E0,0E0],"parents":[2147483647,0,0,1,1,2,2,3,3,4,4,5,5,6,6,7,7,8,8,9,9,10,10,12,12,13,13,14,14,15,15,16,16,17,17,19,19,20,20,22,22,23,23,24,24,25,25,26,26,27,27,28,28],"right_children":[2,4,6,8,10,12,14,16,18,20,22,-1,24,26,28,30,32,34,-1,36,38,-1,40,42,44,46,48,50,52,-1,-1,-1,-1,-1,-1,-1,-1,-1,-1,-1,-1,-1,-1,-1,-1,-1,-1,-1,-1,-1,-1,-1,-1],"split_conditions":[9.176391E-1,5.917895E-1,-5.402249E-1,-3.6659265E-1,4.5532718E-1,-3.4939632E0,7.662621E-1,1.4113553E0,1.6139101E0,6.837124E-1,-2.0996714E0,-2.0000001E-2,7.1342176E-1,-9.665908E-1,8.280857E-2,-9.5217603E-1,-8.4080124E-1,2.5106835E-1,-8.82353E-2,7.90022E-1,2.155524E0,5E-2,1.12362325E-1,-2.5428145E0,-7.836506E-1,-1.071918E0,1.6054336E0,2.0432382E0,1.8935238E0,-1.5789473E-2,7.0634924E-2,-0E0,-8.0000006E-2,-1.2359551E-2,5.510204E-2,-6.0000002E-2,5E-2,-8.888889E-2,-0E0,-4.117647E-2,-8.095238E-2,-0E0,9.814815E-2,9.7260274E-2,2.0000001E-2,5.510204E-2,-2.0000001E-2,7.810946E-2,3.3333335E-2,5.121951E-2,-3.3333335E-2,-7.5E-2,-2.0000001E-2],"split_indices":[12,1,1,1,0,5,14,14,14,1,3,0,14,0,1,1,6,14,0,6,14,0,14,7,1,0,6,14,14,0,0,0,0,0,0,0,0,0,0,0,0,0,0,0,0,0,0,0,0,0,0,0,0],"split_type":[0,0,0,0,0,0,0,0,0,0,0,0,0,0,0,0,0,0,0,0,0,0,0,0,0,0,0,0,0,0,0,0,0,0,0,0,0,0,0,0,0,0,0,0,0,0,0,0,0,0,0,0,0],"sum_hessian":[8.87E2,4.025E2,4.845E2,2.82E2,1.205E2,2.13E2,2.715E2,1.385E2,1.435E2,8.35E1,3.7E1,1.5E0,2.115E2,2.44E2,2.75E1,1.335E2,5E0,1.36E2,7.5E0,2.5E0,8.1E1,1E0,3.6E1,1.62E2,4.95E1,3E1,2.14E2,2.3E1,4.5E0,8.5E0,1.25E2,1E0,4E0,8.8E1,4.8E1,1.5E0,1E0,8E1,1E0,1.6E1,2E1,1E0,1.61E2,3.55E1,1.4E1,2.35E1,6.5E0,2E2,1.4E1,1.95E1,3.5E0,3E0,1.5E0],"tree_param":{"num_deleted":"0","num_feature":"16","num_nodes":"53","size_leaf_vector":"1"}},{"base_weights":[-4.3100512E-1,-1.9607844E-2,-7.845829E-1,-3.321976E-1,7.748918E-1,-9.917355E-2,-7.1145684E-1,-6.293706E-1,-4.950495E-2,8.4375E-1,4.1463414E-1,-4.3589744E-1,-7.432647E-1,1.764706E-1,-6.7527676E-1,6.363636E-1,-1.024735E-1,3.3333334E-1,8.681319E-2,-7.5E-2,6.571429E-1,5.263158E-2,-5.7377046E-1,-7.635135E-1,-4.1463414E-1,-3.3333335E-2,6.0000002E-2,-2.0000001E-2,-7.075099E-2,2.727273E-2,8.461539E-2,-7.3529417E-3,-6.923077E-2,7.5E-2,-3.3333335E-2,6.969697E-2,-0E0,-5E-2,3.846154E-2,2.0000001E-2,-6.2068965E-2,-7.75475E-2,-2.0000001E-2,-5.882353E-3,-6.1538465E-2],"categories":[],"categories_nodes":[],"categories_segments":[],"categories_sizes":[],"default_left":[0,0,0,0,0,0,0,0,0,0,0,0,0,0,0,0,0,0,0,0,0,0,0,0,0,0,0,0,0,0,0,0,0,0,0,0,0,0,0,0,0,0,0,0,0],"id":1,"left_children":[1,3,5,7,9,-1,11,13,15,17,19,21,23,25,27,29,31,33,-1,-1,35,37,39,41,43,-1,-1,-1,-1,-1,-1,-1,-1,-1,-1,-1,-1,-1,-1,-1,-1,-1,-1,-1,-1],"loss_changes":[1.2806296E2,1.0158522E2,6.4671326E0,2.4625378E1,2.5153275E0,0E0,2.7744293E0,5.409172E0,5.5691237E0,9.053345E-1,6.282752E0,2.6570425E0,1.7828674E0,2.035294E0,1.9343147E0,6.0839176E-1,2.3648129E0,1.9166665E0,0E0,0E0,4.5800924E-1,1.9352226E0,1.231431E0,1.8400879E0,1.4280987E0,0E0,0E0,0E0,0E0,0E0,0E0,0E0,0E0,0E0,0E0,0E0,0E0,0E0,0E0,0E0,0E0,0E0,0E0,0E0,0E0],"parents":[2147483647,0,0,1,1,2,2,3,3,4,4,6,6,7,7,8,8,9,9,10,10,11,11,12,12,13,13,14,14,15,15,16,16,17,17,20,20,21,21,22,22,23,23,24,24],"right_children":[2,4,6,8,10,-1,12,14,16,18,20,22,24,26,28,30,32,34,-1,-1,36,38,40,42,44,-1,-1,-1,-1,-1,-1,-1,-1,-1,-1,-1,-1,-1,-1,-1,-1,-1,-1,-1,-1],"split_conditions":[9.176391E-1,5.917895E-1,-7.836506E-1,-4.1085184E-1,1.192618E0,-9.917355E-2,-9.665908E-1,-9.5217603E-1,-8.657678E-1,6.837124E-1,1.5612634E0,-2.5389621E-2,1.6054336E0,-9.555806E-1,-9.064038E-1,-1.8038418E-2,1.9524789E0,7.90022E-1,8.681319E-2,-7.5E-2,2.9479594E0,-1.3089503E-1,-8.657678E-1,2.2992446E0,5.612824E-1,-3.3333335E-2,6.0000002E-2,-2.0000001E-2,-7.075099E-2,2.727273E-2,8.461539E-2,-7.3529417E-3,-6.923077E-2,7.5E-2,-3.3333335E-2,6.969697E-2,-0E0,-5E-2,3.846154E-2,2.0000001E-2,-6.2068965E-2,-7.75475E-2,-2.0000001E-2,-5.882353E-3,-6.1538465E-2],"split_indices":[12,1,1,1,0,0,0,1,7,1,0,6,6,1,0,5,0,6,0,0,4,15,7,5,5,0,0,0,0,0,0,0,0,0,0,0,0,0,0,0,0,0,0,0,0],"split_type":[0,0,0,0,0,0,0,0,0,0,0,0,0,0,0,0,0,0,0,0,0,0,0,0,0,0,0,0,0,0,0,0,0,0,0,0,0,0,0,0,0,0,0,0,0],"sum_hessian":[8.795E2,4.07E2,4.725E2,2.925E2,1.145E2,1.2E2,3.525E2,1.42E2,1.505E2,9.5E1,1.95E1,3.8E1,3.145E2,7.5E0,1.345E2,1E1,1.405E2,5E0,9E1,3E0,1.65E1,8.5E0,2.95E1,2.95E2,1.95E1,3.5E0,4E0,9E0,1.255E2,4.5E0,5.5E0,1.35E2,5.5E0,3E0,2E0,1.55E1,1E0,3E0,5.5E0,1.5E0,2.8E1,2.885E2,6.5E0,7.5E0,1.2E1],"tree_param":{"num_deleted":"0","num_feature":"16","num_nodes":"45","size_leaf_vector":"1"}},{"base_weights":[3.7312213E-1,-1.9072022E-2,6.924059E-1,2.522789E-1,-6.8324995E-1,8.8217705E-1,6.0390246E-1,5.367003E-1,-3.7024487E-2,-7.507538E-1,-3.762749E-1,1.834299E-2,8.880065E-2,6.626405E-1,6.500278E-2,5.674162E-1,-4.0586978E-1,1.5404591E-2,-8.421583E-2,-2.2156799E-1,-7.660658E-1,4.9590084E-1,-6.549605E-1,2.4603269E-1,6.7925954E-1,-3.9958677E-1,2.798607E-1,-1.0082728E-2,6.0996633E-2,-7.130906E-2,1.8687485E-2,-1.679348E-2,4.152025E-2,-5.6109067E-2,2.061948E-2,-6.637509E-2,-8.733752E-2,-2.0220386E-2,7.735406E-2,-2.413199E-2,-8.501475E-2,5.1648416E-2,-3.7907112E-2,6.380503E-2,8.564847E-2,7.853813E-3,-6.3312136E-2,5.3153973E-2,-6.38019E-2],"categories":[],"categories_nodes":[],"categories_segments":[],"categories_sizes":[],"default_left":[0,0,0,0,0,0,0,0,0,0,0,0,0,0,0,0,0,0,0,0,0,0,0,0,0,0,0,0,0,0,0,0,0,0,0,0,0,0,0,0,0,0,0,0,0,0,0,0,0],"id":2,"left_children":[1,3,5,7,9,11,13,15,17,19,21,-1,-1,23,25,27,29,31,-1,33,35,37,39,41,43,45,47,-1,-1,-1,-1,-1,-1,-1,-1,-1,-1,-1,-1,-1,-1,-1,-1,-1,-1,-1,-1,-1,-1],"loss_changes":[1.0846225E2,7.039305E1,7.485901E0,2.2841017E1,2.0649261E0,4.4677734E-1,1.0363419E1,4.2811813E0,5.8563704E0,5.745697E-1,5.7754736E0,0E0,0E0,1.8845978E0,3.447871E0,3.9261932E0,1.0435295E0,9.667993E0,0E0,6.951882E-1,3.9598465E-1,1.3192266E0,1.2017365E0,2.3827035E0,1.5306091E0,1.2757616E0,5.754058E0,0E0,0E0,0E0,0E0,0E0,0E0,0E0,0E0,0E0,0E0,0E0,0E0,0E0,0E0,0E0,0E0,0E0,0E0,0E0,0E0,0E0,0E0],"parents":[2147483647,0,0,1,1,2,2,3,3,4,4,5,5,6,6,7,7,8,8,9,9,10,10,13,13,14,14,15,15,16,16,17,17,19,19,20,20,21,21,22,22,23,23,24,24,25,25,26,26],"right_children":[2,4,6,8,10,12,14,16,18,20,22,-1,-1,24,26,28,30,32,-1,34,36,38,40,42,44,46,48,-1,-1,-1,-1,-1,-1,-1,-1,-1,-1,-1,-1,-1,-1,-1,-1,-1,-1,-1,-1,-1,-1],"split_conditions":[9.176391E-1,5.917895E-1,-6.985367E-1,-3.6659265E-1,1.192618E0,-3.4939632E0,7.662621E-1,1.4113553E0,1.5500612E0,6.4115554E-1,1.5612634E0,1.834299E-2,8.880065E-2,-8.4080124E-1,-5.0958395E-1,-9.5217603E-1,7.2846335E-1,2.5106835E-1,-8.421583E-2,6.1221683E-1,1.32866E-2,-1.8038418E-2,1.12362325E-1,3.0277035E-1,6.4115554E-1,-1.8038418E-2,8.280857E-2,-1.0082728E-2,6.0996633E-2,-7.130906E-2,1.8687485E-2,-1.679348E-2,4.152025E-2,-5.6109067E-2,2.061948E-2,-6.637509E-2,-8.733752E-2,-2.0220386E-2,7.735406E-2,-2.413199E-2,-8.501475E-2,5.1648416E-2,-3.7907112E-2,6.380503E-2,8.564847E-2,7.853813E-3,-6.3312136E-2,5.3153973E-2,-6.38019E-2],"split_indices":[12,1,1,1,0,5,14,14,14,1,0,0,0,6,1,1,10,14,0,1,14,5,14,15,1,5,1,0,0,0,0,0,0,0,0,0,0,0,0,0,0,0,0,0,0,0,0,0,0],"split_type":[0,0,0,0,0,0,0,0,0,0,0,0,0,0,0,0,0,0,0,0,0,0,0,0,0,0,0,0,0,0,0,0,0,0,0,0,0,0,0,0,0,0,0,0,0,0,0,0,0],"sum_hessian":[8.650596E2,3.8862723E2,4.7643234E2,2.7634586E2,1.12281364E2,1.4867401E2,3.2775833E2,1.3891748E2,1.3742838E2,9.0856384E1,2.1424978E1,1.4986911E0,1.4717532E2,2.95338E2,3.242033E1,1.3491882E2,3.998646E0,1.2994728E2,7.481101E0,2.9900403E0,8.786634E1,4.9994016E0,1.6425577E1,1.1935741E1,2.8340228E2,9.980221E0,2.244011E1,7.9946327E0,1.26924194E2,2.4999073E0,1.4987389E0,8.9489235E1,4.0458042E1,1.4931862E0,1.4968541E0,4.8658222E1,3.9208122E1,1.4998481E0,3.4995532E0,5.9829197E0,1.0442657E1,8.452518E0,3.4832234E0,2.3366867E2,4.9733593E1,3.4928548E0,6.487366E0,1.7941519E1,4.4985905E0],"tree_param":{"num_deleted":"0","num_feature":"16","num_nodes":"49","size_leaf_vector":"1"}},{"base_weights":[-3.9714417E-1,-5.2745235E-1,2.0970988E-1,-7.4760807E-1,-3.6220112E-1,7.023409E-1,8.008659E-2,-8.975355E-1,-6.0457677E-1,-3.90169E-1,5.839958E-1,-5.554074E-2,7.79997E-1,-3.5113376E-1,4.0938568E-1,-2.076113E-1,-9.100496E-2,-8.8413045E-2,-5.305863E-1,-6.0078645E-1,-2.9322278E-1,1.4417581E-2,6.794118E-1,4.9270073E-1,8.816209E-2,-4.577056E-1,6.045873E-1,-3.6535877E-1,6.266229E-1,-5.533112E-2,2.206577E-2,-6.134632E-2,-3.1613864E-2,-6.885705E-2,-1.5679054E-2,-1.55122625E-2,-5.291778E-2,7.439088E-2,1.8839456E-2,-1.1953047E-2,6.990286E-2,2.4213124E-2,-5.313894E-2,7.183501E-2,1.576459E-2,-5.4214407E-2,6.113791E-2,7.128455E-2,8.770584E-3],"categories":[],"categories_nodes":[],"categories_segments":[],"categories_sizes":[],"default_left":[0,0,0,0,0,0,0,0,0,0,0,0,0,0,0,0,0,0,0,0,0,0,0,0,0,0,0,0,0,0,0,0,0,0,0,0,0,0,0,0,0,0,0,0,0,0,0,0,0],"id":3,"left_children":[1,3,5,7,9,11,13,15,17,19,21,-1,23,25,27,29,-1,-1,31,33,35,-1,37,39,-1,41,43,45,47,-1,-1,-1,-1,-1,-1,-1,-1,-1,-1,-1,-1,-1,-1,-1,-1,-1,-1,-1,-1],"loss_changes":[7.048564E1,2.6393326E1,1.0035048E1,6.176117E0,1.1358273E1,3.6359844E0,1.8069868E1,1.1139526E0,2.910862E0,8.177586E0,4.256029E-1,0E0,4.794693E-1,5.8989224E0,1.2353623E1,7.1192664E-1,0E0,0E0,2.1469078E0,4.8811607E0,9.110899E0,0E0,1.7598486E-1,1.403034E0,0E0,2.7188902E0,1.9022942E-1,3.16469E0,2.5690136E0,0E0,0E0,0E0,0E0,0E0,0E0,0E0,0E0,0E0,0E0,0E0,0E0,0E0,0E0,0E0,0E0,0E0,0E0,0E0,0E0],"parents":[2147483647,0,0,1,1,2,2,3,3,4,4,5,5,6,6,7,7,8,8,9,9,10,10,12,12,13,13,14,14,15,15,18,18,19,19,20,20,22,22,23,23,25,25,26,26,27,27,28,28],"right_children":[2,4,6,8,10,12,14,16,18,20,22,-1,24,26,28,30,-1,-1,32,34,36,-1,38,40,-1,42,44,46,48,-1,-1,-1,-1,-1,-1,-1,-1,-1,-1,-1,-1,-1,-1,-1,-1,-1,-1,-1,-1],"split_conditions":[6.837124E-1,-5.402249E-1,-7.0446736E-1,-6.1050667E-3,1.9573725E0,-5.714606E-1,-1.2249879E-1,-2.7786183E0,-9.82817E-1,-4.3145335E-1,2.0432382E0,-5.554074E-2,1.0241679E0,3.1724417E0,-1.8926823E-1,-3.195805E-1,-9.100496E-2,-8.8413045E-2,8.112789E-1,2.5473857E-1,2.7905956E-1,1.4417581E-2,3.0647492E0,-7.837226E-1,8.816209E-2,-1.5383674E0,-1.6295604E-3,1.6676288E0,5.3211826E-1,-5.533112E-2,2.206577E-2,-6.134632E-2,-3.1613864E-2,-6.885705E-2,-1.5679054E-2,-1.55122625E-2,-5.291778E-2,7.439088E-2,1.8839456E-2,-1.1953047E-2,6.990286E-2,2.4213124E-2,-5.313894E-2,7.183501E-2,1.576459E-2,-5.4214407E-2,6.113791E-2,7.128455E-2,8.770584E-3],"split_indices":[1,1,13,13,14,8,13,8,1,14,14,0,1,1,14,0,0,0,7,1,13,0,13,14,0,0,15,1,8,0,0,0,0,0,0,0,0,0,0,0,0,0,0,0,0,0,0,0,0],"split_type":[0,0,0,0,0,0,0,0,0,0,0,0,0,0,0,0,0,0,0,0,0,0,0,0,0,0,0,0,0,0,0,0,0,0,0,0,0,0,0,0,0,0,0,0,0,0,0,0,0],"sum_hessian":[8.8894403E2,7.319131E2,1.5703094E2,3.1231198E2,4.1960114E2,3.1791105E1,1.25239845E2,1.4990463E2,1.6240735E2,4.0812534E2,1.1475796E1,1.4909508E0,3.0300156E1,5.419918E1,7.104066E1,2.9839525E0,1.4692067E2,3.1697477E1,1.3070987E2,1.2700577E2,2.8111957E2,2.4934156E0,8.98238E0,9.445497E0,2.0854658E1,4.92306E1,4.968583E0,1.5408101E1,5.563256E1,1.4895847E0,1.4943678E0,9.293351E1,3.7776352E1,1.0558026E2,2.1425505E1,1.783765E2,1.02743065E2,7.4842577E0,1.498122E0,2.4868906E0,6.9586062E0,4.4718285E0,4.475877E1,3.4764447E0,1.4921386E0,1.3423457E1,1.9846435E0,4.7681202E1,7.951358E0],"tree_param":{"num_deleted":"0","num_feature":"16","num_nodes":"49","size_leaf_vector":"1"}},{"base_weights":[3.4062776E-1,-1.0755059E-2,6.383148E-1,5.782156E-2,-6.1513805E-1,7.102222E-1,5.165225E-1,-1.02054946E-1,5.118517E-1,1.5128652E-2,-6.6864496E-1,5.5424E-1,7.6751775E-1,-2.6454467E-1,5.312635E-1,3.34937E-1,-2.3647359E-1,5.9266E-1,-6.963025E-2,-1.3034115E-2,-7.232721E-1,6.727455E-1,1.3139457E-1,7.869222E-1,2.6401845E-1,-5.9580933E-2,1.7376151E-2,3.1229824E-1,5.6559175E-1,-7.4592344E-3,5.6655195E-2,4.210829E-2,-2.8088985E-2,3.7815478E-2,7.05813E-2,-7.3698364E-2,2.1985447E-2,1.977339E-2,-2.1880953E-2,-7.450473E-2,-1.3441049E-2,7.0718005E-2,2.118685E-2,-1.7754955E-2,5.5299398E-2,8.022752E-2,4.229228E-2,-3.424294E-2,5.9698235E-2,5.975389E-3,5.7060163E-2,2.590445E-2,5.8865216E-2],"categories":[],"categories_nodes":[],"categories_segments":[],"categories_sizes":[],"default_left":[0,0,0,0,0,0,0,0,0,0,0,0,0,0,0,0,0,0,0,0,0,0,0,0,0,0,0,0,0,0,0,0,0,0,0,0,0,0,0,0,0,0,0,0,0,0,0,0,0,0,0,0,0],"id":4,"left_children":[1,3,5,7,9,11,13,15,17,-1,19,21,23,25,27,29,31,33,35,37,39,41,43,45,47,-1,-1,49,51,-1,-1,-1,-1,-1,-1,-1,-1,-1,-1,-1,-1,-1,-1,-1,-1,-1,-1,-1,-1,-1,-1,-1,-1],"loss_changes":[9.092958E1,1.659932E1,3.7544098E0,2.6171907E1,1.7747593E0,2.1951447E0,2.1941452E0,1.5760144E1,4.45232E0,0E0,1.3633938E0,4.0391483E0,1.8620453E0,6.801592E-1,1.1417198E0,6.0381637E0,6.0980463E0,1.7361603E0,2.547691E0,2.1530111E-1,3.5333443E-1,8.6738396E-1,2.6086593E0,7.978592E-1,2.0957522E0,0E0,0E0,1.6621742E0,9.106102E-1,0E0,0E0,0E0,0E0,0E0,0E0,0E0,0E0,0E0,0E0,0E0,0E0,0E0,0E0,0E0,0E0,0E0,0E0,0E0,0E0,0E0,0E0,0E0,0E0],"parents":[2147483647,0,0,1,1,2,2,3,3,4,4,5,5,6,6,7,7,8,8,10,10,11,11,12,12,13,13,14,14,15,15,16,16,17,17,18,18,19,19,20,20,21,21,22,22,23,23,24,24,27,27,28,28],"right_children":[2,4,6,8,10,12,14,16,18,-1,20,22,24,26,28,30,32,34,36,38,40,42,44,46,48,-1,-1,50,52,-1,-1,-1,-1,-1,-1,-1,-1,-1,-1,-1,-1,-1,-1,-1,-1,-1,-1,-1,-1,-1,-1,-1,-1],"split_conditions":[9.176391E-1,8.474489E-1,3.269284E-2,4.5362318E-1,-8.8147163E-1,-7.85943E-1,-1.8883213E0,-6.5162164E-1,6.728583E-1,1.5128652E-2,-1.7560008E0,-2.178901E-1,1.8111427E0,-1.7042911E0,-5.478826E-1,-1.1118454E0,-1.0148509E0,6.677174E-3,7.194158E-1,-2.7244441E-2,2.3668857E0,-8.014622E-1,3.6757028E-1,1.6054336E0,8.592296E-1,-5.9580933E-2,1.7376151E-2,7.90022E-1,-8.4080124E-1,-7.4592344E-3,5.6655195E-2,4.210829E-2,-2.8088985E-2,3.7815478E-2,7.05813E-2,-7.3698364E-2,2.1985447E-2,1.977339E-2,-2.1880953E-2,-7.450473E-2,-1.3441049E-2,7.0718005E-2,2.118685E-2,-1.7754955E-2,5.5299398E-2,8.022752E-2,4.229228E-2,-3.424294E-2,5.9698235E-2,5.975389E-3,5.7060163E-2,2.590445E-2,5.8865216E-2],"split_indices":[12,13,13,14,15,13,3,14,13,0,5,14,10,7,15,13,13,10,13,7,14,13,10,6,3,0,0,6,6,0,0,0,0,0,0,0,0,0,0,0,0,0,0,0,0,0,0,0,0,0,0,0,0],"split_type":[0,0,0,0,0,0,0,0,0,0,0,0,0,0,0,0,0,0,0,0,0,0,0,0,0,0,0,0,0,0,0,0,0,0,0,0,0,0,0,0,0,0,0,0,0,0,0,0,0,0,0,0,0],"sum_hessian":[8.682244E2,3.9864136E2,4.695831E2,3.5883078E2,3.9810585E1,2.922212E2,1.773619E2,2.659557E2,9.287508E1,2.4786983E0,3.7331886E1,8.137048E1,2.1085072E2,2.9714122E0,1.7439047E2,6.2212505E1,2.0374318E2,8.15262E1,1.1348877E1,2.966603E0,3.4365284E1,6.3096294E1,1.8274189E1,2.0248425E2,8.366477E0,1.4876931E0,1.4837192E0,2.5003216E1,1.4938727E2,2.271933E1,3.9493176E1,1.2354955E1,1.9138823E2,2.9653587E1,5.1872616E1,2.965839E0,8.383038E0,1.4848284E0,1.4817746E0,3.2884045E1,1.4812384E0,5.8212513E1,4.883779E0,1.0880169E1,7.39402E0,1.931341E2,9.35016E0,2.9553277E0,5.4111495E0,1.3265152E1,1.1738064E1,1.1307479E1,1.3807979E2],"tree_param":{"num_deleted":"0","num_feature":"16","num_nodes":"53","size_leaf_vector":"1"}},{"base_weights":[-3.312718E-1,3.452141E-2,-6.4291066E-1,-2.3178421E-1,6.8184125E-1,-8.396443E-2,-5.805227E-1,-5.007581E-1,2.8063967E-3,7.254268E-1,4.411815E-1,-6.588329E-1,-2.0458403E-1,-7.6808125E-1,-2.2145125E-1,2.1194963E-1,-3.9060077E-1,7.393176E-2,3.489749E-1,-4.750481E-1,6.222965E-1,-4.6913117E-1,-7.0994693E-1,4.200028E-1,-2.636868E-1,-3.0584505E-2,-7.8829914E-2,8.0184214E-4,-4.875749E-2,-4.135349E-2,3.6964115E-2,-5.8992088E-2,6.21705E-2,-2.632665E-2,6.4705215E-2,-1.773691E-2,-5.8187384E-2,2.0706797E-2,7.463153E-2,-5.5861365E-2,1.0361695E-2,-8.03489E-2,-6.392159E-2,-6.4830906E-3,7.8175806E-2,-3.3503756E-2,2.0589404E-2],"categories":[],"categories_nodes":[],"categories_segments":[],"categories_sizes":[],"default_left":[0,0,0,0,0,0,0,0,0,0,0,0,0,0,0,0,0,0,0,0,0,0,0,0,0,0,0,0,0,0,0,0,0,0,0,0,0,0,0,0,0,0,0,0,0,0,0],"id":5,"left_children":[1,3,5,7,9,-1,11,13,15,17,19,21,23,25,27,29,31,-1,33,35,37,39,41,43,45,-1,-1,-1,-1,-1,-1,-1,-1,-1,-1,-1,-1,-1,-1,-1,-1,-1,-1,-1,-1,-1,-1],"loss_changes":[1.00392525E2,7.014539E1,5.3485413E0,1.8199127E1,9.239235E-1,0E0,1.0588448E1,9.861919E0,1.2839299E1,2.5894165E-1,3.7367883E0,2.5855408E0,2.4823003E0,3.9670563E-1,4.1022797E0,1.0201142E1,1.1295964E1,0E0,1.1580045E0,2.3665547E-2,7.593818E-1,3.4832945E0,1.042305E0,1.0923935E0,2.0559778E0,0E0,0E0,0E0,0E0,0E0,0E0,0E0,0E0,0E0,0E0,0E0,0E0,0E0,0E0,0E0,0E0,0E0,0E0,0E0,0E0,0E0,0E0],"parents":[2147483647,0,0,1,1,2,2,3,3,4,4,6,6,7,7,8,8,9,9,10,10,11,11,12,12,13,13,14,14,15,15,16,16,18,18,19,19,20,20,21,21,22,22,23,23,24,24],"right_children":[2,4,6,8,10,-1,12,14,16,18,20,22,24,26,28,30,32,-1,34,36,38,40,42,44,46,-1,-1,-1,-1,-1,-1,-1,-1,-1,-1,-1,-1,-1,-1,-1,-1,-1,-1,-1,-1,-1,-1],"split_conditions":[9.176391E-1,5.917895E-1,-7.836506E-1,-4.1085184E-1,1.192618E0,-8.396443E-2,6.709184E-1,-6.1050667E-3,2.7905956E-1,1.7046299E0,1.5612634E0,-7.85943E-1,7.116562E-1,-9.5217603E-1,-6.713003E-1,-8.59659E-1,1.1869305E0,7.393176E-2,1.1509643E0,-5.686747E-1,-3.1648833E-1,-8.208611E-1,-2.4402867E-1,8.112789E-1,2.7516592E-1,-3.0584505E-2,-7.8829914E-2,8.0184214E-4,-4.875749E-2,-4.135349E-2,3.6964115E-2,-5.8992088E-2,6.21705E-2,-2.632665E-2,6.4705215E-2,-1.773691E-2,-5.8187384E-2,2.0706797E-2,7.463153E-2,-5.5861365E-2,1.0361695E-2,-8.03489E-2,-6.392159E-2,-6.4830906E-3,7.8175806E-2,-3.3503756E-2,2.0589404E-2],"split_indices":[12,1,1,1,0,0,13,13,13,3,0,13,13,1,1,13,13,0,2,13,13,13,1,7,1,0,0,0,0,0,0,0,0,0,0,0,0,0,0,0,0,0,0,0,0,0,0],"split_type":[0,0,0,0,0,0,0,0,0,0,0,0,0,0,0,0,0,0,0,0,0,0,0,0,0,0,0,0,0,0,0,0,0,0,0,0,0,0,0,0,0,0,0,0,0,0,0],"sum_hessian":[8.794771E2,4.0499466E2,4.7448245E2,2.8740073E2,1.1759394E2,1.1124016E2,3.632423E2,1.3335995E2,1.5404076E2,9.785689E1,1.9737053E1,2.999984E2,6.3243896E1,6.7247635E1,6.611233E1,1.0087487E2,5.3165882E1,9.344492E1,4.411963E0,2.9897113E0,1.6747341E1,6.58361E1,2.3416232E2,4.9393616E0,5.8304535E1,3.4939435E0,6.3753693E1,3.6021793E1,3.0090534E1,1.9984352E1,8.089052E1,4.4768368E1,8.397513E0,1.4829054E0,2.9290576E0,1.4921283E0,1.497583E0,4.4656143E0,1.2281726E1,5.696148E1,8.874618E0,9.636264E1,1.3779968E2,2.461365E0,2.4779963E0,5.086269E1,7.4418445E0],"tree_param":{"num_deleted":"0","num_feature":"16","num_nodes":"47","size_leaf_vector":"1"}},{"base_weights":[3.089584E-1,4.38285E-1,-2.8721842E-1,5.952589E-1,2.4559532E-1,-1.433419E-1,-6.139024E-1,7.2005874E-1,4.724718E-1,4.7439945E-1,1.5038437E-1,-6.380584E-1,6.761654E-2,-7.117209E-1,-1.4377952E-1,1.5600216E-1,7.3701084E-1,7.795032E-2,4.0884012E-1,5.764302E-1,9.9061616E-2,1.7651063E-1,-5.558043E-1,4.8877995E-2,-7.063305E-1,3.021793E-1,-3.070118E-1,-2.6356283E-1,-7.755925E-1,-6.1648883E-2,1.1509394E-1,5.118668E-2,-6.744377E-2,7.887495E-2,5.8211666E-2,6.428724E-2,3.1181723E-2,-1.1039794E-2,6.1689783E-2,-4.1602246E-2,2.81829E-2,6.8552406E-3,3.9224207E-2,-7.250717E-2,-1.0763585E-2,-4.4021096E-2,-7.988792E-2,3.7584517E-2,-6.2155794E-2,-3.7963034E-4,-7.262615E-2,-4.6312522E-2,2.302068E-2,-1.301862E-2,-8.011827E-2,6.0867008E-2,-2.0460924E-2],"categories":[],"categories_nodes":[],"categories_segments":[],"categories_sizes":[],"default_left":[0,0,0,0,0,0,0,0,0,0,0,0,0,0,0,0,0,0,0,0,0,0,0,0,0,0,0,0,0,0,0,0,0,0,0,0,0,0,0,0,0,0,0,0,0,0,0,0,0,0,0,0,0,0,0,0,0],"id":6,"left_children":[1,3,5,7,9,11,13,15,17,19,21,23,25,27,29,31,33,-1,35,37,39,41,43,-1,45,47,49,51,53,-1,55,-1,-1,-1,-1,-1,-1,-1,-1,-1,-1,-1,-1,-1,-1,-1,-1,-1,-1,-1,-1,-1,-1,-1,-1,-1,-1],"loss_changes":[6.616895E1,2.115628E1,7.1171894E0,5.5963287E0,6.853409E0,1.1286211E1,2.039095E0,1.7038879E0,3.5532417E0,3.502203E0,4.266547E0,2.8301945E0,6.808785E0,8.9169693E-1,1.2057586E0,2.3602703E0,1.0186539E0,0E0,3.5748634E0,2.09346E0,2.1010277E0,5.0649877E0,5.5170345E-1,0E0,4.0848923E-1,3.4661622E0,3.8012455E0,7.2656095E-1,4.4075012E-1,0E0,1.2030333E0,0E0,0E0,0E0,0E0,0E0,0E0,0E0,0E0,0E0,0E0,0E0,0E0,0E0,0E0,0E0,0E0,0E0,0E0,0E0,0E0,0E0,0E0,0E0,0E0,0E0,0E0],"parents":[2147483647,0,0,1,1,2,2,3,3,4,4,5,5,6,6,7,7,8,8,9,9,10,10,11,11,12,12,13,13,14,14,15,15,16,16,18,18,19,19,20,20,21,21,22,22,24,24,25,25,26,26,27,27,28,28,30,30],"right_children":[2,4,6,8,10,12,14,16,18,20,22,24,26,28,30,32,34,-1,36,38,40,42,44,-1,46,48,50,52,54,-1,56,-1,-1,-1,-1,-1,-1,-1,-1,-1,-1,-1,-1,-1,-1,-1,-1,-1,-1,-1,-1,-1,-1,-1,-1,-1,-1],"split_conditions":[6.837124E-1,-3.5127214E-1,2.5106835E-1,-2.550402E-2,-4.3145335E-1,-7.0446736E-1,5.3211826E-1,-1.0760021E0,-9.82817E-1,2.5473857E-1,1.8186666E0,-5.714606E-1,-1.2249879E-1,8.930926E-1,-2.7244441E-2,-7.8832485E-2,-5.402249E-1,7.795032E-2,-1.8038418E-2,-3.155243E-1,-1.0924464E0,2.7905956E-1,2.6185734E0,4.8877995E-2,1.0241679E0,3.5401337E0,1.4718668E0,8.5053563E-1,-1.5986888E0,-6.1648883E-2,-3.8782117E-1,5.118668E-2,-6.744377E-2,7.887495E-2,5.8211666E-2,6.428724E-2,3.1181723E-2,-1.1039794E-2,6.1689783E-2,-4.1602246E-2,2.81829E-2,6.8552406E-3,3.9224207E-2,-7.250717E-2,-1.0763585E-2,-4.4021096E-2,-7.988792E-2,3.7584517E-2,-6.2155794E-2,-3.7963034E-4,-7.262615E-2,-4.6312522E-2,2.302068E-2,-1.301862E-2,-8.011827E-2,6.0867008E-2,-2.0460924E-2],"split_indices":[1,1,14,13,14,13,8,10,1,1,14,8,13,1,7,0,1,0,5,1,13,13,13,0,1,1,1,1,15,0,2,0,0,0,0,0,0,0,0,0,0,0,0,0,0,0,0,0,0,0,0,0,0,0,0,0,0],"split_type":[0,0,0,0,0,0,0,0,0,0,0,0,0,0,0,0,0,0,0,0,0,0,0,0,0,0,0,0,0,0,0,0,0,0,0,0,0,0,0,0,0,0,0,0,0,0,0,0,0,0,0,0,0,0,0,0,0],"sum_hessian":[8.55573E2,7.0327814E2,1.5229486E2,3.864053E2,3.1687283E2,1.06728714E2,4.5566147E1,1.8921968E2,1.9718561E2,9.194195E1,2.2493088E2,3.1300846E1,7.542787E1,3.729274E1,8.273407E0,5.818556E0,1.8340114E2,3.1919497E1,1.6526611E2,7.1869415E1,2.0072536E1,2.1762947E2,7.3014035E0,1.4362391E0,2.9864607E1,4.6504074E1,2.8923798E1,5.291455E0,3.2001286E1,2.4387536E0,5.8346534E0,4.3416624E0,1.4768933E0,1.3441191E2,4.8989223E1,4.6786007E1,1.184801E2,3.9027507E0,6.796666E1,4.9227524E0,1.5149784E1,1.4592311E2,7.170636E1,4.851281E0,2.4501219E0,9.191479E0,2.0673128E1,4.361871E1,2.8853636E0,1.7370163E1,1.1553635E1,3.8126094E0,1.4788452E0,1.4526073E0,3.0548677E1,1.9383136E0,3.89634E0],"tree_param":{"num_deleted":"0","num_feature":"16","num_nodes":"57","size_leaf_vector":"1"}},{"base_weights":[-3.0648687E-1,-4.3297082E-1,2.5176656E-1,-6.1402214E-1,-2.9127353E-1,1.4475861E-1,6.602593E-1,-7.7715254E-1,-4.687862E-1,-1.0455974E-1,-3.424478E-1,6.356227E-1,-1.7597439E-2,7.2735584E-1,1.2077846E-1,8.476669E-3,-7.896562E-1,-7.796664E-2,-3.8728043E-1,1.510354E-1,-2.049996E-1,-4.6234232E-1,-2.4250296E-1,-2.5871968E-2,7.01867E-1,-1.7610009E-1,5.244979E-1,7.548959E-1,1.2063973E-2,-3.2700744E-2,5.3420555E-2,-7.961114E-2,-2.0742446E-2,1.9130047E-2,-4.086475E-2,4.6233486E-2,-9.883091E-3,6.411351E-2,-2.4334196E-2,3.6378536E-2,-4.8578978E-2,-5.613626E-3,-3.6032304E-2,5.615778E-3,7.564977E-2,3.933458E-2,-2.70181E-2,-1.1925325E-2,7.874096E-2,3.497285E-2,7.874847E-2],"categories":[],"categories_nodes":[],"categories_segments":[],"categories_sizes":[],"default_left":[0,0,0,0,0,0,0,0,0,0,0,0,0,0,0,0,0,0,0,0,0,0,0,0,0,0,0,0,0,0,0,0,0,0,0,0,0,0,0,0,0,0,0,0,0,0,0,0,0,0,0],"id":7,"left_children":[1,3,5,7,9,11,13,15,17,19,21,23,25,27,29,-1,31,-1,33,35,37,39,41,-1,43,45,47,49,-1,-1,-1,-1,-1,-1,-1,-1,-1,-1,-1,-1,-1,-1,-1,-1,-1,-1,-1,-1,-1,-1,-1],"loss_changes":[6.102037E1,1.7873306E1,6.897418E0,6.9336395E0,3.754013E0,1.0216196E1,1.1040459E0,1.6140823E0,3.8908806E0,2.2583442E0,3.6130104E0,2.0687637E0,8.443921E0,3.9493275E-1,1.0709646E0,0E0,3.6706543E-1,0E0,1.7234802E0,1.9943416E0,2.1905353E0,2.893015E0,3.7486963E0,0E0,1.0131836E0,4.1755557E0,3.858224E0,8.945942E-2,0E0,0E0,0E0,0E0,0E0,0E0,0E0,0E0,0E0,0E0,0E0,0E0,0E0,0E0,0E0,0E0,0E0,0E0,0E0,0E0,0E0,0E0,0E0],"parents":[2147483647,0,0,1,1,2,2,3,3,4,4,5,5,6,6,7,7,8,8,9,9,10,10,11,11,12,12,13,13,14,14,16,16,18,18,19,19,20,20,21,21,22,22,24,24,25,25,26,26,27,27],"right_children":[2,4,6,8,10,12,14,16,18,20,22,24,26,28,30,-1,32,-1,34,36,38,40,42,-1,44,46,48,50,-1,-1,-1,-1,-1,-1,-1,-1,-1,-1,-1,-1,-1,-1,-1,-1,-1,-1,-1,-1,-1,-1,-1],"split_conditions":[6.837124E-1,-5.402249E-1,6.2048113E-1,-6.1050667E-3,-3.5421592E-1,-7.0446736E-1,1.4779148E0,-2.7786183E0,-9.82817E-1,-2.7244441E-2,-2.9708937E-1,-5.714606E-1,2.792834E0,1.6621476E0,8.930926E-1,8.476669E-3,1.5261657E0,-7.796664E-2,-1.1572139E0,-8.31571E-1,-2.3110216E0,-8.657678E-1,9.08897E-2,-2.5871968E-2,-1.9266067E0,-1.1621985E0,-2.776904E-1,-2.6066866E0,1.2063973E-2,-3.2700744E-2,5.3420555E-2,-7.961114E-2,-2.0742446E-2,1.9130047E-2,-4.086475E-2,4.6233486E-2,-9.883091E-3,6.411351E-2,-2.4334196E-2,3.6378536E-2,-4.8578978E-2,-5.613626E-3,-3.6032304E-2,5.615778E-3,7.564977E-2,3.933458E-2,-2.70181E-2,-1.1925325E-2,7.874096E-2,3.497285E-2,7.874847E-2],"split_indices":[1,1,13,13,10,13,13,8,1,7,13,8,1,15,1,0,9,0,2,3,3,7,13,0,2,0,13,0,0,0,0,0,0,0,0,0,0,0,0,0,0,0,0,0,0,0,0,0,0,0,0],"split_type":[0,0,0,0,0,0,0,0,0,0,0,0,0,0,0,0,0,0,0,0,0,0,0,0,0,0,0,0,0,0,0,0,0,0,0,0,0,0,0,0,0,0,0,0,0,0,0,0,0,0,0],"sum_hessian":[8.616438E2,7.0266486E2,1.5897896E2,3.0702963E2,3.956352E2,1.2705123E2,3.1927721E1,1.4255711E2,1.6447252E2,8.57633E1,3.0987192E2,3.0853718E1,9.619752E1,2.8086308E1,3.8414128E0,1.9558365E0,1.4060127E2,3.2384697E1,1.3208783E2,2.4052292E1,6.1711006E1,1.3922755E2,1.7064435E2,1.9273723E0,2.8926344E1,7.495628E1,2.1241234E1,2.6633144E1,1.4531639E0,1.9444249E0,1.896988E0,1.3869623E2,1.9050406E0,4.4210396E0,1.2766679E2,1.0330974E1,1.3721317E1,1.9936668E0,5.971734E1,3.4419498E0,1.357856E2,6.666723E1,1.0397712E2,2.414618E0,2.6511726E1,1.0176968E1,6.477931E1,6.3179235E0,1.4923309E1,2.8560624E0,2.3777082E1],"tree_param":{"num_deleted":"0","num_feature":"16","num_nodes":"51","size_leaf_vector":"1"}},{"base_weights":[2.8683057E-1,-3.2538053E-2,5.678642E-1,2.4004262E-2,-5.363859E-1,6.1976373E-1,4.0146005E-1,-1.1846054E-1,4.2708415E-1,-6.735218E-1,-6.8378724E-2,4.6370324E-1,6.6201156E-1,-1.7051157E-1,4.5234254E-1,3.4592113E-1,-2.532505E-1,-4.4962078E-1,4.5957124E-1,-7.163281E-2,-2.4834293E-1,2.946214E-1,-3.929765E-1,7.694326E-2,3.0392534E-1,2.6703954E-1,6.7311627E-1,-6.019264E-1,3.0096057E-1,-1.490888E-1,4.8414636E-1,-3.0297292E-2,4.2195197E-2,3.894427E-2,-2.9538417E-2,-1.3688358E-2,-5.732261E-2,5.1534157E-2,5.6990813E-3,2.2813773E-2,-5.644476E-2,4.8472516E-2,-1.3067651E-2,-6.3267335E-2,1.8372973E-2,-6.4729854E-2,4.1754358E-2,4.2348016E-2,-3.1914722E-2,6.8145E-2,2.865735E-2,1.0366202E-2,-8.9051865E-2,-2.7514607E-2,5.9368428E-2,2.0897916E-2,-3.796005E-2,-2.650859E-2,5.106322E-2],"categories":[],"categories_nodes":[],"categories_segments":[],"categories_sizes":[],"default_left":[0,0,0,0,0,0,0,0,0,0,0,0,0,0,0,0,0,0,0,0,0,0,0,0,0,0,0,0,0,0,0,0,0,0,0,0,0,0,0,0,0,0,0,0,0,0,0,0,0,0,0,0,0,0,0,0,0,0,0],"id":8,"left_children":[1,3,5,7,9,11,13,15,17,19,21,23,25,27,29,31,33,35,37,-1,39,41,43,-1,45,47,49,51,53,55,57,-1,-1,-1,-1,-1,-1,-1,-1,-1,-1,-1,-1,-1,-1,-1,-1,-1,-1,-1,-1,-1,-1,-1,-1,-1,-1,-1,-1],"loss_changes":[7.54924E1,1.1253169E1,3.6146545E0,2.0476555E1,2.5116987E0,1.9291687E0,3.2549973E0,1.6587038E1,2.858427E0,3.8100338E-1,1.3110662E0,3.4587803E0,9.8065186E-1,2.1432438E0,1.9954052E0,3.0742354E0,5.6628094E0,6.967616E-2,1.997448E0,0E0,7.823804E-1,4.9673176E-1,9.1577375E-1,0E0,5.8145785E0,9.50627E-1,6.31546E-1,1.1859018E0,1.053079E0,5.592441E-1,2.0350685E0,0E0,0E0,0E0,0E0,0E0,0E0,0E0,0E0,0E0,0E0,0E0,0E0,0E0,0E0,0E0,0E0,0E0,0E0,0E0,0E0,0E0,0E0,0E0,0E0,0E0,0E0,0E0,0E0],"parents":[2147483647,0,0,1,1,2,2,3,3,4,4,5,5,6,6,7,7,8,8,9,9,10,10,11,11,12,12,13,13,14,14,15,15,16,16,17,17,18,18,20,20,21,21,22,22,24,24,25,25,26,26,27,27,28,28,29,29,30,30],"right_children":[2,4,6,8,10,12,14,16,18,20,22,24,26,28,30,32,34,36,38,-1,40,42,44,-1,46,48,50,52,54,56,58,-1,-1,-1,-1,-1,-1,-1,-1,-1,-1,-1,-1,-1,-1,-1,-1,-1,-1,-1,-1,-1,-1,-1,-1,-1,-1,-1,-1],"split_conditions":[9.176391E-1,8.474489E-1,6.0108215E-1,4.5362318E-1,8.766362E-1,-7.85943E-1,7.116562E-1,-6.5162164E-1,-1.6562128E0,7.2846335E-1,4.3652946E-1,-1.1118454E0,-8.4080124E-1,2.5106835E-1,-1.056606E0,-2.8555062E0,-1.0148509E0,-4.0887082E-1,6.728583E-1,-7.163281E-2,-1.6295604E-3,1.3656557E0,1.4502496E0,7.694326E-2,-1.0924464E0,1.0893565E0,2.2992446E0,-6.07588E-1,-4.1861632E-1,1.235428E0,-1.4368953E0,-3.0297292E-2,4.2195197E-2,3.894427E-2,-2.9538417E-2,-1.3688358E-2,-5.732261E-2,5.1534157E-2,5.6990813E-3,2.2813773E-2,-5.644476E-2,4.8472516E-2,-1.3067651E-2,-6.3267335E-2,1.8372973E-2,-6.4729854E-2,4.1754358E-2,4.2348016E-2,-3.1914722E-2,6.8145E-2,2.865735E-2,1.0366202E-2,-8.9051865E-2,-2.7514607E-2,5.9368428E-2,2.0897916E-2,-3.796005E-2,-2.650859E-2,5.106322E-2],"split_indices":[12,13,13,14,0,13,13,14,6,10,3,13,6,14,15,14,13,3,13,0,15,0,10,0,13,10,5,14,15,13,10,0,0,0,0,0,0,0,0,0,0,0,0,0,0,0,0,0,0,0,0,0,0,0,0,0,0,0,0],"split_type":[0,0,0,0,0,0,0,0,0,0,0,0,0,0,0,0,0,0,0,0,0,0,0,0,0,0,0,0,0,0,0,0,0,0,0,0,0,0,0,0,0,0,0,0,0,0,0,0,0,0,0,0,0,0,0,0,0,0,0],"sum_hessian":[8.3990405E2,3.935524E2,4.4635162E2,3.5469998E2,3.8852432E1,3.3815912E2,1.08192505E2,2.625945E2,9.210546E1,2.9708183E1,9.144248E0,7.45931E1,2.63566E2,8.646446E0,9.954606E1,5.872103E1,2.0387349E2,2.8323011E0,8.9273155E1,2.6368664E1,3.3395195E0,4.360367E0,4.783881E0,2.429323E1,5.029987E1,7.892521E0,2.556735E2,4.3705406E0,4.2759056E0,4.8144193E0,9.4731636E1,5.8456645E0,5.2875366E1,1.2036073E1,1.918374E2,1.3993053E0,1.4329957E0,7.816473E1,1.1108429E1,1.4428788E0,1.8966408E0,2.9168391E0,1.4435277E0,3.3107753E0,1.473106E0,4.8657928E0,4.543408E1,6.448992E0,1.443529E0,2.4953075E2,6.1427584E0,1.4546998E0,2.915841E0,1.4608566E0,2.8150487E0,1.9221058E0,2.8923135E0,2.9269025E0,9.180473E1],"tree_param":{"num_deleted":"0","num_feature":"16","num_nodes":"59","size_leaf_vector":"1"}},{"base_weights":[-2.89922E-1,1.729322E-2,-5.574423E-1,-2.1802342E-1,5.9315383E-1,-7.544216E-2,-4.9630487E-1,-4.227089E-1,-2.6098961E-2,6.4273405E-1,3.528807E-1,-5.8103085E-1,-1.11247756E-1,-4.6946388E-1,5.6980115E-1,1.8875656E-1,-4.061555E-1,4.8446053E-1,7.0342624E-1,2.3082588E-2,5.538026E-1,-4.2116034E-1,-6.254053E-1,5.260993E-1,-1.7941274E-1,1.6230939E-2,-5.3134657E-2,8.133786E-2,-1.501558E-2,-5.0832678E-2,3.6200944E-2,-7.196345E-2,2.5620786E-2,6.3081376E-2,-6.011455E-2,7.163092E-2,2.48782E-2,-4.109865E-2,1.9628925E-2,6.661274E-2,-7.51601E-3,-6.2128402E-2,-4.245493E-3,-8.679635E-3,-6.420334E-2,-1.1567774E-2,7.413923E-2,-7.614696E-2,-5.407875E-3],"categories":[],"categories_nodes":[],"categories_segments":[],"categories_sizes":[],"default_left":[0,0,0,0,0,0,0,0,0,0,0,0,0,0,0,0,0,0,0,0,0,0,0,0,0,0,0,0,0,0,0,0,0,0,0,0,0,0,0,0,0,0,0,0,0,0,0,0,0],"id":9,"left_children":[1,3,5,7,9,-1,11,13,15,17,19,21,23,25,27,29,31,33,35,37,39,41,43,45,47,-1,-1,-1,-1,-1,-1,-1,-1,-1,-1,-1,-1,-1,-1,-1,-1,-1,-1,-1,-1,-1,-1,-1,-1],"loss_changes":[6.856026E1,5.287103E1,4.9951935E0,1.0872027E1,1.1214333E0,0E0,1.11317215E1,6.485491E0,1.1838558E1,5.487251E-1,1.4169533E0,1.7304764E0,2.8371255E0,5.1106243E0,1.2584901E0,1.1379775E1,1.1051681E1,4.9675474E0,2.0087051E-1,7.7326375E-1,9.942417E-1,4.8335257E0,1.8960876E0,9.63686E-1,4.1737885E0,0E0,0E0,0E0,0E0,0E0,0E0,0E0,0E0,0E0,0E0,0E0,0E0,0E0,0E0,0E0,0E0,0E0,0E0,0E0,0E0,0E0,0E0,0E0,0E0],"parents":[2147483647,0,0,1,1,2,2,3,3,4,4,6,6,7,7,8,8,9,9,10,10,11,11,12,12,13,13,14,14,15,15,16,16,17,17,18,18,19,19,20,20,21,21,22,22,23,23,24,24],"right_children":[2,4,6,8,10,-1,12,14,16,18,20,22,24,26,28,30,32,34,36,38,40,42,44,46,48,-1,-1,-1,-1,-1,-1,-1,-1,-1,-1,-1,-1,-1,-1,-1,-1,-1,-1,-1,-1,-1,-1,-1,-1],"split_conditions":[9.176391E-1,5.917895E-1,-7.836506E-1,-3.6659265E-1,1.0893565E0,-7.544216E-2,6.0108215E-1,1.4113553E0,2.7905956E-1,-4.7167996E-1,3.815716E-1,-7.85943E-1,7.116562E-1,-9.3004644E-1,1.1345534E0,-9.1785586E-1,1.1009179E0,-6.074726E-1,1.8935238E0,1.0241679E0,3.0413666E0,-5.0851226E-1,-8.4080124E-1,-4.6702698E-1,1.32866E-2,1.6230939E-2,-5.3134657E-2,8.133786E-2,-1.501558E-2,-5.0832678E-2,3.6200944E-2,-7.196345E-2,2.5620786E-2,6.3081376E-2,-6.011455E-2,7.163092E-2,2.48782E-2,-4.109865E-2,1.9628925E-2,6.661274E-2,-7.51601E-3,-6.2128402E-2,-4.245493E-3,-8.679635E-3,-6.420334E-2,-1.1567774E-2,7.413923E-2,-7.614696E-2,-5.407875E-3],"split_indices":[12,1,1,1,10,0,13,14,13,13,2,13,13,1,13,13,14,13,14,1,1,14,6,1,14,0,0,0,0,0,0,0,0,0,0,0,0,0,0,0,0,0,0,0,0,0,0,0,0],"split_type":[0,0,0,0,0,0,0,0,0,0,0,0,0,0,0,0,0,0,0,0,0,0,0,0,0,0,0,0,0,0,0,0,0,0,0,0,0,0,0,0,0,0,0,0,0,0,0,0,0],"sum_hessian":[8.33088E2,3.8821017E2,4.4487784E2,2.7603436E2,1.1217583E2,1.0268773E2,3.4219012E2,1.3299455E2,1.4303981E2,9.159935E1,2.0576479E1,2.800585E2,6.2131603E1,1.2751461E2,5.47994E0,9.170182E1,5.1337997E1,2.7878893E1,6.3720455E1,8.211996E0,1.2364483E1,6.312505E1,2.1693346E2,5.353934E0,5.677767E1,1.1231098E1,1.1628351E2,3.9976768E0,1.4822631E0,1.7869566E1,7.383225E1,3.478752E1,1.6550476E1,2.4936121E1,2.942772E0,6.140494E1,2.3155146E0,1.9506664E0,6.261329E0,1.04408E1,1.9236832E0,4.0881184E1,2.2243864E1,6.68291E0,2.1025055E2,1.4611167E0,3.8928173E0,9.160475E0,4.7617195E1],"tree_param":{"num_deleted":"0","num_feature":"16","num_nodes":"49","size_leaf_vector":"1"}},{"base_weights":[2.7177945E-1,-1.7222961E-2,5.221253E-1,2.0272064E-1,-5.598286E-1,7.2241955E-2,4.607074E-1,4.3576202E-1,-7.264206E-3,-6.1205715E-1,-3.0206573E-1,-5.2344706E-2,4.889064E-1,-2.9296446E-1,4.8563552E-1,-4.581969E-1,3.413145E-2,-6.8568903E-1,-5.041347E-1,3.6611998E-1,-4.834003E-1,2.2453368E-1,-5.219238E-1,4.5079812E-1,6.722573E-1,1.0233115E-2,-6.2476903E-2,5.7346947E-2,1.9216066E-2,2.5716746E-2,-5.7775557E-2,-8.6188964E-5,3.8134947E-2,-1.25076575E-2,-7.158427E-2,-6.251743E-2,-3.1994574E-2,-1.9144444E-2,6.59772E-2,-5.890603E-2,-1.8196177E-2,-3.1805795E-2,4.243689E-2,-7.653358E-2,-1.3365267E-3,1.989266E-2,4.7540918E-2,7.463335E-2,3.9019525E-2],"categories":[],"categories_nodes":[],"categories_segments":[],"categories_sizes":[],"default_left":[0,0,0,0,0,0,0,0,0,0,0,0,0,0,0,0,0,0,0,0,0,0,0,0,0,0,0,0,0,0,0,0,0,0,0,0,0,0,0,0,0,0,0,0,0,0,0,0,0],"id":10,"left_children":[1,3,5,7,9,-1,11,13,15,17,19,21,23,25,27,29,31,33,35,37,39,41,43,45,47,-1,-1,-1,-1,-1,-1,-1,-1,-1,-1,-1,-1,-1,-1,-1,-1,-1,-1,-1,-1,-1,-1,-1,-1],"loss_changes":[5.953672E1,4.580585E1,5.0909805E0,1.337079E1,1.3053856E0,0E0,4.9473343E0,4.848589E0,2.7162743E0,3.7802505E-1,2.6760244E0,2.5390255E0,1.9507751E0,1.2336859E0,3.0236378E0,1.1949265E0,1.6217036E0,7.786751E-1,7.076225E-1,9.403028E-1,4.2322874E-1,1.481349E0,8.822974E-1,1.5796928E0,8.2600594E-1,0E0,0E0,0E0,0E0,0E0,0E0,0E0,0E0,0E0,0E0,0E0,0E0,0E0,0E0,0E0,0E0,0E0,0E0,0E0,0E0,0E0,0E0,0E0,0E0],"parents":[2147483647,0,0,1,1,2,2,3,3,4,4,6,6,7,7,8,8,9,9,10,10,11,11,12,12,13,13,14,14,15,15,16,16,17,17,18,18,19,19,20,20,21,21,22,22,23,23,24,24],"right_children":[2,4,6,8,10,-1,12,14,16,18,20,22,24,26,28,30,32,34,36,38,40,42,44,46,48,-1,-1,-1,-1,-1,-1,-1,-1,-1,-1,-1,-1,-1,-1,-1,-1,-1,-1,-1,-1,-1,-1,-1,-1],"split_conditions":[9.176391E-1,5.917895E-1,-7.836506E-1,-3.6659265E-1,1.192618E0,7.2241955E-2,-8.4080124E-1,-9.5217603E-1,-8.657678E-1,1.5263397E0,1.5612634E0,7.2846335E-1,5.917895E-1,-9.555806E-1,8.112789E-1,-1.6060777E0,4.5901185E-1,-2.3433685E0,6.677174E-3,-1.8038418E-2,2.6668656E0,-3.5421592E-1,3.815716E-1,-7.730551E-1,2.0686382E-1,1.0233115E-2,-6.2476903E-2,5.7346947E-2,1.9216066E-2,2.5716746E-2,-5.7775557E-2,-8.6188964E-5,3.8134947E-2,-1.25076575E-2,-7.158427E-2,-6.251743E-2,-3.1994574E-2,-1.9144444E-2,6.59772E-2,-5.890603E-2,-1.8196177E-2,-3.1805795E-2,4.243689E-2,-7.653358E-2,-1.3365267E-3,1.989266E-2,4.7540918E-2,7.463335E-2,3.9019525E-2],"split_indices":[12,1,1,1,0,0,6,1,7,1,0,10,1,1,7,0,1,0,10,5,1,10,2,15,15,0,0,0,0,0,0,0,0,0,0,0,0,0,0,0,0,0,0,0,0,0,0,0,0],"split_type":[0,0,0,0,0,0,0,0,0,0,0,0,0,0,0,0,0,0,0,0,0,0,0,0,0,0,0,0,0,0,0,0,0,0,0,0,0,0,0,0,0,0,0,0,0,0,0,0,0],"sum_hessian":[8.2176794E2,3.8186703E2,4.399009E2,2.721701E2,1.0969695E2,1.00709076E2,3.3919183E2,1.284931E2,1.4367699E2,9.007187E1,1.9625088E1,1.7627174E1,3.2156467E2,7.918456E0,1.2057465E2,1.1233969E1,1.3244302E2,5.0359653E1,3.971221E1,3.971561E0,1.5653527E1,1.1417124E1,6.21005E0,2.690939E2,5.2470768E1,3.9291053E0,3.9893508E0,9.206616E1,2.8508493E1,1.443857E0,9.7901125E0,1.212234E2,1.1219623E1,2.8331976E0,4.7526455E1,2.2519411E1,1.71928E1,1.4901783E0,2.4813824E0,1.0884231E1,4.769297E0,2.9138508E0,8.503273E0,3.8583915E0,2.3516586E0,2.4761871E1,2.4433203E2,4.0253307E1,1.2217459E1],"tree_param":{"num_deleted":"0","num_feature":"16","num_nodes":"49","size_leaf_vector":"1"}},{"base_weights":[-2.8373778E-1,-7.2760833E-3,-5.3038996E-1,-3.1638092E-1,5.1283363E-2,-5.6749856E-1,-3.19045E-1,4.5293918E-1,-4.095142E-1,1.753704E-1,-1.5079468E-1,-3.1002885E-1,-5.9183425E-1,2.6443902E-1,-3.6832246E-1,-1.0075331E-2,7.374151E-2,-4.82613E-1,1.6403947E-2,5.3624165E-1,1.1971135E-1,-2.784599E-1,5.563305E-1,-4.468026E-1,8.020243E-2,1.8637237E-1,-5.9901154E-1,-2.5974402E-2,5.8489174E-2,-1.5524925E-1,-5.336038E-1,7.942109E-3,-5.0858974E-2,3.627976E-2,-2.6073474E-2,-2.185686E-2,5.875234E-2,2.914629E-2,4.3056794E-3,2.6672214E-2,-3.6815096E-2,6.312563E-2,-2.2954203E-2,6.502791E-3,-5.275138E-2,2.9609611E-2,-5.271372E-2,-6.959058E-3,3.655378E-2,3.30831E-2,-6.040547E-2,-4.6191136E-3,-6.400416E-2,-5.7319384E-2,-1.0420238E-2],"categories":[],"categories_nodes":[],"categories_segments":[],"categories_sizes":[],"default_left":[0,0,0,0,0,0,0,0,0,0,0,0,0,0,0,0,0,0,0,0,0,0,0,0,0,0,0,0,0,0,0,0,0,0,0,0,0,0,0,0,0,0,0,0,0,0,0,0,0,0,0,0,0,0,0],"id":11,"left_children":[1,3,5,7,9,11,13,15,17,19,21,23,25,27,29,-1,-1,31,33,35,37,39,41,43,45,47,49,-1,-1,51,53,-1,-1,-1,-1,-1,-1,-1,-1,-1,-1,-1,-1,-1,-1,-1,-1,-1,-1,-1,-1,-1,-1,-1,-1],"loss_changes":[5.5751793E1,7.0130525E0,3.2078552E0,4.6066694E0,8.196909E0,2.111557E0,2.0187397E0,1.1986548E0,1.7379684E0,3.999907E0,1.1394199E1,1.83619E0,1.974678E0,1.1238422E0,2.101923E0,0E0,0E0,7.333088E-1,9.688571E-1,1.1638546E0,2.3123193E0,5.287569E0,1.2856517E0,1.072403E0,1.4151204E0,2.0020485E-1,1.7508087E0,0E0,0E0,1.4778172E0,5.272217E-1,0E0,0E0,0E0,0E0,0E0,0E0,0E0,0E0,0E0,0E0,0E0,0E0,0E0,0E0,0E0,0E0,0E0,0E0,0E0,0E0,0E0,0E0,0E0,0E0],"parents":[2147483647,0,0,1,1,2,2,3,3,4,4,5,5,6,6,7,7,8,8,9,9,10,10,11,11,12,12,13,13,14,14,17,17,18,18,19,19,20,20,21,21,22,22,23,23,24,24,25,25,26,26,29,29,30,30],"right_children":[2,4,6,8,10,12,14,16,18,20,22,24,26,28,30,-1,-1,32,34,36,38,40,42,44,46,48,50,-1,-1,52,54,-1,-1,-1,-1,-1,-1,-1,-1,-1,-1,-1,-1,-1,-1,-1,-1,-1,-1,-1,-1,-1,-1,-1,-1],"split_conditions":[9.176391E-1,-6.5162164E-1,7.662621E-1,-7.1510905E-1,4.5362318E-1,-9.364973E-1,-1.1621985E0,-8.8383365E-1,4.1118732E-1,-1.0568713E0,1.4113553E0,-1.071918E0,-2.9146423E0,-1.5759842E0,1.4730023E0,-1.0075331E-2,7.374151E-2,-3.364095E0,5.3211826E-1,-5.973592E-1,-3.8741967E-1,-1.372853E0,1.6891608E0,-8.224643E-1,5.3211826E-1,-8.4080124E-1,-3.8500884E0,-2.5974402E-2,5.8489174E-2,1.0627475E0,1.1509643E0,7.942109E-3,-5.0858974E-2,3.627976E-2,-2.6073474E-2,-2.185686E-2,5.875234E-2,2.914629E-2,4.3056794E-3,2.6672214E-2,-3.6815096E-2,6.312563E-2,-2.2954203E-2,6.502791E-3,-5.275138E-2,2.9609611E-2,-5.271372E-2,-6.959058E-3,3.655378E-2,3.30831E-2,-6.040547E-2,-4.6191136E-3,-6.400416E-2,-5.7319384E-2,-1.0420238E-2],"split_indices":[12,14,14,10,14,0,0,0,15,0,14,0,5,0,14,0,0,14,8,5,14,0,0,4,8,6,2,0,0,4,2,0,0,0,0,0,0,0,0,0,0,0,0,0,0,0,0,0,0,0,0,0,0,0,0],"split_type":[0,0,0,0,0,0,0,0,0,0,0,0,0,0,0,0,0,0,0,0,0,0,0,0,0,0,0,0,0,0,0,0,0,0,0,0,0,0,0,0,0,0,0,0,0,0,0,0,0,0,0,0,0,0,0],"sum_hessian":[8.1665295E2,3.8554352E2,4.3110947E2,6.070591E1,3.2483762E2,3.6528622E2,6.5823235E1,6.138227E0,5.4567684E1,2.013375E2,1.2350012E2,3.2731335E1,3.325549E2,4.7860684E0,6.1037167E1,2.3025208E0,3.835706E0,4.646069E1,8.106996E0,2.5750038E1,1.7558745E2,1.0512664E2,1.8373478E1,2.412922E1,8.602117E0,2.8109014E0,3.29744E2,1.8876982E0,2.8983703E0,2.7510796E1,3.352637E1,1.9616194E0,4.449907E1,3.4659042E0,4.6410913E0,1.4306309E0,2.4319407E1,5.3319016E1,1.2226843E2,1.4572815E1,9.0553825E1,1.6953829E1,1.4196503E0,3.3131552E0,2.0816065E1,6.724278E0,1.8778385E0,1.4092193E0,1.4016821E0,1.4302937E0,3.283137E2,2.3352692E1,4.158104E0,3.0389631E1,3.1367388E0],"tree_param":{"num_deleted":"0","num_feature":"16","num_nodes":"55","size_leaf_vector":"1"}},{"base_weights":[2.3719922E-1,-2.9436875E-2,4.8037484E-1,-4.8406705E-1,1.9174337E-2,5.14852E-1,2.962546E-1,-6.184759E-1,-4.5620054E-2,-6.6215776E-2,2.0617941E-1,5.341723E-1,2.606262E-1,7.446156E-2,4.5456156E-1,-3.753047E-3,-6.8335027E-1,-6.511052E-2,4.94991E-1,2.8674385E-1,-1.66086E-1,3.4742683E-1,-4.8271015E-1,-3.268678E-2,5.3898907E-1,-3.6873443E-3,5.00138E-1,-5.9559816E-3,5.749282E-2,-1.8400657E-1,5.227167E-1,4.3506265E-2,-4.3946575E-2,-7.173706E-2,-1.582333E-2,6.217404E-2,6.527282E-3,3.8976938E-2,-1.7297396E-2,-3.899525E-2,-1.1324443E-2,-1.1265292E-2,3.9618235E-2,-5.7752866E-2,1.10896E-2,5.453782E-2,3.1281323E-3,3.8234875E-2,-3.793286E-2,-2.183564E-2,6.2357496E-2,5.4686E-2,-8.942752E-3,4.3640267E-2,-6.807738E-2,5.7637423E-2,1.2149504E-2],"categories":[],"categories_nodes":[],"categories_segments":[],"categories_sizes":[],"default_left":[0,0,0,0,0,0,0,0,0,0,0,0,0,0,0,0,0,0,0,0,0,0,0,0,0,0,0,0,0,0,0,0,0,0,0,0,0,0,0,0,0,0,0,0,0,0,0,0,0,0,0,0,0,0,0,0,0],"id":12,"left_children":[1,3,5,7,9,11,13,15,17,19,21,23,25,27,29,31,33,-1,35,37,39,41,43,-1,45,47,49,51,-1,53,55,-1,-1,-1,-1,-1,-1,-1,-1,-1,-1,-1,-1,-1,-1,-1,-1,-1,-1,-1,-1,-1,-1,-1,-1,-1,-1],"loss_changes":[5.1877426E1,8.462015E0,2.5034332E0,2.1512766E0,5.5465503E0,1.5850601E0,2.3658395E0,1.123105E0,3.5161018E0,8.459376E0,1.0760263E1,1.5253525E0,1.6951203E0,1.1971594E0,1.8233099E0,8.9863217E-1,3.4251213E-1,0E0,2.7111852E-1,2.5774484E0,2.1636224E0,2.0840855E0,1.1301422E0,0E0,1.0335312E0,2.132852E0,1.3812952E0,1.2737733E0,0E0,1.7045475E0,7.075329E-1,0E0,0E0,0E0,0E0,0E0,0E0,0E0,0E0,0E0,0E0,0E0,0E0,0E0,0E0,0E0,0E0,0E0,0E0,0E0,0E0,0E0,0E0,0E0,0E0,0E0,0E0],"parents":[2147483647,0,0,1,1,2,2,3,3,4,4,5,5,6,6,7,7,8,8,9,9,10,10,11,11,12,12,13,13,14,14,15,15,16,16,18,18,19,19,20,20,21,21,22,22,24,24,25,25,26,26,27,27,29,29,30,30],"right_children":[2,4,6,8,10,12,14,16,18,20,22,24,26,28,30,32,34,-1,36,38,40,42,44,-1,46,48,50,52,-1,54,56,-1,-1,-1,-1,-1,-1,-1,-1,-1,-1,-1,-1,-1,-1,-1,-1,-1,-1,-1,-1,-1,-1,-1,-1,-1,-1],"split_conditions":[9.176391E-1,-1.0760021E0,7.662621E-1,4.5362318E-1,4.5362318E-1,1.6054336E0,1.4730023E0,-6.5162164E-1,-1.6060777E0,-6.5162164E-1,1.4113553E0,-3.8500884E0,2.248756E-1,1.1509643E0,-1.2542711E0,-3.8782117E-1,1.6054336E0,-6.511052E-2,9.776237E-1,4.1118732E-1,-5.979454E-1,-1.372853E0,7.2846335E-1,-3.268678E-2,2.0791342E0,-8.919636E-2,-1.9671194E-2,-8.224643E-1,5.749282E-2,-1.6295604E-3,2.3668857E0,4.3506265E-2,-4.3946575E-2,-7.173706E-2,-1.582333E-2,6.217404E-2,6.527282E-3,3.8976938E-2,-1.7297396E-2,-3.899525E-2,-1.1324443E-2,-1.1265292E-2,3.9618235E-2,-5.7752866E-2,1.10896E-2,5.453782E-2,3.1281323E-3,3.8234875E-2,-3.793286E-2,-2.183564E-2,6.2357496E-2,5.4686E-2,-8.942752E-3,4.3640267E-2,-6.807738E-2,5.7637423E-2,1.2149504E-2],"split_indices":[12,10,14,14,14,6,14,14,0,14,14,2,4,2,3,2,6,0,14,15,0,0,10,0,15,15,8,4,0,15,14,0,0,0,0,0,0,0,0,0,0,0,0,0,0,0,0,0,0,0,0,0,0,0,0,0,0],"split_type":[0,0,0,0,0,0,0,0,0,0,0,0,0,0,0,0,0,0,0,0,0,0,0,0,0,0,0,0,0,0,0,0,0,0,0,0,0,0,0,0,0,0,0,0,0,0,0,0,0,0,0,0,0,0,0,0,0],"sum_hessian":[7.988729E2,3.814745E2,4.1739844E2,3.598369E1,3.4549078E2,3.5005344E2,6.7345E1,2.722659E1,8.757101E0,2.3763019E2,1.078606E2,3.2430606E2,2.5747389E1,2.8660748E1,3.8684254E1,2.7000315E0,2.4526556E1,4.034296E0,4.7228045E0,5.1995926E1,1.8563426E2,8.99195E1,1.7941097E1,1.4321612E0,3.228739E2,1.2708031E1,1.3039358E1,2.5544264E1,3.1164837E0,3.5667133E0,3.5117542E1,1.345969E0,1.3540627E0,2.2690414E1,1.8361417E0,3.3019943E0,1.4208102E0,4.2600952E1,9.394973E0,3.423137E1,1.514029E2,8.490325E0,8.142918E1,1.5493378E1,2.447719E0,3.1878796E2,4.0859175E0,6.2584944E0,6.449537E0,1.7989821E0,1.12403755E1,2.6227617E0,2.2921501E1,1.6400192E0,1.9266943E0,3.0590023E1,4.527519E0],"tree_param":{"num_deleted":"0","num_feature":"16","num_nodes":"57","size_leaf_vector":"1"}},{"base_weights":[-2.6028237E-1,6.494043E-3,-5.004089E-1,-2.7372223E-1,3.8463768E-1,-6.753286E-1,-4.230208E-1,-4.0430504E-1,-6.506379E-2,1.1941493E-1,5.322709E-1,-7.558545E-4,-6.821841E-1,-4.3467945E-1,3.808247E-1,1.252605E-1,-4.5487198E-1,5.2854997E-1,-1.3991176E-1,-2.1924153E-1,2.9729515E-1,6.191983E-1,3.7237918E-1,-2.9596607E-3,-6.8896145E-2,2.9984042E-2,-4.5393297E-1,-4.338761E-2,8.2383536E-2,-4.567097E-2,3.919691E-2,1.7951721E-2,-4.8166245E-2,7.5775854E-2,-4.86002E-2,1.6631156E-2,-2.1110354E-2,3.6911234E-2,-3.755115E-2,4.1048985E-2,-6.593705E-3,6.4810194E-2,3.2642134E-2,-3.459841E-2,4.0819183E-2,-2.7955314E-2,3.981139E-2,-4.6888404E-2,5.371774E-3],"categories":[],"categories_nodes":[],"categories_segments":[],"categories_sizes":[],"default_left":[0,0,0,0,0,0,0,0,0,0,0,0,0,0,0,0,0,0,0,0,0,0,0,0,0,0,0,0,0,0,0,0,0,0,0,0,0,0,0,0,0,0,0,0,0,0,0,0,0],"id":13,"left_children":[1,3,5,7,9,11,13,15,17,19,21,-1,23,25,27,29,31,33,35,37,39,41,43,-1,-1,45,47,-1,-1,-1,-1,-1,-1,-1,-1,-1,-1,-1,-1,-1,-1,-1,-1,-1,-1,-1,-1,-1,-1],"loss_changes":[5.1776855E1,4.0778137E1,5.4722824E0,5.996784E0,6.349764E0,5.844307E-1,2.9542809E0,3.6927605E0,3.9074833E0,3.6711054E0,1.2278595E0,0E0,5.4338455E-1,2.6419106E0,2.0852213E0,2.1376324E0,2.1965313E0,2.6635346E0,1.7227093E0,2.0867906E0,1.658128E0,3.5090828E-1,1.1565127E0,0E0,0E0,1.5501071E0,2.1667252E0,0E0,0E0,0E0,0E0,0E0,0E0,0E0,0E0,0E0,0E0,0E0,0E0,0E0,0E0,0E0,0E0,0E0,0E0,0E0,0E0,0E0,0E0],"parents":[2147483647,0,0,1,1,2,2,3,3,4,4,5,5,6,6,7,7,8,8,9,9,10,10,12,12,13,13,14,14,15,15,16,16,17,17,18,18,19,19,20,20,21,21,22,22,25,25,26,26],"right_children":[2,4,6,8,10,12,14,16,18,20,22,-1,24,26,28,30,32,34,36,38,40,42,44,-1,-1,46,48,-1,-1,-1,-1,-1,-1,-1,-1,-1,-1,-1,-1,-1,-1,-1,-1,-1,-1,-1,-1,-1,-1],"split_conditions":[9.176391E-1,8.280857E-2,-6.985367E-1,-3.768063E-1,6.837124E-1,-2.311303E0,2.4883256E0,-9.3004644E-1,-7.725175E-1,-1.0587625E-1,2.2210254E-1,-7.558545E-4,-2.9146423E0,-1.17668E0,-3.5421592E-1,-9.555806E-1,-1.4179933E0,5.612824E-1,-2.7244441E-2,-9.2145056E-1,7.2846335E-1,1.0893565E0,-1.8883213E0,-2.9596607E-3,-6.8896145E-2,3.8199824E-1,2.2992446E0,-4.338761E-2,8.2383536E-2,-4.567097E-2,3.919691E-2,1.7951721E-2,-4.8166245E-2,7.5775854E-2,-4.86002E-2,1.6631156E-2,-2.1110354E-2,3.6911234E-2,-3.755115E-2,4.1048985E-2,-6.593705E-3,6.4810194E-2,3.2642134E-2,-3.459841E-2,4.0819183E-2,-2.7955314E-2,3.981139E-2,-4.6888404E-2,5.371774E-3],"split_indices":[12,1,1,1,1,2,7,1,2,15,0,0,5,5,10,1,0,5,7,0,10,10,3,0,0,15,5,0,0,0,0,0,0,0,0,0,0,0,0,0,0,0,0,0,0,0,0,0,0],"split_type":[0,0,0,0,0,0,0,0,0,0,0,0,0,0,0,0,0,0,0,0,0,0,0,0,0,0,0,0,0,0,0,0,0,0,0,0,0,0,0,0,0,0,0,0,0,0,0,0,0],"sum_hessian":[8.0720355E2,3.8284375E2,4.2435977E2,2.2005342E2,1.6279033E2,1.2779016E2,2.965696E2,1.347724E2,8.528101E1,5.885905E1,1.0393128E2,1.3199661E0,1.264702E2,2.9278247E2,3.7871366E0,1.1618613E1,1.23153786E2,8.870229E0,7.641079E1,2.0189272E1,3.866978E1,6.546675E1,3.846453E1,1.3551025E0,1.251151E2,1.1626719E1,2.8115576E2,1.3412268E0,2.4459097E0,3.4274247E0,8.191188E0,4.7590995E0,1.1839469E2,7.4420285E0,1.4282005E0,1.4161332E1,6.2249454E1,3.9511685E0,1.6238102E1,2.9383E1,9.28678E0,5.8479847E1,6.9869046E0,1.4152482E0,3.7049282E1,6.4467044E0,5.1800146E0,2.7318637E2,7.9693694E0],"tree_param":{"num_deleted":"0","num_feature":"16","num_nodes":"49","size_leaf_vector":"1"}},{"base_weights":[2.4776286E-1,-3.791406E-3,4.760286E-1,5.0875768E-2,-4.753493E-1,-6.620143E-2,4.8156068E-1,-6.80743E-2,3.831279E-1,-5.567413E-1,-3.937942E-3,2.316031E-1,5.084937E-1,2.6550436E-1,-1.6469051E-1,-2.7531895E-1,4.1034076E-1,5.229455E-3,-5.956119E-1,-3.195097E-1,3.8875602E-2,3.142313E-1,-4.3474693E-2,5.535859E-1,3.5963592E-1,-5.6651807E-3,4.5131803E-2,4.4306997E-2,-2.0643726E-2,-5.8605295E-2,2.1349315E-2,4.6272524E-2,7.4223788E-3,-1.2415684E-2,-6.1220367E-2,1.8167196E-2,-6.274708E-2,5.8977205E-2,1.9878171E-2,-7.112076E-2,1.4079203E-2,3.230395E-2,5.855609E-2,4.3242876E-3,4.1041814E-2],"categories":[],"categories_nodes":[],"categories_segments":[],"categories_sizes":[],"default_left":[0,0,0,0,0,0,0,0,0,0,0,0,0,0,0,0,0,0,0,0,0,0,0,0,0,0,0,0,0,0,0,0,0,0,0,0,0,0,0,0,0,0,0,0,0],"id":14,"left_children":[1,3,5,7,9,-1,11,13,15,17,19,21,23,25,27,29,31,-1,33,35,-1,37,39,41,43,-1,-1,-1,-1,-1,-1,-1,-1,-1,-1,-1,-1,-1,-1,-1,-1,-1,-1,-1,-1],"loss_changes":[4.5027813E1,9.666215E0,2.9069977E0,1.3308332E1,1.4924002E0,0E0,2.640358E0,8.047072E0,1.7032299E0,8.1736183E-1,9.597471E-1,9.611807E-1,2.2778091E0,3.386991E0,4.992655E0,7.510364E-1,1.4733648E0,0E0,1.6882038E-1,7.756924E-1,0E0,9.064226E-1,1.3930494E0,1.884964E0,1.4065447E0,0E0,0E0,0E0,0E0,0E0,0E0,0E0,0E0,0E0,0E0,0E0,0E0,0E0,0E0,0E0,0E0,0E0,0E0,0E0,0E0],"parents":[2147483647,0,0,1,1,2,2,3,3,4,4,6,6,7,7,8,8,9,9,10,10,11,11,12,12,13,13,14,14,15,15,16,16,18,18,19,19,21,21,22,22,23,23,24,24],"right_children":[2,4,6,8,10,-1,12,14,16,18,20,22,24,26,28,30,32,-1,34,36,-1,38,40,42,44,-1,-1,-1,-1,-1,-1,-1,-1,-1,-1,-1,-1,-1,-1,-1,-1,-1,-1,-1,-1],"split_conditions":[9.176391E-1,8.474489E-1,-3.8500884E0,4.5362318E-1,1.0893565E0,-6.620143E-2,-9.665908E-1,-6.5162164E-1,-1.6562128E0,-8.8147163E-1,9.2929983E-1,-1.071918E0,6.0108215E-1,-1.1118454E0,-1.0148509E0,-4.1861632E-1,6.728583E-1,5.229455E-3,-2.3353217E0,-3.0453375E-1,3.8875602E-2,-3.8782117E-1,-7.725175E-1,-9.954517E-1,8.474489E-1,-5.6651807E-3,4.5131803E-2,4.4306997E-2,-2.0643726E-2,-5.8605295E-2,2.1349315E-2,4.6272524E-2,7.4223788E-3,-1.2415684E-2,-6.1220367E-2,1.8167196E-2,-6.274708E-2,5.8977205E-2,1.9878171E-2,-7.112076E-2,1.4079203E-2,3.230395E-2,5.855609E-2,4.3242876E-3,4.1041814E-2],"split_indices":[12,13,2,14,10,0,0,14,6,15,0,0,13,13,13,15,13,0,5,0,0,2,2,13,13,0,0,0,0,0,0,0,0,0,0,0,0,0,0,0,0,0,0,0,0],"split_type":[0,0,0,0,0,0,0,0,0,0,0,0,0,0,0,0,0,0,0,0,0,0,0,0,0,0,0,0,0,0,0,0,0,0,0,0,0,0,0,0,0,0,0,0,0],"sum_hessian":[7.831353E2,3.7303036E2,4.1010492E2,3.3507733E2,3.7953026E1,1.4098337E0,4.086951E2,2.4732668E2,8.775067E1,3.2210655E1,5.7423716E0,4.0687347E1,3.6800775E2,5.5153786E1,1.9217288E2,3.120851E0,8.462982E1,1.9117305E0,3.0298925E1,3.2871544E0,2.455217E0,3.1179327E1,9.508022E0,2.8036145E2,8.7646286E1,2.0429342E1,3.4724445E1,1.173393E1,1.8043895E2,1.7863498E0,1.3345013E0,7.2892685E1,1.1737139E1,1.3184427E0,2.8980482E1,1.4071742E0,1.8799801E0,7.99334E0,2.3185986E1,1.4378778E0,8.070145E0,3.5500233E1,2.4486122E2,1.2378006E1,7.526828E1],"tree_param":{"num_deleted":"0","num_feature":"16","num_nodes":"45","size_leaf_vector":"1"}},{"base_weights":[-2.2537678E-1,1.0686823E-2,-4.4639137E-1,-1.937673E-1,5.428645E-1,-6.11371E-1,-3.5021E-1,-3.6989546E-1,-4.9257006E-2,6.7893696E-1,4.735971E-1,-1.397845E-1,-6.217161E-1,-4.1831174E-1,8.252085E-2,-4.0466532E-1,4.6430144E-1,8.1187874E-2,-2.7166128E-1,7.288409E-2,4.500882E-1,5.5468876E-2,6.228817E-1,3.940202E-2,-4.9580958E-2,-6.721944E-2,-5.3177273E-1,-3.6755377E-1,-6.2644994E-1,4.1054603E-1,-3.364667E-2,1.840251E-2,-4.607321E-2,7.217475E-2,-1.4271957E-2,-9.995515E-3,2.9695854E-2,-5.4467347E-2,2.7840588E-2,1.5890121E-2,5.9940804E-2,5.3441226E-2,-1.9704284E-2,1.665637E-2,6.58855E-2,-6.125393E-2,3.454784E-3,-4.599973E-2,-1.903555E-2,-1.134845E-2,-6.643745E-2,5.8236625E-2,-1.8650552E-2,5.852688E-2,-1.299009E-2],"categories":[],"categories_nodes":[],"categories_segments":[],"categories_sizes":[],"default_left":[0,0,0,0,0,0,0,0,0,0,0,0,0,0,0,0,0,0,0,0,0,0,0,0,0,0,0,0,0,0,0,0,0,0,0,0,0,0,0,0,0,0,0,0,0,0,0,0,0,0,0,0,0,0,0],"id":15,"left_children":[1,3,5,7,9,11,13,15,17,19,21,23,25,27,29,31,33,35,37,-1,39,41,43,-1,-1,-1,45,47,49,51,53,-1,-1,-1,-1,-1,-1,-1,-1,-1,-1,-1,-1,-1,-1,-1,-1,-1,-1,-1,-1,-1,-1,-1,-1],"loss_changes":[4.106855E1,4.162017E1,6.2363815E0,7.0164795E0,6.790905E-1,6.369438E-1,7.67132E0,3.7964745E0,4.460073E0,5.460739E-2,4.5631714E0,1.0458171E0,3.0039215E-1,2.136959E0,1.388384E0,4.0444794E0,9.5373917E-1,3.8284333E0,8.679062E0,0E0,2.7924836E-1,2.5817518E0,7.7964973E-1,0E0,0E0,0E0,2.6225414E0,2.9028893E0,7.5159454E-1,1.0841601E0,1.7180333E0,0E0,0E0,0E0,0E0,0E0,0E0,0E0,0E0,0E0,0E0,0E0,0E0,0E0,0E0,0E0,0E0,0E0,0E0,0E0,0E0,0E0,0E0,0E0,0E0],"parents":[2147483647,0,0,1,1,2,2,3,3,4,4,5,5,6,6,7,7,8,8,9,9,10,10,11,11,12,12,13,13,14,14,15,15,16,16,17,17,18,18,20,20,21,21,22,22,26,26,27,27,28,28,29,29,30,30],"right_children":[2,4,6,8,10,12,14,16,18,20,22,24,26,28,30,32,34,36,38,-1,40,42,44,-1,-1,-1,46,48,50,52,54,-1,-1,-1,-1,-1,-1,-1,-1,-1,-1,-1,-1,-1,-1,-1,-1,-1,-1,-1,-1,-1,-1,-1,-1],"split_conditions":[9.176391E-1,5.917895E-1,-6.253388E-1,-4.1085184E-1,-2.3330188E-1,-1.7042911E0,3.4133735E-1,1.4113553E0,2.5106835E-1,2.300876E0,1.12362325E-1,-7.725175E-1,-7.836506E-1,6.4115554E-1,-5.0958395E-1,-9.3515325E-1,1.5500612E0,-2.1128505E-1,1.1009179E0,7.288409E-2,-8.919636E-2,1.1143886E0,6.837124E-1,3.940202E-2,-4.9580958E-2,-6.721944E-2,8.675395E-1,1.4717477E-2,-2.0996714E0,6.438116E-1,-1.1572139E0,1.840251E-2,-4.607321E-2,7.217475E-2,-1.4271957E-2,-9.995515E-3,2.9695854E-2,-5.4467347E-2,2.7840588E-2,1.5890121E-2,5.9940804E-2,5.3441226E-2,-1.9704284E-2,1.665637E-2,6.58855E-2,-6.125393E-2,3.454784E-3,-4.599973E-2,-1.903555E-2,-1.134845E-2,-6.643745E-2,5.8236625E-2,-1.8650552E-2,5.852688E-2,-1.299009E-2],"split_indices":[12,1,1,1,14,7,14,14,14,1,14,2,1,1,1,1,14,14,14,0,15,1,1,0,0,0,14,1,3,4,2,0,0,0,0,0,0,0,0,0,0,0,0,0,0,0,0,0,0,0,0,0,0,0,0],"split_type":[0,0,0,0,0,0,0,0,0,0,0,0,0,0,0,0,0,0,0,0,0,0,0,0,0,0,0,0,0,0,0,0,0,0,0,0,0,0,0,0,0,0,0,0,0,0,0,0,0,0,0,0,0,0,0],"sum_hessian":[7.860618E2,3.8055075E2,4.0551108E2,2.7538727E2,1.05163475E2,1.4737047E2,2.5814062E2,1.2341287E2,1.5197441E2,3.2505764E1,7.2657715E1,3.4749691E0,1.438955E2,2.2306822E2,3.5072407E1,1.1896907E2,4.4438066E0,9.619117E1,5.5783234E1,2.4892721E1,7.613042E0,1.947688E1,5.3180836E1,1.3476522E0,2.127317E0,8.802201E1,5.587349E1,1.8155814E2,4.151008E1,8.509585E0,2.656282E1,1.0146843E1,1.0882223E2,2.9876873E0,1.4561192E0,5.258334E1,4.3607834E1,3.728671E1,1.8496525E1,3.2803106E0,4.3327312E0,6.3383784E0,1.31385E1,4.2975044E0,4.888333E1,4.882818E1,7.04531E0,1.1826428E2,6.3293858E1,3.1325E0,3.837758E1,6.6270437E0,1.8825421E0,2.891299E0,2.367152E1],"tree_param":{"num_deleted":"0","num_feature":"16","num_nodes":"55","size_leaf_vector":"1"}},{"base_weights":[2.3451835E-1,-5.3499276E-3,4.576997E-1,4.486812E-2,-4.4649544E-1,5.1125413E-1,2.8286666E-1,-6.1658055E-2,3.1761274E-1,-5.52664E-1,-1.4158183E-2,2.494103E-1,5.386583E-1,-5.4437363E-1,3.1505138E-1,1.3093607E-1,-2.8342423E-1,4.3964237E-1,3.7130088E-2,1.829425E-2,-5.9700656E-1,3.965612E-1,-4.3394876E-1,3.3722132E-1,-3.322318E-1,3.9226928E-1,5.7971036E-1,-1.8286796E-2,-6.73201E-2,-2.7937105E-2,3.5192713E-1,-2.8451016E-2,1.9946449E-2,-7.1025216E-3,-3.6322933E-2,4.6677217E-2,-4.5576643E-2,1.4057711E-2,-3.8940467E-2,-6.2490612E-2,-3.2159876E-2,6.097302E-2,-8.70606E-3,-7.868934E-3,-5.5374082E-2,4.5414772E-2,-1.7137552E-3,-9.450162E-2,4.4021234E-2,4.732664E-2,-1.5561158E-2,5.9908975E-2,1.2199233E-2,-6.291443E-2,2.4506895E-2,3.8569253E-2,-6.0620396E-3],"categories":[],"categories_nodes":[],"categories_segments":[],"categories_sizes":[],"default_left":[0,0,0,0,0,0,0,0,0,0,0,0,0,0,0,0,0,0,0,0,0,0,0,0,0,0,0,0,0,0,0,0,0,0,0,0,0,0,0,0,0,0,0,0,0,0,0,0,0,0,0,0,0,0,0,0,0],"id":16,"left_children":[1,3,5,7,9,11,13,15,17,19,21,23,25,27,29,31,33,35,37,-1,39,41,43,45,47,49,51,-1,-1,53,55,-1,-1,-1,-1,-1,-1,-1,-1,-1,-1,-1,-1,-1,-1,-1,-1,-1,-1,-1,-1,-1,-1,-1,-1,-1,-1],"loss_changes":[4.0099503E1,8.039424E0,3.4883347E0,9.488573E0,1.6945128E0,1.9880905E0,2.6535E0,1.0082929E1,3.122305E0,1.0795994E0,1.609733E0,1.6384393E0,1.376564E0,5.6551933E-2,1.1527576E0,3.6600714E0,1.8326406E0,1.7627573E0,1.3296043E0,0E0,1.6422272E-2,5.414525E-1,1.5223533E-1,1.104207E0,2.5099735E0,2.8049145E0,1.7573013E0,0E0,0E0,1.7460614E0,1.1609726E0,0E0,0E0,0E0,0E0,0E0,0E0,0E0,0E0,0E0,0E0,0E0,0E0,0E0,0E0,0E0,0E0,0E0,0E0,0E0,0E0,0E0,0E0,0E0,0E0,0E0,0E0],"parents":[2147483647,0,0,1,1,2,2,3,3,4,4,5,5,6,6,7,7,8,8,9,9,10,10,11,11,12,12,13,13,14,14,15,15,16,16,17,17,18,18,20,20,21,21,22,22,23,23,24,24,25,25,26,26,29,29,30,30],"right_children":[2,4,6,8,10,12,14,16,18,20,22,24,26,28,30,32,34,36,38,-1,40,42,44,46,48,50,52,-1,-1,54,56,-1,-1,-1,-1,-1,-1,-1,-1,-1,-1,-1,-1,-1,-1,-1,-1,-1,-1,-1,-1,-1,-1,-1,-1,-1,-1],"split_conditions":[9.176391E-1,8.474489E-1,6.0108215E-1,2.7905956E-1,8.766362E-1,-9.364973E-1,-1.4368953E0,-2.9708937E-1,8.112789E-1,-8.8147163E-1,1.3656557E0,1.0893565E0,-7.85943E-1,-1.4656212E0,8.08651E-1,-7.1510905E-1,-1.0587625E-1,2.0728528E0,2.4883256E0,1.829425E-2,7.2846335E-1,1.3829314E-2,1.1132145E0,5.612824E-1,-5.1047784E-1,-8.208611E-1,1.719924E0,-1.8286796E-2,-6.73201E-2,-3.5421592E-1,1.7413751E0,-2.8451016E-2,1.9946449E-2,-7.1025216E-3,-3.6322933E-2,4.6677217E-2,-4.5576643E-2,1.4057711E-2,-3.8940467E-2,-6.2490612E-2,-3.2159876E-2,6.097302E-2,-8.70606E-3,-7.868934E-3,-5.5374082E-2,4.5414772E-2,-1.7137552E-3,-9.450162E-2,4.4021234E-2,4.732664E-2,-1.5561158E-2,5.9908975E-2,1.2199233E-2,-6.291443E-2,2.4506895E-2,3.8569253E-2,-6.0620396E-3],"split_indices":[12,13,13,13,0,0,10,13,7,15,0,10,13,3,13,10,15,0,7,0,10,3,13,5,13,13,5,0,0,10,15,0,0,0,0,0,0,0,0,0,0,0,0,0,0,0,0,0,0,0,0,0,0,0,0,0,0],"split_type":[0,0,0,0,0,0,0,0,0,0,0,0,0,0,0,0,0,0,0,0,0,0,0,0,0,0,0,0,0,0,0,0,0,0,0,0,0,0,0,0,0,0,0,0,0,0,0,0,0,0,0,0,0,0,0,0,0],"sum_hessian":[7.4800006E2,3.6099258E2,3.8700748E2,3.2490512E2,3.6087463E1,2.9478525E2,9.222222E1,2.3420523E2,9.0699875E1,2.8749233E1,7.338232E0,2.8885778E1,2.6589948E2,2.8576748E0,8.936455E1,1.2556615E2,1.08639084E2,6.280698E1,2.7892895E1,1.4567816E0,2.7292452E1,3.7371616E0,3.6010704E0,2.5461985E1,3.4237928E0,6.0547283E1,2.0535217E2,1.38649E0,1.4711848E0,8.698693E0,8.0665855E1,1.7333279E1,1.0823287E2,3.0187063E1,7.845202E1,6.142459E1,1.3823864E0,2.2988049E1,4.904846E0,2.362968E1,3.6627707E0,2.4128685E0,1.3242933E0,1.3258792E0,2.2751913E0,1.89331E1,6.528885E0,1.7846272E0,1.6391656E0,5.286767E1,7.679614E0,1.9671461E2,8.637571E0,2.3091135E0,6.38958E0,7.462332E1,6.042536E0],"tree_param":{"num_deleted":"0","num_feature":"16","num_nodes":"57","size_leaf_vector":"1"}},{"base_weights":[-2.1785027E-1,1.8648356E-2,-4.4642177E-1,-1.5627182E-1,5.0817174E-1,-6.537184E-2,-3.874957E-1,-3.7826934E-1,2.3296122E-2,3.6514643E-1,6.5051717E-1,-4.440652E-1,1.5397596E-1,-4.270372E-1,3.5170707E-1,-1.11539485E-2,6.681176E-2,5.985104E-1,-4.643562E-2,6.638242E-1,1.2004571E-2,-5.7047164E-1,-3.8795012E-1,2.6724342E-1,-5.867244E-2,-6.492498E-2,-3.3006232E-2,-8.934468E-3,7.480889E-2,1.0389536E-2,-3.891371E-2,6.715902E-2,3.245238E-2,3.362465E-2,-5.067441E-2,2.2711633E-2,6.799072E-2,-6.63076E-2,-3.9040394E-2,-4.085766E-2,3.8907125E-3,5.711033E-2,9.751822E-3],"categories":[],"categories_nodes":[],"categories_segments":[],"categories_sizes":[],"default_left":[0,0,0,0,0,0,0,0,0,0,0,0,0,0,0,0,0,0,0,0,0,0,0,0,0,0,0,0,0,0,0,0,0,0,0,0,0,0,0,0,0,0,0],"id":17,"left_children":[1,3,5,7,9,-1,11,13,15,17,19,21,23,25,27,29,-1,31,33,35,-1,37,39,41,-1,-1,-1,-1,-1,-1,-1,-1,-1,-1,-1,-1,-1,-1,-1,-1,-1,-1,-1],"loss_changes":[4.071882E1,3.185529E1,4.425247E0,1.0938043E1,1.756197E0,0E0,9.278755E0,4.5166893E0,3.3953075E0,4.9384847E0,2.5774193E-1,1.7116508E0,2.605361E0,2.2730465E0,1.5055714E0,6.378956E0,0E0,4.3679237E-1,3.5926027E0,1.7155266E-1,0E0,1.1027241E0,1.705059E0,1.2852622E0,0E0,0E0,0E0,0E0,0E0,0E0,0E0,0E0,0E0,0E0,0E0,0E0,0E0,0E0,0E0,0E0,0E0,0E0,0E0],"parents":[2147483647,0,0,1,1,2,2,3,3,4,4,6,6,7,7,8,8,9,9,10,10,11,11,12,12,13,13,14,14,15,15,17,17,18,18,19,19,21,21,22,22,23,23],"right_children":[2,4,6,8,10,-1,12,14,16,18,20,22,24,26,28,30,-1,32,34,36,-1,38,40,42,-1,-1,-1,-1,-1,-1,-1,-1,-1,-1,-1,-1,-1,-1,-1,-1,-1,-1,-1],"split_conditions":[9.176391E-1,6.837124E-1,-7.836506E-1,-4.1085184E-1,1.32866E-2,-6.537184E-2,1.017254E0,1.329893E0,1.5500612E0,-2.3330188E-1,2.1874864E0,-4.9310046E-1,1.1098609E0,-4.3145335E-1,-6.6278887E-1,4.5362318E-1,6.681176E-2,2.300876E0,-3.369223E-2,-2.311303E0,1.2004571E-2,1.4717477E-2,1.719924E0,1.3078761E0,-5.867244E-2,-6.492498E-2,-3.3006232E-2,-8.934468E-3,7.480889E-2,1.0389536E-2,-3.891371E-2,6.715902E-2,3.245238E-2,3.362465E-2,-5.067441E-2,2.2711633E-2,6.799072E-2,-6.63076E-2,-3.9040394E-2,-4.085766E-2,3.8907125E-3,5.711033E-2,9.751822E-3],"split_indices":[12,1,1,1,14,0,14,14,14,14,8,14,0,14,1,14,0,1,0,2,0,1,5,14,0,0,0,0,0,0,0,0,0,0,0,0,0,0,0,0,0,0,0],"split_type":[0,0,0,0,0,0,0,0,0,0,0,0,0,0,0,0,0,0,0,0,0,0,0,0,0,0,0,0,0,0,0,0,0,0,0,0,0,0,0,0,0,0,0],"sum_hessian":[7.521053E2,3.7009418E2,3.8201108E2,2.7316544E2,9.692875E1,8.2320625E1,2.9969046E2,1.216565E2,1.5150893E2,5.0127254E1,4.6801495E1,2.7150522E2,2.818525E1,1.1442693E2,7.2295713E0,1.4475783E2,6.751093E0,3.1699629E1,1.8427628E1,4.541096E1,1.3905333E0,8.0654495E1,1.9085071E2,2.500127E1,3.183978E0,3.303471E1,8.139222E1,3.788608E0,3.440963E0,1.11534454E2,3.3223373E1,2.3879211E1,7.8204174E0,1.0209432E1,8.218196E0,2.1501002E0,4.326086E1,5.1491398E1,2.9163101E1,1.8209442E2,8.756293E0,8.112519E0,1.6888752E1],"tree_param":{"num_deleted":"0","num_feature":"16","num_nodes":"43","size_leaf_vector":"1"}},{"base_weights":[1.9365218E-1,-2.961333E-2,4.1383418E-1,1.528764E-1,-5.063001E-1,6.2114334E-1,3.2883334E-1,3.1332755E-1,1.9379921E-2,-3.7343353E-1,-5.899246E-1,2.0486866E-1,6.372686E-2,4.3220413E-1,1.0721756E-1,5.160477E-1,1.0882629E-1,-1.4702304E-1,3.5006988E-1,-6.599479E-1,6.861425E-2,-6.689761E-1,-3.3235234E-1,4.9729254E-2,-4.1976612E-2,2.3010911E-1,5.211546E-1,3.989196E-2,5.6444955E-1,6.486811E-2,1.9772863E-2,-3.321732E-2,3.1928275E-2,3.492658E-2,-2.8433938E-2,7.206442E-2,-2.8906474E-2,2.2683658E-3,-6.9659926E-2,-1.6031431E-2,7.794886E-2,-7.036509E-2,-3.9100703E-2,6.0233958E-2,-4.6498355E-2,5.9299953E-2,6.5103383E-3,5.347401E-2,-4.3095965E-2,1.3956881E-2,-1.7388675E-2,6.3825876E-2,1.7949514E-3],"categories":[],"categories_nodes":[],"categories_segments":[],"categories_sizes":[],"default_left":[0,0,0,0,0,0,0,0,0,0,0,0,0,0,0,0,0,0,0,0,0,0,0,0,0,0,0,0,0,0,0,0,0,0,0,0,0,0,0,0,0,0,0,0,0,0,0,0,0,0,0,0,0],"id":18,"left_children":[1,3,5,7,9,11,13,15,17,19,21,23,-1,25,27,29,31,33,35,37,39,41,43,-1,-1,45,47,49,51,-1,-1,-1,-1,-1,-1,-1,-1,-1,-1,-1,-1,-1,-1,-1,-1,-1,-1,-1,-1,-1,-1,-1,-1],"loss_changes":[3.6666542E1,3.2364265E1,6.4121246E0,5.759458E0,9.239483E-1,5.947876E-1,6.1026382E0,5.0089083E0,8.195153E0,5.428649E0,1.0294724E0,1.2140155E0,0E0,3.1645126E0,2.6465945E0,2.4508896E0,5.8686056E0,6.8566303E0,1.201193E1,6.6339207E-1,2.9926398E0,1.687622E-1,2.316259E0,0E0,0E0,3.4122462E0,1.8612518E0,1.6576661E0,4.3436384E-1,0E0,0E0,0E0,0E0,0E0,0E0,0E0,0E0,0E0,0E0,0E0,0E0,0E0,0E0,0E0,0E0,0E0,0E0,0E0,0E0,0E0,0E0,0E0,0E0],"parents":[2147483647,0,0,1,1,2,2,3,3,4,4,5,5,6,6,7,7,8,8,9,9,10,10,11,11,13,13,14,14,15,15,16,16,17,17,18,18,19,19,20,20,21,21,22,22,25,25,26,26,27,27,28,28],"right_children":[2,4,6,8,10,12,14,16,18,20,22,24,-1,26,28,30,32,34,36,38,40,42,44,-1,-1,46,48,50,52,-1,-1,-1,-1,-1,-1,-1,-1,-1,-1,-1,-1,-1,-1,-1,-1,-1,-1,-1,-1,-1,-1,-1,-1],"split_conditions":[9.176391E-1,5.917895E-1,-6.985367E-1,-4.1085184E-1,-3.1648833E-1,-1.5419103E0,7.149075E-2,-6.1050667E-3,2.7905956E-1,-7.0446736E-1,7.1342176E-1,-9.6919876E-1,6.372686E-2,-7.85943E-1,1.0627475E0,-5.402249E-1,8.2790923E-1,-7.820632E-1,1.1009179E0,-1.9266067E0,1.2722155E0,5.3211826E-1,2.6548028E-1,4.9729254E-2,-4.1976612E-2,-1.1118454E0,2.2992446E0,2.4931142E-2,3.8428547E0,6.486811E-2,1.9772863E-2,-3.321732E-2,3.1928275E-2,3.492658E-2,-2.8433938E-2,7.206442E-2,-2.8906474E-2,2.2683658E-3,-6.9659926E-2,-1.6031431E-2,7.794886E-2,-7.036509E-2,-3.9100703E-2,6.0233958E-2,-4.6498355E-2,5.9299953E-2,6.5103383E-3,5.347401E-2,-4.3095965E-2,1.3956881E-2,-1.7388675E-2,6.3825876E-2,1.7949514E-3],"split_indices":[12,1,1,1,13,2,13,13,13,13,14,1,0,13,4,1,14,13,14,2,4,8,13,0,0,13,5,1,8,0,0,0,0,0,0,0,0,0,0,0,0,0,0,0,0,0,0,0,0,0,0,0,0],"split_type":[0,0,0,0,0,0,0,0,0,0,0,0,0,0,0,0,0,0,0,0,0,0,0,0,0,0,0,0,0,0,0,0,0,0,0,0,0,0,0,0,0,0,0,0,0,0,0,0,0,0,0,0,0],"sum_hessian":[7.4462646E2,3.701541E2,3.7447235E2,2.6817E2,1.01984085E2,1.0705868E2,2.6741367E2,1.2117779E2,1.4699223E2,4.1504837E1,6.047925E1,4.503555E0,1.0255513E2,1.8170752E2,8.570615E1,6.0088837E1,6.1088947E1,9.815574E1,4.8836494E1,2.488356E1,1.6621275E1,4.505437E1,1.5424881E1,3.2063591E0,1.2971958E0,5.6630424E1,1.25077095E2,7.565369E1,1.0052459E1,4.1683033E1,1.8405804E1,1.9548286E1,4.154066E1,2.0938019E1,7.721771E1,3.0832235E1,1.800426E1,1.287372E0,2.3596188E1,1.3158289E1,3.462986E0,3.8695923E1,6.3584504E0,1.476696E0,1.3948185E1,1.6890348E1,3.9740074E1,1.237497E2,1.3273927E0,5.183305E1,2.3820637E1,8.708415E0,1.3440435E0],"tree_param":{"num_deleted":"0","num_feature":"16","num_nodes":"53","size_leaf_vector":"1"}},{"base_weights":[-2.0300138E-1,-3.588985E-1,5.9009004E-2,-4.7202837E-1,-2.2943328E-1,-5.563038E-2,2.6835936E-1,-9.972777E-2,-4.9462113E-1,-3.436447E-2,-3.0407485E-1,3.0405462E-1,-8.593659E-2,2.1046881E-1,6.406747E-2,-3.780303E-1,4.9536493E-1,-5.301802E-1,-3.5296413E-1,4.5734808E-2,-4.9830997E-1,2.6036537E-1,-3.2980597E-1,6.3562596E-1,1.0529892E-1,9.447701E-2,-1.4804511E-1,3.5797432E-1,7.066358E-2,-4.909291E-2,-4.3851878E-3,8.362258E-2,-3.773724E-2,-5.655051E-2,-3.7113715E-2,-5.639119E-2,-1.8208213E-2,-5.1280763E-2,1.29550295E-2,-6.6591956E-2,2.9041043E-2,-4.3216765E-2,4.842613E-2,-3.488446E-2,2.4244627E-2,7.469578E-2,2.615407E-2,-5.5714842E-2,3.2985594E-2,2.2627467E-3,5.4817814E-2,-4.7606762E-2,-7.038417E-3,1.2076545E-2,4.3704953E-2,-5.031142E-3,5.0264012E-2],"categories":[],"categories_nodes":[],"categories_segments":[],"categories_sizes":[],"default_left":[0,0,0,0,0,0,0,0,0,0,0,0,0,0,0,0,0,0,0,0,0,0,0,0,0,0,0,0,0,0,0,0,0,0,0,0,0,0,0,0,0,0,0,0,0,0,0,0,0,0,0,0,0,0,0,0,0],"id":19,"left_children":[1,3,5,7,9,11,13,15,17,19,21,23,25,27,-1,29,31,33,35,37,39,41,43,45,47,49,51,53,55,-1,-1,-1,-1,-1,-1,-1,-1,-1,-1,-1,-1,-1,-1,-1,-1,-1,-1,-1,-1,-1,-1,-1,-1,-1,-1,-1,-1],"loss_changes":[3.0021866E1,6.6381645E0,6.6112123E0,2.0103874E0,3.1454735E0,1.9710815E0,1.964963E0,2.714952E0,9.7449875E-1,2.2938223E0,2.360818E0,8.6134315E-1,1.8666465E0,1.7441232E0,0E0,3.9221072E-1,1.8910617E0,8.145828E-1,1.6731825E0,2.5490363E0,1.3939457E0,1.3548481E0,1.7215233E0,1.6230106E-2,1.672131E0,1.3877809E0,3.109698E0,7.2574997E-1,2.3924305E0,0E0,0E0,0E0,0E0,0E0,0E0,0E0,0E0,0E0,0E0,0E0,0E0,0E0,0E0,0E0,0E0,0E0,0E0,0E0,0E0,0E0,0E0,0E0,0E0,0E0,0E0,0E0,0E0],"parents":[2147483647,0,0,1,1,2,2,3,3,4,4,5,5,6,6,7,7,8,8,9,9,10,10,11,11,12,12,13,13,15,15,16,16,17,17,18,18,19,19,20,20,21,21,22,22,23,23,24,24,25,25,26,26,27,27,28,28],"right_children":[2,4,6,8,10,12,14,16,18,20,22,24,26,28,-1,30,32,34,36,38,40,42,44,46,48,50,52,54,56,-1,-1,-1,-1,-1,-1,-1,-1,-1,-1,-1,-1,-1,-1,-1,-1,-1,-1,-1,-1,-1,-1,-1,-1,-1,-1,-1,-1],"split_conditions":[1.4717477E-2,-5.402249E-1,1.0241679E0,-1.0983047E0,-3.12479E-3,-5.973592E-1,3.1724417E0,4.3275705E-1,8.112789E-1,-8.40146E-2,-5.0958395E-1,-8.4080124E-1,-5.6032854E-1,1.5825149E0,6.406747E-2,8.112789E-1,7.6626796E-1,3.277908E-1,3.815716E-1,-5.973592E-1,1.5407618E-2,-2.7244441E-2,4.39025E0,4.2326403E-1,-1.1321051E0,-7.1079606E-1,-9.387923E-2,-1.0319322E0,5.612824E-1,-4.909291E-2,-4.3851878E-3,8.362258E-2,-3.773724E-2,-5.655051E-2,-3.7113715E-2,-5.639119E-2,-1.8208213E-2,-5.1280763E-2,1.29550295E-2,-6.6591956E-2,2.9041043E-2,-4.3216765E-2,4.842613E-2,-3.488446E-2,2.4244627E-2,7.469578E-2,2.615407E-2,-5.5714842E-2,3.2985594E-2,2.2627467E-3,5.4817814E-2,-4.7606762E-2,-7.038417E-3,1.2076545E-2,4.3704953E-2,-5.031142E-3,5.0264012E-2],"split_indices":[1,1,1,15,2,5,1,0,7,1,1,6,0,1,0,7,2,15,2,5,4,7,11,1,0,0,0,4,5,0,0,0,0,0,0,0,0,0,0,0,0,0,0,0,0,0,0,0,0,0,0,0,0,0,0,0,0],"split_type":[0,0,0,0,0,0,0,0,0,0,0,0,0,0,0,0,0,0,0,0,0,0,0,0,0,0,0,0,0,0,0,0,0,0,0,0,0,0,0,0,0,0,0,0,0,0,0,0,0,0,0,0,0,0,0,0,0],"sum_hessian":[7.3347107E2,4.596236E2,2.7384744E2,2.4387425E2,2.1574934E2,1.774247E2,9.642275E1,1.4262364E1,2.2961188E2,6.011217E1,1.5563718E2,1.3085735E1,1.6433897E2,8.480231E1,1.1620445E1,9.966269E0,4.296096E0,1.81347E2,4.826488E1,5.2030613E1,8.081561E0,6.3881125E0,1.4924905E2,4.0804896E0,9.005245E0,4.19528E1,1.2238617E2,4.05054E1,4.4296906E1,7.098911E0,2.8673577E0,3.1195455E0,1.1765504E0,1.4629741E2,3.504959E1,2.0570866E1,2.7694014E1,6.1211658E0,4.5909447E1,6.793568E0,1.2879927E0,1.3334373E0,5.054675E0,1.448213E2,4.4277525E0,2.3764691E0,1.7040205E0,1.9048381E0,7.100407E0,3.7123653E1,4.829146E0,2.244661E1,9.993956E1,1.0758728E1,2.9746675E1,3.529584E1,9.001065E0],"tree_param":{"num_deleted":"0","num_feature":"16","num_nodes":"57","size_leaf_vector":"1"}},{"base_weights":[1.8935336E-1,-1.4820632E-2,3.84904E-1,1.3472721E-1,-4.5805565E-1,6.223327E-2,3.2012984E-1,3.1694093E-1,-2.9908817E-2,-2.951946E-1,-5.8717567E-1,3.9347732E-1,2.8936962E-2,5.2907366E-1,7.550091E-2,-2.4405682E-1,2.0658058E-1,-5.5544597E-1,2.9015616E-1,-6.0427326E-1,3.927093E-3,1.9096993E-1,4.5446655E-1,4.0947056E-1,-5.9694957E-2,6.4950235E-2,3.0069886E-2,-4.4223472E-2,2.4478711E-2,3.449325E-2,-4.5523923E-2,3.8223743E-2,-2.8897105E-2,-6.659317E-2,-1.8831661E-2,6.022485E-2,-5.8086373E-2,-2.2957881E-3,-6.19415E-2,3.9998934E-2,-2.2118134E-2,-2.0920498E-2,4.746587E-2,-3.324061E-2,6.331555E-2,-1.2540132E-2,6.0774345E-2],"categories":[],"categories_nodes":[],"categories_segments":[],"categories_sizes":[],"default_left":[0,0,0,0,0,0,0,0,0,0,0,0,0,0,0,0,0,0,0,0,0,0,0,0,0,0,0,0,0,0,0,0,0,0,0,0,0,0,0,0,0,0,0,0,0,0,0],"id":20,"left_children":[1,3,5,7,9,-1,11,13,15,17,19,21,23,25,27,29,31,33,35,37,-1,39,41,43,45,-1,-1,-1,-1,-1,-1,-1,-1,-1,-1,-1,-1,-1,-1,-1,-1,-1,-1,-1,-1,-1,-1],"loss_changes":[2.9132088E1,2.378144E1,5.5319633E0,8.059411E0,1.7298622E0,0E0,6.2859116E0,6.488061E0,7.235929E0,6.5645733E0,5.535984E-1,2.8210526E0,2.0616815E0,1.6660843E0,5.4351006E0,9.475552E0,6.0267158E0,1.0687714E0,4.045124E0,4.101963E-1,0E0,4.931651E0,2.5144043E0,2.1251907E0,2.2630303E0,0E0,0E0,0E0,0E0,0E0,0E0,0E0,0E0,0E0,0E0,0E0,0E0,0E0,0E0,0E0,0E0,0E0,0E0,0E0,0E0,0E0,0E0],"parents":[2147483647,0,0,1,1,2,2,3,3,4,4,6,6,7,7,8,8,9,9,10,10,11,11,12,12,13,13,14,14,15,15,16,16,17,17,18,18,19,19,21,21,22,22,23,23,24,24],"right_children":[2,4,6,8,10,-1,12,14,16,18,20,22,24,26,28,30,32,34,36,38,-1,40,42,44,46,-1,-1,-1,-1,-1,-1,-1,-1,-1,-1,-1,-1,-1,-1,-1,-1,-1,-1,-1,-1,-1,-1],"split_conditions":[9.176391E-1,6.837124E-1,-7.836506E-1,-3.6659265E-1,-2.776904E-1,6.223327E-2,6.0108215E-1,-6.1050667E-3,-2.550402E-2,-3.8741967E-1,2.8785655E0,-7.85943E-1,1.32866E-2,-5.402249E-1,4.5362318E-1,-7.820632E-1,1.1009179E0,-7.0446736E-1,1.32866E-2,-1.12325E0,3.927093E-3,-5.0851226E-1,-8.4080124E-1,7.116562E-1,2.6185734E0,6.4950235E-2,3.0069886E-2,-4.4223472E-2,2.4478711E-2,3.449325E-2,-4.5523923E-2,3.8223743E-2,-2.8897105E-2,-6.659317E-2,-1.8831661E-2,6.022485E-2,-5.8086373E-2,-2.2957881E-3,-6.19415E-2,3.9998934E-2,-2.2118134E-2,-2.0920498E-2,4.746587E-2,-3.324061E-2,6.331555E-2,-1.2540132E-2,6.0774345E-2],"split_indices":[12,1,1,1,13,0,13,13,13,14,5,13,14,1,14,13,14,13,14,8,0,14,6,13,13,0,0,0,0,0,0,0,0,0,0,0,0,0,0,0,0,0,0,0,0,0,0],"split_type":[0,0,0,0,0,0,0,0,0,0,0,0,0,0,0,0,0,0,0,0,0,0,0,0,0,0,0,0,0,0,0,0,0,0,0,0,0,0,0,0,0,0,0,0,0,0,0],"sum_hessian":[7.2850275E2,3.5684543E2,3.7165732E2,2.6734055E2,8.950488E1,7.7816025E1,2.9384128E2,1.26457016E2,1.4088353E2,4.1034122E1,4.8470757E1,2.3443826E2,5.940302E1,6.6679825E1,5.977719E1,7.391729E1,6.696625E1,2.8440395E1,1.2593727E1,4.721745E1,1.2533073E0,5.5219563E1,1.792187E2,1.053821E1,4.8864807E1,4.2450443E1,2.422938E1,1.4332157E1,4.5445034E1,1.93412E1,5.4576088E1,4.960984E1,1.7356403E1,2.1235722E1,7.2046733E0,9.49881E0,3.094917E0,1.2625476E0,4.5954903E1,3.6658157E1,1.8561401E1,5.015319E0,1.7420338E2,2.3287144E0,8.209496E0,4.5224747E1,3.6400616E0],"tree_param":{"num_deleted":"0","num_feature":"16","num_nodes":"47","size_leaf_vector":"1"}},{"base_weights":[-1.6966149E-1,5.645746E-2,-3.8252544E-1,-2.7526063E-1,2.17268E-1,-5.39268E-1,-2.7689576E-1,-6.057359E-1,-1.9091919E-1,7.494664E-2,4.3651623E-1,-6.2132794E-2,-4.3912905E-1,-3.4056088E-1,2.962424E-2,-7.928569E-3,-6.435746E-2,7.647057E-2,-2.7214357E-1,1.9401804E-1,-1.3125794E-1,5.350405E-1,2.626975E-1,-5.459434E-1,1.3449603E-1,-2.8448758E-1,-5.3049207E-1,6.242712E-1,-6.0730204E-2,-1.5473537E-2,4.8282284E-2,-3.1491097E-2,3.7711833E-2,-1.4492606E-2,3.694685E-2,-3.762709E-2,3.615532E-2,5.5035006E-2,-1.4816711E-2,2.7254282E-3,5.29696E-2,4.003313E-2,-5.7432335E-2,6.095245E-2,-4.5298636E-2,-4.3043163E-2,-1.8340452E-2,1.4272778E-3,-5.667494E-2,8.545842E-2,-2.6279392E-3,-2.3050133E-2,2.848257E-2],"categories":[],"categories_nodes":[],"categories_segments":[],"categories_sizes":[],"default_left":[0,0,0,0,0,0,0,0,0,0,0,0,0,0,0,0,0,0,0,0,0,0,0,0,0,0,0,0,0,0,0,0,0,0,0,0,0,0,0,0,0,0,0,0,0,0,0,0,0,0,0,0,0],"id":21,"left_children":[1,3,5,7,9,11,13,15,17,19,21,-1,23,25,27,-1,-1,29,31,33,35,37,39,41,43,45,47,49,51,-1,-1,-1,-1,-1,-1,-1,-1,-1,-1,-1,-1,-1,-1,-1,-1,-1,-1,-1,-1,-1,-1,-1,-1],"loss_changes":[3.4697067E1,1.8740952E1,5.9967346E0,3.0836535E0,7.3444824E0,9.465561E-1,4.3778553E0,4.0470028E-1,2.0385704E0,3.5750487E0,1.449585E0,0E0,4.3773966E0,1.8236771E0,2.1555305E0,0E0,0E0,2.1817253E0,2.103508E0,5.5275927E0,6.597999E0,6.91309E-1,2.220689E0,1.825531E0,3.5772903E0,2.0646276E0,8.19973E-1,8.1466794E-1,2.1263084E0,0E0,0E0,0E0,0E0,0E0,0E0,0E0,0E0,0E0,0E0,0E0,0E0,0E0,0E0,0E0,0E0,0E0,0E0,0E0,0E0,0E0,0E0,0E0,0E0],"parents":[2147483647,0,0,1,1,2,2,3,3,4,4,5,5,6,6,7,7,8,8,9,9,10,10,12,12,13,13,14,14,17,17,18,18,19,19,20,20,21,21,22,22,23,23,24,24,25,25,26,26,27,27,28,28],"right_children":[2,4,6,8,10,12,14,16,18,20,22,-1,24,26,28,-1,-1,30,32,34,36,38,40,42,44,46,48,50,52,-1,-1,-1,-1,-1,-1,-1,-1,-1,-1,-1,-1,-1,-1,-1,-1,-1,-1,-1,-1,-1,-1,-1,-1],"split_conditions":[9.176391E-1,-4.1085184E-1,-5.402249E-1,-6.5162164E-1,6.4115554E-1,-7.836506E-1,2.5106835E-1,-9.3515325E-1,-8.313143E-1,2.5106835E-1,2.4467267E-1,-6.2132794E-2,8.675395E-1,5.628508E-1,-5.0958395E-1,-7.928569E-3,-6.435746E-2,8.112789E-1,1.4113553E0,-4.5347017E-1,1.1009179E0,1.8935238E0,1.12362325E-1,-1.5419103E0,1.5500612E0,-4.9310046E-1,-2.0996714E0,1.0705796E0,2.4931142E-2,-1.5473537E-2,4.8282284E-2,-3.1491097E-2,3.7711833E-2,-1.4492606E-2,3.694685E-2,-3.762709E-2,3.615532E-2,5.5035006E-2,-1.4816711E-2,2.7254282E-3,5.29696E-2,4.003313E-2,-5.7432335E-2,6.095245E-2,-4.5298636E-2,-4.3043163E-2,-1.8340452E-2,1.4272778E-3,-5.667494E-2,8.545842E-2,-2.6279392E-3,-2.3050133E-2,2.848257E-2],"split_indices":[12,1,1,14,1,1,14,1,1,14,0,0,14,1,1,0,0,7,14,14,14,14,14,2,14,14,3,3,1,0,0,0,0,0,0,0,0,0,0,0,0,0,0,0,0,0,0,0,0,0,0,0,0],"split_type":[0,0,0,0,0,0,0,0,0,0,0,0,0,0,0,0,0,0,0,0,0,0,0,0,0,0,0,0,0,0,0,0,0,0,0,0,0,0,0,0,0,0,0,0,0,0,0,0,0,0,0,0,0],"sum_hessian":[7.1941595E2,3.4920294E2,3.70213E2,1.1378235E2,2.3542061E2,1.4739304E2,2.2281998E2,2.1877554E1,9.19048E1,1.4356778E2,9.185282E1,7.814864E1,6.924439E1,1.8440703E2,3.841295E1,1.6745733E0,2.020298E1,2.1426737E1,7.047806E1,9.105044E1,5.251734E1,5.72973E1,3.4555523E1,5.8415195E1,1.0829196E1,1.443025E2,4.010453E1,4.2873836E0,3.4125565E1,1.4051141E1,7.3755965E0,6.660566E1,3.8723989E0,3.111496E1,5.993548E1,3.5235596E1,1.7281748E1,5.62317E1,1.0655993E0,1.8948517E1,1.5607007E1,1.3193086E0,5.7095886E1,5.9669223E0,4.862273E0,5.7715084E1,8.658742E1,2.5404658E0,3.7564064E1,2.9347637E0,1.35262E0,2.3106386E1,1.101918E1],"tree_param":{"num_deleted":"0","num_feature":"16","num_nodes":"53","size_leaf_vector":"1"}},{"base_weights":[1.8399392E-1,-1.4243119E-3,3.7465325E-1,-3.1025305E-1,5.9514854E-2,-1.8344814E-3,3.9604017E-1,-5.212428E-1,-1.1041045E-1,7.035547E-2,-3.599517E-1,2.6782218E-1,-5.7452416E-1,-3.6047974E-1,4.0423167E-1,-5.547236E-1,3.959512E-3,-3.872155E-1,5.5943714E-3,5.1854633E-2,3.6616862E-1,-5.5688184E-1,2.7637608E-2,-2.198487E-1,4.3776792E-1,-7.340787E-2,-8.40358E-2,-5.1406484E-2,-1.1168263E-3,2.0073812E-1,4.2432448E-1,2.8568252E-3,-5.8227252E-2,-5.4143365E-2,9.849355E-3,1.50804445E-2,-4.959994E-2,8.145927E-3,-1.3915996E-2,-2.5449857E-2,4.5259144E-2,-1.0752547E-2,-6.621753E-2,4.5160577E-2,-4.048911E-2,-5.6737598E-2,1.5586448E-2,5.9408557E-2,3.5160072E-3,-3.9798852E-2,3.3004653E-2,2.9246718E-2,-5.747928E-2,-2.221256E-2,4.3163158E-2],"categories":[],"categories_nodes":[],"categories_segments":[],"categories_sizes":[],"default_left":[0,0,0,0,0,0,0,0,0,0,0,0,0,0,0,0,0,0,0,0,0,0,0,0,0,0,0,0,0,0,0,0,0,0,0,0,0,0,0,0,0,0,0,0,0,0,0,0,0,0,0,0,0,0,0],"id":22,"left_children":[1,3,5,7,9,11,13,15,17,19,21,23,25,27,29,31,-1,33,35,37,39,41,43,45,47,49,-1,-1,-1,51,53,-1,-1,-1,-1,-1,-1,-1,-1,-1,-1,-1,-1,-1,-1,-1,-1,-1,-1,-1,-1,-1,-1,-1,-1],"loss_changes":[2.4567165E1,6.6674643E0,2.7594872E0,2.4042768E0,1.370921E0,3.1517043E0,2.1548538E0,5.502095E-1,1.0057486E0,1.5642598E0,5.9688467E-1,1.246582E0,8.085058E-1,2.0893532E-1,1.2281609E0,4.4429588E-1,0E0,7.457607E-1,1.7507426E0,1.5575672E0,1.0197217E0,1.7005157E-1,8.282353E-1,6.437044E-1,6.4794016E-1,5.713445E-1,0E0,0E0,0E0,2.3565845E0,1.4725609E0,0E0,0E0,0E0,0E0,0E0,0E0,0E0,0E0,0E0,0E0,0E0,0E0,0E0,0E0,0E0,0E0,0E0,0E0,0E0,0E0,0E0,0E0,0E0,0E0],"parents":[2147483647,0,0,1,1,2,2,3,3,4,4,5,5,6,6,7,7,8,8,9,9,10,10,11,11,12,12,13,13,14,14,15,15,17,17,18,18,19,19,20,20,21,21,22,22,23,23,24,24,25,25,29,29,30,30],"right_children":[2,4,6,8,10,12,14,16,18,20,22,24,26,28,30,32,-1,34,36,38,40,42,44,46,48,50,-1,-1,-1,52,54,-1,-1,-1,-1,-1,-1,-1,-1,-1,-1,-1,-1,-1,-1,-1,-1,-1,-1,-1,-1,-1,-1,-1,-1],"split_conditions":[9.176391E-1,-9.064038E-1,-8.4080124E-1,-3.5421592E-1,2.1100874E0,7.2846335E-1,-1.7042911E0,8.5327953E-1,-2.5389621E-2,1.4816835E0,5.612824E-1,-1.0267779E0,-1.6562128E0,3.1238306E-1,-9.364973E-1,-5.973592E-1,3.959512E-3,5.3211826E-1,-1.071918E0,4.5288602E-1,6.677174E-3,2.1457916E-1,7.90022E-1,-3.5421592E-1,3.4247655E-1,-1.9406036E-1,-8.40358E-2,-5.1406484E-2,-1.1168263E-3,1.4502496E0,-2.3353217E0,2.8568252E-3,-5.8227252E-2,-5.4143365E-2,9.849355E-3,1.50804445E-2,-4.959994E-2,8.145927E-3,-1.3915996E-2,-2.5449857E-2,4.5259144E-2,-1.0752547E-2,-6.621753E-2,4.5160577E-2,-4.048911E-2,-5.6737598E-2,1.5586448E-2,5.9408557E-2,3.5160072E-3,-3.9798852E-2,3.3004653E-2,2.9246718E-2,-5.747928E-2,-2.221256E-2,4.3163158E-2],"split_indices":[12,0,6,10,4,10,7,4,6,4,5,0,6,0,0,5,0,8,0,15,10,0,6,10,0,4,0,0,0,10,5,0,0,0,0,0,0,0,0,0,0,0,0,0,0,0,0,0,0,0,0,0,0,0,0],"split_type":[0,0,0,0,0,0,0,0,0,0,0,0,0,0,0,0,0,0,0,0,0,0,0,0,0,0,0,0,0,0,0,0,0,0,0,0,0,0,0,0,0,0,0,0,0,0,0,0,0,0,0,0,0,0,0],"sum_hessian":[6.939205E2,3.5229874E2,3.4162173E2,5.7385933E1,2.9491278E2,1.8412304E1,3.2320944E2,2.7132122E1,3.025381E1,2.8829443E2,6.618351E0,1.287998E1,5.5323243E0,3.0014982E0,3.2020795E2,2.5613928E1,1.5181942E0,8.244134E0,2.2009678E1,2.7243127E2,1.5863179E1,4.098939E0,2.519412E0,3.252647E0,9.627333E0,2.3598936E0,3.1724308E0,1.7572291E0,1.2442691E0,2.9763504E1,2.9044443E2,1.1535186E0,2.446041E1,6.1702743E0,2.0738602E0,1.761076E1,4.3989186E0,2.363706E2,3.6060654E1,1.7011485E0,1.4162031E1,1.1618321E0,2.9371068E0,1.2500232E0,1.2693888E0,1.4246985E0,1.8279483E0,6.5922236E0,3.035109E0,1.3152875E0,1.044606E0,2.7172453E1,2.5910501E0,2.9177206E0,2.875267E2],"tree_param":{"num_deleted":"0","num_feature":"16","num_nodes":"55","size_leaf_vector":"1"}},{"base_weights":[-1.7180909E-1,2.7925199E-2,-3.6394534E-1,-1.2400666E-1,4.185274E-1,-6.0595285E-2,-3.0109242E-1,-2.7671847E-1,1.4022925E-2,2.589009E-1,5.1894546E-1,-3.7954968E-1,2.0321818E-2,-4.7977543E-1,-8.1933476E-2,1.9096798E-1,-3.4446806E-1,6.5178305E-2,-1.6703583E-1,3.3710048E-1,6.260593E-1,-1.7892197E-1,-4.4741678E-1,1.7412801E-1,-1.9150433E-1,-6.0280364E-2,-2.1625059E-2,5.7510417E-2,-1.7932398E-2,-2.5963312E-2,3.2748044E-2,-5.076569E-2,4.5186102E-2,5.4797243E-2,-3.4626126E-2,3.6656838E-3,5.309403E-2,6.537564E-2,2.3177812E-2,-5.6956053E-2,-1.2943115E-3,-5.0616957E-2,-2.5474865E-2,-4.3999558E-4,4.0194284E-2,3.875776E-2,-3.2970905E-2],"categories":[],"categories_nodes":[],"categories_segments":[],"categories_sizes":[],"default_left":[0,0,0,0,0,0,0,0,0,0,0,0,0,0,0,0,0,0,0,0,0,0,0,0,0,0,0,0,0,0,0,0,0,0,0,0,0,0,0,0,0,0,0,0,0,0,0],"id":23,"left_children":[1,3,5,7,9,-1,11,13,15,17,19,21,23,25,27,29,31,-1,33,35,37,39,41,43,45,-1,-1,-1,-1,-1,-1,-1,-1,-1,-1,-1,-1,-1,-1,-1,-1,-1,-1,-1,-1,-1,-1],"loss_changes":[2.6876764E1,2.0477486E1,5.2463303E0,5.243423E0,1.4143124E0,0E0,7.202364E0,4.63013E0,8.408076E0,6.686103E0,9.2473125E-1,3.043167E0,1.8880723E0,1.7369366E0,4.0360174E0,5.5409136E0,5.923581E0,0E0,2.708437E0,1.365531E0,2.364626E-1,3.8599465E0,1.8037109E0,1.3644434E0,2.0824451E0,0E0,0E0,0E0,0E0,0E0,0E0,0E0,0E0,0E0,0E0,0E0,0E0,0E0,0E0,0E0,0E0,0E0,0E0,0E0,0E0,0E0,0E0],"parents":[2147483647,0,0,1,1,2,2,3,3,4,4,6,6,7,7,8,8,9,9,10,10,11,11,12,12,13,13,14,14,15,15,16,16,18,18,19,19,20,20,21,21,22,22,23,23,24,24],"right_children":[2,4,6,8,10,-1,12,14,16,18,20,22,24,26,28,30,32,-1,34,36,38,40,42,44,46,-1,-1,-1,-1,-1,-1,-1,-1,-1,-1,-1,-1,-1,-1,-1,-1,-1,-1,-1,-1,-1,-1],"split_conditions":[9.176391E-1,5.917895E-1,-7.836506E-1,-3.6659265E-1,-2.776904E-1,-6.0595285E-2,6.0108215E-1,-2.550402E-2,2.7905956E-1,-7.0446736E-1,1.1586478E0,-7.85943E-1,-2.9679927E-1,-5.402249E-1,-9.3004644E-1,-7.820632E-1,1.1617119E0,6.5178305E-2,-1.2750492E0,3.3143672E-1,6.238506E-1,-1.1118454E0,3.269284E-2,1.7456204E0,-1.0760021E0,-6.0280364E-2,-2.1625059E-2,5.7510417E-2,-1.7932398E-2,-2.5963312E-2,3.2748044E-2,-5.076569E-2,4.5186102E-2,5.4797243E-2,-3.4626126E-2,3.6656838E-3,5.309403E-2,6.537564E-2,2.3177812E-2,-5.6956053E-2,-1.2943115E-3,-5.0616957E-2,-2.5474865E-2,-4.3999558E-4,4.0194284E-2,3.875776E-2,-3.2970905E-2],"split_indices":[12,1,1,1,13,0,13,13,13,13,1,13,1,1,1,13,13,0,0,13,15,13,13,13,10,0,0,0,0,0,0,0,0,0,0,0,0,0,0,0,0,0,0,0,0,0,0],"split_type":[0,0,0,0,0,0,0,0,0,0,0,0,0,0,0,0,0,0,0,0,0,0,0,0,0,0,0,0,0,0,0,0,0,0,0,0,0,0,0,0,0,0,0,0,0,0,0],"sum_hessian":[6.990851E2,3.4318423E2,3.5590085E2,2.4756992E2,9.561432E1,7.1594406E1,2.8430643E2,1.17056885E2,1.3051303E2,3.8303905E1,5.731041E1,2.2837837E2,5.592806E1,5.6595177E1,6.046171E1,8.769538E1,4.281765E1,1.9649271E1,1.8654634E1,2.2781631E1,3.4528778E1,5.8646095E1,1.6973227E2,3.2504574E1,2.3423487E1,3.770493E1,1.8890245E1,7.1718993E0,5.328981E1,2.0180748E1,6.751463E1,3.583634E1,6.9813075E0,3.3264658E0,1.5328169E1,9.400445E0,1.3381187E1,3.1647535E1,2.8812428E0,1.6762733E1,4.188336E1,1.2882184E2,4.091043E1,1.8773407E1,1.3731168E1,4.1655083E0,1.9257977E1],"tree_param":{"num_deleted":"0","num_feature":"16","num_nodes":"47","size_leaf_vector":"1"}},{"base_weights":[1.4643371E-1,3.5832846E-1,-7.885691E-3,4.9439535E-1,2.249801E-1,-1.8446621E-1,2.1771458E-1,5.79834E-1,2.9151538E-1,4.6459764E-2,3.5537785E-1,-2.5797075E-2,-4.1757888E-1,3.1611928E-1,-4.881079E-2,-1.0179402E-2,5.888478E-1,5.93001E-1,3.4486916E-2,-3.981922E-1,1.9061431E-1,5.939898E-2,1.6576335E-1,-1.717523E-1,2.7650017E-1,-5.7681924E-1,-3.2550082E-1,7.6633394E-2,4.2082018E-1,-5.996521E-1,3.435942E-2,5.9779562E-2,6.2265163E-3,2.9985456E-2,6.3481785E-2,-4.045751E-2,3.891301E-2,-7.7571884E-2,1.624867E-2,3.0816069E-2,-3.898571E-2,5.513073E-2,-4.783389E-3,2.8708274E-2,-3.184851E-2,5.7107013E-2,-2.8096512E-2,-6.586134E-2,-2.7813604E-2,3.6691934E-2,-5.027411E-2,1.9007321E-2,-6.888487E-2,-1.8469242E-2,4.3711152E-2,-8.8112615E-2,3.6138095E-2,5.1472433E-2,-9.2502935E-3],"categories":[],"categories_nodes":[],"categories_segments":[],"categories_sizes":[],"default_left":[0,0,0,0,0,0,0,0,0,0,0,0,0,0,0,0,0,0,0,0,0,0,0,0,0,0,0,0,0,0,0,0,0,0,0,0,0,0,0,0,0,0,0,0,0,0,0,0,0,0,0,0,0,0,0,0,0,0,0],"id":24,"left_children":[1,3,5,7,9,11,13,15,17,19,21,23,25,27,29,-1,31,33,35,37,39,-1,41,43,45,47,49,51,53,55,57,-1,-1,-1,-1,-1,-1,-1,-1,-1,-1,-1,-1,-1,-1,-1,-1,-1,-1,-1,-1,-1,-1,-1,-1,-1,-1,-1,-1],"loss_changes":[2.2330296E1,5.109806E0,1.5817748E1,2.2852364E0,3.4092283E0,8.226658E0,4.5881863E0,6.6587067E-1,3.386695E0,4.1313705E0,3.742465E0,5.9411902E0,1.1337643E0,3.1639872E0,2.2141824E0,0E0,4.22081E-1,5.693245E-2,4.018425E0,3.4733317E0,3.4263773E0,0E0,4.036075E0,6.197942E0,7.3656607E0,5.919056E-1,7.4746447E0,3.6042736E0,9.5346546E-1,2.0321326E0,2.640335E0,0E0,0E0,0E0,0E0,0E0,0E0,0E0,0E0,0E0,0E0,0E0,0E0,0E0,0E0,0E0,0E0,0E0,0E0,0E0,0E0,0E0,0E0,0E0,0E0,0E0,0E0,0E0,0E0],"parents":[2147483647,0,0,1,1,2,2,3,3,4,4,5,5,6,6,7,7,8,8,9,9,10,10,11,11,12,12,13,13,14,14,16,16,17,17,18,18,19,19,20,20,22,22,23,23,24,24,25,25,26,26,27,27,28,28,29,29,30,30],"right_children":[2,4,6,8,10,12,14,16,18,20,22,24,26,28,30,-1,32,34,36,38,40,-1,42,44,46,48,50,52,54,56,58,-1,-1,-1,-1,-1,-1,-1,-1,-1,-1,-1,-1,-1,-1,-1,-1,-1,-1,-1,-1,-1,-1,-1,-1,-1,-1,-1,-1],"split_conditions":[-3.631881E-1,-6.1050667E-3,9.176391E-1,-5.402249E-1,9.176391E-1,5.917895E-1,3.269284E-2,-3.8821971E0,-4.3145335E-1,4.5362318E-1,-7.836506E-1,2.7905956E-1,-2.3330188E-1,-7.85943E-1,-2.7977648E-1,-1.0179402E-2,1.5261657E0,-5.0958395E-1,-1.8926823E-1,-6.713003E-1,7.7373284E-1,5.939898E-2,5.060273E-1,-7.820632E-1,1.1009179E0,2.300876E0,-2.776904E-1,-8.208611E-1,-8.4080124E-1,4.0266356E-1,-1.8104441E-1,5.9779562E-2,6.2265163E-3,2.9985456E-2,6.3481785E-2,-4.045751E-2,3.891301E-2,-7.7571884E-2,1.624867E-2,3.0816069E-2,-3.898571E-2,5.513073E-2,-4.783389E-3,2.8708274E-2,-3.184851E-2,5.7107013E-2,-2.8096512E-2,-6.586134E-2,-2.7813604E-2,3.6691934E-2,-5.027411E-2,1.9007321E-2,-6.888487E-2,-1.8469242E-2,4.3711152E-2,-8.8112615E-2,3.6138095E-2,5.1472433E-2,-9.2502935E-3],"split_indices":[1,13,12,1,12,1,13,8,14,14,1,13,14,13,1,0,9,1,14,1,13,0,13,13,14,1,13,13,6,0,1,0,0,0,0,0,0,0,0,0,0,0,0,0,0,0,0,0,0,0,0,0,0,0,0,0,0,0,0],"split_type":[0,0,0,0,0,0,0,0,0,0,0,0,0,0,0,0,0,0,0,0,0,0,0,0,0,0,0,0,0,0,0,0,0,0,0,0,0,0,0,0,0,0,0,0,0,0,0,0,0,0,0,0,0,0,0,0,0,0,0],"sum_hessian":[6.8180835E2,2.8675092E2,3.9505743E2,1.4058862E2,1.461623E2,2.2170676E2,1.7335068E2,9.762E1,4.2968628E1,6.2269234E1,8.389306E1,1.3257779E2,8.9128975E1,1.26470146E2,4.688053E1,1.1397445E0,9.648026E1,1.9172636E1,2.379599E1,1.4813619E1,4.7455616E1,3.620273E1,4.769033E1,8.970044E1,4.2877346E1,3.0726286E1,5.840269E1,3.8998802E1,8.7471344E1,5.335206E0,4.1545326E1,9.473527E1,1.7449905E0,3.4135358E0,1.57591E1,1.056961E1,1.322638E1,8.62353E0,6.1900887E0,3.9854195E1,7.6014185E0,1.6438215E1,3.1252113E1,2.1503197E1,6.819724E1,2.8037605E1,1.4839741E1,2.3174824E1,7.551462E0,1.1684594E1,4.6718098E1,3.4620018E1,4.3787823E0,2.020928E0,8.545042E1,4.1908946E0,1.1443112E0,8.040937E0,3.350439E1],"tree_param":{"num_deleted":"0","num_feature":"16","num_nodes":"59","size_leaf_vector":"1"}},{"base_weights":[-1.5429156E-1,-3.6217886E-1,-5.222276E-3,-4.3711174E-1,-1.4193349E-1,-7.156228E-2,2.3717068E-1,-4.892512E-1,-2.7140206E-1,-5.426726E-1,1.2702219E-1,-9.3028486E-2,4.971113E-1,2.8549802E-2,4.9699813E-1,-5.501376E-1,-2.4066475E-1,-6.412591E-2,-6.9603354E-2,-2.6998635E-2,-5.967241E-2,2.1140409E-1,-3.5963842E-1,1.2926938E-1,-1.414431E-1,3.1811932E-1,7.442654E-2,5.675691E-1,-2.2349218E-1,1.4645033E-1,5.7217497E-1,2.0809561E-2,-5.630065E-2,-4.5896348E-2,2.8870676E-2,6.218932E-2,-4.006973E-2,-3.8200777E-2,3.7835672E-2,-6.2538916E-3,3.641617E-2,3.3221688E-2,-5.9541207E-2,2.299103E-2,-1.0415385E-2,-5.112151E-2,-1.1033806E-2,5.71805E-2,2.9348875E-3,6.221745E-2,-3.6689376E-3,3.473534E-2,-3.516398E-2,7.570162E-2,-2.298022E-2,6.013174E-2,-2.9263345E-3],"categories":[],"categories_nodes":[],"categories_segments":[],"categories_sizes":[],"default_left":[0,0,0,0,0,0,0,0,0,0,0,0,0,0,0,0,0,0,0,0,0,0,0,0,0,0,0,0,0,0,0,0,0,0,0,0,0,0,0,0,0,0,0,0,0,0,0,0,0,0,0,0,0,0,0,0,0],"id":25,"left_children":[1,3,5,7,9,11,13,15,17,19,21,23,25,27,29,31,33,-1,35,37,-1,39,41,43,45,47,-1,49,51,53,55,-1,-1,-1,-1,-1,-1,-1,-1,-1,-1,-1,-1,-1,-1,-1,-1,-1,-1,-1,-1,-1,-1,-1,-1,-1,-1],"loss_changes":[2.126879E1,4.6683273E0,6.4612503E0,1.7108536E0,8.07089E0,3.8965325E0,4.666195E0,2.3054352E0,3.9347296E0,8.2025146E-1,1.9336805E0,3.2984571E0,2.7775574E-1,6.777359E0,9.2796326E-1,1.3719978E0,3.9999166E0,0E0,8.40374E0,7.04925E-1,0E0,1.662408E0,1.3485802E0,1.3166972E0,2.8276558E0,6.0531265E-1,0E0,5.467844E-1,2.6146932E0,2.040164E0,5.656595E-1,0E0,0E0,0E0,0E0,0E0,0E0,0E0,0E0,0E0,0E0,0E0,0E0,0E0,0E0,0E0,0E0,0E0,0E0,0E0,0E0,0E0,0E0,0E0,0E0,0E0,0E0],"parents":[2147483647,0,0,1,1,2,2,3,3,4,4,5,5,6,6,7,7,8,8,9,9,10,10,11,11,12,12,13,13,14,14,15,15,16,16,18,18,19,19,21,21,22,22,23,23,24,24,25,25,27,27,28,28,29,29,30,30],"right_children":[2,4,6,8,10,12,14,16,18,20,22,24,26,28,30,32,34,-1,36,38,-1,40,42,44,46,48,-1,50,52,54,56,-1,-1,-1,-1,-1,-1,-1,-1,-1,-1,-1,-1,-1,-1,-1,-1,-1,-1,-1,-1,-1,-1,-1,-1,-1,-1],"split_conditions":[-3.631881E-1,6.728583E-1,1.0599158E0,-5.402249E-1,-8.0067337E-1,1.6139101E0,-1.2249879E-1,8.112789E-1,-4.3145335E-1,-8.397738E-1,-4.1595867E-1,-7.860298E-1,1.1406032E0,-7.0446736E-1,-1.8926823E-1,-2.4243226E0,2.8487924E-1,-6.412591E-2,-1.8926823E-1,8.592296E-1,-5.967241E-2,-6.378573E-2,9.153452E-1,3.6757028E-1,-1.1312443E0,-1.6295604E-3,7.442654E-2,-3.8741967E-1,-1.470657E0,1.7818499E-1,1.0839076E0,2.0809561E-2,-5.630065E-2,-4.5896348E-2,2.8870676E-2,6.218932E-2,-4.006973E-2,-3.8200777E-2,3.7835672E-2,-6.2538916E-3,3.641617E-2,3.3221688E-2,-5.9541207E-2,2.299103E-2,-1.0415385E-2,-5.112151E-2,-1.1033806E-2,5.71805E-2,2.9348875E-3,6.221745E-2,-3.6689376E-3,3.473534E-2,-3.516398E-2,7.570162E-2,-2.298022E-2,6.013174E-2,-2.9263345E-3],"split_indices":[1,13,1,1,1,14,13,7,14,15,1,0,5,13,14,15,13,0,14,3,0,0,13,10,13,15,0,14,0,13,8,0,0,0,0,0,0,0,0,0,0,0,0,0,0,0,0,0,0,0,0,0,0,0,0,0,0],"split_type":[0,0,0,0,0,0,0,0,0,0,0,0,0,0,0,0,0,0,0,0,0,0,0,0,0,0,0,0,0,0,0,0,0,0,0,0,0,0,0,0,0,0,0,0,0,0,0,0,0,0,0,0,0,0,0,0,0],"sum_hessian":[6.85381E2,2.8562616E2,3.9975482E2,2.1238345E2,7.324272E1,3.1440955E2,8.53453E1,1.6006699E2,5.231646E1,2.9006243E1,4.4236477E1,3.0377893E2,1.0630589E1,4.7952843E1,3.7392456E1,1.2760063E2,3.2466362E1,1.7699348E1,3.461711E1,2.8941686E0,2.6112074E1,3.818176E1,6.054717E0,5.40296E1,2.4974934E2,7.491955E0,3.138634E0,1.4879508E1,3.3073338E1,7.1235566E0,3.0268902E1,1.8763435E0,1.2572429E2,2.3081263E1,9.3850975E0,1.092394E1,2.3693172E1,1.5736063E0,1.3205625E0,1.3880392E1,2.4301367E1,1.4349482E0,4.619769E0,3.7763035E1,1.6266563E1,1.8181023E1,2.3156833E2,3.4664936E0,4.025461E0,1.3619129E1,1.2603786E0,5.7497897E0,2.7323547E1,2.3302085E0,4.793348E0,2.8870207E1,1.3986936E0],"tree_param":{"num_deleted":"0","num_feature":"16","num_nodes":"57","size_leaf_vector":"1"}},{"base_weights":[1.4766434E-1,-2.0691229E-2,3.1840083E-1,1.11994006E-1,-3.8077188E-1,4.917552E-1,2.1723074E-1,4.2756918E-1,6.096819E-2,-5.565493E-1,-2.893895E-1,5.791664E-1,2.2267693E-1,3.0454522E-1,1.7197162E-2,-5.4535847E-2,5.211136E-1,-1.253288E-1,1.8921882E-1,-6.0415477E-1,-2.6346537E-1,4.0421695E-1,-4.395448E-1,5.9825968E-2,2.3298974E-1,5.6524545E-2,-2.2747725E-1,8.8576265E-2,4.0878662E-1,-6.589681E-2,5.0521857E-1,6.6775315E-2,1.4643847E-2,3.0377338E-2,-3.8589377E-2,-5.024103E-2,2.3287747E-2,-1.0907849E-2,-6.357684E-2,2.1723995E-2,-5.2416887E-2,6.207765E-2,-4.928896E-2,-2.6410181E-2,-5.592055E-2,4.9132574E-2,-3.0491387E-2,-4.6003174E-2,5.4906815E-2,5.909861E-2,-8.63399E-3,4.3150164E-2,-1.7241081E-2,-5.0274786E-2,2.0838014E-3,5.9531957E-2,-6.866526E-3],"categories":[],"categories_nodes":[],"categories_segments":[],"categories_sizes":[],"default_left":[0,0,0,0,0,0,0,0,0,0,0,0,0,0,0,0,0,0,0,0,0,0,0,0,0,0,0,0,0,0,0,0,0,0,0,0,0,0,0,0,0,0,0,0,0,0,0,0,0,0,0,0,0,0,0,0,0],"id":26,"left_children":[1,3,5,7,9,11,13,15,17,19,21,23,25,27,29,-1,31,33,35,37,39,41,43,-1,45,-1,47,49,51,53,55,-1,-1,-1,-1,-1,-1,-1,-1,-1,-1,-1,-1,-1,-1,-1,-1,-1,-1,-1,-1,-1,-1,-1,-1,-1,-1],"loss_changes":[1.874646E1,1.5771034E1,5.571121E0,3.859966E0,1.2664585E0,2.65864E0,3.5966997E0,3.3261504E0,5.015085E0,2.4983978E-1,6.4844155E0,4.4776154E-1,4.860525E0,3.194456E0,2.6174386E0,0E0,1.605607E0,9.708152E0,3.865121E0,3.1325054E-1,8.4945595E-1,2.500779E0,9.0740776E-1,0E0,1.0226611E0,0E0,2.7760425E0,4.2685947E0,1.3485146E0,2.1072383E0,5.2625465E-1,0E0,0E0,0E0,0E0,0E0,0E0,0E0,0E0,0E0,0E0,0E0,0E0,0E0,0E0,0E0,0E0,0E0,0E0,0E0,0E0,0E0,0E0,0E0,0E0,0E0,0E0],"parents":[2147483647,0,0,1,1,2,2,3,3,4,4,5,5,6,6,7,7,8,8,9,9,10,10,11,11,12,12,13,13,14,14,16,16,17,17,18,18,19,19,20,20,21,21,22,22,24,24,26,26,27,27,28,28,29,29,30,30],"right_children":[2,4,6,8,10,12,14,16,18,20,22,24,26,28,30,-1,32,34,36,38,40,42,44,-1,46,-1,48,50,52,54,56,-1,-1,-1,-1,-1,-1,-1,-1,-1,-1,-1,-1,-1,-1,-1,-1,-1,-1,-1,-1,-1,-1,-1,-1,-1,-1],"split_conditions":[9.176391E-1,5.628508E-1,-5.7767504E-1,-8.7905794E-1,-3.8741967E-1,1.2936248E0,7.149075E-2,-3.364095E0,1.32866E-2,2.6668656E0,-3.1648833E-1,2.2992446E0,-7.836506E-1,-7.85943E-1,1.0627475E0,-5.4535847E-2,-5.507589E-2,-4.3145335E-1,-9.3515325E-1,7.4329215E-1,2.9017797E0,1.32866E-2,1.1586478E0,5.9825968E-2,-7.0875037E-1,5.6524545E-2,1.6645488E0,-1.1118454E0,1.719924E0,-7.730551E-1,2.4883256E0,6.6775315E-2,1.4643847E-2,3.0377338E-2,-3.8589377E-2,-5.024103E-2,2.3287747E-2,-1.0907849E-2,-6.357684E-2,2.1723995E-2,-5.2416887E-2,6.207765E-2,-4.928896E-2,-2.6410181E-2,-5.592055E-2,4.9132574E-2,-3.0491387E-2,-4.6003174E-2,5.4906815E-2,5.909861E-2,-8.63399E-3,4.3150164E-2,-1.7241081E-2,-5.0274786E-2,2.0838014E-3,5.9531957E-2,-6.866526E-3],"split_indices":[12,1,1,13,14,13,13,14,14,1,13,5,1,13,4,0,1,14,1,1,1,14,1,0,1,0,14,13,5,15,7,0,0,0,0,0,0,0,0,0,0,0,0,0,0,0,0,0,0,0,0,0,0,0,0,0,0],"split_type":[0,0,0,0,0,0,0,0,0,0,0,0,0,0,0,0,0,0,0,0,0,0,0,0,0,0,0,0,0,0,0,0,0,0,0,0,0,0,0,0,0,0,0,0,0,0,0,0,0,0,0,0,0,0,0,0,0],"sum_hessian":[6.509476E2,3.2820157E2,3.22746E2,2.403314E2,8.7870155E1,1.1751833E2,2.0522766E2,3.2423706E1,2.079077E2,2.831495E1,5.9555202E1,8.7833E1,2.9685335E1,1.4250284E2,6.2724827E1,2.4203563E0,3.000335E1,8.477958E1,1.2312812E2,2.3445366E1,4.869586E0,1.0297298E1,4.9257904E1,8.25517E1,5.281304E0,1.671188E1,1.2973455E1,4.6992584E1,9.551025E1,5.4337852E1,8.386974E0,2.1001577E1,9.001772E0,3.1968147E1,5.2811436E1,6.6869793E0,1.1644114E2,1.6743937E0,2.1770971E1,1.7709277E0,3.098658E0,8.543049E0,1.7542493E0,2.127387E1,2.7984034E1,3.6263082E0,1.6549954E0,1.0297287E1,2.6761684E0,1.1521325E1,3.547126E1,9.216569E1,3.3445585E0,8.206813E0,4.613104E1,7.2166014E0,1.1703734E0],"tree_param":{"num_deleted":"0","num_feature":"16","num_nodes":"57","size_leaf_vector":"1"}},{"base_weights":[-1.692997E-1,-8.9449773E-4,-3.4787434E-1,8.4665485E-2,-1.8858206E-1,-4.0477645E-1,-1.8035868E-1,-2.1412273E-1,1.6357984E-1,-3.7934542E-1,3.42107E-1,-1.4568889E-1,-4.767344E-1,2.7856463E-1,-2.355059E-1,1.2772684E-1,-4.3088415E-1,-3.302415E-1,2.0930435E-1,1.8762335E-2,-4.3432352E-1,4.1339338E-1,-1.4717895E-1,-3.5270002E-1,2.408667E-1,-1.283014E-1,-4.869339E-1,-4.1652516E-2,4.8496872E-1,-5.9648465E-2,-1.7735651E-1,2.323187E-2,-5.1546175E-2,-4.8820164E-2,2.6152803E-2,1.6359417E-2,-5.9553303E-2,2.6872022E-2,-1.061192E-2,2.1389147E-2,-5.163446E-2,-4.555695E-2,-6.6811778E-3,-1.164717E-2,4.575284E-2,-5.8860566E-2,4.221334E-2,-4.141994E-2,3.4872185E-2,6.1053213E-2,-9.799995E-3,-4.618821E-2,1.6766774E-2,-4.977974E-2,-1.5351029E-2,7.973929E-2,-2.0859707E-2,-8.481937E-3,-4.6757158E-2],"categories":[],"categories_nodes":[],"categories_segments":[],"categories_sizes":[],"default_left":[0,0,0,0,0,0,0,0,0,0,0,0,0,0,0,0,0,0,0,0,0,0,0,0,0,0,0,0,0,0,0,0,0,0,0,0,0,0,0,0,0,0,0,0,0,0,0,0,0,0,0,0,0,0,0,0,0,0,0],"id":27,"left_children":[1,3,5,7,9,11,13,15,17,19,21,23,25,27,29,31,33,35,37,39,41,43,45,47,49,51,53,-1,55,-1,57,-1,-1,-1,-1,-1,-1,-1,-1,-1,-1,-1,-1,-1,-1,-1,-1,-1,-1,-1,-1,-1,-1,-1,-1,-1,-1,-1,-1],"loss_changes":[2.0217829E1,5.5883913E0,3.0372581E0,5.6713037E0,1.1161013E1,4.456417E0,2.2051148E0,3.7879307E0,4.3517003E0,1.7728605E0,1.084136E0,4.4227276E0,6.111641E-1,1.5688285E0,1.4897294E0,1.4866775E0,1.3602581E0,2.2540283E0,3.2932906E0,1.2320726E0,5.2304745E-1,6.58268E-1,1.3713921E0,1.6847825E0,2.502492E0,7.437285E-1,5.8934784E-1,0E0,1.8581643E0,0E0,1.7566721E0,0E0,0E0,0E0,0E0,0E0,0E0,0E0,0E0,0E0,0E0,0E0,0E0,0E0,0E0,0E0,0E0,0E0,0E0,0E0,0E0,0E0,0E0,0E0,0E0,0E0,0E0,0E0,0E0],"parents":[2147483647,0,0,1,1,2,2,3,3,4,4,5,5,6,6,7,7,8,8,9,9,10,10,11,11,12,12,13,13,14,14,15,15,16,16,17,17,18,18,19,19,20,20,21,21,22,22,23,23,24,24,25,25,26,26,28,28,30,30],"right_children":[2,4,6,8,10,12,14,16,18,20,22,24,26,28,30,32,34,36,38,40,42,44,46,48,50,52,54,-1,56,-1,58,-1,-1,-1,-1,-1,-1,-1,-1,-1,-1,-1,-1,-1,-1,-1,-1,-1,-1,-1,-1,-1,-1,-1,-1,-1,-1,-1,-1],"split_conditions":[9.176391E-1,4.5362318E-1,6.709184E-1,-6.5162164E-1,8.08651E-1,-7.85943E-1,8.474489E-1,-1.1118454E0,-9.1785586E-1,-1.372853E0,1.2377583E0,-4.3145335E-1,-1.17668E0,-1.8229169E0,1.32866E-2,-7.837226E-1,4.1118732E-1,-6.07588E-1,3.042782E-1,3.815716E-1,1.329893E0,-1.9266067E0,1.1869305E0,-8.208611E-1,-9.954517E-1,-1.3089503E-1,2.1720357E0,-4.1652516E-2,7.574554E-1,-5.9648465E-2,2.2946107E0,2.323187E-2,-5.1546175E-2,-4.8820164E-2,2.6152803E-2,1.6359417E-2,-5.9553303E-2,2.6872022E-2,-1.061192E-2,2.1389147E-2,-5.163446E-2,-4.555695E-2,-6.6811778E-3,-1.164717E-2,4.575284E-2,-5.8860566E-2,4.221334E-2,-4.141994E-2,3.4872185E-2,6.1053213E-2,-9.799995E-3,-4.618821E-2,1.6766774E-2,-4.977974E-2,-1.5351029E-2,7.973929E-2,-2.0859707E-2,-8.481937E-3,-4.6757158E-2],"split_indices":[12,14,13,14,13,13,13,13,13,0,0,14,5,14,14,14,15,14,13,2,14,2,13,13,13,15,10,0,14,0,13,0,0,0,0,0,0,0,0,0,0,0,0,0,0,0,0,0,0,0,0,0,0,0,0,0,0,0,0],"split_type":[0,0,0,0,0,0,0,0,0,0,0,0,0,0,0,0,0,0,0,0,0,0,0,0,0,0,0,0,0,0,0,0,0,0,0,0,0,0,0,0,0,0,0,0,0,0,0,0,0,0,0,0,0,0,0,0,0,0,0],"sum_hessian":[6.713043E2,3.4600684E2,3.252975E2,2.3804129E2,1.0796553E2,2.4175967E2,8.35378E1,4.937659E1,1.886647E2,7.9627525E1,2.8338005E1,5.3207737E1,1.8855194E2,8.52696E0,7.501084E1,1.9319304E1,3.005729E1,1.5461308E1,1.732034E2,9.742053E0,6.988547E1,2.4869724E1,3.4682803E0,3.4708153E1,1.8499584E1,5.7485933E0,1.8280334E2,1.7192333E0,6.807727E0,9.122505E0,6.5888336E1,1.716657E1,2.1527333E0,2.8031763E1,2.0255263E0,5.5372157E0,9.924091E0,1.4587349E2,2.7329908E1,7.578721E0,2.1633315E0,6.5839645E1,4.045822E0,1.7862165E0,2.3083508E1,1.9344671E0,1.5338131E0,3.2286793E1,2.4213595E0,8.464299E0,1.0035286E1,2.439034E0,3.3095596E0,1.7655782E2,6.245536E0,4.5902843E0,2.2174428E0,5.09385E1,1.4949839E1],"tree_param":{"num_deleted":"0","num_feature":"16","num_nodes":"59","size_leaf_vector":"1"}},{"base_weights":[1.23850346E-1,3.2054797E-1,-1.2519683E-2,4.770574E-1,1.873934E-1,5.7829738E-2,-1.8181072E-1,5.63234E-1,2.5737143E-1,5.6077372E-2,1.3427238E-1,2.6446515E-1,6.8442333E-3,-8.57202E-2,-4.5356342E-1,9.793072E-3,5.7312715E-1,5.4372257E-1,2.3581922E-2,3.41121E-1,5.9845205E-2,-8.9398794E-2,4.0987468E-1,6.2918775E-2,-1.5235881E-2,-4.5491517E-1,4.695756E-2,-5.62196E-1,-1.4402044E-1,3.8593832E-2,5.95706E-2,-2.960868E-3,6.010306E-2,4.78204E-2,-2.2682212E-2,-1.6134456E-2,4.406738E-2,-4.3410774E-2,