{"learner":{"attributes":{},"feature_names":[],"feature_types":[],"gradient_booster":{"model":{"gbtree_model_param":{"num_parallel_tree":"1","num_trees":"1000"},"iteration_indptr":[0,2,4,6,8,10,12,14,16,18,20,22,24,26,28,30,32,34,36,38,40,42,44,46,48,50,52,54,56,58,60,62,64,66,68,70,72,74,76,78,80,82,84,86,88,90,92,94,96,98,100,102,104,106,108,110,112,114,116,118,120,122,124,126,128,130,132,134,136,138,140,142,144,146,148,150,152,154,156,158,160,162,164,166,168,170,172,174,176,178,180,182,184,186,188,190,192,194,196,198,200,202,204,206,208,210,212,214,216,218,220,222,224,226,228,230,232,234,236,238,240,242,244,246,248,250,252,254,256,258,260,262,264,266,268,270,272,274,276,278,280,282,284,286,288,290,292,294,296,298,300,302,304,306,308,310,312,314,316,318,320,322,324,326,328,330,332,334,336,338,340,342,344,346,348,350,352,354,356,358,360,362,364,366,368,370,372,374,376,378,380,382,384,386,388,390,392,394,396,398,400,402,404,406,408,410,412,414,416,418,420,422,424,426,428,430,432,434,436,438,440,442,444,446,448,450,452,454,456,458,460,462,464,466,468,470,472,474,476,478,480,482,484,486,488,490,492,494,496,498,500,502,504,506,508,510,512,514,516,518,520,522,524,526,528,530,532,534,536,538,540,542,544,546,548,550,552,554,556,558,560,562,564,566,568,570,572,574,576,578,580,582,584,586,588,590,592,594,596,598,600,602,604,606,608,610,612,614,616,618,620,622,624,626,628,630,632,634,636,638,640,642,644,646,648,650,652,654,656,658,660,662,664,666,668,670,672,674,676,678,680,682,684,686,688,690,692,694,696,698,700,702,704,706,708,710,712,714,716,718,720,722,724,726,728,730,732,734,736,738,740,742,744,746,748,750,752,754,756,758,760,762,764,766,768,770,772,774,776,778,780,782,784,786,788,790,792,794,796,798,800,802,804,806,808,810,812,814,816,818,820,822,824,826,828,830,832,834,836,838,840,842,844,846,848,850,852,854,856,858,860,862,864,866,868,870,872,874,876,878,880,882,884,886,888,890,892,894,896,898,900,902,904,906,908,910,912,914,916,918,920,922,924,926,928,930,932,934,936,938,940,942,944,946,948,950,952,954,956,958,960,962,964,966,968,970,972,974,976,978,980,982,984,986,988,990,992,994,996,998,1000],"tree_info":[0,1,0,1,0,1,0,1,0,1,0,1,0,1,0,1,0,1,0,1,0,1,0,1,0,1,0,1,0,1,0,1,0,1,0,1,0,1,0,1,0,1,0,1,0,1,0,1,0,1,0,1,0,1,0,1,0,1,0,1,0,1,0,1,0,1,0,1,0,1,0,1,0,1,0,1,0,1,0,1,0,1,0,1,0,1,0,1,0,1,0,1,0,1,0,1,0,1,0,1,0,1,0,1,0,1,0,1,0,1,0,1,0,1,0,1,0,1,0,1,0,1,0,1,0,1,0,1,0,1,0,1,0,1,0,1,0,1,0,1,0,1,0,1,0,1,0,1,0,1,0,1,0,1,0,1,0,1,0,1,0,1,0,1,0,1,0,1,0,1,0,1,0,1,0,1,0,1,0,1,0,1,0,1,0,1,0,1,0,1,0,1,0,1,0,1,0,1,0,1,0,1,0,1,0,1,0,1,0,1,0,1,0,1,0,1,0,1,0,1,0,1,0,1,0,1,0,1,0,1,0,1,0,1,0,1,0,1,0,1,0,1,0,1,0,1,0,1,0,1,0,1,0,1,0,1,0,1,0,1,0,1,0,1,0,1,0,1,0,1,0,1,0,1,0,1,0,1,0,1,0,1,0,1,0,1,0,1,0,1,0,1,0,1,0,1,0,1,0,1,0,1,0,1,0,1,0,1,0,1,0,1,0,1,0,1,0,1,0,1,0,1,0,1,0,1,0,1,0,1,0,1,0,1,0,1,0,1,0,1,0,1,0,1,0,1,0,1,0,1,0,1,0,1,0,1,0,1,0,1,0,1,0,1,0,1,0,1,0,1,0,1,0,1,0,1,0,1,0,1,0,1,0,1,0,1,0,1,0,1,0,1,0,1,0,1,0,1,0,1,0,1,0,1,0,1,0,1,0,1,0,1,0,1,0,1,0,1,0,1,0,1,0,1,0,1,0,1,0,1,0,1,0,1,0,1,0,1,0,1,0,1,0,1,0,1,0,1,0,1,0,1,0,1,0,1,0,1,0,1,0,1,0,1,0,1,0,1,0,1,0,1,0,1,0,1,0,1,0,1,0,1,0,1,0,1,0,1,0,1,0,1,0,1,0,1,0,1,0,1,0,1,0,1,0,1,0,1,0,1,0,1,0,1,0,1,0,1,0,1,0,1,0,1,0,1,0,1,0,1,0,1,0,1,0,1,0,1,0,1,0,1,0,1,0,1,0,1,0,1,0,1,0,1,0,1,0,1,0,1,0,1,0,1,0,1,0,1,0,1,0,1,0,1,0,1,0,1,0,1,0,1,0,1,0,1,0,1,0,1,0,1,0,1,0,1,0,1,0,1,0,1,0,1,0,1,0,1,0,1,0,1,0,1,0,1,0,1,0,1,0,1,0,1,0,1,0,1,0,1,0,1,0,1,0,1,0,1,0,1,0,1,0,1,0,1,0,1,0,1,0,1,0,1,0,1,0,1,0,1,0,1,0,1,0,1,0,1,0,1,0,1,0,1,0,1,0,1,0,1,0,1,0,1,0,1,0,1,0,1,0,1,0,1,0,1,0,1,0,1,0,1,0,1,0,1,0,1,0,1,0,1,0,1,0,1,0,1,0,1,0,1,0,1,0,1,0,1,0,1,0,1,0,1,0,1,0,1,0,1,0,1,0,1,0,1,0,1,0,1,0,1,0,1,0,1,0,1,0,1,0,1,0,1,0,1,0,1,0,1,0,1,0,1,0,1,0,1,0,1,0,1,0,1,0,1,0,1,0,1,0,1,0,1,0,1,0,1,0,1,0,1,0,1,0,1,0,1,0,1,0,1,0,1,0,1,0,1,0,1,0,1,0,1,0,1,0,1,0,1,0,1,0,1,0,1,0,1,0,1,0,1,0,1,0,1,0,1,0,1,0,1,0,1,0,1,0,1,0,1,0,1,0,1,0,1,0,1,0,1,0,1,0,1,0,1,0,1,0,1,0,1,0,1,0,1,0,1,0,1,0,1,0,1,0,1,0,1,0,1,0,1,0,1,0,1,0,1,0,1,0,1,0,1,0,1,0,1,0,1,0,1,0,1,0,1,0,1,0,1,0,1,0,1,0,1,0,1,0,1,0,1,0,1,0,1,0,1,0,1,0,1,0,1,0,1,0,1,0,1,0,1,0,1,0,1,0,1,0,1,0,1,0,1,0,1,0,1,0,1,0,1,0,1,0,1,0,1,0,1,0,1,0,1,0,1,0,1,0,1],"trees":[{"base_weights":[5.681995E-1,1.9463088E-1,8.2295084E-1,5.390782E-1,-1.2087912E-1,5.1428574E-1,8.5292E-1,4.181818E-1,6.2989324E-1,-3.4545454E-1,4.1104296E-1,5.555556E-1,-2.1428572E-2,-0E0,8.566256E-1,2.1559633E-2,-2.5E-2,3.4545455E-2,1.984127E-2,-3.846154E-3,-2.7522936E-2,8.108108E-3,3.0219782E-2,4.411765E-2,2.5E-2,-3.0000001E-2,3.0000001E-2,4.2960815E-2,-1.0000001E-2],"categories":[],"categories_nodes":[],"categories_segments":[],"categories_sizes":[],"default_left":[0,0,0,0,0,0,0,0,0,0,0,0,0,0,0,0,0,0,0,0,0,0,0,0,0,0,0,0,0],"id":0,"left_children":[1,3,5,7,9,11,13,15,17,19,21,23,-1,25,27,-1,-1,-1,-1,-1,-1,-1,-1,-1,-1,-1,-1,-1,-1],"loss_changes":[1.2193915E2,5.673999E1,6.614868E0,2.4759064E0,3.2753654E1,2.9619045E0,2.1918945E0,1.5296898E0,1.7238541E0,1.0554796E1,3.8239126E0,7.843132E-1,0E0,1.8E0,2.0619812E0,0E0,0E0,0E0,0E0,0E0,0E0,0E0,0E0,0E0,0E0,0E0,0E0,0E0,0E0],"parents":[2147483647,0,0,1,1,2,2,3,3,4,4,5,5,6,6,7,7,8,8,9,9,10,10,11,11,13,13,14,14],"right_children":[2,4,6,8,10,12,14,16,18,20,22,24,-1,26,28,-1,-1,-1,-1,-1,-1,-1,-1,-1,-1,-1,-1,-1,-1],"split_conditions":[8.360274E-1,-1.1403927E-1,-9.5787174E-1,8.8481545E-1,8.8481545E-1,-9.7458124E-1,-4.2911848E-1,4.295599E0,-2.6024786E-1,4.707951E-1,2.9116738E-1,8.8481545E-1,-2.1428572E-2,-2.0014844E0,7.6901207E0,2.1559633E-2,-2.5E-2,3.4545455E-2,1.984127E-2,-3.846154E-3,-2.7522936E-2,8.108108E-3,3.0219782E-2,4.411765E-2,2.5E-2,-3.0000001E-2,3.0000001E-2,4.2960815E-2,-1.0000001E-2],"split_indices":[4,2,2,5,5,2,3,3,2,2,2,5,0,9,1,0,0,0,0,0,0,0,0,0,0,0,0,0,0],"split_type":[0,0,0,0,0,0,0,0,0,0,0,0,0,0,0,0,0,0,0,0,0,0,0,0,0,0,0,0,0],"sum_hessian":[1.282E3,5.205E2,7.615E2,2.485E2,2.72E2,6.9E1,6.925E2,1.09E2,1.395E2,1.915E2,8.05E1,6.65E1,2.5E0,3E0,6.895E2,1.08E2,1E0,1.09E2,3.05E1,8.35E1,1.08E2,3.6E1,4.45E1,7.5E0,5.9E1,1.5E0,1.5E0,6.88E2,1.5E0],"tree_param":{"num_deleted":"0","num_feature":"10","num_nodes":"29","size_leaf_vector":"1"}},{"base_weights":[-5.535504E-1,-6.6903913E-1,-3.2716763E-1,-4.4827586E-1,-6.889177E-1,4.464286E-2,-7.231504E-1,-5.074627E-1,2.3076923E-1,-7.4857146E-1,-6.089552E-1,-1.8181819E-1,1.1764706E-1,1.25E-2,-7.384988E-1,-4.375E-2,-2.2499999E-2,-0E0,1.3636365E-2,-0E0,-3.7514318E-2,-0E0,-3.0909091E-2,3.0000001E-2,-1.0747664E-2,6.417911E-3,-2.1428572E-2,-3.734793E-2,2.5E-2],"categories":[],"categories_nodes":[],"categories_segments":[],"categories_sizes":[],"default_left":[0,0,0,0,0,0,0,0,0,0,0,0,0,0,0,0,0,0,0,0,0,0,0,0,0,0,0,0,0],"id":1,"left_children":[1,3,5,7,9,11,13,15,17,19,21,23,25,-1,27,-1,-1,-1,-1,-1,-1,-1,-1,-1,-1,-1,-1,-1,-1],"loss_changes":[3.3102478E1,3.3906555E0,6.3709488E1,3.0309181E0,3.2242737E0,3.7246945E0,3.3137817E0,1.0212688E0,6.293705E-2,5.6163025E-1,1.882225E0,1.5537807E0,1.0496173E0,0E0,2.5370865E0,0E0,0E0,0E0,0E0,0E0,0E0,0E0,0E0,0E0,0E0,0E0,0E0,0E0,0E0],"parents":[2147483647,0,0,1,1,2,2,3,3,4,4,5,5,6,6,7,7,8,8,9,9,10,10,11,11,12,12,14,14],"right_children":[2,4,6,8,10,12,14,16,18,20,22,24,26,-1,28,-1,-1,-1,-1,-1,-1,-1,-1,-1,-1,-1,-1,-1,-1],"split_conditions":[6.1411034E-2,-9.5787174E-1,8.8481545E-1,-9.7458124E-1,-4.203811E-1,3.3711866E-1,6.8373345E-2,8.8481545E-1,-6.975979E-1,-4.0759845E0,-2.0014844E0,-2.3161353E-1,5.6127113E-1,1.25E-2,1.7184805E0,-4.375E-2,-2.2499999E-2,-0E0,1.3636365E-2,-0E0,-3.7514318E-2,-0E0,-3.0909091E-2,3.0000001E-2,-1.0747664E-2,6.417911E-3,-2.1428572E-2,-3.734793E-2,2.5E-2],"split_indices":[2,2,5,2,2,2,2,5,1,1,9,1,6,0,3,0,0,0,0,0,0,0,0,0,0,0,0,0,0],"split_type":[0,0,0,0,0,0,0,0,0,0,0,0,0,0,0,0,0,0,0,0,0,0,0,0,0,0,0,0,0],"sum_hessian":[1.2735E3,8.42E2,4.315E2,7.15E1,7.705E2,2.23E2,2.085E2,6.6E1,5.5E0,4.365E2,3.34E2,5.4E1,1.69E2,3E0,2.055E2,7E0,5.9E1,1E0,4.5E0,1E0,4.355E2,5E0,3.29E2,1.5E0,5.25E1,1.665E2,2.5E0,2.045E2,1E0],"tree_param":{"num_deleted":"0","num_feature":"10","num_nodes":"29","size_leaf_vector":"1"}},{"base_weights":[5.267345E-1,1.0833354E-1,5.89691E-1,-1.107007E-1,4.1306219E-1,4.4432357E-1,6.9178146E-1,2.520893E-1,-3.5262007E-1,2.4864592E-1,5.8229166E-1,6.1910963E-1,-3.7550952E-3,4.0575495E-1,7.270417E-1,3.375886E-2,8.252479E-3,-2.4546059E-2,-9.247279E-3,1.5589475E-2,-1.1201995E-2,2.5452027E-2,4.0688213E-2,3.2460302E-2,5.2620857E-3,-1.3595287E-3,3.7061967E-2,-4.394774E-3,2.2349112E-2,3.473095E-2,4.1633047E-2],"categories":[],"categories_nodes":[],"categories_segments":[],"categories_sizes":[],"default_left":[0,0,0,0,0,0,0,0,0,0,0,0,0,0,0,0,0,0,0,0,0,0,0,0,0,0,0,0,0,0,0],"id":2,"left_children":[1,3,5,7,9,11,13,15,17,19,21,23,25,27,29,-1,-1,-1,-1,-1,-1,-1,-1,-1,-1,-1,-1,-1,-1,-1,-1],"loss_changes":[3.349814E1,1.1250275E1,1.6125153E1,8.7299385E0,1.8143892E0,3.5997696E1,6.2469788E0,1.360518E0,1.2886248E0,1.1879113E0,1.6145992E-1,5.0451965E0,2.2892869E0,1.5341597E0,1.3948364E0,0E0,0E0,0E0,0E0,0E0,0E0,0E0,0E0,0E0,0E0,0E0,0E0,0E0,0E0,0E0,0E0],"parents":[2147483647,0,0,1,1,2,2,3,3,4,4,5,5,6,6,7,7,8,8,9,9,10,10,11,11,12,12,13,13,14,14],"right_children":[2,4,6,8,10,12,14,16,18,20,22,24,26,28,30,-1,-1,-1,-1,-1,-1,-1,-1,-1,-1,-1,-1,-1,-1,-1,-1],"split_conditions":[-7.649094E-1,8.8481545E-1,8.8481545E-1,2.605332E-1,3.3711866E-1,2.424312E-1,-9.397697E-1,-1.4002565E0,1.3967829E0,1.9926485E-1,1.6780603E0,1.200829E0,6.1138004E-2,-3.9393488E-1,2.7445784E-1,3.375886E-2,8.252479E-3,-2.4546059E-2,-9.247279E-3,1.5589475E-2,-1.1201995E-2,2.5452027E-2,4.0688213E-2,3.2460302E-2,5.2620857E-3,-1.3595287E-3,3.7061967E-2,-4.394774E-3,2.2349112E-2,3.473095E-2,4.1633047E-2],"split_indices":[0,5,5,2,2,2,2,0,2,2,2,0,9,0,2,0,0,0,0,0,0,0,0,0,0,0,0,0,0,0,0],"split_type":[0,0,0,0,0,0,0,0,0,0,0,0,0,0,0,0,0,0,0,0,0,0,0,0,0,0,0,0,0,0,0],"sum_hessian":[1.2731346E3,1.6686845E2,1.1062662E3,9.74556E1,6.941286E1,4.5860596E2,6.476602E2,3.8971165E1,5.8484432E1,3.6459564E1,3.2953293E1,3.29639E2,1.2896695E2,7.2451416E1,5.752088E2,5.496471E0,3.3474693E1,3.0993E1,2.749143E1,3.2463345E1,3.9962163E0,2.7461916E1,5.4913764E0,3.1115198E2,1.8487024E1,1.2596786E2,2.9991004E0,5.497159E0,6.695426E1,4.4590305E2,1.2930577E2],"tree_param":{"num_deleted":"0","num_feature":"10","num_nodes":"31","size_leaf_vector":"1"}},{"base_weights":[-5.3808314E-1,-1.9844829E-1,-7.7487063E-1,5.6445297E-2,-5.378203E-1,-4.2912367E-1,-8.083533E-1,-2.6841888E-1,4.473816E-1,-4.8842993E-2,-5.9750926E-1,-4.7784942E-1,4.8780477E-1,-5.9910804E-1,-8.248709E-1,-1.9247929E-2,-3.4558808E-3,2.8178522E-2,1.6477423E-3,8.368281E-3,-1.3899905E-2,-2.8620733E-2,-4.23986E-2,5.5194083E-3,-2.6116723E-2,9.475827E-3,2.9546559E-2,-3.196871E-2,8.516781E-3,-8.998531E-3,-4.1431826E-2],"categories":[],"categories_nodes":[],"categories_segments":[],"categories_sizes":[],"default_left":[0,0,0,0,0,0,0,0,0,0,0,0,0,0,0,0,0,0,0,0,0,0,0,0,0,0,0,0,0,0,0],"id":3,"left_children":[1,3,5,7,9,11,13,15,17,19,21,23,25,27,29,-1,-1,-1,-1,-1,-1,-1,-1,-1,-1,-1,-1,-1,-1,-1,-1],"loss_changes":[1.0395978E2,4.614996E1,8.479645E0,3.8903206E1,6.6479874E0,3.3359566E0,1.9043884E0,3.8616714E0,6.6730385E0,1.3335813E0,7.955246E-1,1.7965107E0,1.1029005E-2,1.7952595E0,1.4065247E0,0E0,0E0,0E0,0E0,0E0,0E0,0E0,0E0,0E0,0E0,0E0,0E0,0E0,0E0,0E0,0E0],"parents":[2147483647,0,0,1,1,2,2,3,3,4,4,5,5,6,6,7,7,8,8,9,9,10,10,11,11,12,12,13,13,14,14],"right_children":[2,4,6,8,10,12,14,16,18,20,22,24,26,28,30,-1,-1,-1,-1,-1,-1,-1,-1,-1,-1,-1,-1,-1,-1,-1,-1],"split_conditions":[8.360274E-1,8.8481545E-1,-9.5787174E-1,2.424312E-1,-8.501909E-1,-9.7458124E-1,-8.501909E-1,-1.6695286E-1,6.7634785E-1,3.3711866E-1,1.0584143E0,-3.9393488E-1,-4.1951934E-1,-9.0135974E-1,-2.4258924E0,-1.9247929E-2,-3.4558808E-3,2.8178522E-2,1.6477423E-3,8.368281E-3,-1.3899905E-2,-2.8620733E-2,-4.23986E-2,5.5194083E-3,-2.6116723E-2,9.475827E-3,2.9546559E-2,-3.196871E-2,8.516781E-3,-8.998531E-3,-4.1431826E-2],"split_indices":[4,5,2,2,0,2,0,2,0,2,2,0,0,0,9,0,0,0,0,0,0,0,0,0,0,0,0,0,0,0,0],"split_type":[0,0,0,0,0,0,0,0,0,0,0,0,0,0,0,0,0,0,0,0,0,0,0,0,0,0,0,0,0,0,0],"sum_hessian":[1.2936017E3,5.321514E2,7.6145026E2,3.0437607E2,2.2777534E2,6.844929E1,6.93001E2,1.6640695E2,1.3796913E2,2.497732E1,2.0279802E2,6.545011E1,2.9991744E0,5.3429123E1,6.3957184E2,1.0441792E2,6.1989025E1,1.0747696E2,3.0492165E1,1.29904375E1,1.1986881E1,1.873157E2,1.5482323E1,4.4974627E0,6.0952652E1,1.499539E0,1.4996352E0,5.093278E1,2.4963417E0,3.996104E0,6.3557574E2],"tree_param":{"num_deleted":"0","num_feature":"10","num_nodes":"31","size_leaf_vector":"1"}},{"base_weights":[5.071123E-1,1.648821E-1,7.3785543E-1,4.2140114E-1,-1.533653E-1,4.081372E-1,7.715028E-1,1.6163854E-1,4.7624788E-1,-3.7981212E-1,-6.267391E-2,4.596788E-1,-1.9162575E-2,7.739989E-1,-1.1393707E-2,1.3889039E-2,-8.4394645E-3,2.5944158E-2,1.309168E-3,2.4084854E-3,-2.137144E-2,3.2842928E-3,-8.307626E-3,2.0210631E-2,4.159469E-2,3.7216682E-3,3.887232E-2],"categories":[],"categories_nodes":[],"categories_segments":[],"categories_sizes":[],"default_left":[0,0,0,0,0,0,0,0,0,0,0,0,0,0,0,0,0,0,0,0,0,0,0,0,0,0,0],"id":4,"left_children":[1,3,5,7,9,11,13,15,17,19,21,23,-1,25,-1,-1,-1,-1,-1,-1,-1,-1,-1,-1,-1,-1,-1],"loss_changes":[1.0085965E2,4.221071E1,8.155609E0,3.9994354E0,4.7231274E0,3.1466026E0,1.901825E0,2.019224E0,4.5097084E0,1.3636074E0,2.219009E0,1.0846605E0,0E0,1.6066589E0,0E0,0E0,0E0,0E0,0E0,0E0,0E0,0E0,0E0,0E0,0E0,0E0,0E0],"parents":[2147483647,0,0,1,1,2,2,3,3,4,4,5,5,6,6,7,7,8,8,9,9,10,10,11,11,13,13],"right_children":[2,4,6,8,10,12,14,16,18,20,22,24,-1,26,-1,-1,-1,-1,-1,-1,-1,-1,-1,-1,-1,-1,-1],"split_conditions":[8.360274E-1,6.1411034E-2,-9.5787174E-1,-4.109912E-1,-9.312083E-1,-9.7458124E-1,7.6901207E0,-1.4467345E-1,1.0558505E0,2.424312E-1,5.292785E-1,4.972567E-1,-1.9162575E-2,-4.2911848E-1,-1.1393707E-2,1.3889039E-2,-8.4394645E-3,2.5944158E-2,1.309168E-3,2.4084854E-3,-2.137144E-2,3.2842928E-3,-8.307626E-3,2.0210631E-2,4.159469E-2,3.7216682E-3,3.887232E-2],"split_indices":[4,2,2,0,0,2,1,2,0,2,2,0,0,3,0,0,0,0,0,0,0,0,0,0,0,0,0],"split_type":[0,0,0,0,0,0,0,0,0,0,0,0,0,0,0,0,0,0,0,0,0,0,0,0,0,0,0],"sum_hessian":[1.2777738E3,5.15265E2,7.625088E2,2.8512204E2,2.3014294E2,7.182354E1,6.9068524E2,5.039424E1,2.3472781E2,6.490186E1,1.6524109E2,6.7825356E1,3.998183E0,6.891894E2,1.4958514E0,3.7405792E1,1.298845E1,2.1427618E2,2.045163E1,6.4967766E0,5.840509E1,7.391662E1,9.132447E1,6.084449E1,6.9808645E0,3.4904246E0,6.85699E2],"tree_param":{"num_deleted":"0","num_feature":"10","num_nodes":"27","size_leaf_vector":"1"}},{"base_weights":[-5.217464E-1,-1.8793248E-1,-7.500341E-1,-4.8052227E-1,8.0398455E-2,-4.4515616E-1,-7.7881896E-1,-4.5486875E-2,-5.1285774E-1,2.7593172E-1,-3.8440588E-1,-5.141742E-1,2.1856857E-2,-2.830116E-2,-7.8581935E-1,-2.1984475E-2,1.6675044E-2,-1.9037602E-2,-3.0812485E-2,3.9092284E-3,2.2408657E-2,5.179315E-4,-2.4209525E-2,7.8878105E-3,-2.7206123E-2,-3.1504598E-2,1.5245444E-2,-2.973769E-2,-4.008317E-2],"categories":[],"categories_nodes":[],"categories_segments":[],"categories_sizes":[],"default_left":[0,0,0,0,0,0,0,0,0,0,0,0,0,0,0,0,0,0,0,0,0,0,0,0,0,0,0,0,0],"id":5,"left_children":[1,3,5,7,9,11,13,15,17,19,21,23,-1,25,27,-1,-1,-1,-1,-1,-1,-1,-1,-1,-1,-1,-1,-1,-1],"loss_changes":[9.8067535E1,4.123561E1,6.366852E0,3.509777E0,2.5060123E1,4.385684E0,3.64328E0,2.9066348E0,2.9572144E0,6.567458E0,3.224104E0,1.3703442E0,0E0,1.6929736E0,1.6155701E0,0E0,0E0,0E0,0E0,0E0,0E0,0E0,0E0,0E0,0E0,0E0,0E0,0E0,0E0],"parents":[2147483647,0,0,1,1,2,2,3,3,4,4,5,5,6,6,7,7,8,8,9,9,10,10,11,11,13,13,14,14],"right_children":[2,4,6,8,10,12,14,16,18,20,22,24,-1,26,28,-1,-1,-1,-1,-1,-1,-1,-1,-1,-1,-1,-1,-1,-1],"split_conditions":[8.360274E-1,-1.1403927E-1,-9.5787174E-1,-8.288705E-1,8.8481545E-1,-9.7458124E-1,-2.0014844E0,-1.0719228E0,8.8481545E-1,5.0978404E-1,-9.312083E-1,-4.0246305E-1,2.1856857E-2,2.4920673E0,-8.501909E-1,-2.1984475E-2,1.6675044E-2,-1.9037602E-2,-3.0812485E-2,3.9092284E-3,2.2408657E-2,5.179315E-4,-2.4209525E-2,7.8878105E-3,-2.7206123E-2,-3.1504598E-2,1.5245444E-2,-2.973769E-2,-4.008317E-2],"split_indices":[4,2,2,0,5,2,9,0,5,2,0,0,0,7,0,0,0,0,0,0,0,0,0,0,0,0,0,0,0],"split_type":[0,0,0,0,0,0,0,0,0,0,0,0,0,0,0,0,0,0,0,0,0,0,0,0,0,0,0,0,0],"sum_hessian":[1.2877302E3,5.237295E2,7.6400073E2,2.5016125E2,2.7356824E2,6.733029E1,6.966705E2,1.7474134E1,2.3268712E2,1.9284769E2,8.072055E1,6.283241E1,4.497884E0,6.484702E0,6.901857E2,8.48663E0,8.987503E0,1.0421385E2,1.2847327E2,9.0453575E1,1.0239412E2,1.6467718E1,6.425283E1,2.4988797E0,6.0333527E1,1.993459E0,4.491243E0,5.5801685E1,6.343841E2],"tree_param":{"num_deleted":"0","num_feature":"10","num_nodes":"29","size_leaf_vector":"1"}},{"base_weights":[4.8526293E-1,1.6247587E-1,7.194612E-1,4.0697452E-1,-1.5719032E-1,4.0573224E-1,7.4992234E-1,-1.1290301E-2,4.59336E-1,-3.8809353E-1,-5.4550964E-2,4.48871E-1,-1.5014397E-2,1.4551507E-1,7.5556856E-1,8.592918E-3,-9.673091E-3,2.845007E-2,1.6818319E-2,-6.980512E-3,-2.6288519E-2,-4.0713213E-3,2.2223746E-2,1.9331615E-2,4.0671524E-2,3.456025E-2,-1.8536E-2,3.070344E-2,3.878226E-2],"categories":[],"categories_nodes":[],"categories_segments":[],"categories_sizes":[],"default_left":[0,0,0,0,0,0,0,0,0,0,0,0,0,0,0,0,0,0,0,0,0,0,0,0,0,0,0,0,0],"id":6,"left_children":[1,3,5,7,9,11,13,15,17,19,21,23,-1,25,27,-1,-1,-1,-1,-1,-1,-1,-1,-1,-1,-1,-1,-1,-1],"loss_changes":[9.6392426E1,4.2119823E1,6.763336E0,6.6886826E0,5.5226474E0,2.1945906E0,2.1864624E0,1.1986312E0,3.4664268E0,2.3835545E0,2.223612E0,1.1407423E0,0E0,2.3596287E0,1.4169922E0,0E0,0E0,0E0,0E0,0E0,0E0,0E0,0E0,0E0,0E0,0E0,0E0,0E0,0E0],"parents":[2147483647,0,0,1,1,2,2,3,3,4,4,5,5,6,6,7,7,8,8,9,9,10,10,11,11,13,13,14,14],"right_children":[2,4,6,8,10,12,14,16,18,20,22,24,-1,26,28,-1,-1,-1,-1,-1,-1,-1,-1,-1,-1,-1,-1,-1,-1],"split_conditions":[8.360274E-1,6.1411034E-2,-9.5787174E-1,-6.924201E-1,-8.288705E-1,-9.7458124E-1,-2.0014844E0,-2.54678E-1,-3.967092E-1,5.292785E-1,3.2404037E0,4.972567E-1,-1.5014397E-2,-4.649399E-1,-5.815542E-1,8.592918E-3,-9.673091E-3,2.845007E-2,1.6818319E-2,-6.980512E-3,-2.6288519E-2,-4.0713213E-3,2.2223746E-2,1.9331615E-2,4.0671524E-2,3.456025E-2,-1.8536E-2,3.070344E-2,3.878226E-2],"split_indices":[4,2,2,0,0,2,9,2,2,2,2,0,0,2,0,0,0,0,0,0,0,0,0,0,0,0,0,0,0],"split_type":[0,0,0,0,0,0,0,0,0,0,0,0,0,0,0,0,0,0,0,0,0,0,0,0,0,0,0,0,0],"sum_hessian":[1.2756431E3,5.3708795E2,7.385552E2,3.0416916E2,2.3291876E2,6.6630104E1,6.7192505E2,3.3928875E1,2.702403E2,7.081908E1,1.6209969E2,6.3136597E1,3.4935057E0,6.4666424E0,6.6545844E2,1.6947292E1,1.6981583E1,1.4093027E2,1.2931001E2,2.5967035E1,4.4852047E1,1.5460988E2,7.489815E0,5.568964E1,7.446958E0,2.978871E0,3.487771E0,8.661113E1,5.788473E2],"tree_param":{"num_deleted":"0","num_feature":"10","num_nodes":"29","size_leaf_vector":"1"}},{"base_weights":[-4.9841484E-1,-8.467728E-2,-5.527329E-1,1.1902894E-1,-3.459794E-1,-4.068923E-1,-6.558575E-1,-2.3797445E-1,3.0160382E-1,-6.82797E-1,-2.6692373E-1,-6.0839295E-1,-1.0582184E-1,-4.3370524E-1,-6.805509E-1,-5.316608E-3,-2.8919032E-2,2.3043692E-2,4.694519E-3,-4.1542966E-2,-4.2486857E-3,-1.0832305E-2,-3.6595576E-2,-3.0995606E-2,-1.0042427E-3,-1.571055E-2,-1.8861172E-4,-2.4660114E-2,1.0494096E-3,-3.2430615E-2,-3.9586168E-2],"categories":[],"categories_nodes":[],"categories_segments":[],"categories_sizes":[],"default_left":[0,0,0,0,0,0,0,0,0,0,0,0,0,0,0,0,0,0,0,0,0,0,0,0,0,0,0,0,0,0,0],"id":7,"left_children":[1,3,5,7,9,11,13,15,17,19,21,23,25,27,29,-1,-1,-1,-1,-1,-1,-1,-1,-1,-1,-1,-1,-1,-1,-1,-1],"loss_changes":[2.8830627E1,8.041537E0,1.6813202E1,5.6252737E0,1.5777688E0,2.8632965E1,3.3452759E0,1.2554593E0,1.8362803E0,9.847789E-1,1.1313467E0,1.906517E0,4.057876E0,1.8808603E0,1.6007996E0,0E0,0E0,0E0,0E0,0E0,0E0,0E0,0E0,0E0,0E0,0E0,0E0,0E0,0E0,0E0,0E0],"parents":[2147483647,0,0,1,1,2,2,3,3,4,4,5,5,6,6,7,7,8,8,9,9,10,10,11,11,12,12,13,13,14,14],"right_children":[2,4,6,8,10,12,14,16,18,20,22,24,26,28,30,-1,-1,-1,-1,-1,-1,-1,-1,-1,-1,-1,-1,-1,-1,-1,-1],"split_conditions":[-8.288705E-1,8.8481545E-1,8.8481545E-1,2.424312E-1,-2.3596733E0,-1.1403927E-1,-9.4951695E-1,-9.781131E-1,1.3967829E0,1.4580512E0,1.5415989E0,1.5675395E0,2.424312E-1,-9.7458124E-1,2.7445784E-1,-5.316608E-3,-2.8919032E-2,2.3043692E-2,4.694519E-3,-4.1542966E-2,-4.2486857E-3,-1.0832305E-2,-3.6595576E-2,-3.0995606E-2,-1.0042427E-3,-1.571055E-2,-1.8861172E-4,-2.4660114E-2,1.0494096E-3,-3.2430615E-2,-3.9586168E-2],"split_indices":[0,5,5,2,0,2,2,0,2,2,2,0,2,2,2,0,0,0,0,0,0,0,0,0,0,0,0,0,0,0,0],"split_type":[0,0,0,0,0,0,0,0,0,0,0,0,0,0,0,0,0,0,0,0,0,0,0,0,0,0,0,0,0,0,0],"sum_hessian":[1.2839603E3,1.4930107E2,1.1346593E3,8.4202705E1,6.5098366E1,4.7203915E2,6.6262006E2,2.838865E1,5.5814053E1,1.0923167E1,5.41752E1,2.821685E2,1.8987067E2,6.814265E1,5.944774E2,2.1418161E1,6.970489E0,3.0901035E1,2.4913017E1,8.442431E0,2.480736E0,5.0211872E1,3.9633303E0,2.7669702E2,5.471478E0,6.1732197E1,1.2813847E2,6.018296E1,7.959686E0,4.6711484E2,1.2736261E2],"tree_param":{"num_deleted":"0","num_feature":"10","num_nodes":"31","size_leaf_vector":"1"}},{"base_weights":[4.5642042E-1,1.4848222E-1,6.7646456E-1,-8.305178E-2,4.6822697E-1,3.7928608E-1,7.0499146E-1,2.2339179E-1,-4.4938126E-1,4.499229E-2,5.1668984E-1,4.2027283E-1,-3.175853E-2,7.894905E-2,7.1046245E-1,1.6188523E-2,2.38132E-3,-2.5523528E-2,1.5952809E-2,6.2298505E-3,-2.2825813E-2,2.4189956E-2,4.0345043E-2,3.9739233E-2,1.753728E-2,-1.8840209E-2,3.223316E-2,2.8416231E-2,3.647972E-2],"categories":[],"categories_nodes":[],"categories_segments":[],"categories_sizes":[],"default_left":[0,0,0,0,0,0,0,0,0,0,0,0,0,0,0,0,0,0,0,0,0,0,0,0,0,0,0,0,0],"id":8,"left_children":[1,3,5,7,9,11,13,15,17,19,21,23,-1,25,27,-1,-1,-1,-1,-1,-1,-1,-1,-1,-1,-1,-1,-1,-1],"loss_changes":[8.576987E1,3.9233875E1,5.9961243E0,3.4667763E1,4.540695E0,3.0475798E0,2.2488708E0,2.954527E0,6.7626133E0,1.0132784E0,1.5144119E0,1.410636E0,0E0,2.036103E0,1.3992004E0,0E0,0E0,0E0,0E0,0E0,0E0,0E0,0E0,0E0,0E0,0E0,0E0,0E0,0E0],"parents":[2147483647,0,0,1,1,2,2,3,3,4,4,5,5,6,6,7,7,8,8,9,9,10,10,11,11,13,13,14,14],"right_children":[2,4,6,8,10,12,14,16,18,20,22,24,-1,26,28,-1,-1,-1,-1,-1,-1,-1,-1,-1,-1,-1,-1,-1,-1],"split_conditions":[8.360274E-1,8.8481545E-1,-9.5787174E-1,2.424312E-1,-9.0135974E-1,-9.7458124E-1,-2.0014844E0,-1.6695286E-1,3.581557E0,1.4580512E0,1.0584143E0,8.8481545E-1,-3.175853E-2,6.0327893E-1,-5.815542E-1,1.6188523E-2,2.38132E-3,-2.5523528E-2,1.5952809E-2,6.2298505E-3,-2.2825813E-2,2.4189956E-2,4.0345043E-2,3.9739233E-2,1.753728E-2,-1.8840209E-2,3.223316E-2,2.8416231E-2,3.647972E-2],"split_indices":[4,5,2,2,0,2,9,2,2,2,2,5,0,6,0,0,0,0,0,0,0,0,0,0,0,0,0,0,0],"split_type":[0,0,0,0,0,0,0,0,0,0,0,0,0,0,0,0,0,0,0,0,0,0,0,0,0,0,0,0,0],"sum_hessian":[1.2662712E3,5.284346E2,7.378367E2,3.0692435E2,2.215102E2,6.5875534E1,6.719612E2,1.6733485E2,1.3958951E2,2.2956392E1,1.985538E2,6.3880318E1,1.9952172E0,5.955044E0,6.660061E2,1.0597249E2,6.136236E1,1.296206E2,9.968892E0,2.0460278E1,2.4961147E0,1.8073723E2,1.7816576E1,8.368999E0,5.551132E1,3.4829917E0,2.472052E0,8.265298E1,5.8335315E2],"tree_param":{"num_deleted":"0","num_feature":"10","num_nodes":"29","size_leaf_vector":"1"}},{"base_weights":[-4.7251338E-1,-5.104268E-2,-5.274728E-1,1.5792218E-1,-3.727109E-1,-3.982369E-1,-6.208585E-1,-1.8206659E-1,3.485835E-1,-6.3577795E-1,-3.087087E-1,-6.0105795E-1,-4.7163248E-2,-3.7474048E-1,-6.475233E-1,-3.946494E-3,-1.7799908E-2,2.0116044E-2,-6.9376132E-3,-3.9970186E-2,-3.9869514E-3,-1.2502152E-2,-3.6445092E-2,-3.031425E-2,1.3284226E-2,-1.5537351E-3,-2.9200254E-2,-2.2609679E-2,2.3506047E-2,-3.0657036E-2,-3.823648E-2],"categories":[],"categories_nodes":[],"categories_segments":[],"categories_sizes":[],"default_left":[0,0,0,0,0,0,0,0,0,0,0,0,0,0,0,0,0,0,0,0,0,0,0,0,0,0,0,0,0,0,0],"id":9,"left_children":[1,3,5,7,9,11,13,15,17,19,21,23,25,27,29,-1,-1,-1,-1,-1,-1,-1,-1,-1,-1,-1,-1,-1,-1,-1,-1],"loss_changes":[2.915683E1,9.902411E0,1.3202728E1,5.863547E0,7.7972126E-1,3.3457848E1,3.991394E0,5.6038904E-1,1.5661106E0,8.82422E-1,1.0149908E0,1.511116E0,1.4785409E0,4.4947586E0,1.8713531E0,0E0,0E0,0E0,0E0,0E0,0E0,0E0,0E0,0E0,0E0,0E0,0E0,0E0,0E0,0E0,0E0],"parents":[2147483647,0,0,1,1,2,2,3,3,4,4,5,5,6,6,7,7,8,8,9,9,10,10,11,11,12,12,13,13,14,14],"right_children":[2,4,6,8,10,12,14,16,18,20,22,24,26,28,30,-1,-1,-1,-1,-1,-1,-1,-1,-1,-1,-1,-1,-1,-1,-1,-1],"split_conditions":[-8.501909E-1,8.8481545E-1,8.8481545E-1,2.605332E-1,-2.632574E0,-2.2136733E-2,-9.5787174E-1,-9.951694E-1,3.581557E0,1.4580512E0,1.5415989E0,4.295599E0,5.6127113E-1,-9.7458124E-1,2.7445784E-1,-3.946494E-3,-1.7799908E-2,2.0116044E-2,-6.9376132E-3,-3.9970186E-2,-3.9869514E-3,-1.2502152E-2,-3.6445092E-2,-3.031425E-2,1.3284226E-2,-1.5537351E-3,-2.9200254E-2,-2.2609679E-2,2.3506047E-2,-3.0657036E-2,-3.823648E-2],"split_indices":[0,5,5,2,0,2,2,0,2,2,2,3,6,2,2,0,0,0,0,0,0,0,0,0,0,0,0,0,0,0,0],"split_type":[0,0,0,0,0,0,0,0,0,0,0,0,0,0,0,0,0,0,0,0,0,0,0,0,0,0,0,0,0,0,0],"sum_hessian":[1.2588877E3,1.4544362E2,1.1134441E3,8.847608E1,5.6967533E1,4.6927783E2,6.4416626E2,3.1805445E1,5.667064E1,9.399453E0,4.756808E1,2.9698984E2,1.7228796E2,6.443949E1,5.7972675E2,2.0878725E1,1.092672E1,5.1199444E1,5.4711957E0,6.9241934E0,2.4752598E0,4.31401E1,4.4279804E0,2.9550824E2,1.4816127E0,1.6830203E2,3.9859383E0,5.9453808E1,4.9856863E0,4.5305417E2,1.2667261E2],"tree_param":{"num_deleted":"0","num_feature":"10","num_nodes":"31","size_leaf_vector":"1"}},{"base_weights":[4.4112694E-1,1.2737624E-1,6.6158265E-1,3.7474975E-1,-1.0092131E-1,4.055294E-1,6.8696386E-1,2.6958552E-1,4.5428112E-1,-2.6579514E-1,2.917714E-1,4.464366E-1,-1.3730801E-2,-9.769744E-3,6.90586E-1,1.4741478E-2,-1.347379E-3,2.4680905E-2,9.591687E-3,-1.3547478E-3,-2.2310035E-2,3.3762667E-3,2.4804518E-2,3.9201483E-2,1.8602496E-2,3.46563E-2,-1.2999547E-2],"categories":[],"categories_nodes":[],"categories_segments":[],"categories_sizes":[],"default_left":[0,0,0,0,0,0,0,0,0,0,0,0,0,0,0,0,0,0,0,0,0,0,0,0,0,0,0],"id":10,"left_children":[1,3,5,7,9,11,13,15,17,19,21,23,-1,-1,25,-1,-1,-1,-1,-1,-1,-1,-1,-1,-1,-1,-1],"loss_changes":[8.560455E1,2.8980286E1,4.448517E0,1.9365349E0,1.7384243E1,2.015623E0,2.2453308E0,8.198881E-1,1.3373623E0,8.117596E0,3.609922E0,1.3295403E0,0E0,0E0,1.7685852E0,0E0,0E0,0E0,0E0,0E0,0E0,0E0,0E0,0E0,0E0,0E0,0E0],"parents":[2147483647,0,0,1,1,2,2,3,3,4,4,5,5,6,6,7,7,8,8,9,9,10,10,11,11,14,14],"right_children":[2,4,6,8,10,12,14,16,18,20,22,24,-1,-1,26,-1,-1,-1,-1,-1,-1,-1,-1,-1,-1,-1,-1],"split_conditions":[8.360274E-1,-1.1403927E-1,-9.5787174E-1,8.8481545E-1,8.8481545E-1,-9.7458124E-1,-4.2911848E-1,-1.7391518E-1,-2.254363E-1,4.707951E-1,2.9116738E-1,8.8481545E-1,-1.3730801E-2,-9.769744E-3,7.6901207E0,1.4741478E-2,-1.347379E-3,2.4680905E-2,9.591687E-3,-1.3547478E-3,-2.2310035E-2,3.3762667E-3,2.4804518E-2,3.9201483E-2,1.8602496E-2,3.46563E-2,-1.2999547E-2],"split_indices":[4,2,2,5,5,2,3,2,2,2,2,5,0,0,1,0,0,0,0,0,0,0,0,0,0,0,0],"split_type":[0,0,0,0,0,0,0,0,0,0,0,0,0,0,0,0,0,0,0,0,0,0,0,0,0,0,0],"sum_hessian":[1.2378483E3,5.1148492E2,7.263633E2,2.4517848E2,2.6630646E2,6.703842E1,6.593249E2,1.0746597E2,1.3771251E2,1.8778656E2,7.85199E1,6.3559277E1,3.4791443E0,2.4790258E0,6.568458E2,9.904035E1,8.425622E0,1.1899594E2,1.8716562E1,8.132849E1,1.0645807E2,3.806878E1,4.045112E1,9.753684E0,5.380559E1,6.553655E2,1.4803767E0],"tree_param":{"num_deleted":"0","num_feature":"10","num_nodes":"27","size_leaf_vector":"1"}},{"base_weights":[-4.441268E-1,-1.4942515E-1,-6.5760505E-1,7.6149076E-2,-4.7001562E-1,-7.508457E-1,-6.072331E-1,4.1539618E-1,-1.8443913E-3,-1.1934758E-1,-5.2390075E-1,-4.5679668E-1,-7.7606106E-1,-5.262017E-1,-6.9372874E-1,3.1183487E-2,1.4973293E-2,-2.6433691E-3,1.3447068E-2,-2.2572974E-2,-4.6572906E-5,-2.6850117E-2,3.3879578E-2,-2.6078565E-2,1.3445936E-2,-1.3066937E-2,-3.9139614E-2,1.1955279E-2,-2.658741E-2,-3.5067435E-2,1.4263279E-2],"categories":[],"categories_nodes":[],"categories_segments":[],"categories_sizes":[],"default_left":[0,0,0,0,0,0,0,0,0,0,0,0,0,0,0,0,0,0,0,0,0,0,0,0,0,0,0,0,0,0,0],"id":11,"left_children":[1,3,5,7,9,11,13,15,17,19,21,23,25,27,29,-1,-1,-1,-1,-1,-1,-1,-1,-1,-1,-1,-1,-1,-1,-1,-1],"loss_changes":[7.874477E1,3.8201157E1,2.9560547E0,8.220078E0,4.0588074E0,1.5034485E0,2.9774017E0,1.2153893E0,3.5176277E0,1.1930219E0,3.3352623E0,1.1848464E0,5.9007263E-1,1.1898575E0,1.8973999E0,0E0,0E0,0E0,0E0,0E0,0E0,0E0,0E0,0E0,0E0,0E0,0E0,0E0,0E0,0E0,0E0],"parents":[2147483647,0,0,1,1,2,2,3,3,4,4,5,5,6,6,7,7,8,8,9,9,10,10,11,11,12,12,13,13,14,14],"right_children":[2,4,6,8,10,12,14,16,18,20,22,24,26,28,30,-1,-1,-1,-1,-1,-1,-1,-1,-1,-1,-1,-1,-1,-1,-1,-1],"split_conditions":[8.360274E-1,8.8481545E-1,8.8481545E-1,-9.1415197E-1,-6.924201E-1,-8.6724716E-1,4.9528867E-2,-1.6049321E0,1.0387942E0,-1.8010795E0,2.804121E0,-9.1415197E-1,-2.5362384E0,-2.4258924E0,4.5447264E0,3.1183487E-2,1.4973293E-2,-2.6433691E-3,1.3447068E-2,-2.2572974E-2,-4.6572906E-5,-2.6850117E-2,3.3879578E-2,-2.6078565E-2,1.3445936E-2,-1.3066937E-2,-3.9139614E-2,1.1955279E-2,-2.658741E-2,-3.5067435E-2,1.4263279E-2],"split_indices":[4,5,5,0,0,0,0,0,0,0,0,0,9,9,1,0,0,0,0,0,0,0,0,0,0,0,0,0,0,0,0],"split_type":[0,0,0,0,0,0,0,0,0,0,0,0,0,0,0,0,0,0,0,0,0,0,0,0,0,0,0,0,0,0,0],"sum_hessian":[1.2522191E3,5.267513E2,7.254678E2,3.0964267E2,2.1710864E2,2.4957939E2,4.7588837E2,5.7071873E1,2.5257079E2,2.9346334E1,1.877623E2,2.1221481E1,2.2835791E2,2.4936253E2,2.2652585E2,1.8841913E1,3.822996E1,2.1320268E2,3.9368103E1,6.9741187E0,2.2372215E1,1.8628404E2,1.4782676E0,1.9740793E1,1.4806873E0,3.4618328E0,2.2489607E2,1.4912274E0,2.478713E2,2.2505771E2,1.4681268E0],"tree_param":{"num_deleted":"0","num_feature":"10","num_nodes":"31","size_leaf_vector":"1"}},{"base_weights":[4.2665634E-1,1.1411725E-1,6.4588886E-1,3.932372E-1,-1.3176125E-1,3.5159945E-1,6.7389655E-1,-5.5338857E-3,4.2145646E-1,-3.7912995E-1,-6.947557E-2,3.9703253E-1,-4.505167E-1,1.4263038E-1,6.780373E-1,6.907252E-3,-3.609125E-2,3.4909606E-2,1.933608E-2,-2.1753525E-2,1.3525403E-2,-7.294949E-4,-1.5715187E-2,-8.4108785E-3,2.2163397E-2,-2.7993599E-2,-8.025168E-3,-1.5555742E-2,3.1188235E-2,3.183202E-2,3.66112E-2],"categories":[],"categories_nodes":[],"categories_segments":[],"categories_sizes":[],"default_left":[0,0,0,0,0,0,0,0,0,0,0,0,0,0,0,0,0,0,0,0,0,0,0,0,0,0,0,0,0,0,0],"id":12,"left_children":[1,3,5,7,9,11,13,15,17,19,21,23,25,27,29,-1,-1,-1,-1,-1,-1,-1,-1,-1,-1,-1,-1,-1,-1,-1,-1],"loss_changes":[8.518028E1,3.5339554E1,5.788788E0,2.7150002E0,4.1971016E0,2.570263E0,1.3693542E0,1.8408968E0,1.8941498E0,2.1132827E0,2.9544015E0,1.7114973E0,3.6554694E-2,1.5957396E0,1.0166321E0,0E0,0E0,0E0,0E0,0E0,0E0,0E0,0E0,0E0,0E0,0E0,0E0,0E0,0E0,0E0,0E0],"parents":[2147483647,0,0,1,1,2,2,3,3,4,4,5,5,6,6,7,7,8,8,9,9,10,10,11,11,12,12,13,13,14,14],"right_children":[2,4,6,8,10,12,14,16,18,20,22,24,26,28,30,-1,-1,-1,-1,-1,-1,-1,-1,-1,-1,-1,-1,-1,-1,-1,-1],"split_conditions":[8.360274E-1,-1.1403927E-1,-9.5787174E-1,-8.288705E-1,-1.1401479E0,-9.7458124E-1,-2.5362384E0,-8.6724716E-1,-8.53437E-1,3.581557E0,1.6070447E0,-3.9393488E-1,-4.00167E-2,4.7988108E-1,1.2628222E-1,6.907252E-3,-3.609125E-2,3.4909606E-2,1.933608E-2,-2.1753525E-2,1.3525403E-2,-7.294949E-4,-1.5715187E-2,-8.4108785E-3,2.2163397E-2,-2.7993599E-2,-8.025168E-3,-1.5555742E-2,3.1188235E-2,3.183202E-2,3.66112E-2],"split_indices":[4,2,2,0,0,2,9,0,2,2,2,0,0,6,0,0,0,0,0,0,0,0,0,0,0,0,0,0,0,0,0],"split_type":[0,0,0,0,0,0,0,0,0,0,0,0,0,0,0,0,0,0,0,0,0,0,0,0,0,0,0,0,0,0,0],"sum_hessian":[1.2432438E3,5.1317676E2,7.30067E2,2.4006122E2,2.731155E2,6.462081E1,6.6544617E2,1.5918471E1,2.2414275E2,5.3912823E1,2.192027E2,6.1634743E1,2.9860659E0,5.420511E0,6.600257E2,1.393119E1,1.987282E0,2.2866085E1,2.0127667E2,4.9942543E1,3.9702811E0,1.7992635E2,3.9276356E1,4.460816E0,5.7173927E1,1.4927068E0,1.493359E0,2.97152E0,2.4489908E0,3.813989E2,2.786268E2],"tree_param":{"num_deleted":"0","num_feature":"10","num_nodes":"31","size_leaf_vector":"1"}},{"base_weights":[-4.4074947E-1,-1.5297657E-1,-6.452638E-1,5.021566E-2,-4.3535173E-1,-3.3726543E-1,-6.765154E-1,-1.8091303E-1,4.0034753E-1,-4.0609274E-2,-5.0159955E-1,-3.997325E-1,5.467718E-1,-4.7754532E-1,-6.9399786E-1,-1.0365078E-2,2.1229915E-2,2.4963133E-2,-1.178006E-2,-3.0100463E-2,7.910211E-4,-2.5460828E-2,1.3334948E-2,1.3836536E-2,-2.2406898E-2,3.330761E-2,8.025168E-3,2.959356E-3,-2.6746524E-2,-3.3320848E-2,-3.818529E-2],"categories":[],"categories_nodes":[],"categories_segments":[],"categories_sizes":[],"default_left":[0,0,0,0,0,0,0,0,0,0,0,0,0,0,0,0,0,0,0,0,0,0,0,0,0,0,0,0,0,0,0],"id":13,"left_children":[1,3,5,7,9,11,13,15,17,19,21,23,25,27,29,-1,-1,-1,-1,-1,-1,-1,-1,-1,-1,-1,-1,-1,-1,-1,-1],"loss_changes":[7.324194E1,2.9800724E1,6.780548E0,2.4570122E1,5.66193E0,4.0328584E0,1.9646301E0,3.0126772E0,7.7091484E0,1.0332276E0,1.2241554E0,2.2553444E0,1.2276006E-1,1.7724724E0,6.5338135E-1,0E0,0E0,0E0,0E0,0E0,0E0,0E0,0E0,0E0,0E0,0E0,0E0,0E0,0E0,0E0,0E0],"parents":[2147483647,0,0,1,1,2,2,3,3,4,4,5,5,6,6,7,7,8,8,9,9,10,10,11,11,12,12,13,13,14,14],"right_children":[2,4,6,8,10,12,14,16,18,20,22,24,26,28,30,-1,-1,-1,-1,-1,-1,-1,-1,-1,-1,-1,-1,-1,-1,-1,-1],"split_conditions":[8.360274E-1,8.8481545E-1,-9.5787174E-1,3.3711866E-1,-6.924201E-1,-9.7458124E-1,-8.501909E-1,1.5675395E0,3.2404037E0,-5.972239E-1,2.4800513E0,-3.9393488E-1,-4.00167E-2,-5.0810623E-1,8.50829E-2,-1.0365078E-2,2.1229915E-2,2.4963133E-2,-1.178006E-2,-3.0100463E-2,7.910211E-4,-2.5460828E-2,1.3334948E-2,1.3836536E-2,-2.2406898E-2,3.330761E-2,8.025168E-3,2.959356E-3,-2.6746524E-2,-3.3320848E-2,-3.818529E-2],"split_indices":[4,5,2,2,0,2,0,0,2,2,0,0,0,2,2,0,0,0,0,0,0,0,0,0,0,0,0,0,0,0,0],"split_type":[0,0,0,0,0,0,0,0,0,0,0,0,0,0,0,0,0,0,0,0,0,0,0,0,0,0,0,0,0,0,0],"sum_hessian":[1.2451522E3,5.180085E2,7.2714374E2,3.0171896E2,2.1628952E2,6.8070526E1,6.5907324E2,1.8203651E2,1.1968246E2,3.1314253E1,1.8497527E2,6.408971E1,3.9808185E0,5.551901E1,6.035542E2,1.7506474E2,6.971778E0,1.03758804E2,1.59236555E1,1.9770405E0,2.9337214E1,1.8349332E2,1.4819524E0,3.9648101E0,6.0124897E1,2.4874597E0,1.493359E0,5.3594832E0,5.0159523E1,4.400159E2,1.6353833E2],"tree_param":{"num_deleted":"0","num_feature":"10","num_nodes":"31","size_leaf_vector":"1"}},{"base_weights":[4.0147823E-1,1.0896539E-1,6.144592E-1,-8.697924E-2,3.72665E-1,6.9092244E-1,5.7496405E-1,-3.8705027E-1,-2.4846073E-3,-2.5501018E-3,4.2515296E-1,-1.9640667E-2,7.0161223E-1,-1.08062895E-2,5.795188E-1,-3.0494539E-2,-1.4973423E-2,3.3212525E-3,-1.160898E-2,1.3791702E-2,-3.6717113E-3,2.178779E-2,-2.0426989E-2,1.775606E-2,3.597629E-2,2.6369661E-2,3.2533746E-2],"categories":[],"categories_nodes":[],"categories_segments":[],"categories_sizes":[],"default_left":[0,0,0,0,0,0,0,0,0,0,0,0,0,0,0,0,0,0,0,0,0,0,0,0,0,0,0],"id":14,"left_children":[1,3,5,7,9,11,13,15,17,19,21,-1,23,-1,25,-1,-1,-1,-1,-1,-1,-1,-1,-1,-1,-1,-1],"loss_changes":[7.71272E1,2.7070522E1,1.767395E0,7.6311655E0,4.3980503E0,3.0465012E0,1.849823E0,1.1080313E0,3.7490807E0,5.8053094E-1,1.9094086E0,0E0,1.2167816E0,0E0,1.4228821E0,0E0,0E0,0E0,0E0,0E0,0E0,0E0,0E0,0E0,0E0,0E0,0E0],"parents":[2147483647,0,0,1,1,2,2,3,3,4,4,5,5,6,6,7,7,8,8,9,9,10,10,12,12,14,14],"right_children":[2,4,6,8,10,12,14,16,18,20,22,-1,24,-1,26,-1,-1,-1,-1,-1,-1,-1,-1,-1,-1,-1,-1],"split_conditions":[8.360274E-1,8.8481545E-1,8.8481545E-1,-8.288705E-1,-8.6724716E-1,-4.2911848E-1,-2.4258924E0,-2.0228114E0,7.573652E-1,-2.3596733E0,2.804121E0,-1.9640667E-2,-1.025018E0,-1.08062895E-2,1.2628222E-1,-3.0494539E-2,-1.4973423E-2,3.3212525E-3,-1.160898E-2,1.3791702E-2,-3.6717113E-3,2.178779E-2,-2.0426989E-2,1.775606E-2,3.597629E-2,2.6369661E-2,3.2533746E-2],"split_indices":[4,5,5,0,0,3,9,0,0,0,0,0,0,0,0,0,0,0,0,0,0,0,0,0,0,0,0],"split_type":[0,0,0,0,0,0,0,0,0,0,0,0,0,0,0,0,0,0,0,0,0,0,0,0,0,0,0],"sum_hessian":[1.2380774E3,5.222792E2,7.1579816E2,3.0001794E2,2.222612E2,2.3818152E2,4.7761667E2,6.513153E1,2.3488641E2,2.739279E1,1.9486841E2,1.9772805E0,2.3620424E2,2.4682696E0,4.751484E2,1.6693483E1,4.8438046E1,1.8122794E2,5.365848E1,4.972579E0,2.2420212E1,1.9289253E2,1.9758718E0,1.2635123E1,2.2356912E2,2.7910275E2,1.9604565E2],"tree_param":{"num_deleted":"0","num_feature":"10","num_nodes":"27","size_leaf_vector":"1"}},{"base_weights":[-4.00774E-1,-1.1656385E-1,-6.062587E-1,-3.3837447E-1,1.7640157E-1,-2.7655792E-1,-6.381943E-1,-2.0939714E-1,-4.5790488E-1,3.371386E-1,-2.578745E-1,-3.6817893E-2,-1.9391672E-1,-1.3510615E-1,-6.433103E-1,-1.1794174E-2,2.5301758E-2,-1.0861197E-2,-2.4890093E-2,2.0063797E-2,-1.32884355E-2,1.0549045E-2,-2.1956133E-2,-5.9665563E-3,-3.613281E-2,-2.2341968E-2,1.0289604E-2,-3.5496123E-2,-3.0275613E-2],"categories":[],"categories_nodes":[],"categories_segments":[],"categories_sizes":[],"default_left":[0,0,0,0,0,0,0,0,0,0,0,0,0,0,0,0,0,0,0,0,0,0,0,0,0,0,0,0,0],"id":15,"left_children":[1,3,5,7,9,11,13,15,17,19,21,-1,23,25,27,-1,-1,-1,-1,-1,-1,-1,-1,-1,-1,-1,-1,-1,-1],"loss_changes":[7.225809E1,3.391119E1,7.3893433E0,4.47995E0,1.5801237E1,2.3354573E0,1.597229E0,2.8595333E0,1.362999E0,6.4769173E0,5.3087068E0,0E0,2.1474788E0,9.264828E-1,1.2003784E0,0E0,0E0,0E0,0E0,0E0,0E0,0E0,0E0,0E0,0E0,0E0,0E0,0E0,0E0],"parents":[2147483647,0,0,1,1,2,2,3,3,4,4,5,5,6,6,7,7,8,8,9,9,10,10,12,12,13,13,14,14],"right_children":[2,4,6,8,10,12,14,16,18,20,22,-1,24,26,28,-1,-1,-1,-1,-1,-1,-1,-1,-1,-1,-1,-1,-1,-1],"split_conditions":[8.360274E-1,6.1411034E-2,-9.5787174E-1,8.8481545E-1,8.8481545E-1,8.8481545E-1,-2.0014844E0,1.712518E0,-4.109912E-1,3.2404037E0,2.7445784E-1,-3.6817893E-2,4.4182372E-1,-2.8248358E0,8.8481545E-1,-1.1794174E-2,2.5301758E-2,-1.0861197E-2,-2.4890093E-2,2.0063797E-2,-1.32884355E-2,1.0549045E-2,-2.1956133E-2,-5.9665563E-3,-3.613281E-2,-2.2341968E-2,1.0289604E-2,-3.5496123E-2,-3.0275613E-2],"split_indices":[4,2,2,5,5,5,9,0,0,2,2,0,0,9,5,0,0,0,0,0,0,0,0,0,0,0,0,0,0],"split_type":[0,0,0,0,0,0,0,0,0,0,0,0,0,0,0,0,0,0,0,0,0,0,0,0,0,0,0,0,0],"sum_hessian":[1.2374884E3,5.1992975E2,7.175586E2,2.9581027E2,2.241195E2,6.421979E1,6.533388E2,1.4360619E2,1.5220409E2,1.6373904E2,6.0380463E1,8.578782E0,5.5641003E1,6.852943E0,6.4648584E2,1.3912584E2,4.480346E0,2.2559153E1,1.2964493E2,1.4829758E2,1.5441479E1,1.678827E1,4.3592194E1,4.983659E1,5.804412E0,3.4172657E0,3.4356775E0,2.2760028E2,4.1888556E2],"tree_param":{"num_deleted":"0","num_feature":"10","num_nodes":"29","size_leaf_vector":"1"}},{"base_weights":[4.056269E-1,1.3372223E-1,6.0397947E-1,3.1646067E-1,-1.3766211E-1,3.3171946E-1,6.309587E-1,4.0021852E-1,1.5188943E-1,-2.9337716E-1,3.237709E-1,-3.0781545E-2,4.043677E-1,-9.239502E-2,6.3448435E-1,1.4201248E-2,2.4979938E-2,-1.958516E-2,9.256794E-3,-3.7518442E-3,-2.0577108E-2,-1.3435396E-2,2.4274359E-2,3.0659517E-2,-1.3271625E-2,2.5692968E-2,1.1503899E-2,-1.3137094E-2,5.831658E-3,2.3675716E-2,3.2210965E-2],"categories":[],"categories_nodes":[],"categories_segments":[],"categories_sizes":[],"default_left":[0,0,0,0,0,0,0,0,0,0,0,0,0,0,0,0,0,0,0,0,0,0,0,0,0,0,0,0,0,0,0],"id":16,"left_children":[1,3,5,7,9,11,13,15,17,19,21,23,25,27,29,-1,-1,-1,-1,-1,-1,-1,-1,-1,-1,-1,-1,-1,-1,-1,-1],"loss_changes":[6.471559E1,2.5238457E1,4.891205E0,4.1283283E0,1.4834107E1,1.7166843E0,1.6670685E0,2.1767235E0,1.9541512E0,3.9397316E0,5.1350703E0,1.9357516E0,9.1189575E-1,1.7064983E-1,6.786194E-1,0E0,0E0,0E0,0E0,0E0,0E0,0E0,0E0,0E0,0E0,0E0,0E0,0E0,0E0,0E0,0E0],"parents":[2147483647,0,0,1,1,2,2,3,3,4,4,5,5,6,6,7,7,8,8,9,9,10,10,11,11,12,12,13,13,14,14],"right_children":[2,4,6,8,10,12,14,16,18,20,22,24,26,28,30,-1,-1,-1,-1,-1,-1,-1,-1,-1,-1,-1,-1,-1,-1,-1,-1],"split_conditions":[8.360274E-1,1.226794E-1,-9.5787174E-1,-2.54678E-1,8.8481545E-1,-1.6793893E-1,-4.2911848E-1,8.8481545E-1,-2.4910817E-1,5.0978404E-1,2.7445784E-1,-1.1444618E0,2.2862E-1,-4.5937005E-1,-1.025018E0,1.4201248E-2,2.4979938E-2,-1.958516E-2,9.256794E-3,-3.7518442E-3,-2.0577108E-2,-1.3435396E-2,2.4274359E-2,3.0659517E-2,-1.3271625E-2,2.5692968E-2,1.1503899E-2,-1.3137094E-2,5.831658E-3,2.3675716E-2,3.2210965E-2],"split_indices":[4,2,2,2,5,0,3,5,2,2,2,2,0,2,0,0,0,0,0,0,0,0,0,0,0,0,0,0,0,0,0],"split_type":[0,0,0,0,0,0,0,0,0,0,0,0,0,0,0,0,0,0,0,0,0,0,0,0,0,0,0,0,0,0,0],"sum_hessian":[1.2004236E3,5.0703992E2,6.9338367E2,3.0290845E2,2.0413148E2,6.3713676E1,6.2967E2,1.9979282E2,1.0311562E2,1.5289859E2,5.1232906E1,1.0733221E1,5.2980457E1,2.9319315E0,6.2673804E2,9.388367E1,1.0590915E2,5.3217144E0,9.7793915E1,5.4265015E1,9.8633575E1,1.08436165E1,4.0389286E1,2.4356537E0,8.297567E0,3.134237E1,2.1638088E1,1.4738519E0,1.4580796E0,3.8572285E1,5.881658E2],"tree_param":{"num_deleted":"0","num_feature":"10","num_nodes":"31","size_leaf_vector":"1"}},{"base_weights":[-3.843332E-1,-9.739102E-2,-5.987128E-1,-2.7657565E-1,2.3450328E-1,-3.9232457E-1,-6.238933E-1,-3.6485305E-1,-1.0637381E-1,4.1241416E-1,-3.4462544E-1,-3.6330488E-2,-3.3074826E-1,-1.8035865E-1,-6.2813646E-1,9.008246E-3,-1.9429674E-2,-7.216198E-3,1.2014932E-2,2.2884993E-2,-9.554985E-3,4.3185305E-2,-2.3539694E-2,-1.3281857E-2,-3.6168307E-2,1.0711063E-2,-2.1445697E-2,-2.9271517E-2,-3.4084614E-2],"categories":[],"categories_nodes":[],"categories_segments":[],"categories_sizes":[],"default_left":[0,0,0,0,0,0,0,0,0,0,0,0,0,0,0,0,0,0,0,0,0,0,0,0,0,0,0,0,0],"id":17,"left_children":[1,3,5,7,9,11,13,15,17,19,21,-1,23,25,27,-1,-1,-1,-1,-1,-1,-1,-1,-1,-1,-1,-1,-1,-1],"loss_changes":[7.432214E1,3.0886108E1,3.350937E0,5.0248795E0,1.8919365E1,1.3637753E0,1.0440826E0,2.9360657E0,1.5675446E0,3.9102058E0,7.019103E0,0E0,1.5370569E0,8.0098253E-1,9.931793E-1,0E0,0E0,0E0,0E0,0E0,0E0,0E0,0E0,0E0,0E0,0E0,0E0,0E0,0E0],"parents":[2147483647,0,0,1,1,2,2,3,3,4,4,5,5,6,6,7,7,8,8,9,9,10,10,12,12,13,13,14,14],"right_children":[2,4,6,8,10,12,14,16,18,20,22,-1,24,26,28,-1,-1,-1,-1,-1,-1,-1,-1,-1,-1,-1,-1,-1,-1],"split_conditions":[8.360274E-1,2.424312E-1,-9.119204E-1,-2.1847399E-1,8.8481545E-1,8.8481545E-1,4.0129534E-4,-9.0135974E-1,1.1581882E0,3.581557E0,2.7445784E-1,-3.6330488E-2,4.5035186E-1,8.8481545E-1,8.364146E-2,9.008246E-3,-1.9429674E-2,-7.216198E-3,1.2014932E-2,2.2884993E-2,-9.554985E-3,4.3185305E-2,-2.3539694E-2,-1.3281857E-2,-3.6168307E-2,1.0711063E-2,-2.1445697E-2,-2.9271517E-2,-3.4084614E-2],"split_indices":[4,2,2,2,5,5,3,0,0,2,2,0,0,5,0,0,0,0,0,0,0,0,0,0,0,0,0,0,0],"split_type":[0,0,0,0,0,0,0,0,0,0,0,0,0,0,0,0,0,0,0,0,0,0,0,0,0,0,0,0,0],"sum_hessian":[1.208152E3,5.1726245E2,6.908895E2,3.3601813E2,1.8124434E2,7.692936E1,6.139602E2,2.2050609E2,1.15512024E2,1.3887056E2,4.2373775E1,1.028641E1,6.664295E1,6.2301874E0,6.0773E2,8.929071E0,2.1157703E2,1.0464072E2,1.0871307E1,1.2940225E2,9.468312E0,3.4535E0,3.8920277E1,5.86012E1,8.04175E0,2.461193E0,3.768994E0,3.4475143E2,2.6297855E2],"tree_param":{"num_deleted":"0","num_feature":"10","num_nodes":"29","size_leaf_vector":"1"}},{"base_weights":[3.7572178E-1,1.0572568E-1,5.7949513E-1,-8.569031E-2,3.8337228E-1,2.985483E-1,6.0690624E-1,8.895091E-2,-4.1090864E-1,5.2859973E-2,4.4485712E-1,3.4775895E-1,-1.741122E-2,6.0934466E-1,-6.174877E-3,1.0216867E-2,-3.0210211E-3,-2.802357E-2,-1.5057139E-3,-3.2833603E-3,2.4935395E-2,2.2831673E-2,-2.048032E-2,-3.8917386E-4,2.1099107E-2,2.1102918E-2,3.1069888E-2],"categories":[],"categories_nodes":[],"categories_segments":[],"categories_sizes":[],"default_left":[0,0,0,0,0,0,0,0,0,0,0,0,0,0,0,0,0,0,0,0,0,0,0,0,0,0,0],"id":18,"left_children":[1,3,5,7,9,11,13,15,17,19,21,23,-1,25,-1,-1,-1,-1,-1,-1,-1,-1,-1,-1,-1,-1,-1],"loss_changes":[6.664551E1,2.7812935E1,5.13826E0,1.7655987E1,4.314966E0,2.138072E0,1.1944275E0,3.5052319E0,6.166069E0,1.8623075E0,1.9969826E0,1.5705681E0,0E0,1.1518402E0,0E0,0E0,0E0,0E0,0E0,0E0,0E0,0E0,0E0,0E0,0E0,0E0,0E0],"parents":[2147483647,0,0,1,1,2,2,3,3,4,4,5,5,6,6,7,7,8,8,9,9,10,10,11,11,13,13],"right_children":[2,4,6,8,10,12,14,16,18,20,22,24,-1,26,-1,-1,-1,-1,-1,-1,-1,-1,-1,-1,-1,-1,-1],"split_conditions":[8.360274E-1,8.8481545E-1,-9.5787174E-1,4.707951E-1,-6.924201E-1,-9.7458124E-1,7.6901207E0,-1.1403927E-1,6.0812265E-1,9.442324E-1,2.804121E0,-1.6793893E-1,-1.741122E-2,-1.025018E0,-6.174877E-3,1.0216867E-2,-3.0210211E-3,-2.802357E-2,-1.5057139E-3,-3.2833603E-3,2.4935395E-2,2.2831673E-2,-2.048032E-2,-3.8917386E-4,2.1099107E-2,2.1102918E-2,3.1069888E-2],"split_indices":[4,5,2,2,0,2,1,2,0,2,0,0,0,0,0,0,0,0,0,0,0,0,0,0,0,0,0],"split_type":[0,0,0,0,0,0,0,0,0,0,0,0,0,0,0,0,0,0,0,0,0,0,0,0,0,0,0],"sum_hessian":[1.2114537E3,5.217126E2,6.8974115E2,3.092203E2,2.1249228E2,6.2370853E1,6.273703E2,2.016574E2,1.07562904E2,3.3621166E1,1.7887111E2,5.839045E1,3.9804049E0,6.25448E2,1.9222814E0,1.135637E2,8.80937E1,7.689096E1,3.0671944E1,2.723385E1,6.3873143E0,1.7689867E2,1.9724479E0,1.0238987E1,4.8151463E1,3.99955E1,5.854525E2],"tree_param":{"num_deleted":"0","num_feature":"10","num_nodes":"27","size_leaf_vector":"1"}},{"base_weights":[-3.8612434E-1,-1.1873642E-1,-5.846181E-1,1.9991247E-1,-1.8265453E-1,1.9077793E-2,-5.879613E-1,-1.2208626E-2,2.1055873E-1,-1.9368762E-1,1.9418063E-2,-5.902979E-1,1.5289435E-2,2.7769307E-2,9.123714E-3,-4.496685E-3,-1.1745745E-2,-2.8475387E-2,-3.3225168E-2],"categories":[],"categories_nodes":[],"categories_segments":[],"categories_sizes":[],"default_left":[0,0,0,0,0,0,0,0,0,0,0,0,0,0,0,0,0,0,0],"id":19,"left_children":[1,3,5,7,9,-1,11,-1,13,15,-1,17,-1,-1,-1,-1,-1,-1,-1],"loss_changes":[6.357675E1,1.046825E1,2.4466705E0,4.5824552E-1,2.7661467E0,0E0,1.6131439E0,0E0,7.176833E-1,1.7741251E0,0E0,6.7767334E-1,0E0,0E0,0E0,0E0,0E0,0E0,0E0],"parents":[2147483647,0,0,1,1,2,2,3,3,4,4,6,6,8,8,9,9,11,11],"right_children":[2,4,6,8,10,-1,12,-1,14,16,-1,18,-1,-1,-1,-1,-1,-1,-1],"split_conditions":[8.360274E-1,-8.288705E-1,-4.2911848E-1,-5.9230137E0,2.804121E0,1.9077793E-2,7.6901207E0,-1.2208626E-2,-4.5215592E0,-1.12505965E-1,1.9418063E-2,4.5888004E-1,1.5289435E-2,2.7769307E-2,9.123714E-3,-4.496685E-3,-1.1745745E-2,-2.8475387E-2,-3.3225168E-2],"split_indices":[4,0,3,9,0,0,1,0,0,0,0,0,0,0,0,0,0,0,0],"split_type":[0,0,0,0,0,0,0,0,0,0,0,0,0,0,0,0,0,0,0],"sum_hessian":[1.1981781E3,5.1117725E2,6.8700085E2,8.505043E1,4.261268E2,1.9789062E0,6.85022E2,1.4776679E0,8.357276E1,4.186976E2,7.429214E0,6.835744E2,1.4475734E0,4.879956E0,7.86928E1,1.19966736E2,2.9873087E2,5.4074756E2,1.4282686E2],"tree_param":{"num_deleted":"0","num_feature":"10","num_nodes":"19","size_leaf_vector":"1"}},{"base_weights":[3.525241E-1,9.046158E-2,5.4758775E-1,-9.517673E-2,3.5193494E-1,2.6530775E-1,5.771008E-1,1.662069E-1,-3.32808E-1,6.334706E-2,3.8897413E-1,3.2031608E-1,-4.061365E-1,-1.2639619E-2,5.7949847E-1,9.566995E-3,-2.4986967E-2,-1.943562E-2,5.0285025E-3,1.4639573E-2,-1.9405736E-2,1.9938957E-2,-1.2630293E-2,-1.7108524E-2,1.7962025E-2,-7.542126E-3,-2.3181058E-2,2.9102901E-2,-1.4941423E-2],"categories":[],"categories_nodes":[],"categories_segments":[],"categories_sizes":[],"default_left":[0,0,0,0,0,0,0,0,0,0,0,0,0,0,0,0,0,0,0,0,0,0,0,0,0,0,0,0,0],"id":20,"left_children":[1,3,5,7,9,11,13,15,17,19,21,23,25,-1,27,-1,-1,-1,-1,-1,-1,-1,-1,-1,-1,-1,-1,-1,-1],"loss_changes":[6.0931183E1,2.4800148E1,5.5426025E0,1.8638056E1,2.2420921E0,2.5886884E0,1.3764343E0,2.4913085E0,3.8438587E0,2.7359908E0,1.2817745E0,1.7238779E0,1.05083585E-2,0E0,1.5602264E0,0E0,0E0,0E0,0E0,0E0,0E0,0E0,0E0,0E0,0E0,0E0,0E0,0E0,0E0],"parents":[2147483647,0,0,1,1,2,2,3,3,4,4,5,5,6,6,7,7,8,8,9,9,10,10,11,11,12,12,14,14],"right_children":[2,4,6,8,10,12,14,16,18,20,22,24,26,-1,28,-1,-1,-1,-1,-1,-1,-1,-1,-1,-1,-1,-1,-1,-1],"split_conditions":[8.360274E-1,8.8481545E-1,-9.5787174E-1,6.8373345E-2,-8.6724716E-1,-9.7458124E-1,-8.586383E-1,1.712518E0,3.0635607E0,-1.0719228E0,2.2625835E0,-3.9393488E-1,-4.1951934E-1,-1.2639619E-2,7.6901207E0,9.566995E-3,-2.4986967E-2,-1.943562E-2,5.0285025E-3,1.4639573E-2,-1.9405736E-2,1.9938957E-2,-1.2630293E-2,-1.7108524E-2,1.7962025E-2,-7.542126E-3,-2.3181058E-2,2.9102901E-2,-1.4941423E-2],"split_indices":[4,5,2,2,0,2,3,0,2,0,0,0,0,0,1,0,0,0,0,0,0,0,0,0,0,0,0,0,0],"split_type":[0,0,0,0,0,0,0,0,0,0,0,0,0,0,0,0,0,0,0,0,0,0,0,0,0,0,0,0,0],"sum_hessian":[1.1919197E3,5.0923743E2,6.8268225E2,2.9817676E2,2.1106065E2,6.556546E1,6.171168E2,1.4213513E2,1.5604164E2,2.4315872E1,1.8674478E2,6.1084072E1,4.4813914E0,1.4769506E0,6.1563983E2,1.3765274E2,4.4823794E0,1.3830392E2,1.7737715E1,1.63552E1,7.960672E0,1.8430655E2,2.438231E0,2.9574902E0,5.8126583E1,1.4896747E0,2.9917166E0,6.141873E2,1.4525039E0],"tree_param":{"num_deleted":"0","num_feature":"10","num_nodes":"29","size_leaf_vector":"1"}},{"base_weights":[-3.628916E-1,1.8611109E-2,-4.1281578E-1,1.7364424E-1,-2.061169E-1,-3.1374165E-1,-4.8522264E-1,5.688619E-3,2.8610948E-1,-1.6706781E-1,-5.036354E-1,-4.6124017E-1,-3.7333697E-2,-2.6321578E-1,-5.142328E-1,-2.7091965E-2,2.7448963E-3,1.7618066E-2,-1.277653E-2,-1.1173587E-2,2.5042368E-2,-3.0249953E-2,-8.899548E-3,-2.431552E-2,1.8213315E-4,-8.710379E-4,-2.664637E-2,-1.10273855E-2,-2.8748987E-2,-2.585092E-2,1.4941423E-2],"categories":[],"categories_nodes":[],"categories_segments":[],"categories_sizes":[],"default_left":[0,0,0,0,0,0,0,0,0,0,0,0,0,0,0,0,0,0,0,0,0,0,0,0,0,0,0,0,0,0,0],"id":21,"left_children":[1,3,5,7,9,11,13,15,17,19,21,23,25,27,29,-1,-1,-1,-1,-1,-1,-1,-1,-1,-1,-1,-1,-1,-1,-1,-1],"loss_changes":[2.2572632E1,4.845644E0,7.3635254E0,1.5517797E0,5.759413E-1,1.813396E1,3.751358E0,9.458924E-1,1.8568358E0,2.0604055E0,9.3520164E-2,3.3841171E0,1.5302353E0,8.282094E-1,1.3609619E0,0E0,0E0,0E0,0E0,0E0,0E0,0E0,0E0,0E0,0E0,0E0,0E0,0E0,0E0,0E0,0E0],"parents":[2147483647,0,0,1,1,2,2,3,3,4,4,5,5,6,6,7,7,8,8,9,9,10,10,11,11,12,12,13,13,14,14],"right_children":[2,4,6,8,10,12,14,16,18,20,22,24,26,28,30,-1,-1,-1,-1,-1,-1,-1,-1,-1,-1,-1,-1,-1,-1,-1,-1],"split_conditions":[-8.288705E-1,8.8481545E-1,8.8481545E-1,2.605332E-1,1.6780603E0,6.8373345E-2,-9.397697E-1,-6.8494904E-1,3.581557E0,1.370326E0,2.6305048E0,1.1581882E0,3.581557E0,4.972567E-1,7.6901207E0,-2.7091965E-2,2.7448963E-3,1.7618066E-2,-1.277653E-2,-1.1173587E-2,2.5042368E-2,-3.0249953E-2,-8.899548E-3,-2.431552E-2,1.8213315E-4,-8.710379E-4,-2.664637E-2,-1.10273855E-2,-2.8748987E-2,-2.585092E-2,1.4941423E-2],"split_indices":[0,5,5,2,2,2,2,2,2,2,2,0,2,0,1,0,0,0,0,0,0,0,0,0,0,0,0,0,0,0,0],"split_type":[0,0,0,0,0,0,0,0,0,0,0,0,0,0,0,0,0,0,0,0,0,0,0,0,0,0,0,0,0,0,0],"sum_hessian":[1.1837473E3,1.3705434E2,1.046693E3,8.123799E1,5.5816345E1,4.4421188E2,6.024811E2,3.300255E1,4.823544E1,5.072081E1,5.095534E0,2.892121E2,1.549998E2,7.079324E1,5.316878E2,1.8959812E0,3.1106567E1,4.328981E1,4.9456296E0,4.7384697E1,3.336112E0,3.2317367E0,1.863797E0,2.7436978E2,1.4842303E1,1.5000766E2,4.9921513E0,6.3772717E1,7.020525E0,5.302353E2,1.4525039E0],"tree_param":{"num_deleted":"0","num_feature":"10","num_nodes":"31","size_leaf_vector":"1"}},{"base_weights":[3.5173863E-1,1.1754015E-2,3.9419138E-1,-1.3611019E-1,2.2007075E-1,2.9189214E-1,4.7106978E-1,-4.0634507E-1,-6.505133E-2,2.6913533E-1,-8.953206E-2,3.195659E-1,4.1873164E-2,4.113411E-1,5.220482E-1,-1.1586492E-2,-3.3621967E-2,3.732626E-3,-5.934746E-3,1.962086E-2,1.1208014E-2,-6.181596E-3,-1.90815E-4,-5.309057E-3,1.6463121E-2,4.9347407E-3,-1.2335443E-2,2.254032E-2,1.6583607E-2,2.6352772E-2,-1.6870156E-2],"categories":[],"categories_nodes":[],"categories_segments":[],"categories_sizes":[],"default_left":[0,0,0,0,0,0,0,0,0,0,0,0,0,0,0,0,0,0,0,0,0,0,0,0,0,0,0,0,0,0,0],"id":22,"left_children":[1,3,5,7,9,11,13,15,17,19,21,23,25,27,29,-1,-1,-1,-1,-1,-1,-1,-1,-1,-1,-1,-1,-1,-1,-1,-1],"loss_changes":[1.6802689E1,4.0433826E0,8.003845E0,1.4487587E0,8.5156393E-1,3.077942E0,1.5799103E0,5.7850385E-1,4.736399E-1,1.7413235E-1,2.3501933E-2,1.6949997E0,7.7333194E-1,7.1865463E-1,1.5303268E0,0E0,0E0,0E0,0E0,0E0,0E0,0E0,0E0,0E0,0E0,0E0,0E0,0E0,0E0,0E0,0E0],"parents":[2147483647,0,0,1,1,2,2,3,3,4,4,5,5,6,6,7,7,8,8,9,9,10,10,11,11,12,12,13,13,14,14],"right_children":[2,4,6,8,10,12,14,16,18,20,22,24,26,28,30,-1,-1,-1,-1,-1,-1,-1,-1,-1,-1,-1,-1,-1,-1,-1,-1],"split_conditions":[-8.501909E-1,8.8481545E-1,8.8481545E-1,-2.0228114E0,-9.312083E-1,1.1581882E0,5.3792942E-2,-2.632574E0,-1.4002565E0,-2.3596733E0,-8.6724716E-1,-2.5362384E0,2.804121E0,-6.560115E-2,5.0107107E0,-1.1586492E-2,-3.3621967E-2,3.732626E-3,-5.934746E-3,1.962086E-2,1.1208014E-2,-6.181596E-3,-1.90815E-4,-5.309057E-3,1.6463121E-2,4.9347407E-3,-1.2335443E-2,2.254032E-2,1.6583607E-2,2.6352772E-2,-1.6870156E-2],"split_indices":[0,5,5,0,0,0,0,0,0,0,0,9,0,0,1,0,0,0,0,0,0,0,0,0,0,0,0,0,0,0,0],"split_type":[0,0,0,0,0,0,0,0,0,0,0,0,0,0,0,0,0,0,0,0,0,0,0,0,0,0,0,0,0,0,0],"sum_hessian":[1.1634839E3,1.2929518E2,1.0341887E3,7.582258E1,5.347261E1,4.4578964E2,5.883991E2,1.4804198E1,6.101838E1,4.6270554E1,7.202057E0,4.0111356E2,4.4676086E1,2.7512198E2,3.132771E2,1.0068167E1,4.7360315E0,1.682068E1,4.41977E1,1.0303161E1,3.5967392E1,4.8358774E0,2.3661795E0,8.71048E0,3.9240308E2,3.787627E1,6.799817E0,1.8086778E2,9.4254196E1,3.11847E2,1.4301164E0],"tree_param":{"num_deleted":"0","num_feature":"10","num_nodes":"31","size_leaf_vector":"1"}},{"base_weights":[-3.5714367E-1,-1.0340342E-1,-5.5110836E-1,7.2535515E-2,-3.5551935E-1,-2.3835284E-1,-5.6980187E-1,-1.1872457E-1,4.2316326E-1,-3.1818482E-1,-6.525633E-1,-4.0177688E-1,-8.489408E-2,-6.494267E-1,-5.240566E-1,-1.1097438E-2,4.6306732E-4,2.465341E-2,-1.409863E-3,-1.9878967E-2,1.4034071E-4,-3.613279E-2,-1.4067019E-2,-1.3190016E-2,-2.5596604E-2,-2.7765362E-2,5.5006E-4,-2.7968762E-2,-3.567292E-2,2.2455694E-2,-2.6489595E-2],"categories":[],"categories_nodes":[],"categories_segments":[],"categories_sizes":[],"default_left":[0,0,0,0,0,0,0,0,0,0,0,0,0,0,0,0,0,0,0,0,0,0,0,0,0,0,0,0,0,0,0],"id":23,"left_children":[1,3,5,7,9,11,13,15,17,19,21,23,25,27,29,-1,-1,-1,-1,-1,-1,-1,-1,-1,-1,-1,-1,-1,-1,-1,-1],"loss_changes":[5.8471954E1,2.2933838E1,3.8033295E0,2.0504396E1,2.1483154E0,9.6199584E-1,1.9728088E0,2.6196754E0,3.4175186E0,4.8603706E0,3.891096E-1,1.5322876E-1,9.873455E-1,9.129181E-1,2.5179977E0,0E0,0E0,0E0,0E0,0E0,0E0,0E0,0E0,0E0,0E0,0E0,0E0,0E0,0E0,0E0,0E0],"parents":[2147483647,0,0,1,1,2,2,3,3,4,4,5,5,6,6,7,7,8,8,9,9,10,10,11,11,12,12,13,13,14,14],"right_children":[2,4,6,8,10,12,14,16,18,20,22,24,26,28,30,-1,-1,-1,-1,-1,-1,-1,-1,-1,-1,-1,-1,-1,-1,-1,-1],"split_conditions":[8.360274E-1,8.8481545E-1,-1.0678762E0,4.707951E-1,9.6929675E-1,-1.1444618E0,8.8481545E-1,-1.1403927E-1,3.2404037E0,6.1411034E-2,1.6070447E0,-1.1806657E0,8.8481545E-1,-5.0810623E-1,-2.4258924E0,-1.1097438E-2,4.6306732E-4,2.465341E-2,-1.409863E-3,-1.9878967E-2,1.4034071E-4,-3.613279E-2,-1.4067019E-2,-1.3190016E-2,-2.5596604E-2,-2.7765362E-2,5.5006E-4,-2.7968762E-2,-3.567292E-2,2.2455694E-2,-2.6489595E-2],"split_indices":[4,5,2,2,2,2,5,2,2,2,2,2,5,2,9,0,0,0,0,0,0,0,0,0,0,0,0,0,0,0,0],"split_type":[0,0,0,0,0,0,0,0,0,0,0,0,0,0,0,0,0,0,0,0,0,0,0,0,0,0,0,0,0,0,0],"sum_hessian":[1.1882103E3,5.1544714E2,6.7276324E2,3.040078E2,2.1143933E2,3.8718903E1,6.340444E2,1.9713577E2,1.0687203E2,1.896713E2,2.1768036E1,1.796701E1,2.0751892E1,2.265359E2,4.0750845E2,1.0871774E2,8.841803E1,9.2459816E1,1.4412216E1,1.5186916E2,3.7802135E1,1.751437E1,4.253666E0,9.483329E0,8.483682E0,2.7027617E0,1.8049131E1,9.81865E1,1.283494E2,1.934618E0,4.0557382E2],"tree_param":{"num_deleted":"0","num_feature":"10","num_nodes":"31","size_leaf_vector":"1"}},{"base_weights":[3.3562562E-1,8.096632E-2,5.347681E-1,-1.0824936E-1,3.5339025E-1,6.373678E-1,4.8057428E-1,-2.607659E-1,-2.258198E-2,4.672471E-2,3.933242E-1,2.0265457E-1,6.4676684E-1,-2.174238E-2,4.8576418E-1,-2.926117E-2,-1.0170645E-2,2.4614034E-3,-1.1578286E-2,1.5054158E-2,-3.7435999E-3,2.0015832E-2,-1.4284715E-2,2.7102014E-2,-7.0072785E-3,2.08048E-2,3.2892846E-2,2.1129724E-2,2.7283868E-2],"categories":[],"categories_nodes":[],"categories_segments":[],"categories_sizes":[],"default_left":[0,0,0,0,0,0,0,0,0,0,0,0,0,0,0,0,0,0,0,0,0,0,0,0,0,0,0,0,0],"id":24,"left_children":[1,3,5,7,9,11,13,15,17,19,21,23,25,-1,27,-1,-1,-1,-1,-1,-1,-1,-1,-1,-1,-1,-1,-1,-1],"loss_changes":[5.873044E1,2.6314608E1,3.3088837E0,3.9345186E0,2.5432186E0,7.746124E-1,2.2518463E0,1.8976789E0,2.9259129E0,8.030356E-1,9.924469E-1,7.9117423E-1,2.8015137E-1,0E0,1.3876266E0,0E0,0E0,0E0,0E0,0E0,0E0,0E0,0E0,0E0,0E0,0E0,0E0,0E0,0E0],"parents":[2147483647,0,0,1,1,2,2,3,3,4,4,5,5,6,6,7,7,8,8,9,9,10,10,11,11,12,12,14,14],"right_children":[2,4,6,8,10,12,14,16,18,20,22,24,26,-1,28,-1,-1,-1,-1,-1,-1,-1,-1,-1,-1,-1,-1,-1,-1],"split_conditions":[8.360274E-1,8.8481545E-1,8.8481545E-1,-2.7880487E-1,-8.501909E-1,-2.0014844E0,-2.4258924E0,-2.0228114E0,8.0853415E-1,-1.8010795E0,2.804121E0,-4.6752543E0,-1.025018E0,-2.174238E-2,-1.6400287E-3,-2.926117E-2,-1.0170645E-2,2.4614034E-3,-1.1578286E-2,1.5054158E-2,-3.7435999E-3,2.0015832E-2,-1.4284715E-2,2.7102014E-2,-7.0072785E-3,2.08048E-2,3.2892846E-2,2.1129724E-2,2.7283868E-2],"split_indices":[4,5,5,0,0,9,9,0,0,0,0,9,0,0,0,0,0,0,0,0,0,0,0,0,0,0,0,0,0],"split_type":[0,0,0,0,0,0,0,0,0,0,0,0,0,0,0,0,0,0,0,0,0,0,0,0,0,0,0,0,0],"sum_hessian":[1.157937E3,5.087564E2,6.491806E2,3.0058423E2,2.0817216E2,2.206623E2,4.285183E2,1.07375694E2,1.9320854E2,2.4234869E1,1.839373E2,5.1475053E0,2.1551479E2,1.9490354E0,4.2656927E2,1.4746714E1,9.262898E1,1.4436644E2,4.8842102E1,7.3609676E0,1.6873901E1,1.8246872E2,1.4685866E0,2.2945733E0,2.852932E0,1.1653088E1,2.038617E2,2.1156174E2,2.1500754E2],"tree_param":{"num_deleted":"0","num_feature":"10","num_nodes":"29","size_leaf_vector":"1"}},{"base_weights":[-3.311191E-1,-7.6720946E-2,-5.251176E-1,1.0086828E-1,-3.3948466E-1,-6.1324567E-1,-4.782173E-1,5.7832694E-1,7.475017E-2,-1.657579E-2,-3.8745323E-1,4.9765385E-3,-6.1979616E-1,2.174238E-2,-4.8326695E-1,1.601643E-2,3.2441586E-2,2.5709376E-3,1.303305E-2,-1.332129E-2,2.776944E-3,-1.9882167E-2,-2.8870057E-3,-1.7650371E-2,-3.1661235E-2,-1.3163968E-2,-2.5446057E-2],"categories":[],"categories_nodes":[],"categories_segments":[],"categories_sizes":[],"default_left":[0,0,0,0,0,0,0,0,0,0,0,0,0,0,0,0,0,0,0,0,0,0,0,0,0,0,0],"id":25,"left_children":[1,3,5,7,9,11,13,15,17,19,21,-1,23,-1,25,-1,-1,-1,-1,-1,-1,-1,-1,-1,-1,-1,-1],"loss_changes":[5.8077576E1,2.3863605E1,2.4674835E0,3.7662857E0,3.187069E0,1.1283722E0,2.241066E0,7.766628E-2,1.2479218E0,5.1408094E-1,5.799961E-1,0E0,5.879822E-1,0E0,2.3409195E0,0E0,0E0,0E0,0E0,0E0,0E0,0E0,0E0,0E0,0E0,0E0,0E0],"parents":[2147483647,0,0,1,1,2,2,3,3,4,4,5,5,6,6,7,7,8,8,9,9,10,10,12,12,14,14],"right_children":[2,4,6,8,10,12,14,16,18,20,22,-1,24,-1,26,-1,-1,-1,-1,-1,-1,-1,-1,-1,-1,-1,-1],"split_conditions":[8.360274E-1,8.8481545E-1,8.8481545E-1,-2.0228114E0,-8.6724716E-1,-4.2911848E-1,-2.4258924E0,-4.5215592E0,1.1581882E0,-2.3596733E0,6.1138004E-2,4.9765385E-3,-1.025018E0,2.174238E-2,-5.815542E-1,1.601643E-2,3.2441586E-2,2.5709376E-3,1.303305E-2,-1.332129E-2,2.776944E-3,-1.9882167E-2,-2.8870057E-3,-1.7650371E-2,-3.1661235E-2,-1.3163968E-2,-2.5446057E-2],"split_indices":[4,5,5,0,0,3,9,0,0,0,9,0,0,0,0,0,0,0,0,0,0,0,0,0,0,0,0],"split_type":[0,0,0,0,0,0,0,0,0,0,0,0,0,0,0,0,0,0,0,0,0,0,0,0,0,0,0],"sum_hessian":[1.1765986E3,5.0965833E2,6.6694025E2,3.044867E2,2.0517163E2,2.2745853E2,4.3948172E2,1.4695684E1,2.8979102E2,2.6710518E1,1.784611E2,1.9420775E0,2.2551645E2,1.9490354E0,4.3753268E2,4.343792E0,1.0351893E1,2.586123E2,3.1178726E1,5.3791895E0,2.1331327E1,1.7291109E2,5.550018E0,1.2114802E1,2.1340164E2,4.6871037E1,3.9066165E2],"tree_param":{"num_deleted":"0","num_feature":"10","num_nodes":"27","size_leaf_vector":"1"}},{"base_weights":[3.2967067E-1,7.289299E-2,5.242625E-1,2.2653288E-1,-1.9834381E-1,2.9504552E-1,5.563333E-1,2.8145948E-1,6.4782105E-2,-2.7074057E-1,3.636892E-2,-9.8015405E-2,3.3405197E-1,1.6859193E-1,5.6053734E-1,5.4982468E-3,1.7672947E-2,6.4100437E-3,-1.5805071E-2,-1.1310865E-2,-2.5039991E-2,3.180359E-2,-3.3430013E-5,2.5701916E-2,-1.5477774E-2,1.4405929E-2,3.2832827E-2,2.1954441E-2,-1.4625296E-2,2.6841005E-2,3.1214926E-2],"categories":[],"categories_nodes":[],"categories_segments":[],"categories_sizes":[],"default_left":[0,0,0,0,0,0,0,0,0,0,0,0,0,0,0,0,0,0,0,0,0,0,0,0,0,0,0,0,0,0,0],"id":26,"left_children":[1,3,5,7,9,11,13,15,17,19,21,23,25,27,29,-1,-1,-1,-1,-1,-1,-1,-1,-1,-1,-1,-1,-1,-1,-1,-1],"loss_changes":[5.6745003E1,2.0509916E1,4.587143E0,2.771225E0,3.0364647E0,1.2816901E0,8.278961E-1,2.851469E0,1.9944172E0,1.2822752E0,9.526289E-1,1.2113967E0,9.1230106E-1,1.0638331E0,5.1075745E-1,0E0,0E0,0E0,0E0,0E0,0E0,0E0,0E0,0E0,0E0,0E0,0E0,0E0,0E0,0E0,0E0],"parents":[2147483647,0,0,1,1,2,2,3,3,4,4,5,5,6,6,7,7,8,8,9,9,10,10,11,11,12,12,13,13,14,14],"right_children":[2,4,6,8,10,12,14,16,18,20,22,24,26,28,30,-1,-1,-1,-1,-1,-1,-1,-1,-1,-1,-1,-1,-1,-1,-1,-1],"split_conditions":[8.360274E-1,2.424312E-1,-9.119204E-1,-1.1403927E-1,5.825382E-1,-3.9393488E-1,-2.0014844E0,-1.12505965E-1,7.4030894E-1,2.230868E0,3.3711866E-1,-1.1138276E0,4.972567E-1,-3.521504E-1,2.605332E-1,5.4982468E-3,1.7672947E-2,6.4100437E-3,-1.5805071E-2,-1.1310865E-2,-2.5039991E-2,3.180359E-2,-3.3430013E-5,2.5701916E-2,-1.5477774E-2,1.4405929E-2,3.2832827E-2,2.1954441E-2,-1.4625296E-2,2.6841005E-2,3.1214926E-2],"split_indices":[4,2,2,2,0,0,9,0,0,2,2,2,0,2,2,0,0,0,0,0,0,0,0,0,0,0,0,0,0,0,0],"split_type":[0,0,0,0,0,0,0,0,0,0,0,0,0,0,0,0,0,0,0,0,0,0,0,0,0,0,0,0,0,0,0],"sum_hessian":[1.1354178E3,4.9008746E2,6.453304E2,3.129719E2,1.7711557E2,8.046064E1,5.648697E2,2.3308264E2,7.988925E1,1.3524574E2,4.186983E1,7.1273017E0,7.3333336E1,6.4996433E0,5.5837006E2,6.966818E1,1.6341446E2,6.905474E1,1.0834504E1,1.149775E2,2.0268242E1,1.4946758E0,4.0375153E1,1.463357E0,5.6639447E0,6.585046E1,7.4828844E0,4.126575E0,2.3730683E0,4.138498E2,1.4452028E2],"tree_param":{"num_deleted":"0","num_feature":"10","num_nodes":"31","size_leaf_vector":"1"}},{"base_weights":[-3.2834148E-1,-8.240285E-2,-5.1496965E-1,-2.960574E-1,1.0922644E-1,-2.6328763E-1,-5.4176927E-1,-1.0957705E-2,-3.3146626E-1,-3.4950078E-3,2.2486691E-1,-3.172338E-1,5.394488E-1,9.678448E-2,-5.47554E-1,1.2007372E-2,-1.0560926E-2,-1.7368935E-2,6.516923E-3,-1.1643757E-3,3.771194E-2,1.3328075E-2,-9.805645E-3,-1.3275224E-2,-3.252305E-2,8.937516E-3,3.3001292E-2,-2.4689497E-2,2.2651378E-2,-1.8586112E-2,-2.8147241E-2],"categories":[],"categories_nodes":[],"categories_segments":[],"categories_sizes":[],"default_left":[0,0,0,0,0,0,0,0,0,0,0,0,0,0,0,0,0,0,0,0,0,0,0,0,0,0,0,0,0,0,0],"id":27,"left_children":[1,3,5,7,9,11,13,15,17,19,21,23,25,27,29,-1,-1,-1,-1,-1,-1,-1,-1,-1,-1,-1,-1,-1,-1,-1,-1],"loss_changes":[5.331584E1,2.0616127E1,4.3141785E0,2.398817E0,3.46509E0,3.009046E0,2.2554169E0,1.4248453E0,1.6006279E0,2.0507128E0,2.3551702E0,8.9666605E-1,7.760525E-2,1.5286659E0,1.3901672E0,0E0,0E0,0E0,0E0,0E0,0E0,0E0,0E0,0E0,0E0,0E0,0E0,0E0,0E0,0E0,0E0],"parents":[2147483647,0,0,1,1,2,2,3,3,4,4,5,5,6,6,7,7,8,8,9,9,10,10,11,11,12,12,13,13,14,14],"right_children":[2,4,6,8,10,12,14,16,18,20,22,24,26,28,30,-1,-1,-1,-1,-1,-1,-1,-1,-1,-1,-1,-1,-1,-1,-1,-1],"split_conditions":[8.360274E-1,-1.1403927E-1,-9.5787174E-1,-6.28459E-1,5.292785E-1,-9.7458124E-1,-2.4258924E0,-4.05064E-1,1.657085E0,4.299211E-1,3.581557E0,4.972567E-1,-4.1951934E-1,-4.6752543E0,-8.501909E-1,1.2007372E-2,-1.0560926E-2,-1.7368935E-2,6.516923E-3,-1.1643757E-3,3.771194E-2,1.3328075E-2,-9.805645E-3,-1.3275224E-2,-3.252305E-2,8.937516E-3,3.3001292E-2,-2.4689497E-2,2.2651378E-2,-1.8586112E-2,-2.8147241E-2],"split_indices":[4,2,2,0,2,2,9,2,0,3,2,0,0,9,0,0,0,0,0,0,0,0,0,0,0,0,0,0,0,0,0],"split_type":[0,0,0,0,0,0,0,0,0,0,0,0,0,0,0,0,0,0,0,0,0,0,0,0,0,0,0,0,0,0,0],"sum_hessian":[1.1615127E3,5.0174908E2,6.5976355E2,2.3698302E2,2.6476608E2,6.453385E1,5.9522974E2,2.6325844E1,2.1065717E2,1.345663E2,1.3019977E2,6.1036816E1,3.4970386E0,5.2026596E0,5.9002704E2,1.159181E1,1.4734035E1,2.0387984E2,6.777331E0,1.3208542E2,2.480891E0,1.1880037E2,1.1399395E1,5.4390194E1,6.6466227E0,1.4980817E0,1.9989569E0,1.8122443E0,3.3904154E0,4.95135E1,5.4051355E2],"tree_param":{"num_deleted":"0","num_feature":"10","num_nodes":"31","size_leaf_vector":"1"}},{"base_weights":[3.2116234E-1,8.208711E-2,5.0571656E-1,2.4403967E-1,-1.3605793E-1,2.6575923E-1,5.309913E-1,1.4681382E-1,3.3311802E-1,-2.546624E-1,2.1169165E-1,3.247599E-2,1.9309334E-1,4.7778E-1,5.840569E-1,8.778261E-3,-1.4320636E-2,1.1324535E-2,2.1599684E-2,-1.5420424E-2,1.0751316E-2,-1.911808E-3,3.102976E-2,1.1731784E-2,-1.5892541E-2,2.8435795E-2,2.122545E-2,2.9496148E-2,-1.1049E-2],"categories":[],"categories_nodes":[],"categories_segments":[],"categories_sizes":[],"default_left":[0,0,0,0,0,0,0,0,0,0,0,0,0,0,0,0,0,0,0,0,0,0,0,0,0,0,0,0,0],"id":28,"left_children":[1,3,5,7,9,11,13,15,17,19,21,-1,23,25,27,-1,-1,-1,-1,-1,-1,-1,-1,-1,-1,-1,-1,-1,-1],"loss_changes":[4.979136E1,1.7458517E1,3.7233887E0,2.4058037E0,8.74817E0,1.6236773E0,1.3459167E0,1.7605457E0,1.45327E0,4.045784E0,5.5583396E0,0E0,1.2241611E0,1.1771545E0,1.4698029E0,0E0,0E0,0E0,0E0,0E0,0E0,0E0,0E0,0E0,0E0,0E0,0E0,0E0,0E0],"parents":[2147483647,0,0,1,1,2,2,3,3,4,4,5,5,6,6,7,7,8,8,9,9,10,10,12,12,13,13,14,14],"right_children":[2,4,6,8,10,12,14,16,18,20,22,-1,24,26,28,-1,-1,-1,-1,-1,-1,-1,-1,-1,-1,-1,-1,-1,-1],"split_conditions":[8.360274E-1,6.8373345E-2,-9.5787174E-1,8.8481545E-1,8.8481545E-1,8.8481545E-1,-1.6400287E-3,1.2349416E0,7.511331E-2,3.2404037E0,1.0584143E0,3.247599E-2,-9.7458124E-1,8.8481545E-1,4.6612225E0,8.778261E-3,-1.4320636E-2,1.1324535E-2,2.1599684E-2,-1.5420424E-2,1.0751316E-2,-1.911808E-3,3.102976E-2,1.1731784E-2,-1.5892541E-2,2.8435795E-2,2.122545E-2,2.9496148E-2,-1.1049E-2],"split_indices":[4,2,2,5,5,5,0,0,0,2,2,0,2,5,1,0,0,0,0,0,0,0,0,0,0,0,0,0,0],"split_type":[0,0,0,0,0,0,0,0,0,0,0,0,0,0,0,0,0,0,0,0,0,0,0,0,0,0,0,0,0],"sum_hessian":[1.1284244E3,4.922277E2,6.361967E2,2.8243042E2,2.0979726E2,6.172237E1,5.7447437E2,1.3630571E2,1.4612473E2,1.5664064E2,5.315662E1,8.562733E0,5.3159637E1,2.918382E2,2.8263617E2,1.283804E2,7.9253106E0,7.188969E1,7.423503E1,1.4086496E2,1.5775679E1,3.355426E1,1.960236E1,4.9662598E1,3.4970393E0,1.0423272E2,1.8760548E2,2.8085687E2,1.7793026E0],"tree_param":{"num_deleted":"0","num_feature":"10","num_nodes":"29","size_leaf_vector":"1"}},{"base_weights":[-3.1433403E-1,-7.237498E-2,-5.030608E-1,-2.762449E-1,1.12327054E-1,-1.8654558E-1,-5.366479E-1,-2.846978E-1,3.172038E-2,4.7944598E-2,3.614975E-1,-1.2815736E-1,-3.1449363E-2,-2.9915208E-1,-5.5292743E-1,2.821843E-4,-1.5386711E-2,3.2662265E-3,-3.8549405E-2,2.8891847E-2,-7.1601046E-4,-1.0910617E-2,7.0914715E-3,1.4780246E-2,-1.9219304E-2,-2.5251431E-2,-3.060214E-2],"categories":[],"categories_nodes":[],"categories_segments":[],"categories_sizes":[],"default_left":[0,0,0,0,0,0,0,0,0,0,0,0,0,0,0,0,0,0,0,0,0,0,0,0,0,0,0],"id":29,"left_children":[1,3,5,7,9,11,13,15,-1,17,19,21,-1,23,25,-1,-1,-1,-1,-1,-1,-1,-1,-1,-1,-1,-1],"loss_changes":[5.1870514E1,1.883133E1,6.686981E0,2.0096722E0,4.19636E0,1.5412383E0,2.0641022E0,1.5809898E0,0E0,3.0376244E0,4.3808303E0,1.4099652E0,0E0,2.0993319E0,1.2156677E0,0E0,0E0,0E0,0E0,0E0,0E0,0E0,0E0,0E0,0E0,0E0,0E0],"parents":[2147483647,0,0,1,1,2,2,3,3,4,4,5,5,6,6,7,7,9,9,10,10,11,11,13,13,14,14],"right_children":[2,4,6,8,10,12,14,16,-1,18,20,22,-1,24,26,-1,-1,-1,-1,-1,-1,-1,-1,-1,-1,-1,-1],"split_conditions":[8.360274E-1,-1.1403927E-1,-9.5787174E-1,2.0707002E0,1.6070447E0,4.972567E-1,-9.951694E-1,-8.288705E-1,3.172038E-2,5.7964957E-1,3.0635607E0,2.2862E-1,-3.1449363E-2,-3.6885998E-1,-2.4910817E-1,2.821843E-4,-1.5386711E-2,3.2662265E-3,-3.8549405E-2,2.8891847E-2,-7.1601046E-4,-1.0910617E-2,7.0914715E-3,1.4780246E-2,-1.9219304E-2,-2.5251431E-2,-3.060214E-2],"split_indices":[4,2,2,0,2,0,0,0,0,6,2,0,0,2,2,0,0,0,0,0,0,0,0,0,0,0,0],"split_type":[0,0,0,0,0,0,0,0,0,0,0,0,0,0,0,0,0,0,0,0,0,0,0,0,0,0,0],"sum_hessian":[1.1357102E3,4.9827518E2,6.37435E2,2.3661227E2,2.616629E2,6.1781082E1,5.7565393E2,2.3511722E2,1.4950452E0,2.0888269E2,5.27802E1,5.571777E1,6.063313E0,3.8170807E1,5.3748315E2,1.733898E1,2.1777824E2,2.0544289E2,3.4398139E0,3.3156258E1,1.9623943E1,4.1925236E1,1.3792532E1,4.475176E0,3.3695633E1,3.0218103E2,2.353021E2],"tree_param":{"num_deleted":"0","num_feature":"10","num_nodes":"27","size_leaf_vector":"1"}},{"base_weights":[3.050544E-1,7.36509E-2,4.9121997E-1,2.0964624E-1,-1.7022838E-1,2.0874594E-1,5.225063E-1,2.2926521E-1,-3.8747135E-1,-3.191749E-1,2.905774E-1,1.2507093E-1,2.9184416E-2,5.252216E-1,-1.6120102E-2,5.774417E-5,1.3302306E-2,-6.731473E-3,-3.909632E-2,-1.862269E-2,7.2729425E-3,-4.173168E-2,1.9489406E-2,3.1225095E-2,1.9890475E-3,2.9808933E-2,2.4257153E-2],"categories":[],"categories_nodes":[],"categories_segments":[],"categories_sizes":[],"default_left":[0,0,0,0,0,0,0,0,0,0,0,0,0,0,0,0,0,0,0,0,0,0,0,0,0,0,0],"id":30,"left_children":[1,3,5,7,9,11,13,15,17,19,21,23,-1,25,-1,-1,-1,-1,-1,-1,-1,-1,-1,-1,-1,-1,-1],"loss_changes":[4.859176E1,1.676586E1,5.417679E0,3.887864E0,1.25252495E1,1.9356189E0,1.4594421E0,2.6392555E0,9.60673E-1,3.4547338E0,5.323227E0,2.2589614E0,0E0,1.305954E0,0E0,0E0,0E0,0E0,0E0,0E0,0E0,0E0,0E0,0E0,0E0,0E0,0E0],"parents":[2147483647,0,0,1,1,2,2,3,3,4,4,5,5,6,6,7,7,8,8,9,9,10,10,11,11,13,13],"right_children":[2,4,6,8,10,12,14,16,18,20,22,24,-1,26,-1,-1,-1,-1,-1,-1,-1,-1,-1,-1,-1,-1,-1],"split_conditions":[8.360274E-1,2.424312E-1,-9.5787174E-1,1.657085E0,8.8481545E-1,4.0344706E-1,7.6901207E0,-6.28459E-1,-2.7706584E-2,3.2404037E0,2.7445784E-1,8.8481545E-1,2.9184416E-2,8.8481545E-1,-1.6120102E-2,5.774417E-5,1.3302306E-2,-6.731473E-3,-3.909632E-2,-1.862269E-2,7.2729425E-3,-4.173168E-2,1.9489406E-2,3.1225095E-2,1.9890475E-3,2.9808933E-2,2.4257153E-2],"split_indices":[4,2,2,0,5,0,1,0,2,2,2,5,0,5,0,0,0,0,0,0,0,0,0,0,0,0,0],"split_type":[0,0,0,0,0,0,0,0,0,0,0,0,0,0,0,0,0,0,0,0,0,0,0,0,0,0,0],"sum_hessian":[1.1277985E3,5.0343063E2,6.2436786E2,3.2329227E2,1.8013835E2,6.3023266E1,5.6134454E2,3.136045E2,9.687784E0,1.3636755E2,4.3770805E1,5.26149E1,1.0408368E1,5.5992346E2,1.4210827E0,4.3688072E1,2.699164E2,6.720995E0,2.966789E0,1.2251708E2,1.3850472E1,2.9459698E0,4.0824837E1,6.7524724E0,4.5862423E1,1.9709735E2,3.6282614E2],"tree_param":{"num_deleted":"0","num_feature":"10","num_nodes":"27","size_leaf_vector":"1"}},{"base_weights":[-3.2422537E-1,-4.021167E-1,-1.8321268E-1,-2.2548547E-1,-4.2417082E-1,2.756412E-2,-4.298857E-1,-5.7286376E-1,-1.5610766E-1,1.7253059E-1,-4.288671E-1,-2.5345838E-1,8.473734E-2,-1.9186366E-1,-5.180611E-1,-2.0759865E-3,-3.4287997E-2,1.8167764E-2,-9.28932E-3,2.37238E-2,-2.2835193E-2,-2.163455E-2,-9.04306E-4,-2.0934766E-2,4.78939E-3,1.09372875E-2,-2.1523768E-3,2.0459264E-3,-2.0444002E-2,-3.850609E-3,-2.89838E-2],"categories":[],"categories_nodes":[],"categories_segments":[],"categories_sizes":[],"default_left":[0,0,0,0,0,0,0,0,0,0,0,0,0,0,0,0,0,0,0,0,0,0,0,0,0,0,0,0,0,0,0],"id":31,"left_children":[1,3,5,7,9,11,13,15,17,19,21,23,25,27,29,-1,-1,-1,-1,-1,-1,-1,-1,-1,-1,-1,-1,-1,-1,-1,-1],"loss_changes":[1.2354294E1,2.7404022E0,2.1040379E1,1.9096475E0,1.8845444E0,3.5406752E0,3.813057E0,7.7738E-1,1.1546235E0,1.3107663E0,9.9957275E-1,2.1914113E0,3.1389458E0,2.64258E0,3.635891E0,0E0,0E0,0E0,0E0,0E0,0E0,0E0,0E0,0E0,0E0,0E0,0E0,0E0,0E0,0E0,0E0],"parents":[2147483647,0,0,1,1,2,2,3,3,4,4,5,5,6,6,7,7,8,8,9,9,10,10,11,11,12,12,13,13,14,14],"right_children":[2,4,6,8,10,12,14,16,18,20,22,24,26,28,30,-1,-1,-1,-1,-1,-1,-1,-1,-1,-1,-1,-1,-1,-1,-1,-1],"split_conditions":[5.0271332E-2,-5.9861046E-1,8.8481545E-1,-6.598847E-1,-4.276311E0,2.424312E-1,2.9116738E-1,-9.5787174E-1,-6.1671835E-1,6.925455E-1,2.0707002E0,2.6699668E-1,-1.0397782E-1,-4.00167E-2,-1.6049321E0,-2.0759865E-3,-3.4287997E-2,1.8167764E-2,-9.28932E-3,2.37238E-2,-2.2835193E-2,-2.163455E-2,-9.04306E-4,-2.0934766E-2,4.78939E-3,1.09372875E-2,-2.1523768E-3,2.0459264E-3,-2.0444002E-2,-3.850609E-3,-2.89838E-2],"split_indices":[2,0,5,2,9,2,2,2,2,6,0,0,0,0,0,0,0,0,0,0,0,0,0,0,0,0,0,0,0,0,0],"split_type":[0,0,0,0,0,0,0,0,0,0,0,0,0,0,0,0,0,0,0,0,0,0,0,0,0,0,0,0,0,0,0],"sum_hessian":[1.1304938E3,7.2704407E2,4.0344965E2,8.194803E1,6.4509607E2,2.180332E2,1.8541644E2,1.2433863E1,6.951416E1,4.7584395E0,6.403376E2,3.6278915E1,1.8175427E2,5.0978954E1,1.3443748E2,2.418587E0,1.0015276E1,3.149307E0,6.636485E1,3.3816588E0,1.3767806E0,6.343789E2,5.9586954E0,2.44922E1,1.17867155E1,8.836929E1,9.338499E1,2.4987553E1,2.5991402E1,1.6754692E1,1.1768279E2],"tree_param":{"num_deleted":"0","num_feature":"10","num_nodes":"31","size_leaf_vector":"1"}},{"base_weights":[2.821408E-1,4.815904E-2,4.728986E-1,-9.31347E-2,2.575928E-1,5.630996E-1,4.2639273E-1,-3.1758615E-1,-4.4403143E-2,1.2306907E-2,3.0399734E-1,-1.424108E-2,5.7459176E-1,3.660071E-1,5.093127E-1,-2.2834651E-2,-1.2937838E-2,-2.7454763E-3,2.1648003E-2,2.0286704E-3,-1.8092884E-2,1.0957885E-2,1.8625109E-2,1.8061085E-2,2.941896E-2,1.2645304E-2,1.9413E-2,2.5672317E-2,-9.911516E-4],"categories":[],"categories_nodes":[],"categories_segments":[],"categories_sizes":[],"default_left":[0,0,0,0,0,0,0,0,0,0,0,0,0,0,0,0,0,0,0,0,0,0,0,0,0,0,0,0,0],"id":32,"left_children":[1,3,5,7,9,11,13,15,17,19,21,-1,23,25,27,-1,-1,-1,-1,-1,-1,-1,-1,-1,-1,-1,-1,-1,-1],"loss_changes":[4.9070503E1,1.4674905E1,2.301178E0,3.2276683E0,2.2695713E0,2.1414719E0,1.8356857E0,3.1315994E-1,1.2508986E0,3.6175066E-1,8.9422226E-1,0E0,3.7755585E-1,4.9886322E-1,3.767929E-1,0E0,0E0,0E0,0E0,0E0,0E0,0E0,0E0,0E0,0E0,0E0,0E0,0E0,0E0],"parents":[2147483647,0,0,1,1,2,2,3,3,4,4,5,5,6,6,7,7,8,8,9,9,10,10,12,12,13,13,14,14],"right_children":[2,4,6,8,10,12,14,16,18,20,22,-1,24,26,28,-1,-1,-1,-1,-1,-1,-1,-1,-1,-1,-1,-1,-1,-1],"split_conditions":[8.360274E-1,8.8481545E-1,8.8481545E-1,-9.1415197E-1,-6.924201E-1,-4.2911848E-1,1.2628222E-1,-2.0228114E0,6.0065347E-1,-7.1374047E-1,9.216961E-2,-1.424108E-2,-1.025018E0,-5.9861046E-1,3.9622457E0,-2.2834651E-2,-1.2937838E-2,-2.7454763E-3,2.1648003E-2,2.0286704E-3,-1.8092884E-2,1.0957885E-2,1.8625109E-2,1.8061085E-2,2.941896E-2,1.2645304E-2,1.9413E-2,2.5672317E-2,-9.911516E-4],"split_indices":[4,5,5,0,0,3,0,0,6,0,0,0,0,0,1,0,0,0,0,0,0,0,0,0,0,0,0,0,0],"split_type":[0,0,0,0,0,0,0,0,0,0,0,0,0,0,0,0,0,0,0,0,0,0,0,0,0,0,0,0,0],"sum_hessian":[1.0989115E3,4.9410248E2,6.04809E2,2.9538043E2,1.9872206E2,2.0196924E2,4.0283978E2,5.1707073E1,2.4367336E2,3.1815647E1,1.6690642E2,2.382706E0,1.9958653E2,2.3622522E2,1.6661456E2,1.3357992E1,3.834908E1,2.3929172E2,4.3816447E0,3.0409876E1,1.4057708E0,7.6439384E1,9.0467026E1,1.376486E1,1.8582167E2,4.0869553E1,1.9535567E2,1.6535248E2,1.2620776E0],"tree_param":{"num_deleted":"0","num_feature":"10","num_nodes":"29","size_leaf_vector":"1"}},{"base_weights":[-2.9631376E-1,-7.492457E-2,-4.7702685E-1,-2.2830334E-1,7.126376E-2,-2.1276015E-1,-5.037971E-1,-1.07554205E-1,-2.8541782E-1,2.57956E-1,-2.4107306E-3,2.9053846E-1,-3.2786587E-1,5.1264886E-2,-5.1083934E-1,-3.0361695E-2,-1.5819361E-3,-1.4974277E-2,2.2703154E-2,1.48033025E-2,-9.197208E-3,2.6205912E-2,-8.279824E-4,1.7664863E-3,2.8478488E-2,-2.2059409E-2,-3.2358167E-3,-1.3431357E-2,2.7553577E-2,-1.9285383E-2,-2.6467009E-2],"categories":[],"categories_nodes":[],"categories_segments":[],"categories_sizes":[],"default_left":[0,0,0,0,0,0,0,0,0,0,0,0,0,0,0,0,0,0,0,0,0,0,0,0,0,0,0,0,0,0,0],"id":33,"left_children":[1,3,5,7,9,11,13,15,17,19,21,23,25,27,29,-1,-1,-1,-1,-1,-1,-1,-1,-1,-1,-1,-1,-1,-1,-1,-1],"loss_changes":[4.4581894E1,1.1280937E1,4.2353516E0,1.6617317E0,3.5490808E0,3.4665058E0,2.202011E0,3.0309033E0,1.8628111E0,1.2840109E0,1.3941661E0,7.8896344E-1,1.3977981E0,1.4083259E0,1.0685425E0,0E0,0E0,0E0,0E0,0E0,0E0,0E0,0E0,0E0,0E0,0E0,0E0,0E0,0E0,0E0,0E0],"parents":[2147483647,0,0,1,1,2,2,3,3,4,4,5,5,6,6,7,7,8,8,9,9,10,10,11,11,12,12,13,13,14,14],"right_children":[2,4,6,8,10,12,14,16,18,20,22,24,26,28,30,-1,-1,-1,-1,-1,-1,-1,-1,-1,-1,-1,-1,-1,-1,-1,-1],"split_conditions":[8.360274E-1,-8.7582484E-2,-9.5787174E-1,-1.12505965E-1,-8.288705E-1,-1.6793893E-1,-2.0014844E0,-8.130556E-1,2.0707002E0,3.581557E0,-7.505032E-2,-1.0274949E0,2.584685E-1,-3.521504E-1,-5.815542E-1,-3.0361695E-2,-1.5819361E-3,-1.4974277E-2,2.2703154E-2,1.48033025E-2,-9.197208E-3,2.6205912E-2,-8.279824E-4,1.7664863E-3,2.8478488E-2,-2.2059409E-2,-3.2358167E-3,-1.3431357E-2,2.7553577E-2,-1.9285383E-2,-2.6467009E-2],"split_indices":[4,2,2,0,0,0,9,2,0,2,2,2,0,2,0,0,0,0,0,0,0,0,0,0,0,0,0,0,0,0,0],"split_type":[0,0,0,0,0,0,0,0,0,0,0,0,0,0,0,0,0,0,0,0,0,0,0,0,0,0,0,0,0,0,0],"sum_hessian":[1.11422E3,5.013893E2,6.128306E2,2.4440318E2,2.5698615E2,5.7192642E1,5.55638E2,7.9407074E1,1.6499611E2,7.2010124E1,1.8497601E2,1.0361776E1,4.6830864E1,6.882539E0,5.487555E2,9.549955E0,6.985712E1,1.6249976E2,2.496353E0,6.6596756E1,5.4133725E0,3.8974051E0,1.8107861E2,6.0003386E0,4.361438E0,3.226133E1,1.4569535E1,4.478619E0,2.4039197E0,7.349737E1,4.752581E2],"tree_param":{"num_deleted":"0","num_feature":"10","num_nodes":"31","size_leaf_vector":"1"}},{"base_weights":[2.7698347E-1,7.061747E-2,4.4469395E-1,1.7199473E-1,-2.5100777E-1,2.0060329E-1,4.6985376E-1,2.9345384E-1,5.315116E-2,-2.9165658E-1,8.4804736E-2,2.769798E-1,-3.836784E-2,3.045E-1,4.944905E-1,1.5025729E-2,-1.8385066E-2,3.8895817E-3,-2.018597E-2,-2.3193797E-2,-1.0625526E-2,-6.9367746E-3,1.9516597E-2,6.0689445E-3,2.2020957E-2,7.2167316E-3,2.0313904E-2,2.225853E-2,2.7709985E-2],"categories":[],"categories_nodes":[],"categories_segments":[],"categories_sizes":[],"default_left":[0,0,0,0,0,0,0,0,0,0,0,0,0,0,0,0,0,0,0,0,0,0,0,0,0,0,0,0,0],"id":34,"left_children":[1,3,5,7,9,11,13,15,17,19,21,23,-1,25,27,-1,-1,-1,-1,-1,-1,-1,-1,-1,-1,-1,-1,-1,-1],"loss_changes":[3.7648293E1,1.5996667E1,3.5930328E0,5.363015E0,1.6309748E0,4.4893565E0,2.0637894E0,9.6973705E-1,2.16536E0,1.3352089E0,9.7482413E-1,1.328834E0,0E0,1.1327987E0,1.141716E0,0E0,0E0,0E0,0E0,0E0,0E0,0E0,0E0,0E0,0E0,0E0,0E0,0E0,0E0],"parents":[2147483647,0,0,1,1,2,2,3,3,4,4,5,5,6,6,7,7,8,8,9,9,10,10,11,11,13,13,14,14],"right_children":[2,4,6,8,10,12,14,16,18,20,22,24,-1,26,28,-1,-1,-1,-1,-1,-1,-1,-1,-1,-1,-1,-1,-1,-1],"split_conditions":[8.360274E-1,6.072564E-1,-9.5787174E-1,-2.54678E-1,1.4737297E0,-9.7458124E-1,-5.815542E-1,1.2889607E0,1.7764791E0,1.0152481E0,2.6305048E0,1.0069776E-1,-3.836784E-2,-1.7391518E-1,-2.36576E-1,1.5025729E-2,-1.8385066E-2,3.8895817E-3,-2.018597E-2,-2.3193797E-2,-1.0625526E-2,-6.9367746E-3,1.9516597E-2,6.0689445E-3,2.2020957E-2,7.2167316E-3,2.0313904E-2,2.225853E-2,2.7709985E-2],"split_indices":[4,2,2,2,0,2,0,3,0,2,2,0,0,2,2,0,0,0,0,0,0,0,0,0,0,0,0,0,0],"split_type":[0,0,0,0,0,0,0,0,0,0,0,0,0,0,0,0,0,0,0,0,0,0,0,0,0,0,0,0,0],"sum_hessian":[1.0877017E3,4.8828864E2,5.99413E2,3.7161856E2,1.16670074E2,5.6849957E1,5.425631E2,1.8306023E2,1.8855832E2,1.0418979E2,1.2480283E1,5.3353935E1,3.4960198E0,7.20885E1,4.7047458E2,1.8166562E2,1.394603E0,1.7969646E2,8.861867E0,3.127511E1,7.291468E1,7.5224013E0,4.9578815E0,2.822512E1,2.5128815E1,2.8949541E1,4.3138966E1,2.622835E2,2.0819107E2],"tree_param":{"num_deleted":"0","num_feature":"10","num_nodes":"29","size_leaf_vector":"1"}},{"base_weights":[-2.7813944E-1,-6.442579E-2,-4.543076E-1,1.6833301E-1,-1.1199415E-1,-4.178861E-1,-5.0608784E-1,2.6964366E-2,1.3765793E-1,-1.17476694E-1,4.2905745E-1,-4.212598E-1,4.0943708E-4,1.5356905E-2,-5.121805E-1,2.8772654E-3,1.5927494E-2,-5.5255075E-3,-2.4032649E-2,3.709052E-2,-6.435413E-3,-2.0621097E-2,-3.238892E-2,-3.2051034E-2,-2.4300938E-2],"categories":[],"categories_nodes":[],"categories_segments":[],"categories_sizes":[],"default_left":[0,0,0,0,0,0,0,0,0,0,0,0,0,0,0,0,0,0,0,0,0,0,0,0,0],"id":35,"left_children":[1,3,5,7,9,11,13,-1,15,17,19,21,-1,-1,23,-1,-1,-1,-1,-1,-1,-1,-1,-1,-1],"loss_changes":[4.148352E1,5.547965E0,9.280319E-1,8.945606E-1,1.2821507E0,5.21595E-1,1.3700714E0,0E0,1.1407E0,9.889264E-1,8.596127E-1,4.4882584E-1,0E0,0E0,5.086174E-1,0E0,0E0,0E0,0E0,0E0,0E0,0E0,0E0,0E0,0E0],"parents":[2147483647,0,0,1,1,2,2,3,3,4,4,5,5,6,6,8,8,9,9,10,10,11,11,14,14],"right_children":[2,4,6,8,10,12,14,-1,16,18,20,22,-1,-1,24,-1,-1,-1,-1,-1,-1,-1,-1,-1,-1],"split_conditions":[8.360274E-1,-8.288705E-1,1.2628222E-1,-4.5215592E0,1.2889607E0,1.1775406E-1,-2.5532148E0,2.6964366E-2,-1.025018E0,6.0065347E-1,4.5159328E-1,2.3437084E-1,4.0943708E-4,1.5356905E-2,2.115637E-1,2.8772654E-3,1.5927494E-2,-5.5255075E-3,-2.4032649E-2,3.709052E-2,-6.435413E-3,-2.0621097E-2,-3.238892E-2,-3.2051034E-2,-2.4300938E-2],"split_indices":[4,0,0,0,3,0,9,0,0,6,9,1,0,0,0,0,0,0,0,0,0,0,0,0,0],"split_type":[0,0,0,0,0,0,0,0,0,0,0,0,0,0,0,0,0,0,0,0,0,0,0,0,0],"sum_hessian":[1.1016106E3,4.9838E2,6.032305E2,8.413867E1,4.1424133E2,3.594611E2,2.4376945E2,5.1598544E0,7.897882E1,4.108609E2,3.3804336E0,3.5664844E2,2.8126557E0,1.4452986E0,2.4232414E2,5.5650635E1,2.3328184E1,4.044077E2,6.453174E0,1.9545187E0,1.4259148E0,3.4597073E2,1.0677726E1,3.6933525E1,2.0539062E2],"tree_param":{"num_deleted":"0","num_feature":"10","num_nodes":"25","size_leaf_vector":"1"}},{"base_weights":[2.6501673E-1,4.929904E-2,4.3960014E-1,-1.09397836E-1,2.90791E-1,1.4023335E-1,4.718462E-1,8.946308E-3,-3.3001274E-1,2.5798234E-1,5.2960044E-1,2.0299974E-1,-2.899667E-2,4.746428E-1,-1.740996E-2,4.8020515E-3,-3.2013666E-3,-2.1927936E-2,6.03407E-3,1.5756575E-2,1.5503404E-3,3.2941237E-2,1.3090879E-2,3.0437807E-2,6.2795687E-3,-7.88787E-3,2.3857355E-2],"categories":[],"categories_nodes":[],"categories_segments":[],"categories_sizes":[],"default_left":[0,0,0,0,0,0,0,0,0,0,0,0,0,0,0,0,0,0,0,0,0,0,0,0,0,0,0],"id":36,"left_children":[1,3,5,7,9,11,13,15,17,19,21,23,-1,25,-1,-1,-1,-1,-1,-1,-1,-1,-1,-1,-1,-1,-1],"loss_changes":[4.0371758E1,1.8461357E1,5.6551514E0,7.5983233E0,1.3596401E0,2.7871227E0,1.3913422E0,1.2157451E0,5.023142E0,2.1934824E0,5.928674E-1,1.6529505E0,0E0,9.197464E-1,0E0,0E0,0E0,0E0,0E0,0E0,0E0,0E0,0E0,0E0,0E0,0E0,0E0],"parents":[2147483647,0,0,1,1,2,2,3,3,4,4,5,5,6,6,7,7,8,8,9,9,10,10,11,11,13,13],"right_children":[2,4,6,8,10,12,14,16,18,20,22,24,-1,26,-1,-1,-1,-1,-1,-1,-1,-1,-1,-1,-1,-1,-1],"split_conditions":[8.360274E-1,8.8481545E-1,-9.5787174E-1,4.707951E-1,9.6929675E-1,-9.7458124E-1,7.2241364E0,-2.54678E-1,3.0635607E0,5.0271332E-2,1.4580512E0,8.8481545E-1,-2.899667E-2,-8.586383E-1,-1.740996E-2,4.8020515E-3,-3.2013666E-3,-2.1927936E-2,6.03407E-3,1.5756575E-2,1.5503404E-3,3.2941237E-2,1.3090879E-2,3.0437807E-2,6.2795687E-3,-7.88787E-3,2.3857355E-2],"split_indices":[4,5,2,2,2,2,1,2,2,2,2,5,0,3,0,0,0,0,0,0,0,0,0,0,0,0,0],"split_type":[0,0,0,0,0,0,0,0,0,0,0,0,0,0,0,0,0,0,0,0,0,0,0,0,0,0,0],"sum_hessian":[1.0715612E3,4.798876E2,5.916735E2,2.8991586E2,1.8997173E2,5.805449E1,5.33619E2,1.8931912E2,1.0059674E2,1.6885411E2,2.111761E1,5.406091E1,3.993577E0,5.3222516E2,1.3938702E0,8.616468E1,1.0315444E2,8.109307E1,1.9503668E1,1.3458035E2,3.4273766E1,1.3258938E1,7.858674E0,7.5614357E0,4.6499474E1,1.8547522E0,5.303704E2],"tree_param":{"num_deleted":"0","num_feature":"10","num_nodes":"27","size_leaf_vector":"1"}},{"base_weights":[-2.8489628E-1,-8.148378E-2,-4.5886126E-1,-2.5937036E-1,5.9036423E-2,-2.015068E-1,-4.7415817E-1,-8.0228604E-2,-3.3916515E-1,1.9176291E-1,-3.6184765E-2,-3.1659612E-1,-3.238262E-2,-2.7148542E-1,-4.9287197E-1,-7.73876E-3,2.868112E-2,-1.8333992E-2,-4.3569715E-3,4.1197885E-2,7.546011E-3,-1.5473996E-2,8.60554E-4,-4.6496643E-3,-2.4772115E-2,1.3580848E-2,-1.8634332E-2,-1.6524756E-2,2.4030037E-2,-2.2228599E-2,-2.7850553E-2],"categories":[],"categories_nodes":[],"categories_segments":[],"categories_sizes":[],"default_left":[0,0,0,0,0,0,0,0,0,0,0,0,0,0,0,0,0,0,0,0,0,0,0,0,0,0,0,0,0,0,0],"id":37,"left_children":[1,3,5,7,9,11,13,15,17,19,21,23,25,27,29,-1,-1,-1,-1,-1,-1,-1,-1,-1,-1,-1,-1,-1,-1,-1,-1],"loss_changes":[3.8171844E1,1.248789E1,2.194809E0,3.1232042E0,3.540345E0,6.58937E-1,1.9462128E0,3.4630551E0,1.0232277E0,2.8952942E0,2.3931532E0,7.6750755E-1,1.6567197E0,2.3150022E0,1.303894E0,0E0,0E0,0E0,0E0,0E0,0E0,0E0,0E0,0E0,0E0,0E0,0E0,0E0,0E0,0E0,0E0],"parents":[2147483647,0,0,1,1,2,2,3,3,4,4,5,5,6,6,7,7,8,8,9,9,10,10,11,11,12,12,13,13,14,14],"right_children":[2,4,6,8,10,12,14,16,18,20,22,24,26,28,30,-1,-1,-1,-1,-1,-1,-1,-1,-1,-1,-1,-1,-1,-1,-1,-1],"split_conditions":[8.360274E-1,-1.4467345E-1,-1.0678762E0,-1.16770044E-1,-2.7880487E-1,-1.1305372E0,-8.501909E-1,-1.7646709E-1,1.0387942E0,-6.9480464E-2,-4.854485E-2,-1.1806657E0,4.9528867E-2,-9.1415197E-1,-2.36576E-1,-7.73876E-3,2.868112E-2,-1.8333992E-2,-4.3569715E-3,4.1197885E-2,7.546011E-3,-1.5473996E-2,8.60554E-4,-4.6496643E-3,-2.4772115E-2,1.3580848E-2,-1.8634332E-2,-1.6524756E-2,2.4030037E-2,-2.2228599E-2,-2.7850553E-2],"split_indices":[4,2,2,0,0,2,0,0,0,2,0,2,0,0,2,0,0,0,0,0,0,0,0,0,0,0,0,0,0,0,0],"split_type":[0,0,0,0,0,0,0,0,0,0,0,0,0,0,0,0,0,0,0,0,0,0,0,0,0,0,0,0,0,0,0],"sum_hessian":[1.0787639E3,4.9796985E2,5.8079407E2,2.1939224E2,2.785776E2,3.338018E1,5.474139E2,6.8226685E1,1.5116556E2,1.1594744E2,1.6263016E2,1.9344341E1,1.4035838E1,4.7583755E1,4.9983014E2,6.192931E1,6.2973723E0,1.3587642E2,1.5289127E1,5.872617E0,1.1007482E2,2.5797132E1,1.3683302E2,9.271984E0,1.0072358E1,7.519963E0,6.5158753E0,4.464167E1,2.9420843E0,2.896444E2,2.1018575E2],"tree_param":{"num_deleted":"0","num_feature":"10","num_nodes":"31","size_leaf_vector":"1"}},{"base_weights":[2.618663E-1,5.9863098E-2,4.3575835E-1,2.5304553E-1,-1.1088372E-1,1.8002813E-1,4.7221124E-1,3.9670125E-2,2.7783772E-1,-2.6593074E-1,-5.740393E-2,-3.4215888E-1,2.3581879E-1,4.1527212E-1,5.294376E-1,3.115665E-2,-3.8147501E-3,-1.9019539E-2,1.420624E-2,-3.7490815E-2,-1.15711745E-2,-3.4302198E-3,2.2955175E-2,1.1809867E-2,-3.190839E-2,9.2491545E-3,2.9883271E-2,-5.8530807E-3,2.1417385E-2,2.6611278E-2,-5.068455E-4],"categories":[],"categories_nodes":[],"categories_segments":[],"categories_sizes":[],"default_left":[0,0,0,0,0,0,0,0,0,0,0,0,0,0,0,0,0,0,0,0,0,0,0,0,0,0,0,0,0,0,0],"id":38,"left_children":[1,3,5,7,9,11,13,15,17,19,21,23,25,27,29,-1,-1,-1,-1,-1,-1,-1,-1,-1,-1,-1,-1,-1,-1,-1,-1],"loss_changes":[3.717578E1,1.6226986E1,5.219078E0,1.2094698E0,2.1520727E0,2.1958213E0,1.4008102E0,1.7514558E0,9.627733E-1,9.4119835E-1,1.1631877E0,1.4203618E0,1.1069186E0,1.8177872E0,3.7308502E-1,0E0,0E0,0E0,0E0,0E0,0E0,0E0,0E0,0E0,0E0,0E0,0E0,0E0,0E0,0E0,0E0],"parents":[2147483647,0,0,1,1,2,2,3,3,4,4,5,5,6,6,7,7,8,8,9,9,10,10,11,11,12,12,13,13,14,14],"right_children":[2,4,6,8,10,12,14,16,18,20,22,24,26,28,30,-1,-1,-1,-1,-1,-1,-1,-1,-1,-1,-1,-1,-1,-1,-1,-1],"split_conditions":[8.360274E-1,-1.1403927E-1,-9.119204E-1,-6.28459E-1,-8.6724716E-1,-3.9393488E-1,-2.6024786E-1,-6.598847E-1,-5.299813E-1,-2.7706584E-2,5.6127113E-1,-6.4551526E-1,4.5035186E-1,-1.0719228E0,4.7777185E0,3.115665E-2,-3.8147501E-3,-1.9019539E-2,1.420624E-2,-3.7490815E-2,-1.15711745E-2,-3.4302198E-3,2.2955175E-2,1.1809867E-2,-3.190839E-2,9.2491545E-3,2.9883271E-2,-5.8530807E-3,2.1417385E-2,2.6611278E-2,-5.068455E-4],"split_indices":[4,2,2,0,0,0,2,2,8,2,6,0,0,0,1,0,0,0,0,0,0,0,0,0,0,0,0,0,0,0,0],"split_type":[0,0,0,0,0,0,0,0,0,0,0,0,0,0,0,0,0,0,0,0,0,0,0,0,0,0,0,0,0,0,0],"sum_hessian":[1.0580751E3,4.9009555E2,5.6797955E2,2.2971486E2,2.6038068E2,7.160228E1,4.9637726E2,2.418297E1,2.0553189E2,6.575967E1,1.9462102E2,6.4161124E0,6.5186165E1,2.5295172E2,2.4342554E2,3.2844172E0,2.0898554E1,1.3815864E0,2.041503E2,2.9974887E0,6.276218E1,1.91339E2,3.2820091E0,2.2405264E0,4.175586E0,5.8481358E1,6.7048044E0,5.873571E0,2.4707816E2,2.4218777E2,1.2377609E0],"tree_param":{"num_deleted":"0","num_feature":"10","num_nodes":"31","size_leaf_vector":"1"}},{"base_weights":[-2.545034E-1,-6.402261E-2,-4.2167994E-1,-2.1689364E-1,1.3140467E-1,-1.5775795E-1,-4.6230757E-1,-2.305032E-1,4.9135616E-1,1.5810052E-1,-2.127036E-1,-1.12083115E-1,-2.9447509E-2,1.6880812E-1,-4.692824E-1,-6.0958657E-3,-1.4392498E-2,3.599306E-2,2.712205E-3,4.6867398E-3,1.9302242E-2,1.5281006E-2,-1.6457573E-2,-8.1933085E-3,1.2652489E-2,-1.3065866E-2,2.8786177E-2,-1.49119E-2,-2.4270566E-2],"categories":[],"categories_nodes":[],"categories_segments":[],"categories_sizes":[],"default_left":[0,0,0,0,0,0,0,0,0,0,0,0,0,0,0,0,0,0,0,0,0,0,0,0,0,0,0,0,0],"id":39,"left_children":[1,3,5,7,9,11,13,15,17,19,21,23,-1,25,27,-1,-1,-1,-1,-1,-1,-1,-1,-1,-1,-1,-1,-1,-1],"loss_changes":[3.288105E1,1.4494655E1,5.826576E0,2.7357244E0,1.991689E0,1.4094241E0,2.1757812E0,1.6313906E0,5.051869E-1,2.8743882E0,1.0525603E0,1.3456273E0,0E0,1.1903696E0,1.1555557E0,0E0,0E0,0E0,0E0,0E0,0E0,0E0,0E0,0E0,0E0,0E0,0E0,0E0,0E0],"parents":[2147483647,0,0,1,1,2,2,3,3,4,4,5,5,6,6,7,7,8,8,9,9,10,10,11,11,13,13,14,14],"right_children":[2,4,6,8,10,12,14,16,18,20,22,24,-1,26,28,-1,-1,-1,-1,-1,-1,-1,-1,-1,-1,-1,-1,-1,-1],"split_conditions":[8.360274E-1,6.8373345E-2,-9.119204E-1,2.0707002E0,3.2404037E0,4.972567E-1,-2.0014844E0,-9.971374E-2,-7.505032E-2,1.4580512E0,-3.0675097E0,3.2242963E-1,-2.9447509E-2,2.8665514E0,-8.6724716E-1,-6.0958657E-3,-1.4392498E-2,3.599306E-2,2.712205E-3,4.6867398E-3,1.9302242E-2,1.5281006E-2,-1.6457573E-2,-8.1933085E-3,1.2652489E-2,-1.3065866E-2,2.8786177E-2,-1.49119E-2,-2.4270566E-2],"split_indices":[4,2,2,0,2,0,9,0,2,2,0,0,0,7,0,0,0,0,0,0,0,0,0,0,0,0,0,0,0],"split_type":[0,0,0,0,0,0,0,0,0,0,0,0,0,0,0,0,0,0,0,0,0,0,0,0,0,0,0,0,0],"sum_hessian":[1.0324174E3,4.8321997E2,5.4919745E2,2.7106906E2,2.1215091E2,7.391561E1,4.7528183E2,2.666203E2,4.4487658E0,1.9737885E2,1.47720585E1,6.797516E1,5.940457E0,4.9415803E0,4.7034024E2,9.322503E1,1.7339528E2,2.4967213E0,1.9520447E0,1.5501714E2,4.236171E1,2.4118953E0,1.2360164E1,6.0015057E1,7.960102E0,2.5762224E0,2.3653579E0,4.2209293E1,4.2813095E2],"tree_param":{"num_deleted":"0","num_feature":"10","num_nodes":"29","size_leaf_vector":"1"}},{"base_weights":[2.3876773E-1,4.3469604E-2,4.0968078E-1,-9.349792E-2,2.5638285E-1,1.3032062E-1,4.4332653E-1,1.941891E-2,-3.3396456E-1,2.1420787E-1,5.6818736E-1,2.9772792E-2,5.5412542E-2,4.0912908E-1,5.418805E-1,4.739516E-3,-2.9716194E-3,-2.1234509E-2,1.2373059E-2,1.4058043E-2,6.6230405E-4,3.2087605E-2,-1.851986E-3,1.39421E-2,-4.3742494E-3,2.06915E-2,-3.082459E-2,2.7430812E-2,-4.526571E-3],"categories":[],"categories_nodes":[],"categories_segments":[],"categories_sizes":[],"default_left":[0,0,0,0,0,0,0,0,0,0,0,0,0,0,0,0,0,0,0,0,0,0,0,0,0,0,0,0,0],"id":40,"left_children":[1,3,5,7,9,11,13,15,17,19,21,-1,23,25,27,-1,-1,-1,-1,-1,-1,-1,-1,-1,-1,-1,-1,-1,-1],"loss_changes":[3.452601E1,1.4141728E1,5.1286163E0,8.02549E0,2.373989E0,2.082951E0,1.436676E0,1.2055985E0,5.085862E0,2.267149E0,1.0035734E0,0E0,1.7295834E0,2.036045E0,5.764847E-1,0E0,0E0,0E0,0E0,0E0,0E0,0E0,0E0,0E0,0E0,0E0,0E0,0E0,0E0],"parents":[2147483647,0,0,1,1,2,2,3,3,4,4,5,5,6,6,7,7,8,8,9,9,10,10,12,12,13,13,14,14],"right_children":[2,4,6,8,10,12,14,16,18,20,22,-1,24,26,28,-1,-1,-1,-1,-1,-1,-1,-1,-1,-1,-1,-1,-1,-1],"split_conditions":[8.360274E-1,8.8481545E-1,-9.5787174E-1,6.072564E-1,9.6929675E-1,8.8481545E-1,2.605332E-1,-1.1403927E-1,3.581557E0,1.5351349E-3,2.0763047E0,2.9772792E-2,-1.1305372E0,2.5217843E-1,9.655961E-1,4.739516E-3,-2.9716194E-3,-2.1234509E-2,1.2373059E-2,1.4058043E-2,6.6230405E-4,3.2087605E-2,-1.851986E-3,1.39421E-2,-4.3742494E-3,2.06915E-2,-3.082459E-2,2.7430812E-2,-4.526571E-3],"split_indices":[4,5,2,2,2,5,2,2,2,2,2,0,2,2,6,0,0,0,0,0,0,0,0,0,0,0,0,0,0],"split_type":[0,0,0,0,0,0,0,0,0,0,0,0,0,0,0,0,0,0,0,0,0,0,0,0,0,0,0,0,0],"sum_hessian":[1.033897E3,4.8311154E2,5.507854E2,2.943296E2,1.8878197E2,5.9729103E1,4.9105627E2,2.009078E2,9.342179E1,1.6777548E2,2.100648E1,7.3209777E0,5.2408123E1,3.6838193E2,1.2267433E2,1.026172E2,9.82906E1,8.10451E1,1.2376693E1,1.2554836E2,4.2227116E1,1.8676071E1,2.330409E0,2.007236E1,3.2335766E1,3.6729495E2,1.0869801E0,1.2151263E2,1.1617107E0],"tree_param":{"num_deleted":"0","num_feature":"10","num_nodes":"29","size_leaf_vector":"1"}},{"base_weights":[-2.5263372E-1,-6.8780415E-2,-4.1068235E-1,7.4064486E-2,-2.8246114E-1,-5.0489694E-1,-3.610964E-1,2.2167945E-1,-4.1835466E-3,-5.056531E-2,-3.193028E-1,2.3968048E-2,-5.1733845E-1,-2.754898E-1,-4.4247696E-1,2.501224E-2,8.717535E-3,-2.589481E-2,7.3530845E-4,-9.190904E-3,1.1305333E-2,-1.6492777E-2,1.4178591E-2,-7.678953E-3,-2.6946614E-2,-1.4570308E-2,1.0578536E-2,-2.2544388E-2,2.1639464E-2],"categories":[],"categories_nodes":[],"categories_segments":[],"categories_sizes":[],"default_left":[0,0,0,0,0,0,0,0,0,0,0,0,0,0,0,0,0,0,0,0,0,0,0,0,0,0,0,0,0],"id":41,"left_children":[1,3,5,7,9,11,13,15,17,19,21,-1,23,25,27,-1,-1,-1,-1,-1,-1,-1,-1,-1,-1,-1,-1,-1,-1],"loss_changes":[3.0151543E1,1.4712162E1,2.4259033E0,3.3420928E0,1.6331644E0,2.5747185E0,2.4508743E0,1.2342448E0,1.8516717E0,1.0610802E0,1.1521492E0,0E0,1.3948479E0,1.4773998E0,1.5767136E0,0E0,0E0,0E0,0E0,0E0,0E0,0E0,0E0,0E0,0E0,0E0,0E0,0E0,0E0],"parents":[2147483647,0,0,1,1,2,2,3,3,4,4,5,5,6,6,7,7,8,8,9,9,10,10,12,12,13,13,14,14],"right_children":[2,4,6,8,10,12,14,16,18,20,22,-1,24,26,28,-1,-1,-1,-1,-1,-1,-1,-1,-1,-1,-1,-1,-1,-1],"split_conditions":[8.360274E-1,8.8481545E-1,8.8481545E-1,-3.598223E-1,-8.6724716E-1,-4.2911848E-1,-1.6400287E-3,-2.0228114E0,-3.0012524E-1,-1.0719228E0,2.2625835E0,2.3968048E-2,-1.025018E0,-1.8696327E-2,4.5447264E0,2.501224E-2,8.717535E-3,-2.589481E-2,7.3530845E-4,-9.190904E-3,1.1305333E-2,-1.6492777E-2,1.4178591E-2,-7.678953E-3,-2.6946614E-2,-1.4570308E-2,1.0578536E-2,-2.2544388E-2,2.1639464E-2],"split_indices":[4,5,5,0,0,3,0,0,0,0,0,0,0,0,1,0,0,0,0,0,0,0,0,0,0,0,0,0,0],"split_type":[0,0,0,0,0,0,0,0,0,0,0,0,0,0,0,0,0,0,0,0,0,0,0,0,0,0,0,0,0],"sum_hessian":[1.0376138E3,4.8031393E2,5.5729987E2,2.8826385E2,1.920501E2,1.8900432E2,3.6829553E2,9.923116E1,1.8903268E2,2.665371E1,1.653964E2,1.8908184E0,1.871135E2,1.816245E2,1.8667105E2,1.3021321E1,8.620984E1,5.7674675E0,1.8326521E2,1.8215998E1,8.437711E0,1.6299615E2,2.400228E0,1.0939737E1,1.7617377E2,1.7626611E2,5.358385E0,1.8537456E2,1.2964864E0],"tree_param":{"num_deleted":"0","num_feature":"10","num_nodes":"29","size_leaf_vector":"1"}},{"base_weights":[2.2502312E-1,3.7788417E-2,3.9402407E-1,2.0974799E-1,-1.0979753E-1,1.5277305E-1,4.2126346E-1,4.7096482E-1,1.8438724E-1,-2.0885174E-1,1.4971165E-1,2.129274E-1,-4.4378984E-1,2.0520337E-1,4.4197363E-1,2.5481934E-2,-2.5136808E-3,-1.8115273E-2,1.025016E-2,-3.2102328E-3,-1.6606055E-2,-2.8301186E-3,1.7011158E-2,2.8911253E-2,7.4420953E-3,-8.0301985E-3,-2.5470247E-2,1.2820552E-2,-3.4976568E-2,-5.3233574E-3,2.2385983E-2],"categories":[],"categories_nodes":[],"categories_segments":[],"categories_sizes":[],"default_left":[0,0,0,0,0,0,0,0,0,0,0,0,0,0,0,0,0,0,0,0,0,0,0,0,0,0,0,0,0,0,0],"id":42,"left_children":[1,3,5,7,9,11,13,15,17,19,21,23,25,27,29,-1,-1,-1,-1,-1,-1,-1,-1,-1,-1,-1,-1,-1,-1,-1,-1],"loss_changes":[3.2528645E1,1.2433712E1,3.4872055E0,1.4116726E0,6.812764E0,2.1184363E0,2.0797043E0,4.1617632E-1,2.4166145E0,3.390606E0,2.906704E0,1.1291428E0,2.020502E-2,2.2314568E0,1.4398041E0,0E0,0E0,0E0,0E0,0E0,0E0,0E0,0E0,0E0,0E0,0E0,0E0,0E0,0E0,0E0,0E0],"parents":[2147483647,0,0,1,1,2,2,3,3,4,4,5,5,6,6,7,7,8,8,9,9,10,10,11,11,12,12,13,13,14,14],"right_children":[2,4,6,8,10,12,14,16,18,20,22,24,26,28,30,-1,-1,-1,-1,-1,-1,-1,-1,-1,-1,-1,-1,-1,-1,-1,-1],"split_conditions":[8.360274E-1,-1.1403927E-1,-9.5787174E-1,-8.631843E-1,8.8481545E-1,-9.7458124E-1,-8.501909E-1,6.337071E-1,-8.4090483E-1,4.707951E-1,2.7445784E-1,8.8481545E-1,-4.1951934E-1,-9.0135974E-1,-2.4258924E0,2.5481934E-2,-2.5136808E-3,-1.8115273E-2,1.025016E-2,-3.2102328E-3,-1.6606055E-2,-2.8301186E-3,1.7011158E-2,2.8911253E-2,7.4420953E-3,-8.0301985E-3,-2.5470247E-2,1.2820552E-2,-3.4976568E-2,-5.3233574E-3,2.2385983E-2],"split_indices":[4,2,2,2,5,2,0,0,2,2,2,5,0,0,9,0,0,0,0,0,0,0,0,0,0,0,0,0,0,0,0],"split_type":[0,0,0,0,0,0,0,0,0,0,0,0,0,0,0,0,0,0,0,0,0,0,0,0,0,0,0,0,0,0,0],"sum_hessian":[1.0274641E3,4.880174E2,5.394467E2,2.252022E2,2.6281522E2,5.5399426E1,4.8404727E2,1.8374407E1,2.0682777E2,1.9035301E2,7.246221E1,5.0909092E1,4.4903355E0,4.3293503E1,4.4075378E2,1.712598E1,1.2484261E0,6.913806E0,1.9991397E2,8.828188E1,1.0207113E2,3.512575E1,3.7336464E1,6.4007983E0,4.4508293E1,1.4932673E0,2.997068E0,4.165257E1,1.6409308E0,4.388163E0,4.363656E2],"tree_param":{"num_deleted":"0","num_feature":"10","num_nodes":"31","size_leaf_vector":"1"}},{"base_weights":[-2.3822449E-1,3.3882612E-3,-2.7443376E-1,1.2367653E-1,-1.719073E-1,-2.1261449E-1,-3.2233772E-1,1.7880027E-1,-1.679499E-2,-2.0647673E-2,-1.113208E-1,-2.3419961E-1,-1.5918866E-2,-2.592603E-1,-3.7052628E-1,8.062842E-3,2.5785452E-2,-2.0903047E-2,3.1347584E-3,3.0280447E-3,-9.31922E-3,-1.2012136E-2,9.844848E-3,1.5958253E-2,-5.372552E-3,-1.3774184E-2,7.256739E-3,-1.9319344E-2,-3.5874506E-3],"categories":[],"categories_nodes":[],"categories_segments":[],"categories_sizes":[],"default_left":[0,0,0,0,0,0,0,0,0,0,0,0,0,0,0,0,0,0,0,0,0,0,0,0,0,0,0,0,0],"id":43,"left_children":[1,3,5,7,9,11,13,15,17,-1,19,21,23,25,27,-1,-1,-1,-1,-1,-1,-1,-1,-1,-1,-1,-1,-1,-1],"loss_changes":[9.042892E0,2.882428E0,2.593277E0,6.306186E-1,7.66572E-1,1.6748562E0,1.4373512E0,2.6139724E-1,7.839743E-1,0E0,6.026064E-1,9.752388E-1,1.2663159E0,1.4952402E0,1.3164902E0,0E0,0E0,0E0,0E0,0E0,0E0,0E0,0E0,0E0,0E0,0E0,0E0,0E0,0E0],"parents":[2147483647,0,0,1,1,2,2,3,3,4,4,5,5,6,6,7,7,8,8,10,10,11,11,12,12,13,13,14,14],"right_children":[2,4,6,8,10,12,14,16,18,-1,20,22,24,26,28,-1,-1,-1,-1,-1,-1,-1,-1,-1,-1,-1,-1,-1,-1],"split_conditions":[-8.288705E-1,8.8481545E-1,8.8481545E-1,-9.951694E-1,-2.3596733E0,1.1581882E0,-1.6400287E-3,-1.025018E0,-9.781131E-1,-2.0647673E-2,-1.5537632E0,3.2103202E0,1.3671279E0,-1.8696327E-2,1.657085E0,8.062842E-3,2.5785452E-2,-2.0903047E-2,3.1347584E-3,3.0280447E-3,-9.31922E-3,-1.2012136E-2,9.844848E-3,1.5958253E-2,-5.372552E-3,-1.3774184E-2,7.256739E-3,-1.9319344E-2,-3.5874506E-3],"split_indices":[0,5,5,0,0,0,0,0,0,0,0,8,0,0,0,0,0,0,0,0,0,0,0,0,0,0,0,0,0],"split_type":[0,0,0,0,0,0,0,0,0,0,0,0,0,0,0,0,0,0,0,0,0,0,0,0,0,0,0,0,0],"sum_hessian":[1.0325294E3,1.3469037E2,8.97839E2,8.005256E1,5.4637806E1,3.9436105E2,5.0347794E2,5.7295742E1,2.2756815E1,9.806453E0,4.4831356E1,3.5519208E2,3.916899E1,2.2081618E2,2.8266177E2,5.586537E1,1.4303718E0,3.0584574E0,1.9698359E1,1.36860485E1,3.1145306E1,3.5071844E2,4.4736457E0,7.870284E0,3.1298704E1,2.1260571E2,8.21046E0,2.681346E2,1.4527146E1],"tree_param":{"num_deleted":"0","num_feature":"10","num_nodes":"29","size_leaf_vector":"1"}},{"base_weights":[2.2502734E-1,4.3645743E-2,3.9125523E-1,-8.359162E-2,2.3694085E-1,5.05485E-1,3.3142796E-1,6.5727875E-2,-3.3552563E-1,1.9740745E-1,5.220508E-1,-3.381936E-2,5.192426E-1,1.1655967E-1,3.650317E-1,2.6628068E-3,3.155973E-2,-2.0215059E-2,1.0339116E-3,1.0621418E-2,-3.0399283E-2,2.7540052E-2,2.4110323E-3,2.1349225E-2,2.9297927E-2,9.637443E-3,-2.907871E-2,1.8546134E-2,-7.8108734E-3],"categories":[],"categories_nodes":[],"categories_segments":[],"categories_sizes":[],"default_left":[0,0,0,0,0,0,0,0,0,0,0,0,0,0,0,0,0,0,0,0,0,0,0,0,0,0,0,0,0],"id":44,"left_children":[1,3,5,7,9,11,13,15,17,19,21,-1,23,25,27,-1,-1,-1,-1,-1,-1,-1,-1,-1,-1,-1,-1,-1,-1],"loss_changes":[3.016132E1,1.1819397E1,3.400879E0,1.0933739E1,2.0464811E0,3.2384567E0,2.4526749E0,1.2566531E0,2.656721E0,2.174788E0,2.815218E-1,0E0,8.336754E-1,2.6761832E0,9.741554E-1,0E0,0E0,0E0,0E0,0E0,0E0,0E0,0E0,0E0,0E0,0E0,0E0,0E0,0E0],"parents":[2147483647,0,0,1,1,2,2,3,3,4,4,5,5,6,6,7,7,8,8,9,9,10,10,12,12,13,13,14,14],"right_children":[2,4,6,8,10,12,14,16,18,20,22,-1,24,26,28,-1,-1,-1,-1,-1,-1,-1,-1,-1,-1,-1,-1,-1,-1],"split_conditions":[8.360274E-1,8.8481545E-1,8.8481545E-1,4.3041366E-1,7.7295953E-1,-4.2911848E-1,-9.5787174E-1,1.0498434E0,3.0635607E0,6.490303E-1,1.9983268E0,-3.381936E-2,-5.0810623E-1,-9.7458124E-1,4.7777185E0,2.6628068E-3,3.155973E-2,-2.0215059E-2,1.0339116E-3,1.0621418E-2,-3.0399283E-2,2.7540052E-2,2.4110323E-3,2.1349225E-2,2.9297927E-2,9.637443E-3,-2.907871E-2,1.8546134E-2,-7.8108734E-3],"split_indices":[4,5,5,2,2,3,2,1,2,2,2,0,2,2,1,0,0,0,0,0,0,0,0,0,0,0,0,0,0],"split_type":[0,0,0,0,0,0,0,0,0,0,0,0,0,0,0,0,0,0,0,0,0,0,0,0,0,0,0,0,0],"sum_hessian":[9.999194E2,4.787682E2,5.211512E2,2.8906042E2,1.8970776E2,1.7657082E2,3.4458038E2,1.8195569E2,1.0710473E2,1.6809242E2,2.1615334E1,1.4775128E0,1.750933E2,4.720593E1,2.9737445E2,1.790997E2,2.8559794E0,8.9658516E1,1.744622E1,1.657376E2,2.3548293E0,2.0225674E1,1.3896606E0,7.658618E1,9.850712E1,4.3213802E1,3.9921277E0,2.9433636E2,3.038102E0],"tree_param":{"num_deleted":"0","num_feature":"10","num_nodes":"29","size_leaf_vector":"1"}},{"base_weights":[-2.3315485E-1,-4.0033925E-2,-4.0593782E-1,8.7328315E-2,-2.4050684E-1,-1.6863543E-1,-4.3362993E-1,-5.8456432E-2,3.4664896E-1,-2.0476837E-1,-4.8046067E-1,-2.867272E-2,-1.04779884E-1,2.0107776E-1,-4.405655E-1,-4.0902733E-3,1.8525474E-2,2.2779135E-2,-6.0349326E-3,-1.6254364E-2,-3.2780997E-3,-2.7060172E-2,2.6621253E-3,-2.657444E-3,-2.7281094E-2,-2.1440463E-2,2.7070815E-2,-1.20910695E-2,-2.293229E-2],"categories":[],"categories_nodes":[],"categories_segments":[],"categories_sizes":[],"default_left":[0,0,0,0,0,0,0,0,0,0,0,0,0,0,0,0,0,0,0,0,0,0,0,0,0,0,0,0,0],"id":45,"left_children":[1,3,5,7,9,11,13,15,17,19,21,-1,23,25,27,-1,-1,-1,-1,-1,-1,-1,-1,-1,-1,-1,-1,-1,-1],"loss_changes":[3.3757366E1,1.2252642E1,3.4366608E0,1.1122841E1,1.499917E0,1.4249907E0,2.1912231E0,1.9218159E0,5.4428167E0,2.7248802E0,7.879858E-1,0E0,1.1283156E0,1.4861615E0,1.5880203E0,0E0,0E0,0E0,0E0,0E0,0E0,0E0,0E0,0E0,0E0,0E0,0E0,0E0,0E0],"parents":[2147483647,0,0,1,1,2,2,3,3,4,4,5,5,6,6,7,7,8,8,9,9,10,10,12,12,13,13,14,14],"right_children":[2,4,6,8,10,12,14,16,18,20,22,-1,24,26,28,-1,-1,-1,-1,-1,-1,-1,-1,-1,-1,-1,-1,-1,-1],"split_conditions":[8.360274E-1,8.8481545E-1,-9.5787174E-1,4.707951E-1,9.6929675E-1,8.8481545E-1,-2.4258924E0,1.5675395E0,3.0635607E0,-2.6024786E-1,2.0763047E0,-2.867272E-2,4.972567E-1,-4.6752543E0,-8.501909E-1,-4.0902733E-3,1.8525474E-2,2.2779135E-2,-6.0349326E-3,-1.6254364E-2,-3.2780997E-3,-2.7060172E-2,2.6621253E-3,-2.657444E-3,-2.7281094E-2,-2.1440463E-2,2.7070815E-2,-1.20910695E-2,-2.293229E-2],"split_indices":[4,5,2,2,2,5,9,0,2,2,2,0,0,9,0,0,0,0,0,0,0,0,0,0,0,0,0,0,0],"split_type":[0,0,0,0,0,0,0,0,0,0,0,0,0,0,0,0,0,0,0,0,0,0,0,0,