{"learner":{"attributes":{},"feature_names":[],"feature_types":[],"gradient_booster":{"model":{"gbtree_model_param":{"num_parallel_tree":"1","num_trees":"400"},"iteration_indptr":[0,2,4,6,8,10,12,14,16,18,20,22,24,26,28,30,32,34,36,38,40,42,44,46,48,50,52,54,56,58,60,62,64,66,68,70,72,74,76,78,80,82,84,86,88,90,92,94,96,98,100,102,104,106,108,110,112,114,116,118,120,122,124,126,128,130,132,134,136,138,140,142,144,146,148,150,152,154,156,158,160,162,164,166,168,170,172,174,176,178,180,182,184,186,188,190,192,194,196,198,200,202,204,206,208,210,212,214,216,218,220,222,224,226,228,230,232,234,236,238,240,242,244,246,248,250,252,254,256,258,260,262,264,266,268,270,272,274,276,278,280,282,284,286,288,290,292,294,296,298,300,302,304,306,308,310,312,314,316,318,320,322,324,326,328,330,332,334,336,338,340,342,344,346,348,350,352,354,356,358,360,362,364,366,368,370,372,374,376,378,380,382,384,386,388,390,392,394,396,398,400],"tree_info":[0,1,0,1,0,1,0,1,0,1,0,1,0,1,0,1,0,1,0,1,0,1,0,1,0,1,0,1,0,1,0,1,0,1,0,1,0,1,0,1,0,1,0,1,0,1,0,1,0,1,0,1,0,1,0,1,0,1,0,1,0,1,0,1,0,1,0,1,0,1,0,1,0,1,0,1,0,1,0,1,0,1,0,1,0,1,0,1,0,1,0,1,0,1,0,1,0,1,0,1,0,1,0,1,0,1,0,1,0,1,0,1,0,1,0,1,0,1,0,1,0,1,0,1,0,1,0,1,0,1,0,1,0,1,0,1,0,1,0,1,0,1,0,1,0,1,0,1,0,1,0,1,0,1,0,1,0,1,0,1,0,1,0,1,0,1,0,1,0,1,0,1,0,1,0,1,0,1,0,1,0,1,0,1,0,1,0,1,0,1,0,1,0,1,0,1,0,1,0,1,0,1,0,1,0,1,0,1,0,1,0,1,0,1,0,1,0,1,0,1,0,1,0,1,0,1,0,1,0,1,0,1,0,1,0,1,0,1,0,1,0,1,0,1,0,1,0,1,0,1,0,1,0,1,0,1,0,1,0,1,0,1,0,1,0,1,0,1,0,1,0,1,0,1,0,1,0,1,0,1,0,1,0,1,0,1,0,1,0,1,0,1,0,1,0,1,0,1,0,1,0,1,0,1,0,1,0,1,0,1,0,1,0,1,0,1,0,1,0,1,0,1,0,1,0,1,0,1,0,1,0,1,0,1,0,1,0,1,0,1,0,1,0,1,0,1,0,1,0,1,0,1,0,1,0,1,0,1,0,1,0,1,0,1,0,1,0,1,0,1,0,1,0,1,0,1,0,1,0,1,0,1,0,1,0,1,0,1,0,1,0,1,0,1,0,1,0,1,0,1],"trees":[{"base_weights":[2.541114E-1,-4.136009E-1,8.5858583E-1,8.074534E-2,-6.8804157E-1,6.025237E-1,9.762963E-2,-1.2631579E-1,3.7313432E-1,-8.333333E-1,-4.6320346E-1,4.6411484E-1,8.5454546E-2,6.923077E-1,-2.5301206E-1,-7.647059E-2,5.294118E-1,-2.7272728E-1,-9.0849674E-1,-8.4126985E-1,-3.1764707E-1,8.0246913E-1,2.4615385E-1,2.0000001E-2,7.3913045E-2,-2.760736E-2,6.0000002E-2,6.901409E-2,2.8E-2,-3.548387E-2,-6.6666673E-3,-9.1447376E-2,-0E0,-4.4444446E-2,-9.5744684E-2,-1.8248176E-2,-8.285715E-2,-0E0,8.227848E-2,4.074074E-2,1.2820514E-2],"categories":[],"categories_nodes":[],"categories_segments":[],"categories_sizes":[],"default_left":[0,0,0,0,0,0,0,0,0,0,0,0,0,0,0,0,0,0,0,0,0,0,0,0,0,0,0,0,0,0,0,0,0,0,0,0,0,0,0,0,0],"id":0,"left_children":[1,3,5,7,9,11,-1,13,15,17,19,21,-1,23,25,-1,27,29,31,33,35,37,39,-1,-1,-1,-1,-1,-1,-1,-1,-1,-1,-1,-1,-1,-1,-1,-1,-1,-1],"loss_changes":[3.8076227E2,6.0902977E1,1.4331665E1,9.794459E0,9.038452E0,5.1321945E0,0E0,1.0028233E1,1.23187E1,7.0840683E0,6.0887356E0,7.509138E0,0E0,1.5183926E-1,1.7984037E0,0E0,2.1919804E0,3.4858263E-1,8.307953E-1,1.02668E0,5.7188377E0,6.6026115E-1,1.1840456E0,0E0,0E0,0E0,0E0,0E0,0E0,0E0,0E0,0E0,0E0,0E0,0E0,0E0,0E0,0E0,0E0,0E0,0E0],"parents":[2147483647,0,0,1,1,2,2,3,3,4,4,5,5,7,7,8,8,9,9,10,10,11,11,13,13,14,14,16,16,17,17,18,18,19,19,20,20,21,21,22,22],"right_children":[2,4,6,8,10,12,-1,14,16,18,20,22,-1,24,26,-1,28,30,32,34,36,38,40,-1,-1,-1,-1,-1,-1,-1,-1,-1,-1,-1,-1,-1,-1,-1,-1,-1,-1],"split_conditions":[9.6044207E-1,-3.427389E-1,9.1173446E-1,9.1173446E-1,9.1173446E-1,-4.699343E-1,9.762963E-2,-8.602592E-1,-8.699688E-1,-1.3107018E-1,5.535364E-2,-8.4666574E-1,8.5454546E-2,-9.4861627E-1,-3.602161E-1,-7.647059E-2,-5.6314623E-1,-2.3593357E-1,2.4082224E0,-2.5632367E-1,2.1633022E0,-1.908555E-1,-7.5539577E-1,2.0000001E-2,7.3913045E-2,-2.760736E-2,6.0000002E-2,6.901409E-2,2.8E-2,-3.548387E-2,-6.6666673E-3,-9.1447376E-2,-0E0,-4.4444446E-2,-9.5744684E-2,-1.8248176E-2,-8.285715E-2,-0E0,8.227848E-2,4.074074E-2,1.2820514E-2],"split_indices":[5,2,4,4,4,2,0,2,2,2,2,2,0,2,2,0,2,2,6,2,2,1,2,0,0,0,0,0,0,0,0,0,0,0,0,0,0,0,0,0,0],"split_type":[0,0,0,0,0,0,0,0,0,0,0,0,0,0,0,0,0,0,0,0,0,0,0,0,0,0,0,0,0,0,0,0,0,0,0,0,0,0,0,0,0],"sum_hessian":[9.415E2,4.475E2,4.94E2,1.6E2,2.875E2,1.575E2,3.365E2,9.4E1,6.6E1,1.73E2,1.145E2,1.035E2,5.4E1,1.2E1,8.2E1,7.5E0,5.85E1,2.1E1,1.52E2,3.05E1,8.4E1,3.95E1,6.4E1,1.5E0,1.05E1,8.05E1,1.5E0,3.45E1,2.4E1,1.45E1,6.5E0,1.51E2,1E0,8E0,2.25E1,6.75E1,1.65E1,1E0,3.85E1,2.6E1,3.8E1],"tree_param":{"num_deleted":"0","num_feature":"10","num_nodes":"41","size_leaf_vector":"1"}},{"base_weights":[-2.3824786E-1,4.2793792E-1,-8.559671E-1,-6.918239E-2,6.9624573E-1,-7.266811E-1,-9.688109E-2,-1.3615024E-1,6.542056E-2,6.4777327E-1,9.361702E-2,-9.2825115E-1,-5.3333336E-1,-1.06796116E-1,-7.777778E-2,1.4606741E-1,-3E-1,-0E0,6.530612E-1,-2.0000001E-2,-9.3636364E-2,-0E0,-5.5172414E-1,3.3333335E-2,-1.2562814E-2,3.1034483E-2,6.451613E-3,-7.1428575E-2,-6.6666673E-3,-5E-2,5E-2,6.5573774E-2,-0E0,-4.9112428E-2,-6.923077E-2],"categories":[],"categories_nodes":[],"categories_segments":[],"categories_sizes":[],"default_left":[0,0,0,0,0,0,0,0,0,0,0,0,0,0,0,0,0,0,0,0,0,0,0,0,0,0,0,0,0,0,0,0,0,0,0],"id":1,"left_children":[1,3,5,7,9,11,-1,13,15,17,-1,19,21,23,-1,25,27,29,31,-1,-1,-1,33,-1,-1,-1,-1,-1,-1,-1,-1,-1,-1,-1,-1],"loss_changes":[3.8554504E2,6.0203117E1,6.3862915E0,1.4421439E0,2.8010712E0,8.488235E0,0E0,1.9228011E0,1.6204662E0,8.4607697E-1,0E0,4.7146606E-1,1.1770096E0,8.9559436E-1,0E0,5.7614577E-1,9.190476E-1,1E0,4.282303E-1,0E0,0E0,0E0,6.482353E-1,0E0,0E0,0E0,0E0,0E0,0E0,0E0,0E0,0E0,0E0,0E0,0E0],"parents":[2147483647,0,0,1,1,2,2,3,3,4,4,5,5,7,7,8,8,9,9,11,11,12,12,13,13,15,15,16,16,17,17,18,18,22,22],"right_children":[2,4,6,8,10,12,-1,14,16,18,-1,20,22,24,-1,26,28,30,32,-1,-1,-1,34,-1,-1,-1,-1,-1,-1,-1,-1,-1,-1,-1,-1],"split_conditions":[9.6044207E-1,-3.4565175E-1,-4.359508E-1,-5.621753E-1,2.1633022E0,-8.437529E-1,-9.688109E-2,-5.7091385E-1,-3.9225772E-1,-2.4268246E0,9.361702E-2,-2.4911866E0,-8.301595E-1,-9.4861627E-1,-7.777778E-2,-5.1556927E-1,-3.85461E-1,1.209346E0,3.8158183E0,-2.0000001E-2,-9.3636364E-2,-0E0,-5.21395E-1,3.3333335E-2,-1.2562814E-2,3.1034483E-2,6.451613E-3,-7.1428575E-2,-6.6666673E-3,-5E-2,5E-2,6.5573774E-2,-0E0,-4.9112428E-2,-6.923077E-2],"split_indices":[5,2,2,2,2,2,0,2,2,8,0,1,2,2,0,2,2,1,6,0,0,0,2,0,0,0,0,0,0,0,0,0,0,0,0],"split_type":[0,0,0,0,0,0,0,0,0,0,0,0,0,0,0,0,0,0,0,0,0,0,0,0,0,0,0,0,0,0,0,0,0,0,0],"sum_hessian":[9.35E2,4.5E2,4.85E2,1.58E2,2.92E2,2.295E2,2.555E2,1.055E2,5.25E1,2.46E2,4.6E1,1.105E2,1.19E2,1.02E2,3.5E0,4.35E1,9E0,2E0,2.44E2,1.5E0,1.09E2,4E0,1.15E2,3.5E0,9.85E1,1.35E1,3E1,2.5E0,6.5E0,1E0,1E0,2.43E2,1E0,8.35E1,3.15E1],"tree_param":{"num_deleted":"0","num_feature":"10","num_nodes":"35","size_leaf_vector":"1"}},{"base_weights":[2.0757638E-1,-3.6297575E-1,7.6002556E-1,3.8159173E-2,-5.9781677E-1,6.15125E-1,8.74891E-1,-1.776382E-1,1.8596251E-1,-5.3059214E-1,-8.180719E-2,8.463448E-1,4.0320766E-1,5.193163E-1,8.8551216E-2,-1.4274825E-1,-5.956586E-1,2.3844032E-1,-2.0235823E-1,-8.350869E-2,-4.9896666E-1,8.546388E-2,2.923542E-2,1.10631436E-1,6.0177606E-1,6.8671204E-2,-2.5708968E-2,2.7699647E-2,-2.0225747E-2,-6.990827E-2,-2.125432E-2,-1.6151795E-2,2.641485E-2,-3.763166E-2,8.750488E-3,-5.243364E-2,-1.978515E-2,1.489974E-2,-6.226728E-2,6.192062E-2,1.1145311E-2],"categories":[],"categories_nodes":[],"categories_segments":[],"categories_sizes":[],"default_left":[0,0,0,0,0,0,0,0,0,0,0,0,0,0,0,0,0,0,0,0,0,0,0,0,0,0,0,0,0,0,0,0,0,0,0,0,0,0,0,0,0],"id":2,"left_children":[1,3,5,7,9,11,13,15,17,19,-1,21,23,25,-1,27,29,31,33,-1,35,-1,-1,37,39,-1,-1,-1,-1,-1,-1,-1,-1,-1,-1,-1,-1,-1,-1,-1,-1],"loss_changes":[2.9037778E2,4.273856E1,7.2500305E0,5.4035826E0,3.8015823E0,9.962341E0,5.169525E-1,9.206946E-1,2.094666E0,1.7212906E0,0E0,2.0801544E-1,6.4186974E0,1.4658117E0,0E0,1.6786503E0,4.94107E-2,9.570141E-1,6.6304463E-1,0E0,1.4516983E0,0E0,0E0,1.3969733E0,4.973793E-1,0E0,0E0,0E0,0E0,0E0,0E0,0E0,0E0,0E0,0E0,0E0,0E0,0E0,0E0,0E0,0E0],"parents":[2147483647,0,0,1,1,2,2,3,3,4,4,5,5,6,6,7,7,8,8,9,9,11,11,12,12,13,13,15,15,16,16,17,17,18,18,20,20,23,23,24,24],"right_children":[2,4,6,8,10,12,14,16,18,20,-1,22,24,26,-1,28,30,32,34,-1,36,-1,-1,38,40,-1,-1,-1,-1,-1,-1,-1,-1,-1,-1,-1,-1,-1,-1,-1,-1],"split_conditions":[9.6044207E-1,-3.4565175E-1,-4.6507952E-1,-2.4501558E-2,1.6710267E0,-8.505496E-1,-1.3569583E0,-6.0709618E-2,-4.6507952E-1,-1.7117972E0,-8.180719E-2,3.0972962E0,-1.7259944E-2,-1.3931663E0,8.8551216E-2,-8.505496E-1,-7.136446E-1,-9.2434233E-1,6.20002E-1,-8.350869E-2,1.140884E0,8.546388E-2,2.923542E-2,-3.8984783E-2,1.3731296E0,6.8671204E-2,-2.5708968E-2,2.7699647E-2,-2.0225747E-2,-6.990827E-2,-2.125432E-2,-1.6151795E-2,2.641485E-2,-3.763166E-2,8.750488E-3,-5.243364E-2,-1.978515E-2,1.489974E-2,-6.226728E-2,6.192062E-2,1.1145311E-2],"split_indices":[5,2,2,0,2,2,0,0,2,0,0,3,0,0,0,2,2,2,0,0,2,0,0,0,0,0,0,0,0,0,0,0,0,0,0,0,0,0,0,0,0],"split_type":[0,0,0,0,0,0,0,0,0,0,0,0,0,0,0,0,0,0,0,0,0,0,0,0,0,0,0,0,0,0,0,0,0,0,0,0,0,0,0,0,0],"sum_hessian":[9.193709E2,4.52444E2,4.669269E2,1.673791E2,2.8506488E2,2.0927968E2,2.5764725E2,6.795739E1,9.9421715E1,2.210168E2,6.404808E1,9.8650185E1,1.1062949E2,8.919941E0,2.4872731E2,6.3960438E1,3.996954E0,8.7925415E1,1.1496302E1,1.8405022E1,2.0261179E2,9.6660355E1,1.9898309E0,4.5356743E1,6.527275E1,7.432906E0,1.4870346E0,7.488198E0,5.647224E1,2.497901E0,1.499053E0,4.9912167E0,8.29342E1,6.9981666E0,4.4981346E0,1.8618399E2,1.6427786E1,4.385889E1,1.4978521E0,6.277824E1,2.4945111E0],"tree_param":{"num_deleted":"0","num_feature":"10","num_nodes":"41","size_leaf_vector":"1"}},{"base_weights":[-2.1005647E-1,3.870637E-1,-7.6380306E-1,-1.2663567E-3,6.029246E-1,-5.011907E-1,-8.881619E-2,1.6890207E-1,-2.5037017E-1,7.583658E-1,3.7111303E-1,-3.8221326E-1,-8.0527407E-1,-6.2013596E-1,2.7053937E-1,7.762538E-2,-4.3343562E-1,2.282583E-1,8.514724E-1,8.136254E-1,2.013539E-1,-7.7566206E-1,-1.7017259E-1,-1.9969192E-1,-8.68355E-2,-1.192455E-2,-7.4599706E-2,3.0786758E-2,-2.4200678E-2,-1.2271578E-2,-5.8356732E-2,-6.2821954E-2,3.019183E-2,6.269842E-2,8.728206E-2,5.5732906E-2,8.867066E-2,-2.2846581E-2,4.395089E-2,-8.799332E-2,-6.010747E-2,2.7191804E-3,-2.9880304E-2,-4.345066E-2,2.5581835E-2],"categories":[],"categories_nodes":[],"categories_segments":[],"categories_sizes":[],"default_left":[0,0,0,0,0,0,0,0,0,0,0,0,0,0,0,0,0,0,0,0,0,0,0,0,0,0,0,0,0,0,0,0,0,0,0,0,0,0,0,0,0,0,0,0,0],"id":3,"left_children":[1,3,5,7,9,11,-1,13,15,17,19,21,23,25,27,-1,29,31,33,35,37,39,41,43,-1,-1,-1,-1,-1,-1,-1,-1,-1,-1,-1,-1,-1,-1,-1,-1,-1,-1,-1,-1,-1],"loss_changes":[3.1315308E2,3.8218704E1,1.5598389E1,6.9893937E0,1.0277573E1,5.4869156E0,0E0,8.024382E0,1.29131775E1,8.41613E0,8.81922E0,9.6312275E0,1.5127945E0,6.3496923E-1,1.7483048E0,0E0,2.607607E0,1.9201409E0,1.6216278E-1,1.2066841E-1,9.083365E0,2.1203804E-1,1.9711921E0,6.9545907E-1,0E0,0E0,0E0,0E0,0E0,0E0,0E0,0E0,0E0,0E0,0E0,0E0,0E0,0E0,0E0,0E0,0E0,0E0,0E0,0E0,0E0],"parents":[2147483647,0,0,1,1,2,2,3,3,4,4,5,5,7,7,8,8,9,9,10,10,11,11,12,12,13,13,14,14,16,16,17,17,18,18,19,19,20,20,21,21,22,22,23,23],"right_children":[2,4,6,8,10,12,-1,14,16,18,20,22,24,26,28,-1,30,32,34,36,38,40,42,44,-1,-1,-1,-1,-1,-1,-1,-1,-1,-1,-1,-1,-1,-1,-1,-1,-1,-1,-1,-1,-1],"split_conditions":[9.6044207E-1,-3.5341942E-1,9.1173446E-1,9.1173446E-1,9.1173446E-1,-3.6604187E-1,-8.881619E-2,-8.602592E-1,-8.699688E-1,-8.6406134E-2,5.535364E-2,-8.4666574E-1,-1.3569583E0,-2.9244122E-1,9.241497E-1,7.762538E-2,-1.7259944E-2,-1.3569583E0,8.7395236E-2,-2.5632367E-1,5.6316435E-1,-9.2142946E-1,-4.6226393E-2,-1.3931663E0,-8.68355E-2,-1.192455E-2,-7.4599706E-2,3.0786758E-2,-2.4200678E-2,-1.2271578E-2,-5.8356732E-2,-6.2821954E-2,3.019183E-2,6.269842E-2,8.728206E-2,5.5732906E-2,8.867066E-2,-2.2846581E-2,4.395089E-2,-8.799332E-2,-6.010747E-2,2.7191804E-3,-2.9880304E-2,-4.345066E-2,2.5581835E-2],"split_indices":[5,2,4,4,4,2,0,2,2,2,2,2,0,0,0,0,0,0,2,2,2,2,0,0,0,0,0,0,0,0,0,0,0,0,0,0,0,0,0,0,0,0,0,0,0],"split_type":[0,0,0,0,0,0,0,0,0,0,0,0,0,0,0,0,0,0,0,0,0,0,0,0,0,0,0,0,0,0,0,0,0,0,0,0,0,0,0,0,0,0,0,0,0],"sum_hessian":[9.451797E2,4.5492386E2,4.9025586E2,1.6288701E2,2.9203683E2,1.5916734E2,3.310885E2,9.696797E1,6.5919044E1,1.7345506E2,1.1858178E2,1.1602691E2,4.314044E1,1.0483129E1,8.648484E1,9.485337E0,5.6433704E1,2.6429394E1,1.4702567E2,3.1826525E1,8.675525E1,3.9701435E1,7.632547E1,4.4628043E0,3.8677635E1,2.4962435E0,7.986885E0,8.0986046E1,5.498794E0,1.897647E1,3.7457233E1,1.4967995E0,2.4932594E1,1.540485E1,1.3162082E2,8.975513E0,2.2851011E1,3.0945612E1,5.580964E1,2.2326822E1,1.7374613E1,3.0427532E1,4.589794E1,2.9752028E0,1.4876014E0],"tree_param":{"num_deleted":"0","num_feature":"10","num_nodes":"45","size_leaf_vector":"1"}},{"base_weights":[1.9841641E-1,-1.2535541E-1,4.6193942E-1,2.1415925E-1,-7.2821015E-1,5.070477E-1,-6.069336E-1,6.9988114E-1,1.017237E-1,-7.3878896E-1,1.9926673E-2,-2.5751415E-1,5.2323914E-1,-6.363281E-1,-1.293877E-2,7.885607E-2,4.9344015E-1,2.2253567E-2,3.083122E-1,-5.490877E-1,-7.718038E-2,-7.006761E-2,4.4647895E-2,5.563564E-1,2.4870798E-1,-3.8218346E-1,-6.9474906E-2,-7.862496E-3,5.7017732E-2,-6.844082E-3,2.4430439E-2,1.6195448E-3,3.556897E-2,-3.1072482E-2,-6.120962E-2,-3.975552E-2,3.473808E-2,5.6986023E-2,-7.388943E-3,2.8196607E-2,-5.4612894E-2,-6.1707396E-2,-3.6314693E-3],"categories":[],"categories_nodes":[],"categories_segments":[],"categories_sizes":[],"default_left":[0,0,0,0,0,0,0,0,0,0,0,0,0,0,0,0,0,0,0,0,0,0,0,0,0,0,0,0,0,0,0,0,0,0,0,0,0,0,0,0,0,0,0],"id":4,"left_children":[1,3,5,7,9,11,13,15,17,19,-1,21,23,25,-1,-1,27,29,31,33,-1,-1,35,37,39,41,-1,-1,-1,-1,-1,-1,-1,-1,-1,-1,-1,-1,-1,-1,-1,-1,-1],"loss_changes":[7.887462E1,8.515571E1,2.4872276E1,1.4479733E1,1.6174393E0,6.1930923E0,2.1364737E-1,5.2464867E-1,3.5644195E0,5.054321E-1,0E0,1.4800575E0,4.2217712E0,2.5599003E-2,0E0,0E0,8.205209E-1,3.2021437E0,8.295188E-1,1.9217205E-1,0E0,0E0,1.1251391E0,3.6773987E0,1.5664716E0,4.5590204E-1,0E0,0E0,0E0,0E0,0E0,0E0,0E0,0E0,0E0,0E0,0E0,0E0,0E0,0E0,0E0,0E0,0E0],"parents":[2147483647,0,0,1,1,2,2,3,3,4,4,5,5,6,6,7,7,8,8,9,9,11,11,12,12,13,13,16,16,17,17,18,18,19,19,22,22,23,23,24,24,25,25],"right_children":[2,4,6,8,10,12,14,16,18,20,-1,22,24,26,-1,-1,28,30,32,34,-1,-1,36,38,40,42,-1,-1,-1,-1,-1,-1,-1,-1,-1,-1,-1,-1,-1,-1,-1,-1,-1],"split_conditions":[9.1173446E-1,-2.523582E-2,2.0632935E0,-8.602592E-1,3.8158183E0,-1.7117972E0,1.5469283E0,-8.9618456E-1,3.8827035E-1,1.747814E-1,1.9926673E-2,3.2236692E-1,7.573558E-1,-1.5597234E0,-1.293877E-2,7.885607E-2,-8.8841695E-1,-3.602161E-1,-7.670473E-1,-6.400386E-1,-7.718038E-2,-7.006761E-2,-2.2694013E0,1.4310626E0,7.3388636E-1,-1.9362873E0,-6.9474906E-2,-7.862496E-3,5.7017732E-2,-6.844082E-3,2.4430439E-2,1.6195448E-3,3.556897E-2,-3.1072482E-2,-6.120962E-2,-3.975552E-2,3.473808E-2,5.6986023E-2,-7.388943E-3,2.8196607E-2,-5.4612894E-2,-6.1707396E-2,-3.6314693E-3],"split_indices":[4,2,2,2,6,0,0,2,0,2,0,2,2,0,0,0,2,2,2,0,0,0,0,0,7,0,0,0,0,0,0,0,0,0,0,0,0,0,0,0,0,0,0],"split_type":[0,0,0,0,0,0,0,0,0,0,0,0,0,0,0,0,0,0,0,0,0,0,0,0,0,0,0,0,0,0,0,0,0,0,0,0,0,0,0,0,0,0,0],"sum_hessian":[9.227634E2,4.142852E2,5.084782E2,2.6543997E2,1.4884525E2,4.883928E2,2.008541E1,4.8912613E1,2.1652734E2,1.4736781E2,1.4774351E0,9.819277E0,4.7857352E2,1.8607557E1,1.4778526E0,3.224258E1,1.6670033E1,1.5717374E2,5.935361E1,2.4459047E1,1.2290876E2,3.4461508E0,6.373126E0,4.2614075E2,5.2432774E1,4.8875356E0,1.3720021E1,1.9687403E0,1.4701292E1,1.1208538E2,4.508835E1,8.470241E0,5.088337E1,6.353826E0,1.8105223E1,2.4626715E0,3.9104545E0,4.1729544E2,8.845314E0,5.0946297E1,1.4864746E0,2.4437678E0,2.4437678E0],"tree_param":{"num_deleted":"0","num_feature":"10","num_nodes":"43","size_leaf_vector":"1"}},{"base_weights":[-2.0060103E-1,3.4849113E-1,-7.031429E-1,-8.538865E-2,5.428133E-1,-4.7635552E-1,-8.1438236E-2,1.0464753E-1,-3.6300737E-1,6.893541E-1,3.4627414E-1,-3.614806E-1,-7.514549E-1,-6.6101976E-2,2.1722116E-1,6.555045E-1,-4.9554345E-1,2.715954E-1,8.033882E-1,6.3340646E-1,1.9999921E-1,-6.9363576E-1,-1.8036872E-1,-1.7742676E-1,-8.068925E-2,-4.3691013E-2,2.464266E-2,7.607218E-2,1.6167976E-2,-5.9975453E-2,-6.327952E-3,-6.2824585E-2,3.2392304E-2,1.1256984E-2,8.099893E-2,8.226408E-4,7.488753E-2,-1.0053198E-2,4.3425214E-2,-7.107545E-2,-1.4265018E-2,3.0315164E-4,-2.9996408E-2,-5.7744272E-2,2.1436399E-2],"categories":[],"categories_nodes":[],"categories_segments":[],"categories_sizes":[],"default_left":[0,0,0,0,0,0,0,0,0,0,0,0,0,0,0,0,0,0,0,0,0,0,0,0,0,0,0,0,0,0,0,0,0,0,0,0,0,0,0,0,0,0,0,0,0],"id":5,"left_children":[1,3,5,7,9,11,-1,13,15,17,19,21,23,-1,25,27,29,31,33,35,37,39,41,43,-1,-1,-1,-1,-1,-1,-1,-1,-1,-1,-1,-1,-1,-1,-1,-1,-1,-1,-1,-1,-1],"loss_changes":[2.580012E2,3.7737637E1,1.192453E1,7.3791122E0,8.6577835E0,4.880123E0,0E0,7.330454E0,7.9879217E0,8.1636505E0,5.4991894E0,6.9088383E0,1.3554955E0,0E0,1.510776E0,2.3900437E-1,2.2504663E0,2.051154E0,5.3678894E-1,3.2240086E0,6.393928E0,2.8445435E-1,1.6902261E0,9.747045E-1,0E0,0E0,0E0,0E0,0E0,0E0,0E0,0E0,0E0,0E0,0E0,0E0,0E0,0E0,0E0,0E0,0E0,0E0,0E0,0E0,0E0],"parents":[2147483647,0,0,1,1,2,2,3,3,4,4,5,5,7,7,8,8,9,9,10,10,11,11,12,12,14,14,15,15,16,16,17,17,18,18,19,19,20,20,21,21,22,22,23,23],"right_children":[2,4,6,8,10,12,-1,14,16,18,20,22,24,-1,26,28,30,32,34,36,38,40,42,44,-1,-1,-1,-1,-1,-1,-1,-1,-1,-1,-1,-1,-1,-1,-1,-1,-1,-1,-1,-1,-1],"split_conditions":[9.6044207E-1,-4.359508E-1,9.1173446E-1,9.1173446E-1,9.1173446E-1,-3.990544E-1,-8.1438236E-2,-8.602592E-1,-8.7676543E-1,-4.6596885E-2,5.535364E-2,-8.369562E-1,-1.3569583E0,-6.6101976E-2,-1.4910427E0,1.9998842E-1,-4.9615017E-1,-1.3569583E0,-2.5579169E0,-3.427389E-1,7.573558E-1,1.2979895E0,-1.7259944E-2,-3.591635E-2,-8.068925E-2,-4.3691013E-2,2.464266E-2,7.607218E-2,1.6167976E-2,-5.9975453E-2,-6.327952E-3,-6.2824585E-2,3.2392304E-2,1.1256984E-2,8.099893E-2,8.226408E-4,7.488753E-2,-1.0053198E-2,4.3425214E-2,-7.107545E-2,-1.4265018E-2,3.0315164E-4,-2.9996408E-2,-5.7744272E-2,2.1436399E-2],"split_indices":[5,2,4,4,4,2,0,2,2,2,2,2,0,0,1,0,2,0,7,2,2,3,0,2,0,0,0,0,0,0,0,0,0,0,0,0,0,0,0,0,0,0,0,0,0],"split_type":[0,0,0,0,0,0,0,0,0,0,0,0,0,0,0,0,0,0,0,0,0,0,0,0,0,0,0,0,0,0,0,0,0,0,0,0,0,0,0,0,0,0,0,0,0],"sum_hessian":[9.3309607E2,4.460429E2,4.8705313E2,1.381482E2,3.078947E2,1.6202003E2,3.250331E2,8.238018E1,5.5768017E1,1.7494624E2,1.3294846E2,1.1592606E2,4.6093967E1,9.935075E0,7.244511E1,5.9670024E0,4.9801014E1,3.8239433E1,1.3670682E2,4.3746143E1,8.9202324E1,3.9907227E1,7.601884E1,4.429478E0,4.166449E1,2.4996269E0,6.994548E1,4.4734035E0,1.493599E0,3.9814884E1,9.986127E0,1.4966477E0,3.6742786E1,1.4648156E0,1.35242E2,6.98713E0,3.675901E1,3.9323578E1,4.9878742E1,3.842347E1,1.4837569E0,3.0390089E1,4.562875E1,1.9572663E0,2.4722118E0],"tree_param":{"num_deleted":"0","num_feature":"10","num_nodes":"45","size_leaf_vector":"1"}},{"base_weights":[1.8348725E-1,-1.19133145E-1,4.4002238E-1,1.6351934E-1,-7.0547186E-2,4.8660907E-1,-6.608694E-1,6.635313E-1,6.20351E-2,1.6298188E-1,5.16482E-1,-3.1171075E-1,-7.365344E-2,1.2271799E-2,6.781995E-2,6.543118E-1,4.3903995E-2,5.6306314E-1,1.3035501E-2,-4.1986275E-2,5.228318E-1,-5.4745782E-2,-1.9786586E-3,1.4933395E-2,7.6330304E-2,-3.841559E-3,1.595012E-2,6.1820615E-2,1.1611158E-2,2.2671608E-2,-2.4329765E-2,5.4204762E-2,2.5985008E-2],"categories":[],"categories_nodes":[],"categories_segments":[],"categories_sizes":[],"default_left":[0,0,0,0,0,0,0,0,0,0,0,0,0,0,0,0,0,0,0,0,0,0,0,0,0,0,0,0,0,0,0,0,0],"id":6,"left_children":[1,3,5,7,-1,9,11,13,15,17,19,21,-1,-1,-1,23,25,27,29,-1,31,-1,-1,-1,-1,-1,-1,-1,-1,-1,-1,-1,-1],"loss_changes":[7.015098E1,6.890195E1,2.5395683E1,1.4210707E1,0E0,4.456024E0,3.060074E-1,2.918625E-1,2.4903202E0,2.4611173E0,2.7730331E0,3.569805E-1,0E0,0E0,0E0,2.6554632E-1,2.1822479E0,2.0410228E-1,1.7505932E0,0E0,2.0170975E0,0E0,0E0,0E0,0E0,0E0,0E0,0E0,0E0,0E0,0E0,0E0,0E0],"parents":[2147483647,0,0,1,1,2,2,3,3,5,5,6,6,7,7,8,8,9,9,10,10,11,11,15,15,16,16,17,17,18,18,20,20],"right_children":[2,4,6,8,-1,10,12,14,16,18,20,22,-1,-1,-1,24,26,28,30,-1,32,-1,-1,-1,-1,-1,-1,-1,-1,-1,-1,-1,-1],"split_conditions":[9.1173446E-1,1.0098864E-1,2.0632935E0,-8.602592E-1,-7.0547186E-2,-8.862534E-1,-1.5597234E0,-2.908699E-1,-6.909275E-1,-2.767138E-1,-2.0435803E0,-2.0593946E0,-7.365344E-2,1.2271799E-2,6.781995E-2,-2.8912444E0,-4.699343E-1,-9.007367E-1,-1.175918E0,-4.1986275E-2,9.7096646E-1,-5.4745782E-2,-1.9786586E-3,1.4933395E-2,7.6330304E-2,-3.841559E-3,1.595012E-2,6.1820615E-2,1.1611158E-2,2.2671608E-2,-2.4329765E-2,5.4204762E-2,2.5985008E-2],"split_indices":[4,2,2,2,0,0,0,1,1,2,3,0,0,0,0,1,2,0,0,0,2,0,0,0,0,0,0,0,0,0,0,0,0],"split_type":[0,0,0,0,0,0,0,0,0,0,0,0,0,0,0,0,0,0,0,0,0,0,0,0,0,0,0,0,0,0,0,0,0],"sum_hessian":[9.019507E2,4.1405194E2,4.878987E2,2.7986188E2,1.3419008E2,4.6862576E2,1.9272959E1,4.6283783E1,2.3357808E2,4.014731E1,4.2847845E2,4.3445415E0,1.4928417E1,1.4695096E0,4.4814274E1,5.8958097E0,2.2768227E2,1.0193718E1,2.9953588E1,2.4475002E0,4.2603094E2,1.9192691E0,2.4252722E0,1.4673653E0,4.428444E0,1.3337228E2,9.430998E1,8.733104E0,1.4606142E0,1.6398914E1,1.3554675E1,3.9603217E2,2.9998808E1],"tree_param":{"num_deleted":"0","num_feature":"10","num_nodes":"33","size_leaf_vector":"1"}},{"base_weights":[-1.9872883E-1,3.1372344E-1,-6.7738163E-1,-5.2142564E-2,5.180381E-1,-5.618796E-1,-7.677476E-1,1.7932769E-2,-2.747349E-1,4.6869326E-1,7.544856E-2,-7.497779E-2,-3.8224152E-1,-4.558479E-1,-7.7660024E-2,-7.565255E-2,2.1666852E-1,-3.5024673E-2,-3.6902487E-1,-2.0722507E-2,4.76658E-1,7.554606E-2,-4.2515072E-1,-1.6332584E-2,-6.943585E-2,2.214959E-2,-1.5407602E-2,5.367146E-2,9.752789E-3,-4.4590835E-2,6.251746E-2,-4.074781E-2,-8.273609E-3,6.813006E-2,4.5028772E-2,-4.56831E-2,4.0807992E-2,2.0908521E-2,-4.6704162E-2,-4.8992097E-2,3.750933E-2],"categories":[],"categories_nodes":[],"categories_segments":[],"categories_sizes":[],"default_left":[0,0,0,0,0,0,0,0,0,0,0,0,0,0,0,0,0,0,0,0,0,0,0,0,0,0,0,0,0,0,0,0,0,0,0,0,0,0,0,0,0],"id":7,"left_children":[1,3,5,7,9,11,13,15,17,19,-1,-1,21,23,-1,25,27,29,31,-1,33,35,37,39,-1,-1,-1,-1,-1,-1,-1,-1,-1,-1,-1,-1,-1,-1,-1,-1,-1],"loss_changes":[2.2447597E2,3.308518E1,4.506073E0,2.4909344E0,2.9583282E0,6.848114E0,3.7127686E-1,2.2883296E0,8.5098076E-1,1.3773041E0,0E0,0E0,2.19491E0,1.00246E0,0E0,1.9867E0,1.4487133E0,3.505509E0,2.6712132E-1,0E0,9.615364E-1,2.0071871E0,2.776266E0,1.0042481E0,0E0,0E0,0E0,0E0,0E0,0E0,0E0,0E0,0E0,0E0,0E0,0E0,0E0,0E0,0E0,0E0,0E0],"parents":[2147483647,0,0,1,1,2,2,3,3,4,4,5,5,6,6,7,7,8,8,9,9,12,12,13,13,15,15,16,16,17,17,18,18,20,20,21,21,22,22,23,23],"right_children":[2,4,6,8,10,12,14,16,18,20,-1,-1,22,24,-1,26,28,30,32,-1,34,36,38,40,-1,-1,-1,-1,-1,-1,-1,-1,-1,-1,-1,-1,-1,-1,-1,-1,-1],"split_conditions":[9.6044207E-1,-3.5341942E-1,-4.6507952E-1,4.172368E-1,2.121551E0,-8.505496E-1,-1.3569583E0,-5.621753E-1,-7.5539577E-1,-2.4268246E0,7.544856E-2,-7.497779E-2,-8.2336277E-1,2.9906395E-1,-7.7660024E-2,-3.431325E-1,-5.1556927E-1,-8.1074035E-1,1.2500222E0,-2.0722507E-2,-1.5597234E0,-2.6347476E-1,-8.862534E-1,-3.591635E-2,-6.943585E-2,2.214959E-2,-1.5407602E-2,5.367146E-2,9.752789E-3,-4.4590835E-2,6.251746E-2,-4.074781E-2,-8.273609E-3,6.813006E-2,4.5028772E-2,-4.56831E-2,4.0807992E-2,2.0908521E-2,-4.6704162E-2,-4.8992097E-2,3.750933E-2],"split_indices":[5,2,2,0,2,2,0,2,2,8,0,0,2,2,0,0,2,2,0,0,0,0,0,2,0,0,0,0,0,0,0,0,0,0,0,0,0,0,0,0,0],"split_type":[0,0,0,0,0,0,0,0,0,0,0,0,0,0,0,0,0,0,0,0,0,0,0,0,0,0,0,0,0,0,0,0,0,0,0,0,0,0,0,0,0],"sum_hessian":[9.132911E2,4.4123907E2,4.7205203E2,1.5837752E2,2.8286157E2,2.1037589E2,2.6167615E2,1.2115544E2,3.722207E1,2.3649005E2,4.6371517E1,1.0127263E2,1.0910325E2,8.67099E0,2.5300516E2,8.278911E1,3.8366333E1,1.0895149E1,2.632692E1,2.4628701E0,2.3402718E2,9.284859E0,9.981839E1,3.4260726E0,5.244917E0,1.6906317E1,6.588279E1,9.457059E0,2.8909273E1,6.9156737E0,3.9794757E0,2.2836323E1,3.490598E0,2.3879309E1,2.1014787E2,3.4260557E0,5.8588037E0,5.93718E0,9.388121E1,1.43646E0,1.9896127E0],"tree_param":{"num_deleted":"0","num_feature":"10","num_nodes":"41","size_leaf_vector":"1"}},{"base_weights":[1.7708819E-1,-3.0127314E-1,6.381433E-1,5.3164415E-2,-4.9624702E-1,4.3359193E-1,7.330457E-1,-7.942517E-2,2.4028447E-1,-6.162548E-1,-3.20732E-1,3.2211185E-1,6.9501865E-1,6.656919E-1,7.630212E-2,6.981882E-2,-2.0024438E-1,-7.221209E-2,3.688651E-1,-1.6994396E-1,-6.87629E-1,-7.1366143E-1,-1.352322E-1,5.128094E-1,7.44282E-2,1.1132775E-1,7.510346E-2,7.538267E-2,5.245251E-1,-2.4394443E-2,4.3914594E-2,1.1854832E-2,5.007837E-2,9.714073E-3,-4.7983587E-2,-6.7349956E-3,-6.933149E-2,-4.6049803E-2,-8.2110934E-2,3.1502314E-2,-3.6844306E-2,7.2002135E-2,4.1301753E-2,1.1386034E-2,-6.699189E-2,4.833285E-2,-1.7978622E-2,-8.570376E-3,5.9496164E-2],"categories":[],"categories_nodes":[],"categories_segments":[],"categories_sizes":[],"default_left":[0,0,0,0,0,0,0,0,0,0,0,0,0,0,0,0,0,0,0,0,0,0,0,0,0,0,0,0,0,0,0,0,0,0,0,0,0,0,0,0,0,0,0,0,0,0,0,0,0],"id":8,"left_children":[1,3,5,7,9,11,13,15,17,19,21,23,25,27,-1,-1,29,-1,31,33,35,37,39,41,43,45,-1,-1,47,-1,-1,-1,-1,-1,-1,-1,-1,-1,-1,-1,-1,-1,-1,-1,-1,-1,-1,-1,-1],"loss_changes":[1.9600433E2,3.0185452E1,8.46463E0,3.8839624E0,5.7345657E0,4.0260754E0,1.1305237E-1,8.776265E0,8.291644E0,5.1769524E0,8.39171E0,4.878545E0,1.3135166E0,8.8074875E-1,0E0,0E0,2.3519566E0,0E0,1.8516173E0,2.0529242E0,4.574356E-1,6.314182E-1,8.552361E0,9.152603E-1,1.4396923E0,6.1924624E-1,0E0,0E0,1.8868418E0,0E0,0E0,0E0,0E0,0E0,0E0,0E0,0E0,0E0,0E0,0E0,0E0,0E0,0E0,0E0,0E0,0E0,0E0,0E0,0E0],"parents":[2147483647,0,0,1,1,2,2,3,3,4,4,5,5,6,6,7,7,8,8,9,9,10,10,11,11,12,12,13,13,16,16,18,18,19,19,20,20,21,21,22,22,23,23,24,24,25,25,28,28],"right_children":[2,4,6,8,10,12,14,16,18,20,22,24,26,28,-1,-1,30,-1,32,34,36,38,40,42,44,46,-1,-1,48,-1,-1,-1,-1,-1,-1,-1,-1,-1,-1,-1,-1,-1,-1,-1,-1,-1,-1,-1,-1],"split_conditions":[9.6044207E-1,-3.5341942E-1,9.1173446E-1,9.1173446E-1,9.1173446E-1,-4.359508E-1,-4.7576004E-1,-8.602592E-1,-8.699688E-1,-8.6406134E-2,5.535364E-2,-7.5539577E-1,-1.3569583E0,-8.4666574E-1,7.630212E-2,6.981882E-2,9.096664E-1,-7.221209E-2,-1.7259944E-2,4.791457E-2,-4.2235055E0,-2.5632367E-1,5.6316435E-1,-9.2434233E-1,1.2789887E0,-3.591635E-2,7.510346E-2,7.538267E-2,-8.301595E-1,-2.4394443E-2,4.3914594E-2,1.1854832E-2,5.007837E-2,9.714073E-3,-4.7983587E-2,-6.7349956E-3,-6.933149E-2,-4.6049803E-2,-8.2110934E-2,3.1502314E-2,-3.6844306E-2,7.2002135E-2,4.1301753E-2,1.1386034E-2,-6.699189E-2,4.833285E-2,-1.7978622E-2,-8.570376E-3,5.9496164E-2],"split_indices":[5,2,4,4,4,2,2,2,2,2,2,2,0,2,0,0,0,0,0,0,8,2,2,2,0,2,0,0,2,0,0,0,0,0,0,0,0,0,0,0,0,0,0,0,0,0,0,0,0],"split_type":[0,0,0,0,0,0,0,0,0,0,0,0,0,0,0,0,0,0,0,0,0,0,0,0,0,0,0,0,0,0,0,0,0,0,0,0,0,0,0,0,0,0,0,0,0,0,0,0,0],"sum_hessian":[8.868316E2,4.3541714E2,4.514145E2,1.5477794E2,2.806392E2,1.4482645E2,3.06588E2,9.0925476E1,6.3852467E1,1.6518405E2,1.1545514E2,1.0309558E2,4.173087E1,1.01570526E2,2.050175E2,1.1584815E1,7.934066E1,6.981438E0,5.687103E1,2.3240377E1,1.4194366E2,3.6112877E1,7.934226E1,5.764381E1,4.545177E1,3.915761E0,3.781511E1,5.9858845E1,4.1711685E1,7.484383E1,4.496834E0,2.0282818E1,3.658821E1,1.2851051E1,1.0389326E1,1.4059933E0,1.4053767E2,1.2335161E1,2.3777716E1,2.6953293E1,5.238897E1,1.6716908E1,4.0926903E1,4.3969498E1,1.4822717E0,1.4291917E0,2.4865694E0,4.293974E0,3.741771E1],"tree_param":{"num_deleted":"0","num_feature":"10","num_nodes":"49","size_leaf_vector":"1"}},{"base_weights":[-1.7121422E-1,3.21191E-1,-6.4014E-1,7.1202675E-3,5.216552E-1,-5.088891E-1,-7.4357815E-2,-5.5071395E-2,2.0416431E-1,7.598682E-2,4.8297197E-1,-7.060989E-2,-3.3413973E-1,1.189246E-1,-1.601391E-1,-1.7470315E-2,3.5456833E-1,4.5107174E-1,6.7833215E-1,-2.3175052E-1,-5.563744E-1,6.5709785E-2,8.232605E-3,-1.3611848E-2,-6.553536E-2,6.299984E-2,-1.4219905E-2,5.5900097E-2,1.8751929E-2,-6.0132157E-2,4.6205193E-2,5.501389E-3,7.397826E-2,-1.9452412E-2,-6.915261E-2,-5.9451498E-2,-4.9776644E-3],"categories":[],"categories_nodes":[],"categories_segments":[],"categories_sizes":[],"default_left":[0,0,0,0,0,0,0,0,0,0,0,0,0,0,0,0,0,0,0,0,0,0,0,0,0,0,0,0,0,0,0,0,0,0,0,0,0],"id":9,"left_children":[1,3,5,7,9,11,-1,13,15,-1,17,-1,19,21,23,25,27,29,31,33,35,-1,-1,-1,-1,-1,-1,-1,-1,-1,-1,-1,-1,-1,-1,-1,-1],"loss_changes":[2.0352983E2,2.7081394E1,5.7495575E0,2.0775883E0,2.0526047E0,6.729164E0,0E0,2.3765066E0,1.3617473E0,0E0,1.1189041E0,0E0,2.3525314E0,9.1349304E-1,8.722863E-1,1.494178E0,7.240808E-1,2.583496E0,1.112565E0,1.1726418E0,6.212263E-1,0E0,0E0,0E0,0E0,0E0,0E0,0E0,0E0,0E0,0E0,0E0,0E0,0E0,0E0,0E0,0E0],"parents":[2147483647,0,0,1,1,2,2,3,3,4,4,5,5,7,7,8,8,10,10,12,12,13,13,14,14,15,15,16,16,17,17,18,18,19,19,20,20],"right_children":[2,4,6,8,10,12,-1,14,16,-1,18,-1,20,22,24,26,28,30,32,34,36,-1,-1,-1,-1,-1,-1,-1,-1,-1,-1,-1,-1,-1,-1,-1,-1],"split_conditions":[9.6044207E-1,-2.5632367E-1,-4.6507952E-1,-4.5828283E-1,-1.7117972E0,-8.65114E-1,-7.4357815E-2,-2.4501558E-2,-1.9105865E-1,7.598682E-2,2.1633022E0,-7.060989E-2,2.5792134E-1,-9.2142946E-1,-4.7576004E-1,-4.291541E-1,2.3619649E-1,-2.4268246E0,-1.3931663E0,2.8372086E-3,1.3731296E0,6.5709785E-2,8.232605E-3,-1.3611848E-2,-6.553536E-2,6.299984E-2,-1.4219905E-2,5.5900097E-2,1.8751929E-2,-6.0132157E-2,4.6205193E-2,5.501389E-3,7.397826E-2,-1.9452412E-2,-6.915261E-2,-5.9451498E-2,-4.9776644E-3],"split_indices":[5,2,2,2,0,2,0,0,0,0,2,0,0,2,2,2,0,8,0,6,0,0,0,0,0,0,0,0,0,0,0,0,0,0,0,0,0],"split_type":[0,0,0,0,0,0,0,0,0,0,0,0,0,0,0,0,0,0,0,0,0,0,0,0,0,0,0,0,0,0,0,0,0,0,0,0,0],"sum_hessian":[8.795669E2,4.291959E2,4.5037103E2,1.6761931E2,2.6157657E2,2.0110806E2,2.4926295E2,1.2795444E2,3.966487E1,3.3938526E1,2.2763806E2,9.3053635E1,1.08054436E2,4.812529E1,7.982915E1,1.6392624E1,2.3272247E1,1.9852927E2,2.9108795E1,7.5371605E1,3.2682827E1,1.9848168E0,4.6140472E1,7.735202E1,2.4771304E0,1.9934819E0,1.4399143E1,9.410031E0,1.3862215E1,1.4948158E0,1.9703445E2,2.7822711E0,2.6326523E1,7.104262E1,4.328986E0,3.0233097E1,2.4497285E0],"tree_param":{"num_deleted":"0","num_feature":"10","num_nodes":"37","size_leaf_vector":"1"}},{"base_weights":[1.5672962E-1,-2.83311E-1,5.848246E-1,-1.9205326E-2,-4.7080728E-1,3.5580665E-1,6.992402E-2,-1.04144566E-1,1.1785096E-1,-6.2589484E-1,-2.460889E-1,2.4722503E-1,6.2725246E-2,4.6019801E-1,-1.8762702E-1,-6.7730024E-2,2.186523E-1,-2.771407E-1,-6.5560275E-1,-7.735829E-2,-1.1443824E-1,4.3951997E-1,2.0546634E-2,6.0528785E-2,2.3468738E-2,-3.4633946E-2,-9.415565E-3,3.578332E-2,-3.9916974E-2,-3.8747083E-2,3.3987414E-3,-5.747546E-3,-6.6140704E-2,1.6194703E-2,-4.286529E-2,6.424674E-2,3.2379713E-2,-2.8012497E-2,1.0133704E-2],"categories":[],"categories_nodes":[],"categories_segments":[],"categories_sizes":[],"default_left":[0,0,0,0,0,0,0,0,0,0,0,0,0,0,0,0,0,0,0,0,0,0,0,0,0,0,0,0,0,0,0,0,0,0,0,0,0,0,0],"id":10,"left_children":[1,3,5,7,9,11,-1,13,15,17,19,21,-1,23,25,-1,27,29,31,-1,33,35,37,-1,-1,-1,-1,-1,-1,-1,-1,-1,-1,-1,-1,-1,-1,-1,-1],"loss_changes":[1.620755E2,2.1011936E1,1.11753845E1,2.0761707E0,8.496563E0,4.1860104E0,0E0,5.268075E0,5.622713E0,1.3331871E0,7.064507E0,4.6486063E0,0E0,3.3116674E-1,1.399312E0,0E0,5.4203367E0,4.6660852E-1,4.2720795E-1,0E0,7.3299375E0,1.14855E0,1.24517E0,0E0,0E0,0E0,0E0,0E0,0E0,0E0,0E0,0E0,0E0,0E0,0E0,0E0,0E0,0E0,0E0],"parents":[2147483647,0,0,1,1,2,2,3,3,4,4,5,5,7,7,8,8,9,9,10,10,11,11,13,13,14,14,16,16,17,17,18,18,20,20,21,21,22,22],"right_children":[2,4,6,8,10,12,-1,14,16,18,20,22,-1,24,26,-1,28,30,32,-1,34,36,38,-1,-1,-1,-1,-1,-1,-1,-1,-1,-1,-1,-1,-1,-1,-1,-1],"split_conditions":[9.6044207E-1,-2.5049794E-1,9.1173446E-1,9.1173446E-1,9.1173446E-1,-3.6604187E-1,6.992402E-2,-8.4666574E-1,-8.7676543E-1,-4.6596885E-2,5.535364E-2,-7.5539577E-1,6.2725246E-2,-8.9618456E-1,-6.5053236E-1,-6.7730024E-2,-3.7478048E-1,-1.145639E-1,-2.2648E0,-7.735829E-2,9.195057E-1,-9.2142946E-1,-6.990802E-1,6.0528785E-2,2.3468738E-2,-3.4633946E-2,-9.415565E-3,3.578332E-2,-3.9916974E-2,-3.8747083E-2,3.3987414E-3,-5.747546E-3,-6.6140704E-2,1.6194703E-2,-4.286529E-2,6.424674E-2,3.2379713E-2,-2.8012497E-2,1.0133704E-2],"split_indices":[5,2,4,4,4,2,0,2,2,2,2,2,0,2,2,0,2,2,7,0,2,2,2,0,0,0,0,0,0,0,0,0,0,0,0,0,0,0,0],"split_type":[0,0,0,0,0,0,0,0,0,0,0,0,0,0,0,0,0,0,0,0,0,0,0,0,0,0,0,0,0,0,0,0,0,0,0,0,0,0,0],"sum_hessian":[8.5848883E2,4.2350473E2,4.349841E2,1.7628856E2,2.4721619E2,1.4628502E2,2.886991E2,1.08985825E2,6.730273E1,1.4521321E2,1.02002975E2,1.05853226E2,4.04318E1,1.3463031E1,9.55228E1,6.92861E0,6.0374115E1,1.220948E1,1.3300372E2,1.9399122E1,8.260385E1,5.676208E1,4.909114E1,7.167502E0,6.295529E0,3.4402603E1,6.1120193E1,4.9617306E1,1.0756809E1,8.83212E0,3.3773603E0,1.3830571E0,1.3162067E2,4.420524E1,3.8398617E1,1.8959803E1,3.7802277E1,9.874532E0,3.921661E1],"tree_param":{"num_deleted":"0","num_feature":"10","num_nodes":"39","size_leaf_vector":"1"}},{"base_weights":[-1.4694837E-1,3.047723E-1,-5.9742486E-1,4.006363E-1,1.595107E-1,-4.086901E-1,-6.9433235E-2,6.54717E-2,3.3711922E-1,6.04379E-2,1.3672687E-1,-3.4723806E-1,-5.100082E-1,2.8596738E-1,6.865486E-2,1.1871745E-1,7.005048E-2,-3.2102737E-1,-6.768703E-2,-5.4361284E-1,-1.1055491E-2,3.1197403E-2,-1.998343E-2,1.27786985E-2,-5.1679235E-2,-7.0376575E-2,-2.957891E-2,-4.7414195E-2,-7.182019E-2,9.85004E-3,-1.36030605E-2],"categories":[],"categories_nodes":[],"categories_segments":[],"categories_sizes":[],"default_left":[0,0,0,0,0,0,0,0,0,0,0,0,0,0,0,0,0,0,0,0,0,0,0,0,0,0,0,0,0,0,0],"id":11,"left_children":[1,3,5,7,9,11,-1,-1,13,-1,15,17,19,21,-1,23,-1,25,-1,27,29,-1,-1,-1,-1,-1,-1,-1,-1,-1,-1],"loss_changes":[1.7449757E2,5.901535E0,7.567047E0,3.9335213E0,1.6604676E0,7.447376E-1,0E0,0E0,3.5213337E0,0E0,1.5910056E0,6.0602474E-1,8.9545727E-1,2.3762465E0,0E0,9.939413E-1,0E0,6.6290283E-1,0E0,2.7016544E-1,7.382473E-2,0E0,0E0,0E0,0E0,0E0,0E0,0E0,0E0,0E0,0E0],"parents":[2147483647,0,0,1,1,2,2,3,3,4,4,5,5,8,8,10,10,11,11,12,12,13,13,15,15,17,17,19,19,20,20],"right_children":[2,4,6,8,10,12,-1,-1,14,-1,16,18,20,22,-1,24,-1,26,-1,28,30,-1,-1,-1,-1,-1,-1,-1,-1,-1,-1],"split_conditions":[9.6044207E-1,9.1173446E-1,9.1173446E-1,-1.0021192E0,-1.7117972E0,2.4343811E-1,-6.9433235E-2,6.54717E-2,1.4310626E0,6.04379E-2,7.6693887E-1,-5.100812E-2,1.3731296E0,1.1703645E0,6.865486E-2,2.8372086E-3,7.005048E-2,-1.3931663E0,-6.768703E-2,7.5759256E-1,1.5469283E0,3.1197403E-2,-1.998343E-2,1.27786985E-2,-5.1679235E-2,-7.0376575E-2,-2.957891E-2,-4.7414195E-2,-7.182019E-2,9.85004E-3,-1.36030605E-2],"split_indices":[5,4,4,0,0,0,0,0,0,0,9,7,0,0,0,6,0,0,0,0,0,0,0,0,0,0,0,0,0,0,0],"split_type":[0,0,0,0,0,0,0,0,0,0,0,0,0,0,0,0,0,0,0,0,0,0,0,0,0,0,0,0,0,0,0],"sum_hessian":[8.556313E2,4.2738715E2,4.282441E2,2.5641232E2,1.7097484E2,1.4705687E2,2.8118723E2,4.9418987E1,2.0699333E2,7.0861745E0,1.6388867E2,9.429297E1,5.27639E1,1.8214769E2,2.4845634E1,1.5998854E2,3.90013E0,8.917604E1,5.1169343E0,4.9350613E1,3.4132864E0,1.732318E2,8.91589E0,1.585251E2,1.4634323E0,3.8534558E0,8.532258E1,3.7961193E1,1.13894205E1,1.93173E0,1.4815565E0],"tree_param":{"num_deleted":"0","num_feature":"10","num_nodes":"31","size_leaf_vector":"1"}},{"base_weights":[1.3835084E-1,-1.0313009E-1,3.47772E-1,1.0664104E-1,-5.682009E-1,3.884904E-1,-5.539537E-1,5.517043E-1,1.8032148E-2,-3.064375E-1,-5.8366816E-2,-2.3820126E-1,4.0057224E-1,-5.9141655E-2,-3.138641E-3,6.205522E-2,3.6449188E-1,1.1098171E-3,6.037681E-1,-5.195668E-2,2.301131E-2,-4.5910444E-2,-2.519266E-2,4.218989E-1,1.391914E-1,-2.1799024E-2,4.6517808E-2,-7.134292E-3,1.4350516E-2,7.128879E-2,1.4281377E-2,2.76382E-2,-2.4665754E-2,-8.342822E-3,4.334342E-2,-5.95002E-3,2.751614E-2],"categories":[],"categories_nodes":[],"categories_segments":[],"categories_sizes":[],"default_left":[0,0,0,0,0,0,0,0,0,0,0,0,0,0,0,0,0,0,0,0,0,0,0,0,0,0,0,0,0,0,0,0,0,0,0,0,0],"id":12,"left_children":[1,3,5,7,9,11,13,15,17,19,-1,21,23,-1,-1,-1,25,27,29,-1,-1,-1,31,33,35,-1,-1,-1,-1,-1,-1,-1,-1,-1,-1,-1,-1],"loss_changes":[4.2306107E1,3.800926E1,1.6659641E1,1.0595028E1,3.113289E-1,3.3444672E0,3.6832714E-1,3.4886837E-1,2.2324767E0,1.1327618E0,0E0,3.9984512E-1,2.290123E0,0E0,0E0,0E0,9.470693E-1,2.2796793E0,2.1630073E-1,0E0,0E0,0E0,4.3612555E-1,2.304184E0,9.1544116E-1,0E0,0E0,0E0,0E0,0E0,0E0,0E0,0E0,0E0,0E0,0E0,0E0],"parents":[2147483647,0,0,1,1,2,2,3,3,4,4,5,5,6,6,7,7,8,8,9,9,11,11,12,12,16,16,17,17,18,18,22,22,23,23,24,24],"right_children":[2,4,6,8,10,12,14,16,18,20,-1,22,24,-1,-1,-1,26,28,30,-1,-1,-1,32,34,36,-1,-1,-1,-1,-1,-1,-1,-1,-1,-1,-1,-1],"split_conditions":[9.1173446E-1,1.1264013E-1,1.9487206E0,-8.65114E-1,1.6507183E-1,-1.7117972E0,1.5469283E0,-8.9618456E-1,2.4852338E0,1.5633321E-1,-5.8366816E-2,-2.1897438E0,9.447506E-1,-5.9141655E-2,-3.138641E-3,6.205522E-2,-8.8841695E-1,-3.602161E-1,4.4750724E0,-5.195668E-2,2.301131E-2,-4.5910444E-2,-1.9362873E0,-6.909275E-1,1.118552E0,-2.1799024E-2,4.6517808E-2,-7.134292E-3,1.4350516E-2,7.128879E-2,1.4281377E-2,2.76382E-2,-2.4665754E-2,-8.342822E-3,4.334342E-2,-5.95002E-3,2.751614E-2],"split_indices":[4,2,2,2,2,0,0,2,7,2,0,0,2,0,0,0,2,2,6,0,0,0,0,1,2,0,0,0,0,0,0,0,0,0,0,0,0],"split_type":[0,0,0,0,0,0,0,0,0,0,0,0,0,0,0,0,0,0,0,0,0,0,0,0,0,0,0,0,0,0,0,0,0,0,0,0,0],"sum_hessian":[8.3485583E2,3.8798392E2,4.4687192E2,2.6791226E2,1.2007166E2,4.2810934E2,1.8762571E1,4.361538E1,2.2429689E2,7.8601785E0,1.1221149E2,7.743334E0,4.20366E2,1.7384521E1,1.3780493E0,3.0196018E1,1.3419361E1,2.189725E2,5.324378E0,5.648234E0,2.2119448E0,3.2340696E0,4.509264E0,3.8808698E2,3.2279015E1,1.8060559E0,1.1613305E1,1.4545961E2,7.351289E1,3.8632903E0,1.4610877E0,1.804312E0,2.7049522E0,8.52221E0,3.795648E2,1.3343171E1,1.8935844E1],"tree_param":{"num_deleted":"0","num_feature":"10","num_nodes":"37","size_leaf_vector":"1"}},{"base_weights":[-1.3663818E-1,2.8601307E-1,-5.6501627E-1,-7.876031E-3,4.6019354E-1,-3.6450434E-1,-6.6965663E-1,9.077121E-2,-1.5206473E-1,5.65341E-1,3.1428838E-1,-2.625383E-1,-6.379507E-1,-6.012647E-1,-6.936433E-2,-5.1994497E-1,1.8376775E-1,8.0383524E-2,-3.0697787E-1,4.2333532E-2,6.241456E-1,6.9138086E-1,1.4834486E-1,-5.166371E-1,-1.5163301E-1,-3.004238E-1,-7.040905E-2,-6.3559175E-1,1.9282001E-1,-1.1427916E-2,-6.2646106E-2,-3.3736993E-2,2.1074772E-2,-5.0601214E-2,-3.5333433E-3,-6.404315E-2,1.5187773E-2,4.3336593E-2,6.534587E-2,4.499681E-2,7.549867E-2,5.848603E-3,5.59705E-2,-5.362882E-2,-4.6640723E-3,1.0659098E-2,-2.0979572E-2,-5.1282715E-2,4.6787493E-2,-6.897911E-2,-3.9830998E-2,4.457098E-2,-9.295722E-3],"categories":[],"categories_nodes":[],"categories_segments":[],"categories_sizes":[],"default_left":[0,0,0,0,0,0,0,0,0,0,0,0,0,0,0,0,0,0,0,0,0,0,0,0,0,0,0,0,0,0,0,0,0,0,0,0,0,0,0,0,0,0,0,0,0,0,0,0,0,0,0,0,0],"id":13,"left_children":[1,3,5,7,9,11,13,15,17,19,21,23,25,27,-1,29,31,-1,33,35,37,39,41,43,45,47,-1,49,51,-1,-1,-1,-1,-1,-1,-1,-1,-1,-1,-1,-1,-1,-1,-1,-1,-1,-1,-1,-1,-1,-1,-1,-1],"loss_changes":[1.530595E2,2.179755E1,8.562698E0,2.2812889E0,3.9236298E0,3.9068737E0,3.3432007E-2,5.507035E0,9.891724E0,4.7134247E0,7.044756E0,2.9690595E0,6.5889454E-1,2.2708797E0,0E0,4.8377538E-1,1.2441373E0,0E0,3.0516472E0,1.3425252E0,4.9116135E-1,1.9203568E-1,2.946146E0,2.746172E-1,1.1742504E0,1.5671114E0,0E0,6.9981384E-1,3.3289844E-1,0E0,0E0,0E0,0E0,0E0,0E0,0E0,0E0,0E0,0E0,0E0,0E0,0E0,0E0,0E0,0E0,0E0,0E0,0E0,0E0,0E0,0E0,0E0,0E0],"parents":[2147483647,0,0,1,1,2,2,3,3,4,4,5,5,6,6,7,7,8,8,9,9,10,10,11,11,12,12,13,13,15,15,16,16,18,18,19,19,20,20,21,21,22,22,23,23,24,24,25,25,27,27,28,28],"right_children":[2,4,6,8,10,12,14,16,18,20,22,24,26,28,-1,30,32,-1,34,36,38,40,42,44,46,48,-1,50,52,-1,-1,-1,-1,-1,-1,-1,-1,-1,-1,-1,-1,-1,-1,-1,-1,-1,-1,-1,-1,-1,-1,-1,-1],"split_conditions":[9.6044207E-1,-3.2234877E-1,9.1173446E-1,9.1173446E-1,9.1173446E-1,-3.6604187E-1,-6.13636E-1,-8.602592E-1,-8.699688E-1,-1.7282134E-1,5.535364E-2,-8.4666574E-1,-7.8487086E-1,-6.417938E-1,-6.936433E-2,-2.9244122E-1,-6.909275E-1,8.0383524E-2,-5.6314623E-1,-1.3569583E0,1.0098864E-1,-2.5632367E-1,2.121551E0,4.126436E-1,-3.6485735E-1,-8.645286E-1,-7.040905E-2,-8.437529E-1,1.2033069E-1,-1.1427916E-2,-6.2646106E-2,-3.3736993E-2,2.1074772E-2,-5.0601214E-2,-3.5333433E-3,-6.404315E-2,1.5187773E-2,4.3336593E-2,6.534587E-2,4.499681E-2,7.549867E-2,5.848603E-3,5.59705E-2,-5.362882E-2,-4.6640723E-3,1.0659098E-2,-2.0979572E-2,-5.1282715E-2,4.6787493E-2,-6.897911E-2,-3.9830998E-2,4.457098E-2,-9.295722E-3],"split_indices":[5,2,4,4,4,2,2,2,2,2,2,2,0,2,0,0,1,0,2,0,2,2,2,6,0,0,0,2,0,0,0,0,0,0,0,0,0,0,0,0,0,0,0,0,0,0,0,0,0,0,0,0,0],"split_type":[0,0,0,0,0,0,0,0,0,0,0,0,0,0,0,0,0,0,0,0,0,0,0,0,0,0,0,0,0,0,0,0,0,0,0,0,0,0,0,0,0,0,0,0,0,0,0,0,0,0,0,0,0],"sum_hessian":[8.434853E2,4.2474796E2,4.187373E2,1.5841472E2,2.6633325E2,1.4512746E2,2.7360986E2,9.4281876E1,6.4132835E1,1.5311514E2,1.1321811E2,1.0713701E2,3.7990444E1,7.781272E1,1.9579713E2,1.1852762E1,8.2429115E1,8.359729E0,5.5773106E1,1.56494055E1,1.3746574E2,3.363014E1,7.9587975E1,3.1441654E1,7.569536E1,7.132719E0,3.0857723E1,7.47797E1,3.0330153E0,2.8960502E0,8.956712E0,3.4911227E0,7.8937996E1,3.1690588E1,2.4082518E1,1.4936267E0,1.4155779E1,2.041057E1,1.1705517E2,8.696678E0,2.493346E1,6.6256805E1,1.3331169E1,3.0044413E1,1.3972416E0,1.3762334E1,6.193302E1,5.848392E0,1.2843268E0,5.932238E1,1.5457323E1,1.3121912E0,1.720824E0],"tree_param":{"num_deleted":"0","num_feature":"10","num_nodes":"53","size_leaf_vector":"1"}},{"base_weights":[1.3726927E-1,-2.567637E-1,5.447971E-1,-3.5862967E-1,-1.1207418E-1,3.4859675E-1,6.443272E-2,-3.32434E-1,-6.2360603E-2,-9.734576E-2,-6.6597484E-2,3.586267E-1,-3.6591787E-2,-3.4678444E-1,2.3546644E-1,-1.7599757E-1,-1.839763E-2,2.4516752E-1,4.1551596E-1,1.8011888E-2,-3.601302E-2,4.5748662E-2,8.11204E-3,-1.1382963E-2,-3.3621352E-2,5.318722E-2,-8.313966E-3,2.6670087E-2,-1.9823458E-2,4.3356586E-2,-8.291799E-3],"categories":[],"categories_nodes":[],"categories_segments":[],"categories_sizes":[],"default_left":[0,0,0,0,0,0,0,0,0,0,0,0,0,0,0,0,0,0,0,0,0,0,0,0,0,0,0,0,0,0,0],"id":14,"left_children":[1,3,5,7,9,11,-1,13,-1,15,-1,17,-1,19,21,23,25,27,29,-1,-1,-1,-1,-1,-1,-1,-1,-1,-1,-1,-1],"loss_changes":[1.3153748E2,6.1015797E0,7.6366806E0,1.4869461E0,1.351563E0,1.1178188E0,0E0,1.9093533E0,0E0,1.0541791E0,0E0,7.776661E-1,0E0,1.605875E0,1.7271137E-1,8.1024265E-1,3.1116862E0,5.106547E-1,8.395262E-1,0E0,0E0,0E0,0E0,0E0,0E0,0E0,0E0,0E0,0E0,0E0,0E0],"parents":[2147483647,0,0,1,1,2,2,3,3,4,4,5,5,7,7,9,9,11,11,13,13,14,14,15,15,16,16,17,17,18,18],"right_children":[2,4,6,8,10,12,-1,14,-1,16,-1,18,-1,20,22,24,26,28,30,-1,-1,-1,-1,-1,-1,-1,-1,-1,-1,-1,-1],"split_conditions":[9.6044207E-1,9.1173446E-1,9.1173446E-1,1.3731296E0,7.6693887E-1,1.2979895E0,6.443272E-2,1.235539E0,-6.2360603E-2,2.618973E-2,-6.6597484E-2,-1.5485059E-1,-3.6591787E-2,-6.909275E-1,1.2500222E0,-1.4760897E-1,1.4205553E-1,-1.8381703E-1,1.3731296E0,1.8011888E-2,-3.601302E-2,4.5748662E-2,8.11204E-3,-1.1382963E-2,-3.3621352E-2,5.318722E-2,-8.313966E-3,2.6670087E-2,-1.9823458E-2,4.3356586E-2,-8.291799E-3],"split_indices":[5,4,4,0,9,3,0,0,0,0,0,0,0,1,0,0,0,0,0,0,0,0,0,0,0,0,0,0,0,0,0],"split_type":[0,0,0,0,0,0,0,0,0,0,0,0,0,0,0,0,0,0,0,0,0,0,0,0,0,0,0,0,0,0,0],"sum_hessian":[8.1727185E2,4.157037E2,4.0156818E2,2.4308536E2,1.7261835E2,1.3666579E2,2.6490237E2,2.232676E2,1.9817759E1,1.6929254E2,3.3258057E0,1.3526509E2,1.4006948E0,2.1814459E2,5.1230087E0,8.418962E1,8.510291E1,4.6946056E1,8.831903E1,5.0801196E0,2.1306447E2,1.2954816E0,3.827527E0,6.188652E1,2.2303104E1,8.1992E0,7.690371E1,4.515182E1,1.794236E0,8.5358086E1,2.960946E0],"tree_param":{"num_deleted":"0","num_feature":"10","num_nodes":"31","size_leaf_vector":"1"}},{"base_weights":[-1.4111839E-1,2.4146834E-1,-5.4293877E-1,-5.5171777E-2,4.174614E-1,-3.570337E-1,-6.405021E-1,4.654481E-2,-1.9639042E-1,5.4102486E-1,2.595162E-1,-2.6823422E-1,-6.1462706E-1,-5.705555E-1,-6.752252E-2,-5.7475173E-1,1.6517851E-1,6.478763E-1,-3.1249884E-1,1.536161E-1,5.991595E-1,6.60863E-1,9.815166E-2,-5.296143E-1,-1.5059242E-1,-2.5629508E-1,-6.882101E-2,-6.669324E-2,-4.2275733E-1,-1.8000487E-2,-6.1751466E-2,1.9179232E-2,-4.606964E-2,7.3368646E-2,1.5228927E-2,-4.5018863E-2,-1.3137259E-2,-1.1884162E-2,4.6720516E-2,3.2147765E-3,6.0495563E-2,4.4404928E-2,7.4233055E-2,-4.5083584E-3,4.0922932E-2,-2.6315863E-3,-5.5085864E-2,2.7672364E-3,-2.7414888E-2,-4.7636803E-2,4.555894E-2,3.1461712E-2,-5.2448668E-2],"categories":[],"categories_nodes":[],"categories_segments":[],"categories_sizes":[],"default_left":[0,0,0,0,0,0,0,0,0,0,0,0,0,0,0,0,0,0,0,0,0,0,0,0,0,0,0,0,0,0,0,0,0,0,0,0,0,0,0,0,0,0,0,0,0,0,0,0,0,0,0,0,0],"id":15,"left_children":[1,3,5,7,9,11,13,15,17,19,21,23,25,27,-1,29,31,33,35,37,39,41,43,45,47,49,-1,-1,51,-1,-1,-1,-1,-1,-1,-1,-1,-1,-1,-1,-1,-1,-1,-1,-1,-1,-1,-1,-1,-1,-1,-1,-1],"loss_changes":[1.2615864E2,2.1983147E1,7.029106E0,2.2717342E0,5.0142937E0,3.0371284E0,2.4906158E-1,6.903394E0,6.686224E0,3.2247353E0,7.5677557E0,3.1757278E0,7.493925E-1,1.0440731E0,0E0,1.426158E-1,1.3932433E0,2.4217224E-1,1.4078069E0,1.8122064E0,4.002571E-1,2.6424122E-1,3.8161821E0,3.3261013E-1,1.6464914E0,1.4037867E0,0E0,0E0,3.1261277E0,0E0,0E0,0E0,0E0,0E0,0E0,0E0,0E0,0E0,0E0,0E0,0E0,0E0,0E0,0E0,0E0,0E0,0E0,0E0,0E0,0E0,0E0,0E0,0E0],"parents":[2147483647,0,0,1,1,2,2,3,3,4,4,5,5,6,6,7,7,8,8,9,9,10,10,11,11,12,12,13,13,15,15,16,16,17,17,18,18,19,19,20,20,21,21,22,22,23,23,24,24,25,25,28,28],"right_children":[2,4,6,8,10,12,14,16,18,20,22,24,26,28,-1,30,32,34,36,38,40,42,44,46,48,50,-1,-1,52,-1,-1,-1,-1,-1,-1,-1,-1,-1,-1,-1,-1,-1,-1,-1,-1,-1,-1,-1,-1,-1,-1,-1,-1],"split_conditions":[9.6044207E-1,-3.5341942E-1,9.1173446E-1,9.1173446E-1,9.1173446E-1,-3.6604187E-1,-4.7576004E-1,-8.4666574E-1,-8.7676543E-1,-1.3107018E-1,5.535364E-2,-8.4666574E-1,-7.8487086E-1,-8.505496E-1,-6.752252E-2,-9.4861627E-1,-3.7478048E-1,1.9998842E-1,-5.8062345E-1,4.791457E-2,-2.2648E0,-2.5632367E-1,1.2224444E0,-1.908555E-1,-4.6226393E-2,-8.862534E-1,-6.882101E-2,-6.669324E-2,-8.301595E-1,-1.8000487E-2,-6.1751466E-2,1.9179232E-2,-4.606964E-2,7.3368646E-2,1.5228927E-2,-4.5018863E-2,-1.3137259E-2,-1.1884162E-2,4.6720516E-2,3.2147765E-3,6.0495563E-2,4.4404928E-2,7.4233055E-2,-4.5083584E-3,4.0922932E-2,-2.6315863E-3,-5.5085864E-2,2.7672364E-3,-2.7414888E-2,-4.7636803E-2,4.555894E-2,3.1461712E-2,-5.2448668E-2],"split_indices":[5,2,4,4,4,2,2,2,2,2,2,2,0,2,0,2,2,0,2,0,7,2,2,1,0,0,0,0,2,0,0,0,0,0,0,0,0,0,0,0,0,0,0,0,0,0,0,0,0,0,0,0,0],"split_type":[0,0,0,0,0,0,0,0,0,0,0,0,0,0,0,0,0,0,0,0,0,0,0,0,0,0,0,0,0,0,0,0,0,0,0,0,0,0,0,0,0,0,0,0,0,0,0,0,0,0,0,0,0],"sum_hessian":[8.187918E2,4.196387E2,3.9915308E2,1.5651527E2,2.631234E2,1.3898302E2,2.6017004E2,9.13723E1,6.514298E1,1.4626903E2,1.1685439E2,1.04872055E2,3.4110966E1,9.209137E1,1.6807869E2,1.4033371E1,7.733893E1,7.3220134E0,5.782097E1,1.9560492E1,1.26708534E2,3.2621803E1,8.423259E1,3.146352E1,7.340853E1,6.5750613E0,2.7535906E1,5.3616455E1,3.8474915E1,1.8808168E0,1.21525545E1,7.4849686E1,2.4892404E0,5.8318067E0,1.4902067E0,3.2005394E1,2.5815577E1,1.0798972E1,8.7615185E0,1.3483803E0,1.2536016E2,1.0671592E1,2.195021E1,5.8261322E1,2.5971266E1,1.3649607E0,3.009856E1,3.036891E1,4.3039623E1,5.275134E0,1.299927E0,4.4108233E0,3.406409E1],"tree_param":{"num_deleted":"0","num_feature":"10","num_nodes":"53","size_leaf_vector":"1"}},{"base_weights":[1.2437194E-1,-2.3855048E-1,5.178088E-1,3.2078E-2,-4.4134593E-1,3.1662944E-1,6.309626E-2,7.662339E-2,-1.0727823E-1,-5.340354E-1,-3.1652826E-1,2.4850808E-1,5.31523E-1,-1.4473806E-1,1.2144683E-1,1.0516662E-1,-3.465655E-1,-3.1187752E-1,-5.9146696E-1,-7.1742244E-2,-2.0381863E-1,5.159288E-1,1.247529E-1,1.3942483E-1,6.629169E-2,2.5343278E-2,-3.672989E-2,9.987686E-3,6.8681106E-2,-6.9107645E-4,5.3338286E-2,-7.6037906E-2,-1.0799464E-2,-3.7999727E-2,2.6998222E-2,-6.195407E-2,-4.6041626E-2,7.56527E-2,-2.506843E-2,2.8821365E-3,5.3595483E-2,-6.082849E-3,2.5904505E-2,2.9162804E-2,-4.484981E-2],"categories":[],"categories_nodes":[],"categories_segments":[],"categories_sizes":[],"default_left":[0,0,0,0,0,0,0,0,0,0,0,0,0,0,0,0,0,0,0,0,0,0,0,0,0,0,0,0,0,0,0,0,0,0,0,0,0,0,0,0,0,0,0,0,0],"id":16,"left_children":[1,3,5,7,9,11,-1,13,15,17,19,21,23,25,27,29,31,33,35,-1,37,39,41,43,-1,-1,-1,-1,-1,-1,-1,-1,-1,-1,-1,-1,-1,-1,-1,-1,-1,-1,-1,-1,-1],"loss_changes":[1.114646E2,2.231276E1,8.32476E0,1.0944033E0,2.518795E0,1.8706455E0,0E0,1.3389606E0,2.2121801E0,1.4979935E0,4.438175E0,3.4356585E0,1.5588627E0,2.1208074E0,1.2886071E0,1.1285828E0,1.9280007E0,1.2600687E0,9.6138E-2,0E0,3.8168268E0,3.0782127E-1,1.8504843E0,9.6399486E-1,0E0,0E0,0E0,0E0,0E0,0E0,0E0,0E0,0E0,0E0,0E0,0E0,0E0,0E0,0E0,0E0,0E0,0E0,0E0,0E0,0E0],"parents":[2147483647,0,0,1,1,2,2,3,3,4,4,5,5,7,7,8,8,9,9,10,10,11,11,12,12,13,13,14,14,15,15,16,16,17,17,18,18,20,20,21,21,22,22,23,23],"right_children":[2,4,6,8,10,12,-1,14,16,18,20,22,24,26,28,30,32,34,36,-1,38,40,42,44,-1,-1,-1,-1,-1,-1,-1,-1,-1,-1,-1,-1,-1,-1,-1,-1,-1,-1,-1,-1,-1],"split_conditions":[9.6044207E-1,-2.5049794E-1,9.1173446E-1,-4.5828283E-1,9.1173446E-1,-3.6604187E-1,6.309626E-2,-3.431325E-1,4.0672954E-2,1.0098864E-1,5.535364E-2,-8.4666574E-1,-7.8487086E-1,-8.3556217E-1,-4.7576004E-1,-2.854524E-1,2.941294E-1,7.185992E-2,1.235539E0,-7.1742244E-2,1.3108832E-1,-1.908555E-1,-1.7259944E-2,-8.862534E-1,6.629169E-2,2.5343278E-2,-3.672989E-2,9.987686E-3,6.8681106E-2,-6.9107645E-4,5.3338286E-2,-7.6037906E-2,-1.0799464E-2,-3.7999727E-2,2.6998222E-2,-6.195407E-2,-4.6041626E-2,7.56527E-2,-2.506843E-2,2.8821365E-3,5.3595483E-2,-6.082849E-3,2.5904505E-2,2.9162804E-2,-4.484981E-2],"split_indices":[5,2,4,2,4,2,0,0,0,2,2,2,0,0,2,2,0,2,0,0,2,1,0,0,0,0,0,0,0,0,0,0,0,0,0,0,0,0,0,0,0,0,0,0,0],"split_type":[0,0,0,0,0,0,0,0,0,0,0,0,0,0,0,0,0,0,0,0,0,0,0,0,0,0,0,0,0,0,0,0,0,0,0,0,0,0,0,0,0,0,0,0,0],"sum_hessian":[7.787702E2,4.0529916E2,3.7347104E2,1.7397418E2,2.3132498E2,1.3580962E2,2.376614E2,1.3217458E2,4.1799606E1,1.3086572E2,1.0045925E2,1.04757774E2,3.1051846E1,2.1881802E1,1.1029278E2,2.2438595E1,1.936101E1,2.8202547E1,1.0266318E2,2.0868246E1,7.9591E1,3.2139362E1,7.261841E1,8.311191E0,2.2740654E1,7.7958965E0,1.4085905E1,1.073729E2,2.9198706E0,1.8563751E1,3.8748446E0,6.2802925E0,1.3080717E1,2.5557405E1,2.6451411E0,8.1480835E1,2.118234E1,2.998798E0,7.659221E1,1.3654623E0,3.0773901E1,3.0716967E1,4.1901443E1,7.0023665E0,1.3088242E0],"tree_param":{"num_deleted":"0","num_feature":"10","num_nodes":"45","size_leaf_vector":"1"}},{"base_weights":[-1.1875291E-1,2.3906359E-1,-5.08238E-1,-1.7602034E-2,4.351909E-1,-3.1252733E-1,-6.149793E-1,-7.7800296E-2,1.6332838E-1,5.728629E-1,2.460071E-1,-2.2636363E-1,-5.4565406E-1,-5.42395E-1,-6.5278254E-2,4.998916E-2,-2.6263663E-1,-4.482446E-2,3.0001155E-1,2.7483746E-1,6.0261484E-2,7.192575E-2,1.0048189E-1,-5.0894994E-1,-1.1696738E-1,-1.3618648E-1,-6.652453E-2,-6.446442E-2,-3.8480753E-1,-6.2120248E-2,1.5562596E-2,7.443291E-2,-3.9672006E-2,2.053056E-2,-2.4239982E-2,5.6373764E-2,-4.127998E-4,-4.7881465E-2,4.340821E-2,2.1913783E-3,4.9834903E-2,-5.3467035E-2,5.1300455E-4,-1.04508E-3,-3.2554246E-2,-2.881302E-2,4.484981E-2,1.4484723E-2,-4.5912262E-2],"categories":[],"categories_nodes":[],"categories_segments":[],"categories_sizes":[],"default_left":[0,0,0,0,0,0,0,0,0,0,0,0,0,0,0,0,0,0,0,0,0,0,0,0,0,0,0,0,0,0,0,0,0,0,0,0,0,0,0,0,0,0,0,0,0,0,0,0,0],"id":17,"left_children":[1,3,5,7,9,11,13,15,17,19,21,23,25,27,-1,29,31,33,35,37,-1,-1,39,41,43,45,-1,-1,47,-1,-1,-1,-1,-1,-1,-1,-1,-1,-1,-1,-1,-1,-1,-1,-1,-1,-1,-1,-1],"loss_changes":[1.09212975E2,2.0579054E1,7.644287E0,1.9511076E0,5.893387E0,2.576624E0,3.0914307E-1,3.1833563E0,1.286725E0,1.0167465E0,6.7691765E0,3.027398E0,1.6510296E0,1.1809578E0,0E0,5.782663E0,7.724318E0,9.6941245E-1,2.1795657E0,1.8811188E0,0E0,0E0,2.400401E0,3.6728048E-1,1.6247703E0,9.5515996E-1,0E0,0E0,1.5378408E0,0E0,0E0,0E0,0E0,0E0,0E0,0E0,0E0,0E0,0E0,0E0,0E0,0E0,0E0,0E0,0E0,0E0,0E0,0E0,0E0],"parents":[2147483647,0,0,1,1,2,2,3,3,4,4,5,5,6,6,7,7,8,8,9,9,10,10,11,11,12,12,13,13,15,15,16,16,17,17,18,18,19,19,22,22,23,23,24,24,25,25,28,28],"right_children":[2,4,6,8,10,12,14,16,18,20,22,24,26,28,-1,30,32,34,36,38,-1,-1,40,42,44,46,-1,-1,48,-1,-1,-1,-1,-1,-1,-1,-1,-1,-1,-1,-1,-1,-1,-1,-1,-1,-1,-1,-1],"split_conditions":[9.6044207E-1,-2.5049794E-1,9.1173446E-1,-4.5828283E-1,9.1173446E-1,-3.6604187E-1,-4.7576004E-1,9.1173446E-1,-1.9105865E-1,-8.6406134E-2,5.535364E-2,-8.65114E-1,-7.8487086E-1,-8.505496E-1,-6.5278254E-2,-8.602592E-1,-8.699688E-1,-9.803944E-1,3.2309583E-1,-9.369447E-1,6.0261484E-2,7.192575E-2,2.1633022E0,2.8372086E-3,3.086126E-1,-8.645286E-1,-6.652453E-2,-6.446442E-2,-8.301595E-1,-6.2120248E-2,1.5562596E-2,7.443291E-2,-3.9672006E-2,2.053056E-2,-2.4239982E-2,5.6373764E-2,-4.127998E-4,-4.7881465E-2,4.340821E-2,2.1913783E-3,4.9834903E-2,-5.3467035E-2,5.1300455E-4,-1.04508E-3,-3.2554246E-2,-2.881302E-2,4.484981E-2,1.4484723E-2,-4.5912262E-2],"split_indices":[5,2,4,2,4,2,2,4,0,2,2,2,0,2,0,2,2,0,0,0,0,0,2,6,0,0,0,0,2,0,0,0,0,0,0,0,0,0,0,0,0,0,0,0,0,0,0,0,0],"split_type":[0,0,0,0,0,0,0,0,0,0,0,0,0,0,0,0,0,0,0,0,0,0,0,0,0,0,0,0,0,0,0,0,0,0,0,0,0,0,0,0,0,0,0,0,0,0,0,0,0],"sum_hessian":[7.8177966E2,4.0765598E2,3.741237E2,1.769705E2,2.3068546E2,1.3342188E2,2.4070181E2,1.3321716E2,4.3753353E1,1.3234666E2,9.83388E1,9.885575E1,3.4566128E1,8.768655E1,1.5301526E2,7.919442E1,5.402274E1,1.7608965E1,2.6144386E1,1.2942202E1,1.1940446E2,2.2200361E1,7.6138435E1,2.6569788E1,7.2285965E1,8.296964E0,2.6269163E1,5.1306248E1,3.6380302E1,1.010555E1,6.908887E1,5.8133416E0,4.8209396E1,7.753687E0,9.855279E0,1.3545358E1,1.2599028E1,1.9075606E0,1.1034641E1,6.446367E1,1.1674771E1,2.5265646E1,1.3041407E0,4.8544846E1,2.3741117E1,6.988139E0,1.3088242E0,4.3596096E0,3.2020695E1],"tree_param":{"num_deleted":"0","num_feature":"10","num_nodes":"49","size_leaf_vector":"1"}},{"base_weights":[1.17965445E-1,-2.158E-1,4.9146602E-1,5.979134E-2,-3.7505078E-1,2.977487E-1,6.057145E-1,-3.9191596E-2,2.1421334E-1,-4.7096816E-1,-2.5550753E-1,2.053695E-1,5.524253E-1,5.3746897E-1,6.3015275E-2,4.7569713E-1,-1.2952146E-1,-5.5470574E-1,3.0797392E-1,-1.2979195E-1,-5.370313E-1,-5.669947E-1,-1.3213214E-1,4.168621E-1,-2.1691538E-2,2.0177277E-2,6.1936315E-2,5.752258E-1,3.0923633E-2,1.4834295E-2,5.6305733E-2,4.010327E-2,-1.5213083E-2,-6.519338E-2,-1.2547146E-2,4.0744267E-2,8.557736E-3,6.4749986E-2,-2.0908868E-2,2.2774395E-3,-5.4321337E-2,-3.196409E-2,-6.853542E-2,7.293854E-2,-1.7266432E-2,-3.6878154E-2,4.455294E-2,-6.771536E-3,5.692176E-2,4.3821875E-2,-3.1479176E-2,6.249523E-2,3.880299E-2,-2.8947672E-2,4.3834325E-2],"categories":[],"categories_nodes":[],"categories_segments":[],"categories_sizes":[],"default_left":[0,0,0,0,0,0,0,0,0,0,0,0,0,0,0,0,0,0,0,0,0,0,0,0,0,0,0,0,0,0,0,0,0,0,0,0,0,0,0,0,0,0,0,0,0,0,0,0,0,0,0,0,0,0,0],"id":18,"left_children":[1,3,5,7,9,11,13,15,17,19,21,23,25,27,-1,29,31,33,35,37,39,41,43,45,47,49,-1,51,53,-1,-1,-1,-1,-1,-1,-1,-1,-1,-1,-1,-1,-1,-1,-1,-1,-1,-1,-1,-1,-1,-1,-1,-1,-1,-1],"loss_changes":[9.545797E1,1.778062E1,7.8150787E0,2.2865944E0,2.8216515E0,3.0858927E0,3.869629E-2,4.3252907E0,4.379268E0,3.112152E0,4.3985996E0,4.877571E0,1.2560282E0,1.2533264E0,0E0,3.1387687E-1,1.0059702E0,1.9787383E-1,1.1303296E0,1.6282005E0,4.205742E-1,7.3892975E-1,3.0830748E0,1.347621E0,1.3940408E0,8.3968467E-1,0E0,3.327217E-1,8.666563E-1,0E0,0E0,0E0,0E0,0E0,0E0,0E0,0E0,0E0,0E0,0E0,0E0,0E0,0E0,0E0,0E0,0E0,0E0,0E0,0E0,0E0,0E0,0E0,0E0,0E0,0E0],"parents":[2147483647,0,0,1,1,2,2,3,3,4,4,5,5,6,6,7,7,8,8,9,9,10,10,11,11,12,12,13,13,15,15,16,16,17,17,18,18,19,19,20,20,21,21,22,22,23,23,24,24,25,25,27,27,28,28],"right_children":[2,4,6,8,10,12,14,16,18,20,22,24,26,28,-1,30,32,34,36,38,40,42,44,46,48,50,-1,52,54,-1,-1,-1,-1,-1,-1,-1,-1,-1,-1,-1,-1,-1,-1,-1,-1,-1,-1,-1,-1,-1,-1,-1,-1,-1,-1],"split_conditions":[9.6044207E-1,-3.85461E-1,9.1173446E-1,9.1173446E-1,9.1173446E-1,-3.6604187E-1,-6.13636E-1,-8.4666574E-1,-8.8064927E-1,-1.8447283E-1,5.535364E-2,-7.5539577E-1,-1.3569583E0,-6.922836E-1,6.3015275E-2,-2.9244122E-1,-6.909275E-1,1.9998842E-1,-5.21395E-1,-1.2917837E0,-4.2235055E0,-2.5632367E-1,1.3108832E-1,-2.4911866E0,-5.100812E-2,-3.591635E-2,6.1936315E-2,-8.505496E-1,1.2033069E-1,1.4834295E-2,5.6305733E-2,4.010327E-2,-1.5213083E-2,-6.519338E-2,-1.2547146E-2,4.0744267E-2,8.557736E-3,6.4749986E-2,-2.0908868E-2,2.2774395E-3,-5.4321337E-2,-3.196409E-2,-6.853542E-2,7.293854E-2,-1.7266432E-2,-3.6878154E-2,4.455294E-2,-6.771536E-3,5.692176E-2,4.3821875E-2,-3.1479176E-2,6.249523E-2,3.880299E-2,-2.8947672E-2,4.3834325E-2],"split_indices":[5,2,4,4,4,2,2,2,2,2,2,2,0,2,0,0,1,0,2,0,8,2,2,1,7,2,0,2,0,0,0,0,0,0,0,0,0,0,0,0,0,0,0,0,0,0,0,0,0,0,0,0,0,0,0],"split_type":[0,0,0,0,0,0,0,0,0,0,0,0,0,0,0,0,0,0,0,0,0,0,0,0,0,0,0,0,0,0,0,0,0,0,0,0,0,0,0,0,0,0,0,0,0,0,0,0,0,0,0,0,0,0,0],"sum_hessian":[7.638861E2,4.0362408E2,3.6026202E2,1.4804663E2,2.5557745E2,1.3498705E2,2.2527498E2,9.0672615E1,5.737402E1,1.4017009E2,1.15407364E2,1.003818E2,3.4605244E1,6.5461586E1,1.5981339E2,1.2896295E1,7.777631E1,5.701393E0,5.1672626E1,2.321959E1,1.1695051E2,3.1722221E1,8.368514E1,5.1539864E1,4.884193E1,4.0113E0,3.0593945E1,6.0794502E1,4.6670823E0,3.284973E0,9.611321E0,2.4948323E0,7.528149E1,4.225438E0,1.4759547E0,3.5128883E1,1.6543743E1,1.4861678E0,2.1733421E1,1.2480938E0,1.15702415E2,1.1464239E1,2.0257982E1,2.9966063E0,8.068854E1,1.3967577E0,5.0143105E1,4.6134113E1,2.7078185E0,1.64727E0,2.3640304E0,4.6186954E1,1.4607547E1,2.7745926E0,1.8924898E0],"tree_param":{"num_deleted":"0","num_feature":"10","num_nodes":"55","size_leaf_vector":"1"}},{"base_weights":[-1.1514739E-1,7.8441635E-2,-2.91693E-1,3.8347945E-1,2.5443574E-2,3.5979497E-1,-3.0836284E-1,4.398083E-2,3.275784E-1,-1.1780161E-2,4.4108155E-1,2.3772267E-1,4.882585E-2,-3.1247246E-1,4.7877695E-2,3.680765E-2,4.2712563E-1,3.2773386E-3,-4.3823293E-1,2.3133118E-1,4.9147416E-2,4.6358313E-2,-8.72918E-2,-3.2286903E-1,-4.236482E-2,2.2622745E-2,-6.6713863E-3,4.7357704E-2,2.6901072E-2,5.314501E-2,-5.4101454E-4,2.936244E-2,-5.918569E-2,3.64806E-2,3.8494084E-3,3.2664891E-3,-1.6628109E-2,1.617735E-2,-3.2907467E-2,1.334565E-2,-1.6140176E-2],"categories":[],"categories_nodes":[],"categories_segments":[],"categories_sizes":[],"default_left":[0,0,0,0,0,0,0,0,0,0,0,0,0,0,0,0,0,0,0,0,0,0,0,0,0,0,0,0,0,0,0,0,0,0,0,0,0,0,0,0,0],"id":19,"left_children":[1,3,5,7,9,11,13,-1,15,17,19,21,-1,23,-1,25,27,29,31,33,-1,-1,35,37,39,-1,-1,-1,-1,-1,-1,-1,-1,-1,-1,-1,-1,-1,-1,-1,-1],"loss_changes":[2.593005E1,5.8480988E0,4.4189224E0,2.4596691E-2,4.798021E0,4.6364665E-2,1.402523E0,0E0,8.758986E-1,1.8333919E0,1.557231E-1,5.734121E-1,0E0,1.0700264E0,0E0,1.9060247E-1,4.0450573E-2,1.2718496E0,1.2685462E0,1.6167048E-1,0E0,0E0,4.1609958E-2,1.1704025E0,3.4498808E-1,0E0,0E0,0E0,0E0,0E0,0E0,0E0,0E0,0E0,0E0,0E0,0E0,0E0,0E0,0E0,0E0],"parents":[2147483647,0,0,1,1,2,2,3,3,4,4,5,5,6,6,8,8,9,9,10,10,11,11,13,13,15,15,16,16,17,17,18,18,19,19,22,22,23,23,24,24],"right_children":[2,4,6,8,10,12,14,-1,16,18,20,22,-1,24,-1,26,28,30,32,34,-1,-1,36,38,40,-1,-1,-1,-1,-1,-1,-1,-1,-1,-1,-1,-1,-1,-1,-1,-1],"split_conditions":[9.1173446E-1,-9.803944E-1,-1.7117972E0,-1.7117972E0,1.3731296E0,-1.9362873E0,4.484977E0,4.398083E-2,-1.3931663E0,1.8915101E0,1.5976197E0,-2.1897438E0,4.882585E-2,1.4310626E0,4.7877695E-2,-1.5597234E0,-1.0890186E0,-1.2724488E0,-3.3913164E0,1.4889954E0,4.9147416E-2,4.6358313E-2,-2.0593946E0,-1.7432944E0,1.5976197E0,2.2622745E-2,-6.6713863E-3,4.7357704E-2,2.6901072E-2,5.314501E-2,-5.4101454E-4,2.936244E-2,-5.918569E-2,3.64806E-2,3.8494084E-3,3.2664891E-3,-1.6628109E-2,1.617735E-2,-3.2907467E-2,1.334565E-2,-1.6140176E-2],"split_indices":[4,0,0,0,0,0,8,0,0,6,0,0,0,0,0,0,0,3,1,0,0,0,0,6,0,0,0,0,0,0,0,0,0,0,0,0,0,0,0,0,0],"split_type":[0,0,0,0,0,0,0,0,0,0,0,0,0,0,0,0,0,0,0,0,0,0,0,0,0,0,0,0,0,0,0,0,0,0,0,0,0,0,0,0,0],"sum_hessian":[7.5702277E2,3.613473E2,3.9567545E2,5.256519E1,3.087821E2,9.358148E0,3.863173E2,2.276169E1,2.9803497E1,2.8429303E2,2.4489077E1,6.2600493E0,3.0980985E0,3.849107E2,1.4065807E0,7.950468E0,2.185303E1,2.7555582E2,8.737207E0,5.826765E0,1.8662312E1,3.4418664E0,2.8181827E0,3.7045636E2,1.4454366E1,2.3907127E0,5.5597553E0,1.5348705E1,6.504325E0,3.4853096E0,2.7207053E2,1.3577299E0,7.3794775E0,2.9163744E0,2.9103906E0,1.3517773E0,1.4664054E0,4.36662E0,3.6608972E2,5.7864547E0,8.667912E0],"tree_param":{"num_deleted":"0","num_feature":"10","num_nodes":"41","size_leaf_vector":"1"}},{"base_weights":[9.532424E-2,-2.2307755E-1,4.5029476E-1,-1.4794967E-2,-3.529387E-1,2.3658021E-1,5.827074E-1,-1.0194069E-1,1.1683328E-1,-4.447235E-1,-2.4354936E-1,1.3638099E-1,5.045566E-1,5.07252E-1,6.2134843E-2,4.9628907E-1,-1.7806795E-1,-7.440621E-2,2.4420793E-1,-3.5008397E-2,-5.300572E-1,-6.301513E-1,-8.699034E-2,5.0574976E-1,1.6399788E-2,1.8645048E-1,6.012571E-1,6.132393E-2,3.2186776E-1,6.6286954E-3,6.404747E-2,-4.3592583E-2,-1.1247444E-2,2.8220773E-2,-3.945088E-2,3.6756705E-2,-1.9986136E-2,-3.140986E-2,-5.6328326E-2,-2.7737945E-2,-6.548562E-2,1.0734455E-2,-3.161026E-2,5.3583622E-2,1.2713325E-2,-1.2328449E-2,1.123328E-2,3.3046935E-2,-4.38359E-2,8.005309E-3,6.3171394E-2,-3.6558427E-3,5.2462406E-2],"categories":[],"categories_nodes":[],"categories_segments":[],"categories_sizes":[],"default_left":[0,0,0,0,0,0,0,0,0,0,0,0,0,0,0,0,0,0,0,0,0,0,0,0,0,0,0,0,0,0,0,0,0,0,0,0,0,0,0,0,0,0,0,0,0,0,0,0,0,0,0,0,0],"id":20,"left_children":[1,3,5,7,9,11,13,15,17,19,21,23,25,27,-1,29,31,-1,33,35,37,39,41,43,45,47,49,-1,51,-1,-1,-1,-1,-1,-1,-1,-1,-1,-1,-1,-1,-1,-1,-1,-1,-1,-1,-1,-1,-1,-1,-1,-1],"loss_changes":[8.49916E1,1.0722237E1,9.921806E0,1.7710629E0,2.3440456E0,3.6279187E0,3.2279205E-1,4.31483E0,6.931528E0,4.5825977E0,6.823938E0,4.4933476E0,1.0290699E0,1.3656368E0,0E0,6.2346435E-1,1.3558929E0,0E0,1.4310446E0,1.6500221E0,6.040993E-1,1.0245228E-1,3.687244E0,2.1519756E-1,1.0551318E0,1.0535135E0,3.9391136E-1,0E0,2.2750328E0,0E0,0E0,0E0,0E0,0E0,0E0,0E0,0E0,0E0,0E0,0E0,0E0,0E0,0E0,0E0,0E0,0E0,0E0,0E0,0E0,0E0,0E0,0E0,0E0],"parents":[2147483647,0,0,1,1,2,2,3,3,4,4,5,5,6,6,7,7,8,8,9,9,10,10,11,11,12,12,13,13,15,15,16,16,18,18,19,19,20,20,21,21,22,22,23,23,24,24,25,25,26,26,28,28],"right_children":[2,4,6,8,10,12,14,16,18,20,22,24,26,28,-1,30,32,-1,34,36,38,40,42,44,46,48,50,-1,52,-1,-1,-1,-1,-1,-1,-1,-1,-1,-1,-1,-1,-1,-1,-1,-1,-1,-1,-1,-1,-1,-1,-1,-1],"split_conditions":[9.6044207E-1,-3.427389E-1,9.1173446E-1,9.1173446E-1,9.1173446E-1,-3.990544E-1,-4.7576004E-1,-8.602592E-1,-8.699688E-1,-8.6406134E-2,1.9428218E-2,-8.7676543E-1,-7.8487086E-1,-8.505496E-1,6.2134843E-2,-2.9244122E-1,-4.4451508E-1,-7.440621E-2,-3.7478048E-1,-6.617634E-1,1.0098864E-1,-1.1397098E0,9.195057E-1,6.996597E-1,-1.7259944E-2,-9.007367E-1,-3.6604187E-1,6.132393E-2,-8.243446E-2,6.6286954E-3,6.404747E-2,-4.3592583E-2,-1.1247444E-2,2.8220773E-2,-3.945088E-2,3.6756705E-2,-1.9986136E-2,-3.140986E-2,-5.6328326E-2,-2.7737945E-2,-6.548562E-2,1.0734455E-2,-3.161026E-2,5.3583622E-2,1.2713325E-2,-1.2328449E-2,1.123328E-2,3.3046935E-2,-4.38359E-2,8.005309E-3,6.3171394E-2,-3.6558427E-3,5.2462406E-2],"split_indices":[5,2,4,4,4,2,2,2,2,2,2,2,0,2,0,0,0,0,2,0,2,0,2,0,0,0,2,0,0,0,0,0,0,0,0,0,0,0,0,0,0,0,0,0,0,0,0,0,0,0,0,0,0],"split_type":[0,0,0,0,0,0,0,0,0,0,0,0,0,0,0,0,0,0,0,0,0,0,0,0,0,0,0,0,0,0,0,0,0,0,0,0,0,0,0,0,0,0,0,0,0,0,0,0,0,0,0,0,0],"sum_hessian":[7.5009467E2,3.9561084E2,3.5448383E2,1.5235869E2,2.4325214E2,1.3667558E2,2.1780824E2,9.180432E1,6.055438E1,1.3060258E2,1.1264955E2,1.00577515E2,3.609807E1,7.854957E1,1.3925867E2,9.740611E0,8.2063705E1,7.1806345E0,5.337374E1,2.2755621E1,1.0784696E2,3.1597843E1,8.105171E1,2.3871756E1,7.670576E1,9.097859E0,2.700021E1,4.850849E1,3.004108E1,2.8125448E0,6.9280663E0,1.5496964E1,6.656674E1,5.0903458E1,2.4702845E0,6.2538595E0,1.6501762E1,1.5774088E1,9.2072876E1,2.8682718E0,2.872957E1,4.4141777E1,3.6909935E1,2.1729767E1,2.141989E0,3.1115131E1,4.5590626E1,7.776468E0,1.3213916E0,1.6909884E0,2.5309221E1,1.1150056E1,1.8891026E1],"tree_param":{"num_deleted":"0","num_feature":"10","num_nodes":"53","size_leaf_vector":"1"}},{"base_weights":[-1.05535746E-1,2.1257561E-1,-4.755136E-1,-4.929525E-2,3.728228E-1,-3.6352924E-1,-6.1923485E-2,-3.7298087E-2,-6.432686E-2,3.8028654E-1,-3.6840957E-2,-5.016483E-1,-2.1999952E-1,-6.6188514E-2,2.6826993E-1,3.5788047E-1,6.0870618E-2,-5.8450617E-2,-3.9108813E-1,1.5425707E-1,-3.0025375E-1,2.6176427E-3,-1.1202405E-2,4.7513437E-2,6.6347057E-3,3.021355E-2,4.349978E-2,-6.4857535E-2,-3.0396027E-2,-2.3989584E-3,7.223015E-2,-1.3183142E-2,-4.4754717E-2],"categories":[],"categories_nodes":[],"categories_segments":[],"categories_sizes":[],"default_left":[0,0,0,0,0,0,0,0,0,0,0,0,0,0,0,0,0,0,0,0,0,0,0,0,0,0,0,0,0,0,0,0,0],"id":21,"left_children":[1,3,5,7,9,11,-1,13,-1,15,-1,17,19,21,23,25,-1,-1,27,29,31,-1,-1,-1,-1,-1,-1,-1,-1,-1,-1,-1,-1],"loss_changes":[8.7487595E1,1.6800589E1,5.3044815E0,1.0641675E0,1.5133247E0,3.765812E0,0E0,1.3484981E0,0E0,1.0423775E0,0E0,6.770477E-1,2.9798036E0,5.893799E-1,5.206377E-1,8.4297943E-1,0E0,0E0,8.207631E-1,1.8303367E0,1.9444747E0,0E0,0E0,0E0,0E0,0E0,0E0,0E0,0E0,0E0,0E0,0E0,0E0],"parents":[2147483647,0,0,1,1,2,2,3,3,4,4,5,5,7,7,9,9,11,11,12,12,13,13,14,14,15,15,18,18,19,19,20,20],"right_children":[2,4,6,8,10,12,-1,14,-1,16,-1,18,20,22,24,26,-1,-1,28,30,32,-1,-1,-1,-1,-1,-1,-1,-1,-1,-1,-1,-1],"split_conditions":[9.6044207E-1,-3.85461E-1,-3.6604187E-1,-3.9225772E-1,3.8158183E0,-7.7384394E-1,-6.1923485E-2,-4.5828283E-1,-6.432686E-2,2.4817762E0,-3.6840957E-2,-8.9618456E-1,-4.1554862E-1,-9.691768E-2,1.2033069E-1,1.1308908E-1,6.0870618E-2,-5.8450617E-2,-3.503741E-1,-5.748641E-1,-5.495528E-1,2.6176427E-3,-1.1202405E-2,4.7513437E-2,6.6347057E-3,3.021355E-2,4.349978E-2,-6.4857535E-2,-3.0396027E-2,-2.3989584E-3,7.223015E-2,-1.3183142E-2,-4.4754717E-2],"split_indices":[5,2,2,2,6,2,0,2,0,2,0,2,0,0,0,0,0,0,0,0,2,0,0,0,0,0,0,0,0,0,0,0,0],"split_type":[0,0,0,0,0,0,0,0,0,0,0,0,0,0,0,0,0,0,0,0,0,0,0,0,0,0,0,0,0,0,0,0,0],"sum_hessian":[7.4148816E2,3.989186E2,3.4256955E2,1.517029E2,2.4721571E2,1.945275E2,1.4804204E2,1.497412E2,1.9617013E0,2.452333E2,1.9823968E0,9.786073E1,9.666677E1,1.3752231E2,1.2218881E1,2.2566428E2,1.956903E1,5.3488056E1,4.4372673E1,1.6905903E1,7.976087E1,4.5752865E1,9.176945E1,5.3672404E0,6.85164E0,1.338369E2,9.182738E1,9.589394E0,3.478328E1,1.3597052E1,3.3088508E0,3.8095585E1,4.1665287E1],"tree_param":{"num_deleted":"0","num_feature":"10","num_nodes":"33","size_leaf_vector":"1"}},{"base_weights":[1.05851635E-1,-1.967481E-1,4.6356896E-1,-5.7726175E-2,-1.7245941E-1,3.9246902E-1,5.134254E-1,-6.1315E-2,-1.6343965E-1,3.9890033E-1,8.795116E-3,5.2194726E-1,-2.630468E-2,5.190294E-1,-1.7148362E-1,4.2819682E-1,3.4466305E-1,5.314533E-2,2.3755112E-1,6.539839E-2,1.3984396E-2,-1.5394161E-2,-3.5678033E-2,3.8731348E-2,5.407334E-2,1.2277135E-2,4.233711E-2,-4.1467894E-2,4.279271E-2],"categories":[],"categories_nodes":[],"categories_segments":[],"categories_sizes":[],"default_left":[0,0,0,0,0,0,0,0,0,0,0,0,0,0,0,0,0,0,0,0,0,0,0,0,0,0,0,0,0],"id":22,"left_children":[1,3,5,-1,7,9,11,-1,13,15,-1,17,-1,19,21,23,25,-1,27,-1,-1,-1,-1,-1,-1,-1,-1,-1,-1],"loss_changes":[7.688851E1,3.4591484E0,9.520645E-1,0E0,1.3441648E0,2.3592758E-1,1.3815842E0,0E0,2.0513105E0,6.73008E-2,0E0,3.775177E-1,0E0,1.3433659E-1,1.0958624E0,1.7556858E-1,8.6587715E-1,0E0,1.1503499E0,0E0,0E0,0E0,0E0,0E0,0E0,0E0,0E0,0E0,0E0],"parents":[2147483647,0,0,1,1,2,2,4,4,5,5,6,6,8,8,9,9,11,11,13,13,14,14,15,15,16,16,18,18],"right_children":[2,4,6,-1,8,10,12,-1,14,16,-1,18,-1,20,22,24,26,-1,28,-1,-1,-1,-1,-1,-1,-1,-1,-1,-1],"split_conditions":[9.6044207E-1,-1.7117972E0,-1.7259944E-2,-5.7726175E-2,-1.7432944E0,-2.4501558E-2,1.2979895E0,-6.1315E-2,-8.560377E-1,-2.6347476E-1,8.795116E-3,1.3731296E0,-2.630468E-2,1.8094325E0,1.4310626E0,-4.0830702E-1,-1.9105865E-1,5.314533E-2,1.4310626E0,6.539839E-2,1.3984396E-2,-1.5394161E-2,-3.5678033E-2,3.8731348E-2,5.407334E-2,1.2277135E-2,4.233711E-2,-4.1467894E-2,4.279271E-2],"split_indices":[5,0,0,0,6,0,3,0,8,0,0,0,0,1,0,0,0,0,0,0,0,0,0,0,0,0,0,0,0],"split_type":[0,0,0,0,0,0,0,0,0,0,0,0,0,0,0,0,0,0,0,0,0,0,0,0,0,0,0,0,0],"sum_hessian":[7.084757E2,3.8405035E2,3.2442535E2,2.1677511E1,3.6237283E2,1.3738031E2,1.8704504E2,5.924668E0,3.5644818E2,1.3423535E2,3.1449478E0,1.8533873E2,1.7063067E0,3.412353E0,3.5303583E2,8.268034E1,5.155501E1,1.7850346E2,6.8352733E0,1.9821768E0,1.4301763E0,3.2417682E2,2.8858997E1,6.390575E1,1.8774593E1,1.4169245E1,3.7385765E1,1.2781404E0,5.5571327E0],"tree_param":{"num_deleted":"0","num_feature":"10","num_nodes":"29","size_leaf_vector":"1"}},{"base_weights":[-1.02885805E-1,1.8675669E-1,-4.4314486E-1,-4.266377E-2,3.3743557E-1,-2.4534136E-1,-5.668005E-1,2.5288558E-2,-1.4315444E-1,3.0630642E-1,6.0545076E-2,-1.6717103E-1,-4.8373464E-1,-4.753163E-1,-6.028365E-2,-6.705775E-2,1.1940937E-1,6.3786924E-2,-2.833947E-1,3.839072E-1,2.2061326E-1,-5.909699E-2,-8.280522E-2,-5.293105E-2,-3.256376E-1,-5.9825636E-2,-1.7775144E-1,-3.0257404E-2,1.41419945E-2,-4.697811E-2,-3.7003586E-3,3.3945225E-3,4.8733894E-2,6.2878124E-2,7.138354E-3,-5.8539733E-3,-5.5492233E-2,2.0443426E-2,-4.867555E-2,7.3632844E-2,-2.9856471E-2],"categories":[],"categories_nodes":[],"categories_segments":[],"categories_sizes":[],"default_left":[0,0,0,0,0,0,0,0,0,0,0,0,0,0,0,0,0,0,0,0,0,0,0,0,0,0,0,0,0,0,0,0,0,0,0,0,0,0,0,0,0],"id":23,"left_children":[1,3,5,7,9,11,13,15,17,19,-1,21,23,25,-1,-1,27,-1,29,31,33,-1,35,-1,37,-1,39,-1,-1,-1,-1,-1,-1,-1,-1,-1,-1,-1,-1,-1,-1],"loss_changes":[7.1483925E1,1.3567378E1,8.016556E0,1.0709764E0,1.789774E0,2.3421855E0,3.8734436E-1,6.243234E0,7.1038637E0,1.3392944E0,0E0,3.5066519E0,5.5179596E-2,2.179758E0,0E0,0E0,8.205569E-1,0E0,2.4752493E0,4.0022163E0,6.296786E0,0E0,9.309591E-1,0E0,9.2497206E-1,0E0,2.394584E0,0E0,0E0,0E0,0E0,0E0,0E0,0E0,0E0,0E0,0E0,0E0,0E0,0E0,0E0],"parents":[2147483647,0,0,1,1,2,2,3,3,4,4,5,5,6,6,7,7,8,8,9,9,11,11,12,12,13,13,16,16,18,18,19,19,20,20,22,22,24,24,26,26],"right_children":[2,4,6,8,10,12,14,16,18,20,-1,22,24,26,-1,-1,28,-1,30,32,34,-1,36,-1,38,-1,40,-1,-1,-1,-1,-1,-1,-1,-1,-1,-1,-1,-1,-1,-1],"split_conditions":[9.6044207E-1,-3.5341942E-1,9.1173446E-1,9.1173446E-1,2.3963318E0,-3.990544E-1,-6.13636E-1,-8.602592E-1,-8.699688E-1,9.1173446E-1,6.0545076E-2,-9.2142946E-1,-3.591635E-2,-8.505496E-1,-6.028365E-2,-6.705775E-2,-6.909275E-1,6.3786924E-2,-5.6314623E-1,-8.6406134E-2,5.535364E-2,-5.909699E-2,1.1691729E0,-5.293105E-2,-1.455529E-2,-5.9825636E-2,-8.369562E-1,-3.0257404E-2,1.41419945E-2,-4.697811E-2,-3.7003586E-3,3.3945225E-3,4.8733894E-2,6.2878124E-2,7.138354E-3,-5.8539733E-3,-5.5492233E-2,2.0443426E-2,-4.867555E-2,7.3632844E-2,-2.9856471E-2],"split_indices":[5,2,4,4,2,2,2,2,2,4,0,2,2,2,0,0,1,0,2,2,2,0,8,0,2,0,2,0,0,0,0,0,0,0,0,0,0,0,0,0,0],"split_type":[0,0,0,0,0,0,0,0,0,0,0,0,0,0,0,0,0,0,0,0,0,0,0,0,0,0,0,0,0,0,0,0,0,0,0,0,0,0,0,0,0],"sum_hessian":[7.234915E2,3.9105798E2,3.324335E2,1.553073E2,2.357507E2,1.29025E2,2.0340851E2,9.3100555E1,6.220674E1,2.1313823E2,2.261248E1,9.844548E1,3.0579517E1,6.149135E1,1.4191716E2,1.0362505E1,8.2738045E1,8.929319E0,5.327742E1,1.10024155E2,1.0311407E2,1.5347053E1,8.309843E1,2.1914139E1,8.66538E0,4.279848E1,1.8692867E1,3.4697504E0,7.9268295E1,2.9816E1,2.3461422E1,2.5402575E1,8.462158E1,2.674595E1,7.636812E1,8.010524E1,2.993188E0,1.95725E0,6.7081294E0,1.5874406E0,1.7105427E1],"tree_param":{"num_deleted":"0","num_feature":"10","num_nodes":"41","size_leaf_vector":"1"}},{"base_weights":[1.0551719E-1,-1.9291669E-1,4.507565E-1,-5.2493155E-2,-1.7005207E-1,2.8233373E-1,5.5811077E-2,-2.4193287E-1,-8.164252E-2,9.4031215E-2,3.3814257E-1,-2.586038E-1,3.4243137E-1,-6.349555E-2,-6.337684E-2,1.7239115E-1,-3.1226927E-1,3.5405925E-1,-1.3159153E-1,-2.3524612E-2,-4.7276735E-2,-1.850875E-2,5.719055E-2,-7.516405E-3,6.7583084E-2,1.6939698E-3,3.967313E-2,-5.9253838E-2,1.1678274E-2,-8.6542005E-3,3.60443E-2,-2.7832795E-2,7.2225737E-3],"categories":[],"categories_nodes":[],"categories_segments":[],"categories_sizes":[],"default_left":[0,0,0,0,0,0,0,0,0,0,0,0,0,0,0,0,0,0,0,0,0,0,0,0,0,0,0,0,0,0,0,0,0],"id":24,"left_children":[1,3,5,-1,7,9,-1,11,13,15,17,19,21,23,-1,25,27,29,31,-1,-1,-1,-1,-1,-1,-1,-1,-1,-1,-1,-1,-1,-1],"loss_changes":[7.080182E1,2.7106438E0,5.6015167E0,0E0,2.1825104E0,1.2925024E0,0E0,1.9456463E0,1.5319386E0,1.0151736E0,7.704849E-1,8.1878185E-1,7.9799813E-1,1.3709759E0,0E0,8.985192E-1,6.99024E-1,2.953577E-1,1.368086E-1,0E0,0E0,0E0,0E0,0E0,0E0,0E0,0E0,0E0,0E0,0E0,0E0,0E0,0E0],"parents":[2147483647,0,0,1,1,2,2,4,4,5,5,7,7,8,8,9,9,10,10,11,11,12,12,13,13,15,15,16,16,17,17,18,18],"right_children":[2,4,6,-1,8,10,-1,12,14,16,18,20,22,24,-1,26,28,30,32,-1,-1,-1,-1,-1,-1,-1,-1,-1,-1,-1,-1,-1,-1],"split_conditions":[9.6044207E-1,-1.7117972E0,9.1173446E-1,-5.2493155E-2,9.1173446E-1,-3.6485735E-1,5.5811077E-2,2.4082224E0,7.373643E-1,-4.517567E-1,1.3731296E0,1.4310626E0,-2.6912155E0,2.2783313E0,-6.337684E-2,-7.6314604E-1,-4.1554862E-1,-1.4910427E0,1.5469283E0,-2.3524612E-2,-4.7276735E-2,-1.850875E-2,5.719055E-2,-7.516405E-3,6.7583084E-2,1.6939698E-3,3.967313E-2,-5.9253838E-2,1.1678274E-2,-8.6542005E-3,3.60443E-2,-2.7832795E-2,7.2225737E-3],"split_indices":[5,0,4,0,4,0,0,6,9,0,0,0,1,0,0,0,0,1,0,0,0,0,0,0,0,0,0,0,0,0,0,0,0],"split_type":[0,0,0,0,0,0,0,0,0,0,0,0,0,0,0,0,0,0,0,0,0,0,0,0,0,0,0,0,0,0,0,0,0],"sum_hessian":[6.853447E2,3.678268E2,3.175179E2,2.2284063E1,3.4554276E2,1.250162E2,1.9250172E2,1.8962935E2,1.5591339E2,2.9195076E1,9.582112E1,1.8491159E2,4.717758E0,1.5203151E2,3.881889E0,2.495744E1,4.237636E0,9.291888E1,2.9022489E0,1.6861958E2,1.6292007E1,1.488772E0,3.2289863E0,1.5055371E2,1.4777975E0,1.5377475E1,9.579965E0,2.3327658E0,1.9048703E0,1.1477163E0,9.177116E1,1.4748604E0,1.4273884E0],"tree_param":{"num_deleted":"0","num_feature":"10","num_nodes":"33","size_leaf_vector":"1"}},{"base_weights":[-7.253707E-2,2.0276201E-1,-4.089741E-1,4.9733844E-2,1.8248457E-1,-2.0063439E-1,-5.50809E-1,2.415088E-1,1.0995776E-1,-1.8487051E-1,-5.4764546E-2,-4.9716663E-1,-5.8110952E-2,2.1144925E-1,5.794267E-2,9.4878875E-2,6.2797554E-2,4.122849E-2,-1.9462667E-1,-5.0820005E-1,7.233468E-3,2.3182021E-2,-2.0658715E-2,1.0493013E-2,-5.0521594E-2,-1.5005888E-2,-3.4933772E-2,-5.4302897E-2,-4.041172E-2],"categories":[],"categories_nodes":[],"categories_segments":[],"categories_sizes":[],"default_left":[0,0,0,0,0,0,0,0,0,0,0,0,0,0,0,0,0,0,0,0,0,0,0,0,0,0,0,0,0],"id":25,"left_children":[1,3,5,-1,7,9,11,13,15,17,-1,19,-1,21,-1,23,-1,-1,25,27,-1,-1,-1,-1,-1,-1,-1,-1,-1],"loss_changes":[6.495632E1,2.2141943E0,9.213654E0,0E0,1.5257053E0,6.064949E-1,1.5300751E-2,1.8996325E0,1.2255831E0,8.1004095E-1,0E0,5.047684E-1,0E0,1.6181126E0,0E0,1.0244427E0,0E0,0E0,8.021121E-1,4.587555E-2,0E0,0E0,0E0,0E0,0E0,0E0,0E0,0E0,0E0],"parents":[2147483647,0,0,1,1,2,2,4,4,5,5,6,6,7,7,8,8,9,9,11,11,13,13,15,15,18,18,19,19],"right_children":[2,4,6,-1,8,10,12,14,16,18,-1,20,-1,22,-1,24,-1,-1,26,28,-1,-1,-1,-1,-1,-1,-1,-1,-1],"split_conditions":[9.6044207E-1,-1.7117972E0,9.1173446E-1,4.9733844E-2,9.1173446E-1,1.5409963E0,-1.7259944E-2,1.4310626E0,7.6693887E-1,-1.4910427E0,-5.4764546E-2,-2.4501558E-2,-5.8110952E-2,1.1703645E0,5.794267E-2,2.6981416E-1,6.2797554E-2,4.122849E-2,4.8965293E-1,-2.2002509E-1,7.233468E-3,2.3182021E-2,-2.0658715E-2,1.0493013E-2,-5.0521594E-2,-1.5005888E-2,-3.4933772E-2,-5.4302897E-2,-4.041172E-2],"split_indices":[5,0,4,0,4,7,0,0,9,1,0,0,0,0,0,3,0,0,0,0,0,0,0,0,0,0,0,0,0],"split_type":[0,0,0,0,0,0,0,0,0,0,0,0,0,0,0,0,0,0,0,0,0,0,0,0,0,0,0,0,0],"sum_hessian":[6.994191E2,3.8487866E2,3.1454047E2,2.3272058E1,3.616066E2,1.2837962E2,1.8616086E2,1.9807664E2,1.6352995E2,1.2426721E2,4.1124125E0,7.348135E1,1.126795E2,1.8338899E2,1.468766E1,1.6005412E2,3.4758277E0,1.3343656E0,1.22932846E2,7.219039E1,1.2909609E0,1.7529242E2,8.096564E0,1.5822902E2,1.8251021E0,9.696884E1,2.5963999E1,5.093042E1,2.125997E1],"tree_param":{"num_deleted":"0","num_feature":"10","num_nodes":"29","size_leaf_vector":"1"}},{"base_weights":[9.3442716E-2,-5.617377E-2,2.3615155E-1,8.7871484E-2,-4.778634E-1,2.719517E-1,-3.1133837E-1,4.2936638E-1,2.8020147E-2,-5.313552E-1,-4.0630636E-1,-2.2760797E-1,2.8466952E-1,-8.5171446E-2,-5.251505E-1,4.8811E-1,2.621327E-1,-3.984853E-2,1.9160502E-1,-3.3241153E-1,-5.56998E-1,4.4533E-2,-4.52931E-1,-3.963134E-2,-1.052179E-1,2.1141404E-1,3.4624165E-1,-2.6931897E-1,7.053741E-2,-6.020062E-2,2.0961424E-3,3.0632505E-2,5.397659E-2,5.291302E-2,-2.545846E-3,3.8810675E-3,-1.5828224E-2,2.3413025E-2,-3.645126E-2,1.0426875E-2,-5.1205207E-2,-2.0396091E-2,-5.7204574E-2,2.5770867E-2,-3.223502E-2,-3.434496E-2,-5.6283034E-2,-2.7664429E-2,1.1700008E-3,4.0684685E-2,1.7706951E-2,5.2811008E-2,3.0963058E-2,3.16146E-2,-3.7721746E-2],"categories":[],"categories_nodes":[],"categories_segments":[],"categories_sizes":[],"default_left":[0,0,0,0,0,0,0,0,0,0,0,0,0,0,0,0,0,0,0,0,0,0,0,0,0,0,0,0,0,0,0,0,0,0,0,0,0,0,0,0,0,0,0,0,0,0,0,0,0,0,0,0,0,0,0],"id":26,"left_children":[1,3,5,7,9,11,13,15,17,19,21,23,25,27,29,31,33,35,37,39,41,43,45,-1,47,49,51,53,-1,-1,-1,-1,-1,-1,-1,-1,-1,-1,-1,-1,-1,-1,-1,-1,-1,-1,-1,-1,-1,-1,-1,-1,-1,-1,-1],"loss_changes":[1.4147954E1,1.9721601E1,6.729389E0,4.9410915E0,1.0045624E-1,2.0898342E0,9.840019E-1,2.2639084E-1,2.3087907E0,3.9538383E-2,8.526325E-1,1.3316146E-1,1.3307838E0,1.8687162E0,4.6347475E-1,7.441664E-2,8.9929855E-1,1.3785565E0,1.526732E0,6.424367E-1,8.272743E-2,4.4458097E-1,2.3961306E-1,0E0,1.2889563E-1,8.9930487E-1,9.52116E-1,7.558081E-1,0E0,0E0,0E0,0E0,0E0,0E0,0E0,0E0,0E0,0E0,0E0,0E0,0E0,0E0,0E0,0E0,0E0,0E0,0E0,0E0,0E0,0E0,0E0,0E0,0E0,0E0,0E0],"parents":[2147483647,0,0,1,1,2,2,3,3,4,4,5,5,6,6,7,7,8,8,9,9,10,10,11,11,12,12,13,13,14,14,15,15,16,16,17,17,18,18,19,19,20,20,21,21,22,22,24,24,25,25,26,26,27,27],"right_children":[2,4,6,8,10,12,14,16,18,20,22,24,26,28,30,32,34,36,38,40,42,44,46,-1,48,50,52,54,-1,-1,-1,-1,-1,-1,-1,-1,-1,-1,-1,-1,-1,-1,-1,-1,-1,-1,-1,-1,-1,-1,-1,-1,-1,-1,-1],"split_conditions":[9.1173446E-1,1.1264013E-1,1.6710267E0,-8.4666574E-1,7.690073E-1,-1.5597234E0,-2.4501558E-2,2.2895488E-1,-3.602161E-1,1.747814E-1,9.903856E-1,3.2236692E-1,4.464892E-3,-2.0554186E-1,1.5976197E0,-9.4861627E-1,-9.2142946E-1,-6.000426E-1,1.235539E0,-8.3556217E-1,-2.2694013E0,1.2500222E0,2.3963318E0,-3.963134E-2,-2.2694013E0,-8.4666574E-1,1.4205553E-1,2.0632935E0,7.053741E-2,-6.020062E-2,2.0961424E-3,3.0632505E-2,5.397659E-2,5.291302E-2,-2.545846E-3,3.8810675E-3,-1.5828224E-2,2.3413025E-2,-3.645126E-2,1.0426875E-2,-5.1205207E-2,-2.0396091E-2,-5.7204574E-2,2.5770867E-2,-3.223502E-2,-3.434496E-2,-5.6283034E-2,-2.7664429E-2,1.1700008E-3,4.0684685E-2,1.7706951E-2,5.2811008E-2,3.0963058E-2,3.16146E-2,-3.7721746E-2],"split_indices":[4,2,2,2,2,0,0,0,2,2,2,2,0,0,0,2,2,2,0,0,0,0,2,0,0,2,0,2,0,0,0,0,0,0,0,0,0,0,0,0,0,0,0,0,0,0,0,0,0,0,0,0,0,0,0],"split_type":[0,0,0,0,0,0,0,0,0,0,0,0,0,0,0,0,0,0,0,0,0,0,0,0,0,0,0,0,0,0,0,0,0,0,0,0,0,0,0,0,0,0,0,0,0,0,0,0,0,0,0,0,0,0,0],"sum_hessian":[6.6099695E2,3.229848E2,3.3801215E2,2.413377E2,8.16471E1,3.177386E2,2.0273539E1,3.5069145E1,2.0626857E2,4.3044197E1,3.86029E1,7.468705E0,3.102699E2,1.0531666E1,9.741873E0,2.4532845E1,1.05363E1,1.4631944E2,5.994913E1,6.50898E0,3.6535217E1,3.6222467E0,3.4980656E1,2.1991818E0,5.269523E0,1.4371657E2,1.6655331E2,9.076691E0,1.4549747E0,8.450293E0,1.2915804E0,6.962135E0,1.757071E1,5.0282445E0,5.508055E0,8.832777E1,5.7991673E1,5.622844E1,3.7206888E0,2.0194812E0,4.489498E0,2.088599E0,3.4446617E1,2.4792585E0,1.142988E0,1.9590147E1,1.5390509E1,1.582744E0,3.6867793E0,1.9859993E1,1.23856575E2,2.5660057E1,1.4089326E2,1.1121347E0,7.964556E0],"tree_param":{"num_deleted":"0","num_feature":"10","num_nodes":"55","size_leaf_vector":"1"}},{"base_weights":[-8.33282E-2,7.0701756E-2,-2.3044436E-1,-7.4145004E-2,4.7326916E-1,-2.6861477E-1,2.9226905E-1,-5.379022E-1,-2.4325687E-2,5.1914626E-1,4.1800353E-1,-3.5023144E-1,-1.9568166E-1,3.3089277E-1,-2.7215147E-2,-3.231217E-1,-6.0063012E-2,-5.4287726E-1,-1.0281784E-2,4.0108407E-1,5.8643557E-2,-3.3002694E-3,4.3979427E-1,-3.5710794E-1,2.0773536E-2,7.408886E-2,-2.3970503E-1,1.4723204E-1,5.291919E-1,-5.3730547E-2,3.8871379E-3,-7.159815E-2,7.723048E-3,5.706508E-4,-4.649281E-2,4.344524E-2,6.232928E-3,3.726403E-2,5.6075033E-2,-3.2339547E-2,-4.846271E-2,-6.092414E-3,2.4469009E-2,-8.83501E-3,-3.2501888E-2,3.3054017E-2,-6.945249E-2,2.5504997E-2,6.041933E-2],"categories":[],"categories_nodes":[],"categories_segments":[],"categories_sizes":[],"default_left":[0,0,0,0,0,0,0,0,0,0,0,0,0,0,0,0,0,0,0,0,0,0,0,0,0,0,0,0,0,0,0,0,0,0,0,0,0,0,0,0,0,0,0,0,0,0,0,0,0],"id":27,"left_children":[1,3,5,7,9,11,13,15,17,19,21,23,25,27,-1,29,-1,31,33,35,-1,-1,37,39,-1,41,43,45,47,-1,-1,-1,-1,-1,-1,-1,-1,-1,-1,-1,-1,-1,-1,-1,-1,-1,-1,-1,-1],"loss_changes":[1.5524277E1,1.957458E1,7.067255E0,5.7003555E0,8.146286E-3,1.8777046E0,6.201539E-1,1.2847567E-1,1.6282483E0,1.174345E-1,4.60814E-1,6.6132736E-1,2.0952702E0,7.674029E-1,0E0,6.0827637E-1,0E0,6.882502E-1,1.597868E0,1.9084382E-1,0E0,0E0,1.4347744E-1,4.94709E-1,0E0,5.977805E-1,1.916255E0,2.302666E0,6.74448E-2,0E0,0E0,0E0,0E0,0E0,0E0,0E0,0E0,0E0,0E0,0E0,0E0,0E0,0E0,0E0,0E0,0E0,0E0,0E0,0E0],"parents":[2147483647,0,0,1,1,2,2,3,3,4,4,5,5,6,6,7,7,8,8,9,9,10,10,11,11,12,12,13,13,15,15,17,17,18,18,19,19,22,22,23,23,25,25,26,26,27,27,28,28],"right_children":[2,4,6,8,10,12,14,16,18,20,22,24,26,28,-1,30,-1,32,34,36,-1,-1,38,40,-1,42,44,46,48,-1,-1,-1,-1,-1,-1,-1,-1,-1,-1,-1,-1,-1,-1,-1,-1,-1,-1,-1,-1],"split_conditions":[9.1173446E-1,1.1264013E-1,1.6710267E0,-8.9618456E-1,-1.693338E-1,-3.2234877E-1,1.6410693E0,-1.5485059E-1,-1.3931663E0,-1.3931663E0,-5.3468008E-2,2.5044446E0,-8.645286E-1,-2.4501558E-2,-2.7215147E-2,-3.6485735E-1,-6.0063012E-2,-1.5146028E-1,1.7133335E0,-1.4873073E0,5.8643557E-2,-3.3002694E-3,1.4807191E0,-4.427475E-1,2.0773536E-2,-1.1397098E0,1.0689601E-2,-2.0554186E-1,1.9487206E0,-5.3730547E-2,3.8871379E-3,-7.159815E-2,7.723048E-3,5.706508E-4,-4.649281E-2,4.344524E-2,6.232928E-3,3.726403E-2,5.6075033E-2,-3.2339547E-2,-4.846271E-2,-6.092414E-3,2.4469009E-2,-8.83501E-3,-3.2501888E-2,3.3054017E-2,-6.945249E-2,2.5504997E-2,6.041933E-2],"split_indices":[4,2,2,2,0,2,0,0,0,0,0,9,0,0,0,0,0,2,6,0,0,0,2,2,0,0,2,0,2,0,0,0,0,0,0,0,0,0,0,0,0,0,0,0,0,0,0,0,0],"split_type":[0,0,0,0,0,0,0,0,0,0,0,0,0,0,0,0,0,0,0,0,0,0,0,0,0,0,0,0,0,0,0,0,0,0,0,0,0,0,0,0,0,0,0,0,0,0,0,0,0],"sum_hessian":[6.833681E2,3.3409332E2,3.4927478E2,2.4629158E2,8.7801735E1,3.2595825E2,2.331652E1,2.2941072E1,2.2335051E2,4.3389553E1,4.441218E1,1.520277E2,1.7393056E2,2.2210394E1,1.1061267E0,6.576003E0,1.6365068E1,4.8965487E0,2.1845396E2,1.8278929E1,2.5110624E1,2.0231981E0,4.2388985E1,1.5053249E2,1.4952093E0,2.4305578E1,1.4962498E2,1.2435425E1,9.77497E0,3.8272192E0,2.7487838E0,3.7070975E0,1.1894512E0,2.119866E2,6.4673657E0,1.6382689E1,1.8962396E0,2.9880386E1,1.2508597E1,1.21853836E2,2.8678654E1,1.3926834E1,1.0378744E1,5.467028E1,9.4954704E1,1.0710365E1,1.7250587E0,3.045132E0,6.7298384E0],"tree_param":{"num_deleted":"0","num_feature":"10","num_nodes":"49","size_leaf_vector":"1"}},{"base_weights":[7.082889E-2,-1.8583816E-1,3.8545594E-1,1.7732978E-2,-3.5488465E-1,1.8869948E-1,5.1938385E-1,2.786737E-3,6.356059E-2,-4.4897866E-1,-2.4541003E-1,9.414034E-2,4.811022E-1,4.093878E-1,5.8003563E-2,4.648251E-2,-2.8226423E-1,-2.6859394E-1,-5.073678E-1,-6.426393E-2,-1.3622203E-1,5.463286E-2,3.077892E-2,-1.5687348E-1,5.6210685E-1,5.6779552E-2,2.1153453E-1,3.114556E-3,6.5694235E-2,-9.6993325E-3,-5.842607E-2,-3.423659E-2,3.514889E-2,-5.4417532E-2,-3.782886E-2,9.668115E-3,-3.2043457E-2,-8.85924E-4,4.026756E-2,6.7430064E-3,-3.3562735E-2,2.1090915E-2,5.924017E-2,-5.1900834E-2,3.3385463E-2],"categories":[],"categories_nodes":[],"categories_segments":[],"categories_sizes":[],"default_left":[0,0,0,0,0,0,0,0,0,0,0,0,0,0,0,0,0,0,0,0,0,0,0,0,0,0,0,0,0,0,0,0,0,0,0,0,0,0,0,0,0,0,0,0,0],"id":28,"left_children":[1,3,5,7,9,11,13,15,-1,17,19,21,23,25,-1,27,29,31,33,-1,35,-1,37,39,41,-1,43,-1,-1,-1,-1,-1,-1,-1,-1,-1,-1,-1,-1,-1,-1,-1,-1,-1,-1],"loss_changes":[5.2565987E1,1.234935E1,7.6064224E0,1.509731E0,1.9088078E0,3.2721648E0,9.193115E-1,2.016117E0,0E0,9.6120644E-1,3.9375157E0,2.6164393E0,1.5908079E0,1.9179049E0,0E0,1.2930738E0,1.1471707E0,1.3831455E0,1.6280174E-1,0E0,3.208506E0,0E0,1.2075082E0,1.8532568E-1,1.5187931E-1,0E0,2.899375E0,0E0,0E0,0E0,0E0,0E0,0E0,0E0,0E0,0E0,0E0,0E0,0E0,0E0,0E0,0E0,0E0,0E0,0E0],"parents":[2147483647,0,0,1,1,2,2,3,3,4,4,5,5,6,6,7,7,9,9,10,10,11,11,12,12,13,13,15,15,16,16,17,17,18,18,20,20,22,22,23,23,24,24,26,26],"right_children":[2,4,6,8,10,12,14,16,-1,18,20,22,24,26,-1,28,30,32,34,-1,36,-1,38,40,42,-1,44,-1,-1,-1,-1,-1,-1,-1,-1,-1,-1,-1,-1,-1,-1,-1,-1,-1,-1],"split_conditions":[9.6044207E-1,-2.5632367E-1,9.1173446E-1,-2.767138E-1,9.1173446E-1,-3.6604187E-1,-4.7576004E-1,-3.85461E-1,6.356059E-2,1.0098864E-1,5.535364E-2,-9.2142946E-1,-1.3569583E0,-8.505496E-1,5.8003563E-2,-3.9225772E-1,4.0672954E-2,7.185992E-2,8.589752E-1,-6.426393E-2,7.0006937E-1,5.463286E-2,7.5759256E-1,-1.3931663E0,-7.8487086E-1,5.6779552E-2,-8.301595E-1,3.114556E-3,6.5694235E-2,-9.6993325E-3,-5.842607E-2,-3.423659E-2,3.514889E-2,-5.4417532E-2,-3.782886E-2,9.668115E-3,-3.2043457E-2,-8.85924E-4,4.026756E-2,6.7430064E-3,-3.3562735E-2,2.1090915E-2,5.924017E-2,-5.1900834E-2,3.3385463E-2],"split_indices":[5,2,4,2,4,2,2,2,0,2,2,2,0,2,0,2,0,2,0,0,2,0,0,0,0,0,2,0,0,0,0,0,0,0,0,0,0,0,0,0,0,0,0,0,0],"split_type":[0,0,0,0,0,0,0,0,0,0,0,0,0,0,0,0,0,0,0,0,0,0,0,0,0,0,0,0,0,0,0,0,0,0,0,0,0,0,0,0,0,0,0,0,0],"sum_hessian":[6.490495E2,3.5767444E2,2.9137503E2,1.6267325E2,1.950012E2,1.1898318E2,1.7239185E2,1.5981194E2,2.8613133E0,1.0319948E2,9.180172E1,9.090701E1,2.8076166E1,6.402609E1,1.0836576E2,1.3929604E2,2.0515907E1,2.660554E1,7.659394E1,1.873987E1,7.306185E1,1.0235736E1,8.067128E1,3.0577075E0,2.5018457E1,3.451916E1,2.9506931E1,1.3690744E2,2.3885884E0,1.3534092E1,6.9818153E0,2.417704E1,2.4284995E0,5.7096706E1,1.949723E1,3.2476456E1,4.0585396E1,7.378335E1,6.887931E0,1.6322758E0,1.4254318E0,2.619012E0,2.2399446E1,3.7668447E0,2.5740086E1],"tree_param":{"num_deleted":"0","num_feature":"10","num_nodes":"45","size_leaf_vector":"1"}},{"base_weights":[-6.726012E-2,8.253456E-2,-2.0710526E-1,-5.0042786E-2,4.805175E-2,-2.5857753E-1,1.6321777E-1,-5.5959698E-2,-2.9337168E-4,2.9733217E-1,-2.7007294E-1,4.289747E-2,4.779974E-1,1.4891525E-2,-5.049074E-1,5.0969847E-2,8.648454E-2,-2.7583358E-1,3.8416218E-2,4.3573707E-2,-4.3881267E-2,2.2279869E-1,5.3476688E-2,8.2014315E-3,-1.0161287E-2,-6.07309E-2,-7.2953883E-3,3.3533067E-2,-2.4799787E-2,-5.1480502E-2,-2.5934113E-2,-5.0055094E-2,1.3260934E-2,3.893148E-2,-7.694166E-3],"categories":[],"categories_nodes":[],"categories_segments":[],"categories_sizes":[],"default_left":[0,0,0,0,0,0,0,0,0,0,0,0,0,0,0,0,0,0,0,0,0,0,0,0,0,0,0,0,0,0,0,0,0,0,0],"id":29,"left_children":[1,3,5,7,-1,9,11,-1,13,15,17,19,21,23,25,-1,27,29,-1,-1,31,33,-1,-1,-1,-1,-1,-1,-1,-1,-1,-1,-1,-1,-1],"loss_changes":[1.3845862E1,1.6879322E1,6.5554E0,6.09729E0,0E0,1.9998951E0,1.5819867E0,0E0,1.6943146E0,2.4973136E-1,1.2170944E0,1.1000814E0,4.893565E-2,1.6871263E0,2.4141514E-1,0E0,4.5746505E-1,1.0206108E0,0E0,0E0,2.2328682E0,2.2088492E-1,0E0,0E0,0E0,0E0,0E0,0E0,0E0,0E0,0E0,0E0,0E0,0E0,0E0],"parents":[2147483647,0,0,1,1,2,2,3,3,5,5,6,6,8,8,9,9,10,10,11,11,12,12,13,13,14,14,16,16,17,17,20,20,21,21],"right_children":[2,4,6,8,-1,10,12,-1,14,16,18,20,22,24,26,-1,28,30,-1,-1,32,34,-1,-1,-1,-1,-1,-1,-1,-1,-1,-1,-1,-1,-1],"split_conditions":[9.1173446E-1,1.1264013E-1,9.7096646E-1,-8.9618456E-1,4.805175E-2,-1.7117972E0,2.1633022E0,-5.5959698E-2,2.2438722E0,3.2236692E-1,3.9778452E0,-9.152199E-1,-1.5597234E0,-4.6507952E-1,4.7601547E0,5.0969847E-2,-2.2694013E0,-9.651226E-1,3.8416218E-2,4.3573707E-2,-1.5485059E-1,-1.9362873E0,5.3476688E-2,8.2014315E-3,-1.0161287E-2,-6.07309E-2,-7.2953883E-3,3.3533067E-2,-2.4799787E-2,-5.1480502E-2,-2.5934113E-2,-5.0055094E-2,1.3260934E-2,3.893148E-2,-7.694166E-3],"split_indices":[4,2,2,2,0,0,2,0,7,2,7,0,0,2,6,0,0,2,0,0,0,0,0,0,0,0,0,0,0,0,0,0,0,0,0],"split_type":[0,0,0,0,0,0,0,0,0,0,0,0,0,0,0,0,0,0,0,0,0,0,0,0,0,0,0,0,0,0,0,0,0,0,0],"sum_hessian":[6.591457E2,3.1844943E2,3.406963E2,2.3953052E2,7.8918915E1,2.993856E2,4.1310703E1,2.039439E1,2.1913612E2,5.5616913E0,2.9382388E2,3.0708914E1,1.0601792E1,2.1367664E2,5.4594893E0,2.0647209E0,3.4969702E0,2.9183267E2,1.9912331E0,4.8286777E0,2.5880236E1,2.8253722E0,7.7764196E0,1.3575745E2,7.79192E1,4.085093E0,1.3743961E0,2.0037193E0,1.4932507E0,1.6889742E1,2.749429E2,6.702186E0,1.917805E1,1.6242213E0,1.201151E0],"tree_param":{"num_deleted":"0","num_feature":"10","num_nodes":"35","size_leaf_vector":"1"}},{"base_weights":[7.01149E-2,-1.8589245E-1,3.889476E-1,-4.484881E-2,-3.1406075E-1,2.1088828E-1,5.205146E-1,-6.357182E-2,3.267976E-1,-4.3663204E-1,-1.7973372E-1,1.3747883E-1,4.3102086E-1,4.1314033E-1,5.7336956E-2,1.0136828E-1,-9.2524715E-2,5.302703E-1,-4.3472897E-2,7.3353252E-3,-4.4305092E-1,-6.326474E-2,-6.636048E-2,2.8724274E-1,-1.3689846E-2,8.789439E-2,5.4938316E-1,5.5829402E-2,2.285682E-1,-4.6440624E-2,1.9212155E-2,-5.0378937E-2,-5.440294E-3,1.225884E-2,6.024853E-2,-4.8808243E-2,-3.540029E-2,3.5038379E-3,-5.2542936E-2,3.167168E-2,-4.288944E-2,-8.645578E-3,4.797027E-2,2.4699083E-2,-5.074053E-2,1.9228024E-2,5.820325E-2,-3.89743E-2,3.3311147E-2],"categories":[],"categories_nodes":[],"categories_segments":[],"categories_sizes":[],"default_left":[0,0,0,0,0,0,0,0,0,0,0,0,0,0,0,0,0,0,0,0,0,0,0,0,0,0,0,0,0,0,0,0,0,0,0,0,0,0,0,0,0,0,0,0,0,0,0,0,0],"id":30,"left_children":[1,3,5,7,9,11,13,15,17,19,21,23,25,27,-1,29,31,33,-1,-1,35,-1,37,39,41,43,45,-1,47,-1,-1,-1,-1,-1,-1,-1,-1,-1,-1,-1,-1,-1,-1,-1,-1,-1,-1,-1,-1],"loss_changes":[5.284954E1,6.481227E0,6.6438484E0,1.2191961E0,3.018177E0,1.947474E0,7.001343E-1,7.9640317E-1,1.5357128E0,3.521366E-1,4.653096E0,2.1454916E0,1.1939445E0,1.4274178E0,0E0,1.3773117E0,2.178792E0,1.3510454E-1,0E0,0E0,2.144661E-1,0E0,3.4745474E0,1.1397731E0,1.7658706E0,9.810635E-1,1.5101862E-1,0E0,1.8909401E0,0E0,0E0,0E0,0E0,0E0,0E0,0E0,0E0,0E0,0E0,0E0,0E0,0E0,0E0,0E0,0E0,0E0,0E0,0E0,0E0],"parents":[2147483647,0,0,1,1,2,2,3,3,4,4,5,5,6,6,7,7,8,8,9,9,10,10,11,11,12,12,13,13,15,15,16,16,17,17,20,20,22,22,23,23,24,24,25,25,26,26,28,28],"right_children":[2,4,6,8,10,12,14,16,18,20,22,24,26,28,-1,30,32,34,-1,-1,36,-1,38,40,42,44,46,-1,48,-1,-1,-1,-1,-1,-1,-1,-1,-1,-1,-1,-1,-1,-1,-1,-1,-1,-1,-1,-1],"split_conditions":[9.6044207E-1,-2.5049794E-1,9.1173446E-1,1.0327739E0,9.1173446E-1,-4.291541E-1,-4.7576004E-1,-6.400386E-1,1.4310626E0,-6.80415E0,5.535364E-2,-7.5539577E-1,-7.8487086E-1,-8.505496E-1,5.7336956E-2,-6.990802E-1,-4.3003187E-1,1.1486397E0,-4.3472897E-2,7.3353252E-3,9.195057E-1,-6.326474E-2,2.121551E0,2.6981416E-1,6.344852E-1,-8.645286E-1,-3.6604187E-1,5.5829402E-2,-8.301595E-1,-4.6440624E-2,1.9212155E-2,-5.0378937E-2,-5.440294E-3,1.225884E-2,6.024853E-2,-4.8808243E-2,-3.540029E-2,3.5038379E-3,-5.2542936E-2,3.167168E-2,-4.288944E-2,-8.645578E-3,4.797027E-2,2.4699083E-2,-5.074053E-2,1.9228024E-2,5.820325E-2,-3.89743E-2,3.3311147E-2],"split_indices":[5,2,4,0,4,2,2,0,0,9,2,2,0,2,0,2,0,0,0,0,2,0,2,3,0,0,2,0,2,0,0,0,0,0,0,0,0,0,0,0,0,0,0,0,0,0,0,0,0],"split_type":[0,0,0,0,0,0,0,0,0,0,0,0,0,0,0,0,0,0,0,0,0,0,0,0,0,0,0,0,0,0,0,0,0,0,0,0,0,0,0,0,0,0,0,0,0,0,0,0,0],"sum_hessian":[6.4559357E2,3.5830713E2,2.8728647E2,1.7122804E2,1.8707909E2,1.2318033E2,1.6410612E2,1.6380473E2,7.4233E0,9.664318E1,9.043591E1,9.359346E1,2.9586868E1,5.704211E1,1.0706402E2,2.4086517E1,1.3971822E2,6.097721E0,1.3255789E0,1.0716543E0,9.5571526E1,1.7188705E1,7.324721E1,4.6563004E1,4.7030457E1,8.0353565E0,2.155151E1,3.0797297E1,2.6244816E1,2.7603965E0,2.132612E1,1.0816171E1,1.2890205E2,1.3235142E0,4.774207E0,6.049708E1,3.5074444E1,6.0752014E1,1.24951935E1,4.5258057E1,1.3049438E0,4.17046E1,5.3258557E0,6.8024664E0,1.2328905E0,2.3824656E0,1.9169044E1,3.401126E0,2.284369E1],"tree_param":{"num_deleted":"0","num_feature":"10","num_nodes":"49","size_leaf_vector":"1"}},{"base_weights":[-8.2416534E-2,1.6499364E-1,-4.028862E-1,-4.9753953E-2,3.2191235E-1,-2.842558E-1,-5.618208E-1,-2.3437304E-2,-3.8319594E-1,3.0123848E-1,5.5305626E-2,-4.8289043E-1,-1.9291076E-1,-4.3077415E-1,-5.7928592E-2,4.9396574E-1,-4.3301433E-2,6.511478E-3,-5.396524E-1,4.1516772E-1,2.4762926E-1,1.4034684E-2,-4.9829447E-1,-4.3541647E-2,-2.889067E-1,6.456927E-2,-5.2388787E-2,6.1653037E-2,2.1196434E-2,-1.0517549E-2,8.908181E-3,-2.3052627E-2,2.802225E-2,-6.984096E-2,-1.923809E-2,-9.521223E-3,5.0579704E-2,-4.076929E-2,2.753664E-2,-5.1127113E-2,-2.7737617E-2,-1.7822472E-2,1.6937226E-2,-1.9545099E-2,-4.2115815E-2,-3.523347E-2,4.4330794E-2],"categories":[],"categories_nodes":[],"categories_segments":[],"categories_sizes":[],"default_left":[0,0,0,0,0,0,0,0,0,0,0,0,0,0,0,0,0,0,0,0,0,0,0,0,0,0,0,0,0,0,0,0,0,0,0,0,0,0,0,0,0,0,0,0,0,0,0],"id":31,"left_children":[1,3,5,7,9,11,13,15,17,19,-1,21,23,25,-1,27,29,31,33,35,37,-1,39,41,43,45,-1,-1,-1,-1,-1,-1,-1,-1,-1,-1,-1,-1,-1,-1,-1,-1,-1,-1,-1,-1,-1],"loss_changes":[5.150014E1,1.2375985E1,5.174446E0,1.3575168E0,8.467674E-1,2.8828716E0,2.4856567E-2,1.5157621E0,6.941018E-1,1.0994759E0,0E0,5.5957127E-1,1.6223078E0,8.6404395E-1,0E0,5.790758E-2,1.1638398E0,3.3921224E-1,3.1185532E-1,2.89332E0,2.5904598E0,0E0,1.5010834E-3,1.3431295E0,7.733741E-1,7.4648887E-1,0E0,0E0,0E0,0E0,0E0,0E0,0E0,0E0,0E0,0E0,0E0,0E0,0E0,0E0,0E0,0E0,0E0,0E0,0E0,0E0,0E0],"parents":[2147483647,0,0,1,1,2,2,3,3,4,4,5,5,6,6,7,7,8,8,9,9,11,11,12,12,13,13,15,15,16,16,17,17,18,18,19,19,20,20,22,22,23,23,24,24,25,25],"right_children":[2,4,6,8,10,12,14,16,18,20,-1,22,24,26,-1,28,30,32,34,36,38,-1,40,42,44,46,-1,-1,-1,-1,-1,-1,-1,-1,-1,-1,-1,-1,-1,-1,-1,-1,-1,-1,-1,-1,-1],"split_conditions":[9.6044207E-1,-3.5341942E-1,-3.6604187E-1,9.241497E-1,2.4817762E0,-8.602592E-1,-7.8487086E-1,-9.282262E-1,-6.5830004E-1,5.535364E-2,5.5305626E-2,-2.4911866E0,-4.6226393E-2,-2.4370123E-1,-5.7928592E-2,-9.4861627E-1,-5.621753E-1,-6.990802E-1,1.2500222E0,-1.0021192E0,1.1264013E-1,1.4034684E-2,7.5035095E-1,-2.6347476E-1,-5.5537856E-1,-2.9807484E-1,-5.2388787E-2,6.1653037E-2,2.1196434E-2,-1.0517549E-2,8.908181E-3,-2.3052627E-2,2.802225E-2,-6.984096E-2,-1.923809E-2,-9.521223E-3,5.0579704E-2,-4.076929E-2,2.753664E-2,-5.1127113E-2,-2.7737617E-2,-1.7822472E-2,1.6937226E-2,-1.9545099E-2,-4.2115815E-2,-3.523347E-2,4.4330794E-2],"split_indices":[5,2,2,0,2,2,0,2,2,2,0,1,0,2,0,2,2,2,0,0,2,0,0,0,2,2,0,0,0,0,0,0,0,0,0,0,0,0,0,0,0,0,0,0,0,0,0],"split_type":[0,0,0,0,0,0,0,0,0,0,0,0,0,0,0,0,0,0,0,0,0,0,0,0,0,0,0,0,0,0,0,0,0,0,0,0,0,0,0,0,0,0,0,0,0,0,0],"sum_hessian":[6.4769867E2,3.6578732E2,2.8191132E2,1.5472491E2,2.110624E2,1.6302003E2,1.18891304E2,1.4439865E2,1.0326263E1,1.9584863E2,1.5213767E1,5.0001877E1,1.1301816E2,1.6999958E1,1.0189134E2,4.4563527E0,1.399423E2,3.2326486E0,7.0936146E0,6.0509888E1,1.3533875E2,1.0104103E0,4.8991467E1,4.47856E1,6.823255E1,2.738473E0,1.4261485E1,2.2794027E0,2.17695E0,9.550851E1,4.44338E1,1.8169332E0,1.4157155E0,4.174215E0,2.9193997E0,9.116974E0,5.1392914E1,4.9394712E0,1.3039928E2,4.5032E1,3.959463E0,2.7532362E1,1.7253237E1,4.1432247E1,2.6800306E1,1.3367428E0,1.4017302E0],"tree_param":{"num_deleted":"0","num_feature":"10","num_nodes":"47","size_leaf_vector":"1"}},{"base_weights":[7.780066E-2,-1.4336409E-1,3.6934564E-1,-2.0887722E-1,-6.097211E-2,1.6701089E-1,5.2728206E-2,2.7984503E-1,-2.209514E-1,-4.5613587E-2,-5.966253E-2,1.2107474E-1,3.343224E-1,-3.2945E-2,5.4676395E-2,-1.9853407E-1,-4.8213068E-1,-4.335101E-2,-2.804624E-2,1.3856414E-1,-3.9463367E-2,3.6918136E-1,3.0383326E-3,7.287517E-3,-1.1102839E-2,-2.187792E-2,2.1270072E-2,-5.3892504E-2,-2.5722248E-2,-9.3558505E-3,3.0972816E-3,1.1567809E-2,5.269856E-2,3.0272627E-2,5.237825E-2],"categories":[],"categories_nodes":[],"categories_segments":[],"categories_sizes":[],"default_left":[0,0,0,0,0,0,0,0,0,0,0,0,0,0,0,0,0,0,0,0,0,0,0,0,0,0,0,0,0,0,0,0,0,0,0],"id":32,"left_children":[1,3,5,7,9,11,-1,13,15,17,-1,19,21,23,-1,25,27,-1,29,31,-1,33,-1,-1,-1,-1,-1,-1,-1,-1,-1,-1,-1,-1,-1],"loss_changes":[3.9943913E1,1.8900442E0,8.448929E0,1.2181692E0,1.2689621E0,8.708589E-1,0E0,4.4929984E-1,1.0272179E0,1.0389209E0,0E0,9.0793335E-1,2.533939E-1,3.5537496E-2,0E0,1.5312414E0,4.608774E-2,0E0,5.775794E-1,7.58988E-1,0E0,7.0709705E-2,0E0,0E0,0E0,0E0,0E0,0E0,0E0,0E0,0E0,0E0,0E0,0E0,0E0],"parents":[2147483647,0,0,1,1,2,2,3,3,4,4,5,5,7,7,8,8,9,9,11,11,12,12,13,13,15,15,16,16,18,18,19,19,21,21],"right_children":[2,4,6,8,10,12,-1,14,16,18,-1,20,22,24,-1,26,28,-1,30,32,-1,34,-1,-1,-1,-1,-1,-1,-1,-1,-1,-1,-1,-1,-1],"split_conditions":[9.6044207E-1,9.1173446E-1,9.1173446E-1,-1.3910283E0,3.244044E-1,4.8965293E-1,5.2728206E-2,-4.7915177E0,1.4310626E0,-1.6393812E0,-5.966253E-2,4.6068648E-1,1.2789887E0,-2.442735E-1,5.4676395E-2,1.10519E0,2.8576603E0,-4.335101E-2,4.464892E-3,1.0484982E0,-3.9463367E-2,9.458745E-1,3.0383326E-3,7.287517E-3,-1.1102839E-2,-2.187792E-2,2.1270072E-2,-5.3892504E-2,-2.5722248E-2,-9.3558505E-3,3.0972816E-3,1.1567809E-2,5.269856E-2,3.0272627E-2,5.237825E-2],"split_indices":[5,4,4,1,8,0,0,1,0,0,0,0,0,3,0,0,0,0,0,8,0,0,0,0,0,0,0,0,0,0,0,0,0,0,0],"split_type":[0,0,0,0,0,0,0,0,0,0,0,0,0,0,0,0,0,0,0,0,0,0,0,0,0,0,0,0,0,0,0,0,0,0,0],"sum_hessian":[6.1766144E2,3.5151328E2,2.6614816E2,1.949587E2,1.5655458E2,1.17576515E2,1.4857166E2,4.165755E0,1.9079294E2,1.532458E2,3.308787E0,9.360146E1,2.3975056E1,2.3216698E0,1.844085E0,1.7733243E2,1.3460507E1,5.613767E0,1.4763203E2,9.123857E1,2.3628924E0,2.1315691E1,2.6593657E0,1.0140753E0,1.3075945E0,1.69458E2,7.874443E0,9.632008E0,3.8285003E0,6.9689804E1,7.794223E1,8.738746E1,3.851113E0,1.6976482E1,4.339207E0],"tree_param":{"num_deleted":"0","num_feature":"10","num_nodes":"35","size_leaf_vector":"1"}},{"base_weights":[-7.6894246E-2,4.619954E-2,-1.9731127E-1,-4.97287E-2,3.9373147E-1,-2.2581552E-1,3.82712E-1,-4.9520098E-2,-9.765336E-3,4.840254E-1,2.8916803E-1,2.3572694E-1,-2.3604204E-1,4.2851356E-1,-8.90499E-3,4.672789E-3,-5.1321167E-1,2.0448219E-3,4.9929038E-1,1.2927379E-1,5.3047508E-2,4.671568E-2,6.696956E-2,-5.236115E-2,-2.2213879E-1,2.8337893E-1,5.4454546E-2,-7.089596E-4,5.7816725E-2,-1.1198248E-2,-6.0945697E-2,1.7670488E-2,5.1172625E-2,2.5838269E-2,-8.678136E-3,3.3347603E-2,-1.8980544E-2,-2.2989433E-2,2.0245098E-2,4.0732276E-2,-2.780293E-2],"categories":[],"categories_nodes":[],"categories_segments":[],"categories_sizes":[],"default_left":[0,0,0,0,0,0,0,0,0,0,0,0,0,0,0,0,0,0,0,0,0,0,0,0,0,0,0,0,0,0,0,0,0,0,0,0,0,0,0,0,0],"id":33,"left_children":[1,3,5,7,9,11,13,-1,15,17,19,21,23,25,-1,27,29,-1,31,33,-1,-1,35,-1,37,39,-1,-1,-1,-1,-1,-1,-1,-1,-1,-1,-1,-1,-1,-1,-1],"loss_changes":[9.289124E0,1.0367913E1,5.3219194E0,4.34161E0,4.9505043E-1,1.4832525E0,3.6668277E-1,0E0,1.6383761E0,2.3469257E-1,1.2297792E0,2.443215E-1,1.0687618E0,8.1968546E-2,0E0,1.4866886E0,1.7440546E-1,0E0,4.3811798E-2,6.238775E-1,0E0,0E0,4.2244965E-1,0E0,9.832897E-1,6.920871E-1,0E0,0E0,0E0,0E0,0E0,0E0,0E0,0E0,0E0,0E0,0E0,0E0,0E0,0E0,0E0],"parents":[2147483647,0,0,1,1,2,2,3,3,4,4,5,5,6,6,8,8,9,9,10,10,11,11,12,12,13,13,15,15,16,16,18,18,19,19,22,22,24,24,25,25],"right_children":[2,4,6,8,10,12,14,-1,16,18,20,22,24,26,-1,28,30,-1,32,34,-1,-1,36,-1,38,40,-1,-1,-1,-1,-1,-1,-1,-1,-1,-1,-1,-1,-1,-1,-1],"split_conditions":[9.1173446E-1,1.6507183E-1,2.0632935E0,-8.9618456E-1,7.690073E-1,-1.7117972E0,1.3731296E0,-4.9520098E-2,2.4852338E0,-2.4214752E0,2.3963318E0,2.9906395E-1,-9.7386116E-1,-2.4501558E-2,-8.90499E-3,7.839018E-1,-3.7907562E-1,2.0448219E-3,1.747814E-1,6.924181E-1,5.3047508E-2,4.671568E-2,-2.2694013E0,-5.236115E-2,1.9499215E0,-2.6347476E-1,5.4454546E-2,-7.089596E-4,5.7816725E-2,-1.1198248E-2,-6.0945697E-2,1.7670488E-2,5.1172625E-2,2.5838269E-2,-8.678136E-3,3.3347603E-2,-1.8980544E-2,-2.2989433E-2,2.0245098E-2,4.0732276E-2,-2.780293E-2],"split_indices":[4,2,2,2,2,0,0,0,7,0,2,2,2,0,0,3,9,0,2,0,0,0,0,0,9,0,0,0,0,0,0,0,0,0,0,0,0,0,0,0,0],"split_type":[0,0,0,0,0,0,0,0,0,0,0,0,0,0,0,0,0,0,0,0,0,0,0,0,0,0,0,0,0,0,0,0,0,0,0,0,0,0,0,0,0],"sum_hessian":[6.2507214E2,3.0940533E2,3.1566684E2,2.4314706E2,6.625827E1,3.0146265E2,1.4204193E1,1.9079226E1,2.2406784E2,3.3607822E1,3.265045E1,6.0568004E0,2.9540585E2,1.303076E1,1.1734328E0,2.1878413E2,5.2836995E0,1.1459644E0,3.2461857E1,2.0561659E1,1.2088793E1,1.8084792E0,4.248321E0,1.1932733E1,2.834731E2,7.3186827E0,5.7120776E0,2.1535484E2,3.4292948E0,1.4407954E0,3.842904E0,1.769536E0,3.0692322E1,1.2747924E1,7.813736E0,1.9380805E0,2.3102405E0,2.788384E2,4.6346993E0,6.2199483E0,1.0987344E0],"tree_param":{"num_deleted":"0","num_feature":"10","num_nodes":"41","size_leaf_vector":"1"}},{"base_weights":[5.807728E-2,-7.159262E-2,1.9185042E-1,1.1850463E-2,-4.138463E-1,2.1584944E-1,-3.41524E-1,4.7974776E-2,-2.6713194E-2,-4.245938E-1,-1.05727516E-1,-2.4778418E-1,2.2595179E-1,7.203072E-3,-4.5374453E-1,-4.7036063E-2,6.692155E-2,-1.6458046E-1,-4.352236E-1,1.4164989E-2,-3.0512908E-2,-3.0499457E-3,-3.3462375E-2,2.4944843E-1,7.5739354E-2,-2.5989014E-1,-5.2887578E-2,3.8504373E-2,-6.439498E-3,1.683741E-2,-3.5970673E-2,-3.81278E-2,-5.044202E-2,1.7142216E-2,3.1967163E-2,2.4145331E-2,-1.3610694E-2,-2.7362716E-3,-4.2445462E-2],"categories":[],"categories_nodes":[],"categories_segments":[],"categories_sizes":[],"default_left":[0,0,0,0,0,0,0,0,0,0,0,0,0,0,0,0,0,0,0,0,0,0,0,0,0,0,0,0,0,0,0,0,0,0,0,0,0,0,0],"id":34,"left_children":[1,3,5,7,9,11,13,-1,15,17,19,21,23,-1,25,27,-1,29,31,-1,-1,-1,-1,33,35,37,-1,-1,-1,-1,-1,-1,-1,-1,-1,-1,-1,-1,-1],"loss_changes":[1.0547035E1,8.831669E0,3.9031029E0,4.5140877E0,1.5582275E-1,1.3997259E0,6.4845586E-1,0E0,3.304449E0,8.933067E-2,2.0967655E-1,1.142323E-1,9.7394085E-1,0E0,1.6546011E-2,1.7182714E0,0E0,3.136435E-1,1.4256477E-2,0E0,0E0,0E0,0E0,1.2756262E0,1.419035E0,1.766325E-1,0E0,0E0,0E0,0E0,0E0,0E0,0E0,0E0,0E0,0E0,0E0,0E0,0E0],"parents":[2147483647,0,0,1,1,2,2,3,3,4,4,5,5,6,6,8,8,9,9,10,10,11,11,12,12,14,14,15,15,17,17,18,