{"learner":{"attributes":{},"feature_names":[],"feature_types":[],"gradient_booster":{"model":{"gbtree_model_param":{"num_parallel_tree":"1","num_trees":"400"},"iteration_indptr":[0,2,4,6,8,10,12,14,16,18,20,22,24,26,28,30,32,34,36,38,40,42,44,46,48,50,52,54,56,58,60,62,64,66,68,70,72,74,76,78,80,82,84,86,88,90,92,94,96,98,100,102,104,106,108,110,112,114,116,118,120,122,124,126,128,130,132,134,136,138,140,142,144,146,148,150,152,154,156,158,160,162,164,166,168,170,172,174,176,178,180,182,184,186,188,190,192,194,196,198,200,202,204,206,208,210,212,214,216,218,220,222,224,226,228,230,232,234,236,238,240,242,244,246,248,250,252,254,256,258,260,262,264,266,268,270,272,274,276,278,280,282,284,286,288,290,292,294,296,298,300,302,304,306,308,310,312,314,316,318,320,322,324,326,328,330,332,334,336,338,340,342,344,346,348,350,352,354,356,358,360,362,364,366,368,370,372,374,376,378,380,382,384,386,388,390,392,394,396,398,400],"tree_info":[0,1,0,1,0,1,0,1,0,1,0,1,0,1,0,1,0,1,0,1,0,1,0,1,0,1,0,1,0,1,0,1,0,1,0,1,0,1,0,1,0,1,0,1,0,1,0,1,0,1,0,1,0,1,0,1,0,1,0,1,0,1,0,1,0,1,0,1,0,1,0,1,0,1,0,1,0,1,0,1,0,1,0,1,0,1,0,1,0,1,0,1,0,1,0,1,0,1,0,1,0,1,0,1,0,1,0,1,0,1,0,1,0,1,0,1,0,1,0,1,0,1,0,1,0,1,0,1,0,1,0,1,0,1,0,1,0,1,0,1,0,1,0,1,0,1,0,1,0,1,0,1,0,1,0,1,0,1,0,1,0,1,0,1,0,1,0,1,0,1,0,1,0,1,0,1,0,1,0,1,0,1,0,1,0,1,0,1,0,1,0,1,0,1,0,1,0,1,0,1,0,1,0,1,0,1,0,1,0,1,0,1,0,1,0,1,0,1,0,1,0,1,0,1,0,1,0,1,0,1,0,1,0,1,0,1,0,1,0,1,0,1,0,1,0,1,0,1,0,1,0,1,0,1,0,1,0,1,0,1,0,1,0,1,0,1,0,1,0,1,0,1,0,1,0,1,0,1,0,1,0,1,0,1,0,1,0,1,0,1,0,1,0,1,0,1,0,1,0,1,0,1,0,1,0,1,0,1,0,1,0,1,0,1,0,1,0,1,0,1,0,1,0,1,0,1,0,1,0,1,0,1,0,1,0,1,0,1,0,1,0,1,0,1,0,1,0,1,0,1,0,1,0,1,0,1,0,1,0,1,0,1,0,1,0,1,0,1,0,1,0,1,0,1,0,1,0,1,0,1,0,1,0,1,0,1,0,1,0,1,0,1,0,1,0,1,0,1,0,1],"trees":[{"base_weights":[2.2015916E-1,-3.4448162E-1,7.313131E-1,-9.3939394E-2,-2.7E-1,8.663102E-1,3.114754E-1,-1.9252874E-1,-7.735849E-1,9.776287E-2,6.9636965E-1,6E-1,-1.8681319E-1,2.551724E-1,-3.0922243E-1,-0E0,-8.2E-1,9.814815E-2,5.329949E-1,6.621622E-1,-5.555556E-1,1.1111111E-1,-5.897436E-1,9.411765E-2,4.4247787E-3,-2.029703E-2,-5.89404E-2,-5E-2,3.3333335E-2,-6.0869563E-2,-9.642857E-2,2.8947368E-2,6.747968E-2,1.1111111E-2,7.272728E-2,-7.1428575E-2,-0E0,3.6842104E-2,-4.4444446E-2,2.5E-2,-7.575758E-2],"categories":[],"categories_nodes":[],"categories_segments":[],"categories_sizes":[],"default_left":[0,0,0,0,0,0,0,0,0,0,0,0,0,0,0,0,0,0,0,0,0,0,0,0,0,0,0,0,0,0,0,0,0,0,0,0,0,0,0,0,0],"id":0,"left_children":[1,3,5,-1,7,9,11,13,15,-1,17,19,21,23,25,27,29,-1,31,33,35,37,39,-1,-1,-1,-1,-1,-1,-1,-1,-1,-1,-1,-1,-1,-1,-1,-1,-1,-1],"loss_changes":[2.7227475E2,1.9619411E1,2.7785187E1,0E0,1.5456409E1,6.3943787E0,1.7651846E1,1.825978E1,1.903017E0,0E0,6.53376E0,5.9348354E0,5.5274725E0,1.0448753E1,8.111742E0,8.333334E-1,9.374542E-1,0E0,3.2060413E0,2.574257E0,3.9682543E-1,4.0233917E0,2.937646E0,0E0,0E0,0E0,0E0,0E0,0E0,0E0,0E0,0E0,0E0,0E0,0E0,0E0,0E0,0E0,0E0,0E0,0E0],"parents":[2147483647,0,0,1,1,2,2,4,4,5,5,6,6,7,7,8,8,10,10,11,11,12,12,13,13,14,14,15,15,16,16,18,18,19,19,20,20,21,21,22,22],"right_children":[2,4,6,-1,8,10,12,14,16,-1,18,20,22,24,26,28,30,-1,32,34,36,38,40,-1,-1,-1,-1,-1,-1,-1,-1,-1,-1,-1,-1,-1,-1,-1,-1,-1,-1],"split_conditions":[9.6044207E-1,-2.0911362E0,4.9205688E-1,-9.3939394E-2,9.777855E-1,2.7127114E-1,-6.6509676E-1,-5.621753E-1,-6.3908154E-1,9.776287E-2,-8.602592E-1,1.0057621E0,6.2452835E-1,5.582926E-1,4.9205688E-1,6.2397793E-2,1.0660998E0,9.814815E-2,-4.8935345E-1,-3.240546E-1,-7.913212E-1,-2.854524E-1,-1.578275E-1,9.411765E-2,4.4247787E-3,-2.029703E-2,-5.89404E-2,-5E-2,3.3333335E-2,-6.0869563E-2,-9.642857E-2,2.8947368E-2,6.747968E-2,1.1111111E-2,7.272728E-2,-7.1428575E-2,-0E0,3.6842104E-2,-4.4444446E-2,2.5E-2,-7.575758E-2],"split_indices":[12,10,10,0,10,10,1,1,7,0,1,6,10,10,10,0,10,0,1,6,1,1,6,0,0,0,0,0,0,0,0,0,0,0,0,0,0,0,0,0,0],"split_type":[0,0,0,0,0,0,0,0,0,0,0,0,0,0,0,0,0,0,0,0,0,0,0,0,0,0,0,0,0,0,0,0,0,0,0,0,0,0,0,0,0],"sum_hessian":[9.415E2,4.475E2,4.94E2,4.85E1,3.99E2,3.73E2,1.21E2,3.47E2,5.2E1,2.225E2,1.505E2,7.65E1,4.45E1,7.15E1,2.755E2,3E0,4.9E1,5.3E1,9.75E1,7.3E1,3.5E0,2.6E1,1.85E1,1.6E1,5.55E1,2.01E2,7.45E1,1E0,2E0,2.2E1,2.7E1,3.7E1,6.05E1,8E0,6.5E1,2.5E0,1E0,1.8E1,8E0,3E0,1.55E1],"tree_param":{"num_deleted":"0","num_feature":"14","num_nodes":"41","size_leaf_vector":"1"}},{"base_weights":[-1.9764957E-1,3.6807096E-1,-7.222222E-1,5.828678E-1,5.1771116E-2,-4.031746E-1,-8.7253416E-1,-6E-1,6.030246E-1,-7.0063695E-2,7.4545455E-1,-6.781609E-1,-2.9565218E-1,-7.771261E-1,-9.6875004E-2,-0E0,-7.5E-2,-1.764706E-1,6.264591E-1,2.5270758E-2,-7.4358976E-1,7.735849E-1,-0E0,-8.095238E-1,-3.0769232E-1,2.5E-1,-3.125E-1,-9.6407187E-1,-5.9090906E-1,-5.3846158E-2,6.666667E-2,3.740458E-2,7.090909E-2,-1.5508021E-2,3.9130434E-2,1.4285715E-2,-8.82353E-2,3.846154E-2,8.571429E-2,-8.360656E-2,-0E0,-5.2380957E-2,4.2857144E-2,6.0000002E-2,-2.0000001E-2,-6.363636E-2,-2.7450982E-2,-4.2857144E-2,-9.7530864E-2,-3.4146342E-2,-7.916667E-2],"categories":[],"categories_nodes":[],"categories_segments":[],"categories_sizes":[],"default_left":[0,0,0,0,0,0,0,0,0,0,0,0,0,0,0,0,0,0,0,0,0,0,0,0,0,0,0,0,0,0,0,0,0,0,0,0,0,0,0,0,0,0,0,0,0,0,0,0,0,0,0],"id":1,"left_children":[1,3,5,7,9,11,13,15,17,19,21,23,25,27,-1,-1,-1,29,31,33,35,37,-1,39,41,43,45,47,49,-1,-1,-1,-1,-1,-1,-1,-1,-1,-1,-1,-1,-1,-1,-1,-1,-1,-1,-1,-1,-1,-1],"loss_changes":[2.780346E2,3.0610863E1,2.295514E1,6.763611E0,1.5560693E1,4.456333E0,2.2718964E0,4.5000005E-1,4.942215E0,1.0099798E1,5.7667255E-1,1.8678799E0,1.1353264E0,5.3658524E0,0E0,0E0,0E0,2.953243E0,5.095108E0,9.203694E0,2.5246716E0,5.316191E-1,0E0,6.7681503E-1,2.2930403E0,7.5E-1,1.2033195E0,8.44574E-2,4.136551E0,0E0,0E0,0E0,0E0,0E0,0E0,0E0,0E0,0E0,0E0,0E0,0E0,0E0,0E0,0E0,0E0,0E0,0E0,0E0,0E0,0E0,0E0],"parents":[2147483647,0,0,1,1,2,2,3,3,4,4,5,5,6,6,7,7,8,8,9,9,10,10,11,11,12,12,13,13,17,17,18,18,19,19,20,20,21,21,23,23,24,24,25,25,26,26,27,27,28,28],"right_children":[2,4,6,8,10,12,14,16,18,20,22,24,26,28,-1,-1,-1,30,32,34,36,38,-1,40,42,44,46,48,50,-1,-1,-1,-1,-1,-1,-1,-1,-1,-1,-1,-1,-1,-1,-1,-1,-1,-1,-1,-1,-1,-1],"split_conditions":[9.6044207E-1,9.1173446E-1,9.1173446E-1,-9.2434233E-1,1.4059553E0,-8.369562E-1,-2.3593357E-1,-2.4899155E-1,-2.8821666E0,8.874641E-1,1.6410693E0,5.475388E-1,-8.2336277E-1,-6.922836E-1,-9.6875004E-2,-0E0,-7.5E-2,9.447506E-1,-5.495528E-1,1.9509853E-3,-1.3931663E0,2.0632935E0,-0E0,3.8684278E0,8.7765604E-1,-1.1440981E-1,-8.725646E-1,-7.1609604E-1,-4.3400887E-1,-5.3846158E-2,6.666667E-2,3.740458E-2,7.090909E-2,-1.5508021E-2,3.9130434E-2,1.4285715E-2,-8.82353E-2,3.846154E-2,8.571429E-2,-8.360656E-2,-0E0,-5.2380957E-2,4.2857144E-2,6.0000002E-2,-2.0000001E-2,-6.363636E-2,-2.7450982E-2,-4.2857144E-2,-9.7530864E-2,-3.4146342E-2,-7.916667E-2],"split_indices":[12,13,13,1,1,1,1,0,5,1,0,4,1,1,0,0,0,1,1,1,0,1,0,9,7,5,4,5,1,0,0,0,0,0,0,0,0,0,0,0,0,0,0,0,0,0,0,0,0,0,0],"split_type":[0,0,0,0,0,0,0,0,0,0,0,0,0,0,0,0,0,0,0,0,0,0,0,0,0,0,0,0,0,0,0,0,0,0,0,0,0,0,0,0,0,0,0,0,0,0,0,0,0,0,0],"sum_hessian":[9.35E2,4.5E2,4.85E2,2.675E2,1.825E2,1.565E2,3.285E2,4E0,2.635E2,1.56E2,2.65E1,4.25E1,1.14E2,1.695E2,1.59E2,1E0,3E0,7.5E0,2.56E2,1.375E2,1.85E1,2.55E1,1E0,3.05E1,1.2E1,3E0,1.11E2,8.25E1,8.7E1,5.5E0,2E0,6.45E1,1.915E2,9.25E1,4.5E1,2.5E0,1.6E1,5.5E0,2E1,2.95E1,1E0,9.5E0,2.5E0,1.5E0,1.5E0,1E1,1.01E2,2.5E0,8E1,4E1,4.7E1],"tree_param":{"num_deleted":"0","num_feature":"14","num_nodes":"51","size_leaf_vector":"1"}},{"base_weights":[1.6660284E-1,-2.1850054E-1,4.8220724E-1,-1.3068051E-2,-6.0365266E-1,-8.798488E-2,5.424504E-1,4.7319436E-1,-4.393459E-1,4.4970787E-1,-6.5635437E-1,6.210555E-1,1.9813488E-1,7.1599776E-1,1.2181467E-1,-2.4539843E-1,-7.0987755E-1,7.4718006E-2,2.0731986E-3,-5.112578E-1,-8.199595E-1,-2.81781E-1,6.392372E-1,5.198546E-1,-2.2242092E-1,7.550434E-2,1.3860752E-2,8.598021E-2,-8.907225E-3,-4.6713813E-3,-8.6303845E-2,-5.2304905E-2,-8.953853E-2,-2.0452878E-2,2.0812076E-2,2.709747E-2,-6.0086954E-2,-8.479883E-2,-9.683813E-3,-7.833096E-2,3.3821423E-2,8.9834034E-2,5.945922E-2,6.319692E-2,-3.6871683E-2,4.141594E-2,-3.796434E-2],"categories":[],"categories_nodes":[],"categories_segments":[],"categories_sizes":[],"default_left":[0,0,0,0,0,0,0,0,0,0,0,0,0,0,0,0,0,0,0,0,0,0,0,0,0,0,0,0,0,0,0,0,0,0,0,0,0,0,0,0,0,0,0,0,0,0,0],"id":2,"left_children":[1,3,5,7,9,-1,11,13,15,17,19,21,23,25,27,29,31,-1,33,35,37,39,41,43,45,-1,-1,-1,-1,-1,-1,-1,-1,-1,-1,-1,-1,-1,-1,-1,-1,-1,-1,-1,-1,-1,-1],"loss_changes":[1.12111664E2,3.2888557E1,4.206189E1,5.6622993E1,8.322479E0,0E0,1.3029022E1,1.0800713E1,7.4624443E0,9.949224E-1,2.8594742E0,6.6667023E0,1.253456E1,1.5921478E0,8.3802185E0,1.0550078E1,1.6196766E0,0E0,2.1243662E-1,5.4800415E0,1.2000809E0,2.9063554E0,3.9501953E0,5.443658E0,4.2089806E0,0E0,0E0,0E0,0E0,0E0,0E0,0E0,0E0,0E0,0E0,0E0,0E0,0E0,0E0,0E0,0E0,0E0,0E0,0E0,0E0,0E0,0E0],"parents":[2147483647,0,0,1,1,2,2,3,3,4,4,6,6,7,7,8,8,9,9,10,10,11,11,12,12,13,13,14,14,15,15,16,16,18,18,19,19,20,20,21,21,22,22,23,23,24,24],"right_children":[2,4,6,8,10,-1,12,14,16,18,20,22,24,26,28,30,32,-1,34,36,38,40,42,44,46,-1,-1,-1,-1,-1,-1,-1,-1,-1,-1,-1,-1,-1,-1,-1,-1,-1,-1,-1,-1,-1,-1],"split_conditions":[9.1173446E-1,6.2452835E-1,-2.0911362E0,-1.3107018E-1,-9.2142946E-1,-8.798488E-2,6.024498E-1,-5.0100493E-1,9.903856E-1,8.0115694E-1,-5.621753E-1,-9.8896295E-1,-6.5830004E-1,6.024498E-1,5.0485402E-2,4.2582116E-1,2.3128295E0,7.4718006E-2,-9.3405193E-1,6.686855E-1,5.097617E-1,2.4919257E-1,-8.573463E-1,9.998641E-1,-1.578275E-1,7.550434E-2,1.3860752E-2,8.598021E-2,-8.907225E-3,-4.6713813E-3,-8.6303845E-2,-5.2304905E-2,-8.953853E-2,-2.0452878E-2,2.0812076E-2,2.709747E-2,-6.0086954E-2,-8.479883E-2,-9.683813E-3,-7.833096E-2,3.3821423E-2,8.9834034E-2,5.945922E-2,6.319692E-2,-3.6871683E-2,4.141594E-2,-3.796434E-2],"split_indices":[13,10,10,1,1,0,10,1,1,10,1,6,1,10,10,10,1,0,1,10,1,10,1,10,6,0,0,0,0,0,0,0,0,0,0,0,0,0,0,0,0,0,0,0,0,0,0],"split_type":[0,0,0,0,0,0,0,0,0,0,0,0,0,0,0,0,0,0,0,0,0,0,0,0,0,0,0,0,0,0,0,0,0,0,0,0,0,0,0,0,0,0,0,0,0,0,0],"sum_hessian":[9.205567E2,4.147647E2,5.05792E2,2.7116473E2,1.4359996E2,2.0847168E1,4.8494482E2,1.2661864E2,1.4454611E2,6.483327E0,1.3711664E2,3.9415744E2,9.0787384E1,7.426432E1,5.235432E1,8.530034E1,5.9245766E1,3.4929438E0,2.990383E0,7.485495E1,6.2261684E1,7.4948344E0,3.866626E2,5.1304214E1,3.948317E1,6.927215E1,4.992167E0,1.0951847E1,4.1402473E1,6.535299E1,1.9947348E1,3.1420809E1,2.7824959E1,1.4968631E0,1.4935198E0,7.4858756E0,6.736907E1,5.9772194E1,2.4894915E0,3.997639E0,3.4971952E0,5.4021297E1,3.326413E2,4.5812634E1,5.4915805E0,7.4964523E0,3.1986717E1],"tree_param":{"num_deleted":"0","num_feature":"14","num_nodes":"47","size_leaf_vector":"1"}},{"base_weights":[-1.842341E-1,3.2611036E-1,-6.5738916E-1,5.3994673E-1,1.1560047E-2,-7.873187E-1,-2.6371565E-1,-4.9707252E-1,5.612175E-1,8.761545E-2,-9.42827E-2,-8.987904E-2,-6.2415934E-1,1.3406327E-1,-7.4302965E-1,-7.5536184E-2,1.6748978E-2,-2.2846316E-1,5.864891E-1,3.1164907E-2,-7.299217E-1,-8.9880966E-2,-4.543813E-1,-1.1402676E-1,7.853658E-1,-2.7855587E-1,-8.1391925E-1,-5.6438215E-2,6.328591E-2,6.061802E-2,-2.7272776E-2,4.619461E-2,-1.5809707E-2,1.6850995E-2,-7.881546E-2,-2.1099789E-2,-5.949827E-2,-4.3442473E-2,5.1523615E-2,-1.9207729E-2,8.801018E-2,4.7408685E-2,-6.411171E-2,-8.3027035E-2,-1.815722E-2],"categories":[],"categories_nodes":[],"categories_segments":[],"categories_sizes":[],"default_left":[0,0,0,0,0,0,0,0,0,0,0,0,0,0,0,0,0,0,0,0,0,0,0,0,0,0,0,0,0,0,0,0,0,0,0,0,0,0,0,0,0,0,0,0,0],"id":3,"left_children":[1,3,5,7,9,11,13,15,17,-1,19,-1,21,23,25,-1,-1,27,29,31,33,-1,35,37,39,41,43,-1,-1,-1,-1,-1,-1,-1,-1,-1,-1,-1,-1,-1,-1,-1,-1,-1,-1],"loss_changes":[2.2898642E2,3.0696243E1,2.4955368E1,6.2723846E0,1.7080727E1,6.156967E0,2.3661095E1,1.1549416E0,5.4567566E0,0E0,1.3290832E1,0E0,6.7351685E0,1.1138509E1,1.6236687E0,0E0,0E0,2.9584594E0,4.542717E0,1.1481274E1,1.5698366E0,0E0,3.183424E0,1.0383425E1,1.9273958E0,2.7494035E0,3.479843E-1,0E0,0E0,0E0,0E0,0E0,0E0,0E0,0E0,0E0,0E0,0E0,0E0,0E0,0E0,0E0,0E0,0E0,0E0],"parents":[2147483647,0,0,1,1,2,2,3,3,4,4,5,5,6,6,7,7,8,8,10,10,12,12,13,13,14,14,17,17,18,18,19,19,20,20,22,22,23,23,24,24,25,25,26,26],"right_children":[2,4,6,8,10,12,14,16,18,-1,20,-1,22,24,26,-1,-1,28,30,32,34,-1,36,38,40,42,44,-1,-1,-1,-1,-1,-1,-1,-1,-1,-1,-1,-1,-1,-1,-1,-1,-1,-1],"split_conditions":[9.6044207E-1,9.1173446E-1,4.9205688E-1,-9.1560376E-1,-2.0911362E0,2.7127114E-1,9.1173446E-1,9.998641E-1,-2.8821666E0,8.761545E-2,8.476549E-1,-8.987904E-2,-8.699688E-1,-5.369304E-1,5.141355E-1,-7.5536184E-2,1.6748978E-2,9.903856E-1,3.8567195E0,2.7127114E-1,-1.9807434E0,-8.9880966E-2,-4.8935345E-1,7.349212E-1,-1.0438398E-1,1.0948849E-2,1.3158026E0,-5.6438215E-2,6.328591E-2,6.061802E-2,-2.7272776E-2,4.619461E-2,-1.5809707E-2,1.6850995E-2,-7.881546E-2,-2.1099789E-2,-5.949827E-2,-4.3442473E-2,5.1523615E-2,-1.9207729E-2,8.801018E-2,4.7408685E-2,-6.411171E-2,-8.3027035E-2,-1.815722E-2],"split_indices":[12,13,10,1,10,10,13,10,5,0,1,0,1,1,10,0,0,1,5,10,10,0,1,10,8,7,11,0,0,0,0,0,0,0,0,0,0,0,0,0,0,0,0,0,0],"split_type":[0,0,0,0,0,0,0,0,0,0,0,0,0,0,0,0,0,0,0,0,0,0,0,0,0,0,0,0,0,0,0,0,0,0,0,0,0,0,0,0,0,0,0,0,0],"sum_hessian":[9.464058E2,4.5545905E2,4.909468E2,2.707097E2,1.8474937E2,3.6836896E2,1.2257785E2,4.991436E0,2.6571823E2,1.9356297E1,1.6539308E2,2.1617076E2,1.521982E2,6.738001E1,5.5197838E1,3.496034E0,1.495402E0,7.99058E0,2.5772766E2,1.3892606E2,2.6467014E1,5.650153E1,9.5696655E1,4.9391167E1,1.7988846E1,7.9616923E0,4.7236145E1,5.996623E0,1.993957E0,2.5224142E2,5.4862347E0,4.1966007E1,9.696005E1,1.4957935E0,2.4971222E1,3.595633E1,5.974033E1,3.293267E1,1.6458498E1,1.4986758E0,1.649017E1,2.488402E0,5.473291E0,4.5740406E1,1.4957405E0],"tree_param":{"num_deleted":"0","num_feature":"14","num_nodes":"45","size_leaf_vector":"1"}},{"base_weights":[1.6898513E-1,-3.0279616E-1,6.218753E-1,-4.9052006E-1,-4.3940306E-2,7.5116277E-1,2.7731696E-1,-7.626066E-1,-3.8168406E-1,-8.110828E-2,4.4372145E-2,8.3648145E-2,6.102441E-1,-3.4643784E-2,6.6536397E-1,-8.276882E-2,-5.3246933E-1,-5.625472E-2,-5.6864053E-1,-5.6214653E-2,6.225537E-1,8.33271E-2,4.6504056E-1,2.6359475E-1,-5.1907516E-1,7.7059484E-1,4.2170376E-1,-6.365627E-2,-1.0254288E-2,8.716222E-2,-2.0575821E-2,7.226398E-2,-6.1296333E-2,-4.227101E-2,1.1162097E-2,-3.5181955E-2,7.188581E-2,1.6680604E-2,6.1216723E-2,6.039984E-2,-4.2017754E-2,-2.647079E-2,-8.480134E-2,4.352551E-2,8.3952956E-2,-1.5643379E-2,5.545461E-2],"categories":[],"categories_nodes":[],"categories_segments":[],"categories_sizes":[],"default_left":[0,0,0,0,0,0,0,0,0,0,0,0,0,0,0,0,0,0,0,0,0,0,0,0,0,0,0,0,0,0,0,0,0,0,0,0,0,0,0,0,0,0,0,0,0,0,0],"id":4,"left_children":[1,3,5,7,9,11,13,15,17,-1,19,-1,21,23,25,-1,27,29,31,33,35,-1,37,39,41,43,45,-1,-1,-1,-1,-1,-1,-1,-1,-1,-1,-1,-1,-1,-1,-1,-1,-1,-1,-1,-1],"loss_changes":[1.9854973E2,2.2106766E1,2.0906921E1,7.5224648E0,1.3078896E1,3.6264954E0,1.5870946E1,6.7341614E-1,1.155644E1,0E0,1.0130757E1,0E0,3.9344482E0,1.0759064E1,1.1722393E0,0E0,7.940736E-1,9.97408E0,7.3603096E0,9.199154E0,2.6746101E0,0E0,3.5439491E0,1.1000188E1,2.1478286E0,5.493431E-1,1.608994E0,0E0,0E0,0E0,0E0,0E0,0E0,0E0,0E0,0E0,0E0,0E0,0E0,0E0,0E0,0E0,0E0,0E0,0E0,0E0,0E0],"parents":[2147483647,0,0,1,1,2,2,3,3,4,4,5,5,6,6,7,7,8,8,10,10,12,12,13,13,14,14,16,16,17,17,18,18,19,19,20,20,22,22,23,23,24,24,25,25,26,26],"right_children":[2,4,6,8,10,12,14,16,18,-1,20,-1,22,24,26,-1,28,30,32,34,36,-1,38,40,42,44,46,-1,-1,-1,-1,-1,-1,-1,-1,-1,-1,-1,-1,-1,-1,-1,-1,-1,-1,-1,-1],"split_conditions":[9.6044207E-1,9.1173446E-1,4.699783E-1,5.0485402E-2,-2.0911362E0,2.7127114E-1,9.1173446E-1,8.109088E-1,4.699783E-1,-8.110828E-2,8.874641E-1,8.3648145E-2,-8.602592E-1,6.686855E-1,-6.6509676E-1,-8.276882E-2,2.4660194E-1,-5.495528E-1,-9.2434233E-1,2.7127114E-1,-1.1048479E0,8.33271E-2,-4.8935345E-1,-5.369304E-1,-7.641344E-1,5.3621405E-1,-6.301423E-1,-6.365627E-2,-1.0254288E-2,8.716222E-2,-2.0575821E-2,7.226398E-2,-6.1296333E-2,-4.227101E-2,1.1162097E-2,-3.5181955E-2,7.188581E-2,1.6680604E-2,6.1216723E-2,6.039984E-2,-4.2017754E-2,-2.647079E-2,-8.480134E-2,4.352551E-2,8.3952956E-2,-1.5643379E-2,5.545461E-2],"split_indices":[12,13,10,10,10,10,13,3,10,0,1,0,1,10,1,0,5,1,1,10,3,0,1,1,1,10,1,0,0,0,0,0,0,0,0,0,0,0,0,0,0,0,0,0,0,0,0],"split_type":[0,0,0,0,0,0,0,0,0,0,0,0,0,0,0,0,0,0,0,0,0,0,0,0,0,0,0,0,0,0,0,0,0,0,0,0,0,0,0,0,0,0,0,0,0,0,0],"sum_hessian":[9.2737537E2,4.5437683E2,4.7299854E2,2.628566E2,1.9152025E2,3.4308417E2,1.2991437E2,7.3386284E1,1.894703E2,1.89266E1,1.7259366E2,2.1062575E2,1.3245842E2,7.252246E1,5.7391907E1,5.5184044E1,1.8202238E1,6.960753E1,1.1986278E2,1.4778596E2,2.4807693E1,5.036347E1,8.209495E1,4.5169735E1,2.7352726E1,3.857132E1,1.882059E1,1.4267237E1,3.9350014E0,8.988886E0,6.061864E1,3.4698474E0,1.1639294E2,4.594319E1,1.0184277E2,1.9927329E0,2.281496E1,2.782526E1,5.4269688E1,3.0234634E1,1.49351E1,1.6442507E1,1.091022E1,7.8241215E0,3.0747198E1,3.4833329E0,1.53372555E1],"tree_param":{"num_deleted":"0","num_feature":"14","num_nodes":"47","size_leaf_vector":"1"}},{"base_weights":[-1.8618086E-1,2.8219065E-1,-6.13383E-1,2.0898947E-1,6.742849E-1,-7.37303E-1,-2.573765E-1,1.42862E-1,7.378143E-1,7.7485627E-1,4.770491E-1,-8.460517E-2,-5.8552253E-1,-4.7053447E-1,2.486721E-1,-2.3422183E-1,2.4783583E-1,7.949247E-1,2.5847483E-1,5.019835E-1,8.363006E-2,-5.19939E-1,7.345222E-1,-8.3457194E-2,-4.376408E-1,4.565707E-2,-5.0185996E-1,-1.5420051E-1,6.805983E-1,-8.9383096E-2,-3.1037277E-3,3.6350485E-2,-4.772711E-3,1.7802006E-2,8.158354E-2,-1.7790066E-2,6.2494863E-2,-1.1383835E-2,7.479139E-2,-7.892388E-2,1.734122E-2,1.8776443E-2,7.662311E-2,-1.8068958E-2,-5.1574778E-2,-5.8996882E-2,-2.0716762E-2,-4.5253213E-2,4.429949E-2,7.6823995E-2,-2.0420674E-2],"categories":[],"categories_nodes":[],"categories_segments":[],"categories_sizes":[],"default_left":[0,0,0,0,0,0,0,0,0,0,0,0,0,0,0,0,0,0,0,0,0,0,0,0,0,0,0,0,0,0,0,0,0,0,0,0,0,0,0,0,0,0,0,0,0,0,0,0,0,0,0],"id":5,"left_children":[1,3,5,7,9,11,13,15,17,19,21,-1,23,25,27,29,31,33,35,37,-1,39,41,-1,43,-1,45,47,49,-1,-1,-1,-1,-1,-1,-1,-1,-1,-1,-1,-1,-1,-1,-1,-1,-1,-1,-1,-1,-1,-1],"loss_changes":[1.8796811E2,1.2728672E1,2.1478683E1,1.3158579E1,1.020731E0,5.509598E0,1.3962808E1,1.3452455E1,9.420452E-1,3.3166122E-1,7.126009E0,0E0,5.34729E0,2.8621254E0,6.838664E0,9.916773E0,9.083164E0,3.3171844E-1,1.0618079E0,1.7115552E0,0E0,1.2530462E0,2.2531605E-1,0E0,1.902174E0,0E0,2.1672287E0,3.9128683E0,1.61938E0,0E0,0E0,0E0,0E0,0E0,0E0,0E0,0E0,0E0,0E0,0E0,0E0,0E0,0E0,0E0,0E0,0E0,0E0,0E0,0E0,0E0,0E0],"parents":[2147483647,0,0,1,1,2,2,3,3,4,4,5,5,6,6,7,7,8,8,9,9,10,10,12,12,13,13,14,14,15,15,16,16,17,17,18,18,19,19,21,21,22,22,24,24,26,26,27,27,28,28],"right_children":[2,4,6,8,10,12,14,16,18,20,22,-1,24,26,28,30,32,34,36,38,-1,40,42,-1,44,-1,46,48,50,-1,-1,-1,-1,-1,-1,-1,-1,-1,-1,-1,-1,-1,-1,-1,-1,-1,-1,-1,-1,-1,-1],"split_conditions":[9.6044207E-1,1.323424E0,4.9205688E-1,9.998641E-1,-2.0911362E0,2.7127114E-1,-6.0586834E-1,-5.621753E-1,8.7765604E-1,2.2429206E0,-1.6716434E0,-8.460517E-2,-8.602592E-1,-7.652019E-1,6.024498E-1,5.582926E-1,2.26025E-1,-6.3908154E-1,1.0406704E0,1.0948849E-2,8.363006E-2,2.4660194E-1,-1.5391719E0,-8.3457194E-2,-6.259088E-1,4.565707E-2,-7.5539577E-1,-2.767138E-1,7.7670664E-1,-8.9383096E-2,-3.1037277E-3,3.6350485E-2,-4.772711E-3,1.7802006E-2,8.158354E-2,-1.7790066E-2,6.2494863E-2,-1.1383835E-2,7.479139E-2,-7.892388E-2,1.734122E-2,1.8776443E-2,7.662311E-2,-1.8068958E-2,-5.1574778E-2,-5.8996882E-2,-2.0716762E-2,-4.5253213E-2,4.429949E-2,7.6823995E-2,-2.0420674E-2],"split_indices":[12,1,10,10,10,10,1,1,7,1,10,0,1,8,10,10,8,7,2,7,0,5,10,0,3,0,1,1,8,0,0,0,0,0,0,0,0,0,0,0,0,0,0,0,0,0,0,0,0,0,0],"split_type":[0,0,0,0,0,0,0,0,0,0,0,0,0,0,0,0,0,0,0,0,0,0,0,0,0,0,0,0,0,0,0,0,0,0,0,0,0,0,0,0,0,0,0,0,0,0,0,0,0,0,0],"sum_hessian":[9.37556E2,4.4739026E2,4.9016574E2,3.782978E2,6.909248E1,3.6280737E2,1.27358376E2,3.373799E2,4.0917885E1,4.3819927E1,2.5272554E1,2.087014E2,1.5410597E2,8.966136E1,3.7697014E1,7.32004E1,2.641795E2,3.5973488E1,4.944396E0,9.739002E0,3.4080925E1,4.9778633E0,2.0294691E1,5.5684147E1,9.842182E1,2.4868174E0,8.7174545E1,1.983718E1,1.7859833E1,1.6437931E1,5.676247E1,1.8970738E2,7.447212E1,1.4912803E0,3.448221E1,2.4918308E0,2.452565E0,2.9326382E0,6.806364E0,3.4857078E0,1.4921558E0,1.4918685E0,1.8802824E1,2.371597E1,7.470585E1,6.633835E1,2.08362E1,1.3390255E1,6.446924E0,1.6370087E1,1.4897468E0],"tree_param":{"num_deleted":"0","num_feature":"14","num_nodes":"51","size_leaf_vector":"1"}},{"base_weights":[1.5350777E-1,-2.7859455E-1,5.689996E-1,-4.5742258E-1,-2.0818159E-2,3.4212133E-1,6.8138695E-1,-1.5514575E-1,-5.5946165E-1,7.319213E-2,-6.142681E-1,5.9301203E-1,2.9337585E-1,6.029861E-1,7.592972E-1,5.375689E-1,-2.0636529E-1,2.4136086E-1,-5.8791584E-1,-6.024154E-3,6.8582106E-1,-2.3651877E-1,-6.6183E-1,6.800179E-1,1.12196036E-1,6.118984E-1,2.542161E-1,7.738953E-1,4.2299858E-1,2.6125466E-2,7.653931E-2,1.6243229E-2,6.509454E-2,-2.6613537E-2,2.218401E-2,5.0753143E-2,-5.060634E-2,-6.053179E-2,6.992833E-2,-8.10488E-2,4.785292E-3,-3.5473447E-2,8.351412E-2,-5.5174727E-2,2.3129689E-2,-3.9019372E-2,-7.1558125E-2,2.067312E-2,7.1769774E-2,4.991059E-2,-1.912382E-2,3.5030417E-2,7.640084E-2,6.452376E-2,2.2306023E-2,3.120718E-2,7.842495E-2,-2.5700645E-3,5.4731697E-2],"categories":[],"categories_nodes":[],"categories_segments":[],"categories_sizes":[],"default_left":[0,0,0,0,0,0,0,0,0,0,0,0,0,0,0,0,0,0,0,0,0,0,0,0,0,0,0,0,0,0,0,0,0,0,0,0,0,0,0,0,0,0,0,0,0,0,0,0,0,0,0,0,0,0,0,0,0,0,0],"id":6,"left_children":[1,3,5,7,9,11,13,15,17,19,21,23,25,27,29,31,33,35,37,39,41,43,45,47,49,51,53,55,57,-1,-1,-1,-1,-1,-1,-1,-1,-1,-1,-1,-1,-1,-1,-1,-1,-1,-1,-1,-1,-1,-1,-1,-1,-1,-1,-1,-1,-1,-1],"loss_changes":[1.6306564E2,2.0525692E1,1.15703125E1,8.024086E0,1.0282931E1,1.7259884E0,1.4268799E0,2.5147138E0,4.613003E0,7.7353106E0,2.9624176E-1,9.4003487E-1,1.4916801E0,4.5529976E0,2.5819397E-1,1.0445273E-1,1.6921165E0,1.7372705E0,4.6741867E0,6.1958537E0,3.1317577E0,7.726929E-1,3.9473534E-2,2.1497154E-1,6.730844E-1,2.7939606E-1,1.3096251E0,1.3862991E-1,4.4475203E0,0E0,0E0,0E0,0E0,0E0,0E0,0E0,0E0,0E0,0E0,0E0,0E0,0E0,0E0,0E0,0E0,0E0,0E0,0E0,0E0,0E0,0E0,0E0,0E0,0E0,0E0,0E0,0E0,0E0,0E0],"parents":[2147483647,0,0,1,1,2,2,3,3,4,4,5,5,6,6,7,7,8,8,9,9,10,10,11,11,12,12,13,13,14,14,15,15,16,16,17,17,18,18,19,19,20,20,21,21,22,22,23,23,24,24,25,25,26,26,27,27,28,28],"right_children":[2,4,6,8,10,12,14,16,18,20,22,24,26,28,30,32,34,36,38,40,42,44,46,48,50,52,54,56,58,-1,-1,-1,-1,-1,-1,-1,-1,-1,-1,-1,-1,-1,-1,-1,-1,-1,-1,-1,-1,-1,-1,-1,-1,-1,-1,-1,-1,-1,-1],"split_conditions":[9.6044207E-1,9.1173446E-1,9.1173446E-1,-5.495528E-1,1.4059553E0,-8.9618456E-1,-2.3593357E-1,-9.3405193E-1,-3.4838529E0,8.874641E-1,-8.469201E-1,7.2505176E-1,-4.2240477E-1,-6.6509676E-1,-1.6393812E0,-6.795123E-2,8.690713E-1,9.903856E-1,6.02279E0,-8.699688E-1,-1.3931663E0,-1.5333166E0,2.0632935E0,-6.550656E-1,-1.1440981E-1,-1.0185192E0,-8.469201E-1,-7.1609604E-1,-4.8935345E-1,2.6125466E-2,7.653931E-2,1.6243229E-2,6.509454E-2,-2.6613537E-2,2.218401E-2,5.0753143E-2,-5.060634E-2,-6.053179E-2,6.992833E-2,-8.10488E-2,4.785292E-3,-3.5473447E-2,8.351412E-2,-5.5174727E-2,2.3129689E-2,-3.9019372E-2,-7.1558125E-2,2.067312E-2,7.1769774E-2,4.991059E-2,-1.912382E-2,3.5030417E-2,7.640084E-2,6.452376E-2,2.2306023E-2,3.120718E-2,7.842495E-2,-2.5700645E-3,5.4731697E-2],"split_indices":[12,13,13,1,1,1,1,1,5,1,2,4,7,1,0,0,2,1,5,1,0,2,1,8,5,2,2,5,1,0,0,0,0,0,0,0,0,0,0,0,0,0,0,0,0,0,0,0,0,0,0,0,0,0,0,0,0,0,0],"split_type":[0,0,0,0,0,0,0,0,0,0,0,0,0,0,0,0,0,0,0,0,0,0,0,0,0,0,0,0,0,0,0,0,0,0,0,0,0,0,0,0,0,0,0,0,0,0,0,0,0,0,0,0,0,0,0,0,0,0,0],"sum_hessian":[9.063837E2,4.4447205E2,4.6191168E2,2.6196426E2,1.8250778E2,1.5435564E2,3.0755606E2,6.674924E1,1.9521503E2,1.583066E2,2.4201181E1,2.3294487E1,1.3106116E2,1.5765135E2,1.4990471E2,3.941902E0,6.280733E1,6.4414897E0,1.8877354E2,1.4105728E2,1.7249313E1,3.3743174E0,2.0826864E1,1.9374317E1,3.9201694E0,1.2747582E1,1.18313576E2,7.91725E1,7.847885E1,2.3429265E0,1.4756177E2,1.4794434E0,2.4624586E0,5.544645E1,7.3608813E0,4.986626E0,1.4548635E0,1.8677818E2,1.9953667E0,7.9725227E0,1.3308476E2,1.9920195E0,1.5257294E1,1.908739E0,1.4655786E0,4.8047757E0,1.6022089E1,1.9070381E0,1.746728E1,1.4396328E0,2.4805367E0,5.901435E0,6.8461475E0,7.276755E0,1.1103682E2,2.4189975E0,7.67535E1,1.7198393E1,6.1280457E1],"tree_param":{"num_deleted":"0","num_feature":"14","num_nodes":"59","size_leaf_vector":"1"}},{"base_weights":[-1.6192323E-1,2.6238152E-1,-5.583987E-1,1.8974674E-1,6.199748E-1,-7.8561735E-1,-3.7759227E-1,2.972432E-2,3.905075E-1,4.730397E-1,7.854026E-2,-3.3455178E-1,-7.9016134E-2,-7.2231275E-1,-2.0237371E-1,-8.2822526E-1,1.270248E-1,2.1574387E-1,5.8066726E-1,6.8578273E-1,2.4316181E-1,-5.154851E-3,-4.7766455E-2,-7.510078E-1,3.6640715E-2,-2.9950747E-1,4.007455E-2,-8.6766146E-2,-1.828831E-2,-2.1062193E-2,2.486816E-2,7.5027943E-3,7.958614E-2,6.1740227E-2,-3.0148323E-3,7.826044E-2,4.180732E-2,6.575009E-2,1.0475902E-2,-7.881485E-2,-5.320539E-2,-1.8494276E-2,-4.4785604E-2,-2.412143E-2,7.060785E-2],"categories":[],"categories_nodes":[],"categories_segments":[],"categories_sizes":[],"default_left":[0,0,0,0,0,0,0,0,0,0,0,0,0,0,0,0,0,0,0,0,0,0,0,0,0,0,0,0,0,0,0,0,0,0,0,0,0,0,0,0,0,0,0,0,0],"id":7,"left_children":[1,3,5,7,9,11,13,15,17,19,-1,21,-1,23,25,27,29,31,33,35,37,-1,-1,39,-1,41,43,-1,-1,-1,-1,-1,-1,-1,-1,-1,-1,-1,-1,-1,-1,-1,-1,-1,-1],"loss_changes":[1.5469806E2,1.1426661E1,1.922789E1,1.1902866E1,1.4417076E0,1.6539001E-1,1.5955635E1,1.7423153E1,5.3386154E0,1.8882723E0,0E0,1.30312E-1,0E0,3.0695953E0,4.2070017E0,3.8247967E-1,7.7415495E0,7.063905E0,1.7720795E0,2.2424984E-1,1.1781864E0,0E0,0E0,2.920494E-1,0E0,2.080657E0,9.881019E0,0E0,0E0,0E0,0E0,0E0,0E0,0E0,0E0,0E0,0E0,0E0,0E0,0E0,0E0,0E0,0E0,0E0,0E0],"parents":[2147483647,0,0,1,1,2,2,3,3,4,4,5,5,6,6,7,7,8,8,9,9,11,11,13,13,14,14,15,15,16,16,17,17,18,18,19,19,20,20,23,23,25,25,26,26],"right_children":[2,4,6,8,10,12,14,16,18,20,-1,22,-1,24,26,28,30,32,34,36,38,-1,-1,40,-1,42,44,-1,-1,-1,-1,-1,-1,-1,-1,-1,-1,-1,-1,-1,-1,-1,-1,-1,-1],"split_conditions":[9.6044207E-1,1.2641956E0,2.7127114E-1,5.803712E-1,2.3963318E0,-1.6393812E0,-8.505496E-1,-5.495528E-1,-5.621753E-1,-4.3003187E-1,7.854026E-2,2.2762565E-1,-7.9016134E-2,9.5570695E-1,6.024498E-1,7.2795093E-1,-1.0438398E-1,1.1102569E0,9.603577E-1,1.2626469E-1,-2.996358E0,-5.154851E-3,-4.7766455E-2,6.609793E-1,3.6640715E-2,1.9251296E-1,-5.7091385E-1,-8.6766146E-2,-1.828831E-2,-2.1062193E-2,2.486816E-2,7.5027943E-3,7.958614E-2,6.1740227E-2,-3.0148323E-3,7.826044E-2,4.180732E-2,6.575009E-2,1.0475902E-2,-7.881485E-2,-5.320539E-2,-1.8494276E-2,-4.4785604E-2,-2.412143E-2,7.060785E-2],"split_indices":[12,1,10,10,1,0,1,1,1,0,0,7,0,10,10,5,8,10,0,5,10,0,0,7,0,4,1,0,0,0,0,0,0,0,0,0,0,0,0,0,0,0,0,0,0],"split_type":[0,0,0,0,0,0,0,0,0,0,0,0,0,0,0,0,0,0,0,0,0,0,0,0,0,0,0,0,0,0,0,0,0,0,0,0,0,0,0,0,0,0,0,0,0],"sum_hessian":[9.177115E2,4.4346118E2,4.7425027E2,3.6986447E2,7.359671E1,2.0867024E2,2.6558002E2,2.0645297E2,1.6341151E2,4.10209E1,3.257581E1,2.825422E0,2.0584482E2,8.844778E1,1.7713225E2,2.0263855E1,1.8618912E2,8.6265236E1,7.7146286E1,2.0274443E1,2.0746456E1,1.405756E0,1.4196662E0,8.647868E1,1.9690957E0,1.2629746E2,5.0834793E1,1.8772207E1,1.491649E0,4.9122646E1,1.3706647E2,7.033403E1,1.5931206E1,7.2759674E1,4.3866105E0,1.3476946E1,6.7974963E0,4.2556376E0,1.6490818E1,7.1714325E1,1.4764358E1,7.253091E1,5.3766556E1,3.6188347E1,1.4646444E1],"tree_param":{"num_deleted":"0","num_feature":"14","num_nodes":"45","size_leaf_vector":"1"}},{"base_weights":[1.5399155E-1,-2.287202E-1,5.2420056E-1,-3.9346296E-1,8.526439E-3,7.3821716E-2,3.5790738E-1,5.3568E-1,-4.1516745E-1,-4.756533E-1,1.4318162E-1,5.879661E-1,1.5060171E-1,7.541721E-2,-1.183827E-2,-3.5744688E-1,-7.893049E-2,-7.2706625E-2,-2.4933347E-1,4.0276594E-2,7.877198E-1,6.171852E-1,-5.3332914E-2,2.819878E-1,-3.0185714E-1,8.714312E-3,-4.5234304E-2,6.305812E-2,-3.425355E-2,-6.111263E-2,1.938106E-2,1.4567013E-2,8.317947E-2,6.3848674E-2,-2.858313E-2,5.694222E-2,-7.050424E-2,1.5806867E-2,4.427568E-2,-5.1819813E-2,2.6654957E-2],"categories":[],"categories_nodes":[],"categories_segments":[],"categories_sizes":[],"default_left":[0,0,0,0,0,0,0,0,0,0,0,0,0,0,0,0,0,0,0,0,0,0,0,0,0,0,0,0,0,0,0,0,0,0,0,0,0,0,0,0,0],"id":8,"left_children":[1,3,5,7,9,-1,11,13,15,17,19,21,23,-1,-1,25,-1,-1,27,29,31,33,35,37,39,-1,-1,-1,-1,-1,-1,-1,-1,-1,-1,-1,-1,-1,-1,-1,-1],"loss_changes":[1.2660975E2,1.7187551E1,1.58969345E1,5.4557E0,1.1879386E1,0E0,1.2191391E1,9.981992E-1,5.2062073E0,2.0748653E0,9.420476E0,2.3133316E0,8.216412E0,0E0,0E0,9.405716E0,0E0,0E0,2.0521054E0,1.2514428E1,4.325285E-1,2.422985E0,2.927397E0,2.0521173E0,3.9826488E0,0E0,0E0,0E0,0E0,0E0,0E0,0E0,0E0,0E0,0E0,0E0,0E0,0E0,0E0,0E0,0E0],"parents":[2147483647,0,0,1,1,2,2,3,3,4,4,6,6,7,7,8,8,9,9,10,10,11,11,12,12,15,15,18,18,19,19,20,20,21,21,22,22,23,23,24,24],"right_children":[2,4,6,8,10,-1,12,14,16,18,20,22,24,-1,-1,26,-1,-1,28,30,32,34,36,38,40,-1,-1,-1,-1,-1,-1,-1,-1,-1,-1,-1,-1,-1,-1,-1,-1],"split_conditions":[9.6044207E-1,9.1173446E-1,2.7127114E-1,-9.1560376E-1,-8.10579E-1,7.3821716E-2,-7.5539577E-1,1.0219426E0,9.777855E-1,-2.0911362E0,7.690073E-1,1.0057621E0,6.024498E-1,7.541721E-2,-1.183827E-2,-5.495528E-1,-7.893049E-2,-7.2706625E-2,-1.0438398E-1,2.7127114E-1,-4.9028167E-1,1.1071156E0,4.9205688E-1,1.9251296E-1,9.1173446E-1,8.714312E-3,-4.5234304E-2,6.305812E-2,-3.425355E-2,-6.111263E-2,1.938106E-2,1.4567013E-2,8.317947E-2,6.3848674E-2,-2.858313E-2,5.694222E-2,-7.050424E-2,1.5806867E-2,4.427568E-2,-5.1819813E-2,2.6654957E-2],"split_indices":[12,13,10,1,10,0,1,10,10,10,1,6,10,0,0,1,0,0,8,10,6,8,10,4,13,0,0,0,0,0,0,0,0,0,0,0,0,0,0,0,0],"split_type":[0,0,0,0,0,0,0,0,0,0,0,0,0,0,0,0,0,0,0,0,0,0,0,0,0,0,0,0,0,0,0,0,0,0,0,0,0,0,0,0,0],"sum_hessian":[8.917644E2,4.3866595E2,4.5309845E2,2.5850388E2,1.801621E2,1.9661673E2,2.5648172E2,5.360186E0,2.5314368E2,3.865128E1,1.4151082E2,1.2069902E2,1.357827E2,3.9032373E0,1.4569489E0,2.2100345E2,3.214022E1,1.726238E1,2.1388899E1,1.2294438E2,1.856644E1,1.154753E2,5.2237206E0,1.055187E2,3.0264E1,3.8889107E1,1.8211435E2,1.4963353E0,1.9892565E1,2.2881979E1,1.000624E2,1.4692047E0,1.7097235E1,1.1310027E2,2.3750281E0,2.7357647E0,2.4879556E0,6.0708443E1,4.4810253E1,2.1984734E1,8.279266E0],"tree_param":{"num_deleted":"0","num_feature":"14","num_nodes":"41","size_leaf_vector":"1"}},{"base_weights":[-1.5133591E-1,1.5841392E-1,-4.040653E-1,-2.0464016E-1,2.631343E-1,-4.4097897E-1,5.5988616E-1,-5.75634E-1,-6.317627E-2,1.869275E-1,5.864227E-1,-4.2481694E-2,-4.6968594E-1,9.426944E-3,5.9239537E-1,-6.026493E-1,-7.403874E-3,-1.21471904E-1,6.202346E-1,2.0414844E-1,-8.0811374E-2,6.748227E-1,2.4876915E-1,-1.4910242E-1,7.706054E-2,-4.763471E-1,6.5745115E-2,6.2019086E-1,1.5763173E-2,-8.891709E-3,-6.313492E-2,3.522456E-2,-1.8172516E-2,2.1796374E-2,7.1072325E-2,-1.1413925E-3,2.9507834E-2,6.909488E-2,2.6272302E-2,6.9991365E-2,-2.0368805E-2,5.3055078E-2,-2.593788E-2,-3.615703E-2,-5.61396E-2,7.0555955E-2,3.7099443E-2],"categories":[],"categories_nodes":[],"categories_segments":[],"categories_sizes":[],"default_left":[0,0,0,0,0,0,0,0,0,0,0,0,0,0,0,0,0,0,0,0,0,0,0,0,0,0,0,0,0,0,0,0,0,0,0,0,0,0,0,0,0,0,0,0,0,0,0],"id":9,"left_children":[1,3,5,7,9,11,13,15,17,19,21,23,25,-1,27,29,-1,31,33,35,-1,37,39,41,-1,43,-1,45,-1,-1,-1,-1,-1,-1,-1,-1,-1,-1,-1,-1,-1,-1,-1,-1,-1,-1,-1],"loss_changes":[6.939523E1,1.5210288E1,1.7611305E1,4.6769924E0,7.523939E0,5.3630676E0,2.232604E-1,2.896557E-1,2.7103605E0,4.486677E0,1.5823612E0,2.9514315E0,3.6079865E0,0E0,1.0823202E-1,2.869215E-1,0E0,1.8273454E0,4.027629E-2,4.878434E0,0E0,1.234169E-1,2.9493208E0,2.3684464E0,0E0,4.0612946E0,0E0,7.183409E-2,0E0,0E0,0E0,0E0,0E0,0E0,0E0,0E0,0E0,0E0,0E0,0E0,0E0,0E0,0E0,0E0,0E0,0E0,0E0],"parents":[2147483647,0,0,1,1,2,2,3,3,4,4,5,5,6,6,7,7,8,8,9,9,10,10,11,11,12,12,14,14,15,15,17,17,18,18,19,19,21,21,22,22,23,23,25,25,27,27],"right_children":[2,4,6,8,10,12,14,16,18,20,22,24,26,-1,28,30,-1,32,34,36,-1,38,40,42,-1,44,-1,46,-1,-1,-1,-1,-1,-1,-1,-1,-1,-1,-1,-1,-1,-1,-1,-1,-1,-1,-1],"split_conditions":[9.1173446E-1,-7.4665713E-1,2.0632935E0,-9.2434233E-1,9.903856E-1,-9.803944E-1,-3.550843E-1,9.969793E-1,9.969793E-1,3.9770567E0,1.289848E0,-1.0383273E0,2.1693518E0,9.426944E-3,6.076137E-1,-8.725646E-1,-7.403874E-3,-3.550843E-1,-8.602592E-1,-1.1440981E-1,-8.0811374E-2,8.690713E-1,2.6516294E-1,-1.1901183E0,7.706054E-2,-3.602161E-1,6.5745115E-2,5.475388E-1,1.5763173E-2,-8.891709E-3,-6.313492E-2,3.522456E-2,-1.8172516E-2,2.1796374E-2,7.1072325E-2,-1.1413925E-3,2.9507834E-2,6.909488E-2,2.6272302E-2,6.9991365E-2,-2.0368805E-2,5.3055078E-2,-2.593788E-2,-3.615703E-2,-5.61396E-2,7.0555955E-2,3.7099443E-2],"split_indices":[13,1,1,1,1,0,5,8,8,5,3,0,6,0,5,4,0,5,1,5,0,2,0,2,0,1,0,4,0,0,0,0,0,0,0,0,0,0,0,0,0,0,0,0,0,0,0],"split_type":[0,0,0,0,0,0,0,0,0,0,0,0,0,0,0,0,0,0,0,0,0,0,0,0,0,0,0,0,0,0,0,0,0,0,0,0,0,0,0,0,0,0,0,0,0,0,0],"sum_hessian":[8.846498E2,3.976526E2,4.869972E2,8.880865E1,3.0884393E2,4.6955838E2,1.74388E1,2.3668386E1,6.514026E1,2.5120671E2,5.7637238E1,3.1719679E1,4.378387E2,1.392619E0,1.604618E1,2.2267616E1,1.4007703E0,6.0778084E1,4.3621755E0,2.477144E2,3.4923015E0,4.488696E1,1.275028E1,2.8764404E1,2.9552763E0,4.3584036E2,1.9983437E0,1.4681083E1,1.3650987E0,1.3950061E0,2.087261E1,6.3113666E0,5.4466717E1,1.4270239E0,2.9351513E0,7.375117E1,1.7396324E2,4.2545437E1,2.3415194E0,6.110546E0,6.6397347E0,3.4835505E0,2.5280853E1,1.8773541E2,2.4810495E2,9.570962E0,5.1101203E0],"tree_param":{"num_deleted":"0","num_feature":"14","num_nodes":"47","size_leaf_vector":"1"}},{"base_weights":[1.3173398E-1,2.6395527E-1,-2.3340438E-1,3.5494345E-1,-4.6602076E-1,-4.7289275E-2,-5.307997E-1,6.9544E-1,2.8796837E-1,-6.8025285E-1,-1.6897231E-1,6.469458E-2,-5.446999E-1,-1.298497E-1,-5.8787173E-1,-8.963722E-4,7.139163E-1,4.065775E-1,1.6177146E-1,-3.8439086E-1,-7.1962945E-2,4.382875E-1,-6.337461E-1,-7.6657504E-2,1.001707E-1,-6.3227844E-1,3.651939E-2,-6.5231904E-2,2.178252E-1,-6.103217E-1,3.7547305E-2,2.0577759E-2,7.2422E-2,4.261739E-2,-2.6045514E-2,2.9207284E-2,-1.3894381E-2,-6.1529875E-2,6.009523E-3,-4.54687E-2,5.7081934E-2,-7.275342E-2,-1.6539177E-2,2.357722E-3,4.194978E-2,-7.237707E-2,-2.7963867E-2,-3.4433246E-2,5.8067173E-2,-8.750795E-3,-6.476389E-2],"categories":[],"categories_nodes":[],"categories_segments":[],"categories_sizes":[],"default_left":[0,0,0,0,0,0,0,0,0,0,0,0,0,0,0,0,0,0,0,0,0,0,0,0,0,0,0,0,0,0,0,0,0,0,0,0,0,0,0,0,0,0,0,0,0,0,0,0,0,0,0],"id":10,"left_children":[1,3,5,7,9,11,13,15,17,19,21,23,25,27,29,-1,31,33,35,37,-1,39,41,-1,43,45,-1,-1,47,49,-1,-1,-1,-1,-1,-1,-1,-1,-1,-1,-1,-1,-1,-1,-1,-1,-1,-1,-1,-1,-1],"loss_changes":[4.215847E1,4.271446E1,1.2834596E1,1.2802597E1,4.4308043E0,8.056399E0,1.9678879E0,1.2169418E0,7.091507E0,2.03022E-1,9.10091E0,3.569409E0,2.3480496E0,2.3972647E0,1.9143181E0,0E0,3.2557678E-1,3.3244057E0,9.183483E0,7.536249E-1,0E0,1.9334896E0,6.7548084E-1,0E0,2.7898622E0,5.9134865E-1,0E0,0E0,1.8733938E0,1.4363251E0,0E0,0E0,0E0,0E0,0E0,0E0,0E0,0E0,0E0,0E0,0E0,0E0,0E0,0E0,0E0,0E0,0E0,0E0,0E0,0E0,0E0],"parents":[2147483647,0,0,1,1,2,2,3,3,4,4,5,5,6,6,7,7,8,8,9,9,10,10,11,11,12,12,13,13,14,14,16,16,17,17,18,18,19,19,21,21,22,22,24,24,25,25,28,28,29,29],"right_children":[2,4,6,8,10,12,14,16,18,20,22,24,26,28,30,-1,32,34,36,38,-1,40,42,-1,44,46,-1,-1,48,50,-1,-1,-1,-1,-1,-1,-1,-1,-1,-1,-1,-1,-1,-1,-1,-1,-1,-1,-1,-1,-1],"split_conditions":[5.803712E-1,1.323424E0,-5.621753E-1,-7.592796E-1,-2.0911362E0,1.0219426E0,-8.469201E-1,-1.5333166E0,1.6087827E-1,2.121551E0,-1.384622E0,-4.9028167E-1,-5.883911E-1,-7.1245474E-1,3.7862566E0,-8.963722E-4,-1.1048479E0,1.6410693E0,-4.2713054E-2,-2.775572E0,-7.1962945E-2,-5.957588E-1,1.289848E0,-7.6657504E-2,4.8241132E-1,4.9161598E-1,3.651939E-2,-6.5231904E-2,-5.957588E-1,-6.550656E-1,3.7547305E-2,2.0577759E-2,7.2422E-2,4.261739E-2,-2.6045514E-2,2.9207284E-2,-1.3894381E-2,-6.1529875E-2,6.009523E-3,-4.54687E-2,5.7081934E-2,-7.275342E-2,-1.6539177E-2,2.357722E-3,4.194978E-2,-7.237707E-2,-2.7963867E-2,-3.4433246E-2,5.8067173E-2,-8.750795E-3,-6.476389E-2],"split_indices":[10,1,1,1,10,10,2,2,10,1,10,6,1,0,2,0,3,0,1,10,0,5,3,0,0,3,0,0,5,8,0,0,0,0,0,0,0,0,0,0,0,0,0,0,0,0,0,0,0,0,0],"split_type":[0,0,0,0,0,0,0,0,0,0,0,0,0,0,0,0,0,0,0,0,0,0,0,0,0,0,0,0,0,0,0,0,0,0,0,0,0,0,0,0,0,0,0,0,0,0,0,0,0,0,0],"sum_hessian":[8.709487E2,6.396136E2,2.3133514E2,5.6918146E2,7.043211E1,1.430014E2,8.833374E1,9.201256E1,4.7716888E2,4.0170795E1,3.026132E1,1.1743318E2,2.556822E1,1.1414971E1,7.691877E1,2.3649411E0,8.964762E1,2.4483408E2,2.3233481E2,5.9824696E0,3.4188324E1,1.3144321E1,1.7116999E1,3.9630709E0,1.13470116E2,2.3601639E1,1.9665817E0,4.2108593E0,7.204112E0,7.552517E1,1.3935997E0,2.1984682E0,8.744915E1,2.3819728E2,6.6367903E0,1.6211734E2,7.0217476E1,3.6842375E0,2.298232E0,1.3845705E0,1.1759751E1,1.3800133E1,3.3168664E0,9.238466E1,2.1085459E1,1.790401E1,5.6976266E0,2.8459342E0,4.358178E0,5.2545004E0,7.027067E1],"tree_param":{"num_deleted":"0","num_feature":"14","num_nodes":"51","size_leaf_vector":"1"}},{"base_weights":[-1.4294492E-1,2.300689E-1,-5.133273E-1,3.9178517E-1,-1.497766E-2,-5.8639944E-1,-8.725255E-2,6.355702E-1,3.089935E-1,7.022474E-2,-1.0013804E-1,-7.146872E-1,-4.5735908E-1,2.929628E-1,-6.170247E-1,7.6001145E-2,4.2997855E-1,4.2229295E-2,4.7072735E-1,7.8690164E-2,-1.53272E-1,-2.1923756E-2,-7.195946E-2,-7.2499715E-2,-3.250825E-1,-9.1483526E-2,5.4338837E-1,-7.255516E-2,-1.02882504E-1,2.7250929E-2,6.7417525E-2,-7.7832215E-2,1.4874893E-2,-1.6162022E-3,5.786998E-2,-7.1631833E-3,-5.792587E-2,-3.739908E-2,4.4324803E-3,-6.044627E-2,2.6045932E-2,2.8265331E-2,7.617603E-2,4.669051E-2,-6.463961E-2],"categories":[],"categories_nodes":[],"categories_segments":[],"categories_sizes":[],"default_left":[0,0,0,0,0,0,0,0,0,0,0,0,0,0,0,0,0,0,0,0,0,0,0,0,0,0,0,0,0,0,0,0,0,0,0,0,0,0,0,0,0,0,0,0,0],"id":11,"left_children":[1,3,5,7,9,11,13,15,17,-1,19,21,23,25,27,-1,29,31,33,-1,35,-1,-1,-1,37,39,41,-1,43,-1,-1,-1,-1,-1,-1,-1,-1,-1,-1,-1,-1,-1,-1,-1,-1],"loss_changes":[1.2020042E2,1.719397E1,1.3536781E1,5.0781975E0,1.0661644E1,5.837387E0,1.3286812E1,1.3439903E0,8.480843E0,0E0,7.467274E0,2.9192352E-1,6.434658E0,3.761867E0,1.4602537E0,0E0,8.517051E-1,6.7118154E0,6.45253E0,0E0,5.102192E0,0E0,0E0,0E0,2.3275003E0,3.0578084E0,1.1222963E0,0E0,2.1474457E0,0E0,0E0,0E0,0E0,0E0,0E0,0E0,0E0,0E0,0E0,0E0,0E0,0E0,0E0,0E0,0E0],"parents":[2147483647,0,0,1,1,2,2,3,3,4,4,5,5,6,6,7,7,8,8,10,10,11,11,12,12,13,13,14,14,16,16,17,17,18,18,20,20,24,24,25,25,26,26,28,28],"right_children":[2,4,6,8,10,12,14,16,18,-1,20,22,24,26,28,-1,30,32,34,-1,36,-1,-1,-1,38,40,42,-1,44,-1,-1,-1,-1,-1,-1,-1,-1,-1,-1,-1,-1,-1,-1,-1,-1],"split_conditions":[9.6044207E-1,9.1173446E-1,6.024498E-1,5.0485402E-2,-2.0911362E0,2.7127114E-1,9.1173446E-1,3.4482068E-1,4.699783E-1,7.022474E-2,-8.699688E-1,-1.6393812E0,-8.602592E-1,8.399585E-3,-6.6509676E-1,7.6001145E-2,2.2429206E0,-5.495528E-1,-7.845245E-1,7.8690164E-2,8.874641E-1,-2.1923756E-2,-7.195946E-2,-7.2499715E-2,-9.999954E-2,6.686855E-1,3.700259E-1,-7.255516E-2,7.569998E-1,2.7250929E-2,6.7417525E-2,-7.7832215E-2,1.4874893E-2,-1.6162022E-3,5.786998E-2,-7.1631833E-3,-5.792587E-2,-3.739908E-2,4.4324803E-3,-6.044627E-2,2.6045932E-2,2.8265331E-2,7.617603E-2,4.669051E-2,-6.463961E-2],"split_indices":[12,13,10,10,10,10,13,0,10,0,1,0,1,6,1,0,1,1,1,0,1,0,0,0,1,10,4,0,10,0,0,0,0,0,0,0,0,0,0,0,0,0,0,0,0],"split_type":[0,0,0,0,0,0,0,0,0,0,0,0,0,0,0,0,0,0,0,0,0,0,0,0,0,0,0,0,0,0,0,0,0,0,0,0,0,0,0,0,0,0,0,0,0],"sum_hessian":[8.68168E2,4.3273624E2,4.354318E2,2.60333E2,1.7240323E2,3.71366E2,6.406582E1,6.430534E1,1.9602766E2,1.7528778E1,1.5487445E2,1.8395016E2,1.8741583E2,3.7557762E1,2.650805E1,3.8378666E1,2.5926672E1,7.446539E1,1.2156228E2,7.9722795E0,1.4690216E2,2.2520945E0,1.8169807E2,6.0507927E1,1.269079E2,1.5065034E1,2.249273E1,2.1548363E1,4.959689E0,1.7048777E1,8.877896E0,7.831356E0,6.663403E1,2.2218916E1,9.934336E1,1.242566E2,2.264557E1,1.1205922E2,1.484868E1,5.8381114E0,9.226923E0,1.1297697E1,1.1195032E1,2.490132E0,2.4695568E0],"tree_param":{"num_deleted":"0","num_feature":"14","num_nodes":"45","size_leaf_vector":"1"}},{"base_weights":[1.1346434E-1,-2.2391339E-1,4.515526E-1,-4.0276402E-1,-1.3722524E-1,4.617867E-1,5.741847E-2,-5.09901E-1,-1.24345385E-1,-1.7002024E-1,3.0712426E-1,4.694962E-1,6.41965E-2,4.4376934E-1,-3.9526138E-1,-7.872409E-2,-5.792282E-1,-4.896502E-2,-6.3535236E-2,-2.2536227E-1,6.8102665E-2,1.1967417E-4,5.364388E-1,4.7273865E-1,-2.6972828E-2,-4.199733E-1,4.6852753E-1,6.4649075E-2,-1.8511413E-2,-6.933692E-2,4.042745E-2,-3.883902E-2,3.1421542E-2,-6.7035414E-2,-3.1221686E-2,-6.510686E-2,4.027668E-3,1.362323E-3,-3.1665053E-2,2.1678979E-2,-4.8333947E-2,4.281726E-2,-2.9391488E-2,-1.7176662E-2,6.861255E-2,2.8748086E-2,4.875833E-2,-1.654447E-2,-5.2353937E-2,6.530994E-3,5.834287E-2],"categories":[],"categories_nodes":[],"categories_segments":[],"categories_sizes":[],"default_left":[0,0,0,0,0,0,0,0,0,0,0,0,0,0,0,0,0,0,0,0,0,0,0,0,0,0,0,0,0,0,0,0,0,0,0,0,0,0,0,0,0,0,0,0,0,0,0,0,0,0,0],"id":12,"left_children":[1,3,5,7,9,11,13,15,17,19,21,23,25,27,29,31,33,35,-1,37,39,41,43,45,-1,47,49,-1,-1,-1,-1,-1,-1,-1,-1,-1,-1,-1,-1,-1,-1,-1,-1,-1,-1,-1,-1,-1,-1,-1,-1],"loss_changes":[9.748051E1,6.5802727E0,1.6948242E0,4.088869E0,4.275014E0,1.2443924E0,2.2640607E0,2.9495869E0,1.5098319E0,3.580134E0,1.4271964E0,1.1048203E0,1.9719142E0,1.0011755E0,1.7170932E0,1.9516642E0,1.887188E0,1.9576347E0,0E0,4.7979774E0,4.3503766E0,1.3427522E0,1.3480718E0,9.772415E-1,0E0,3.60595E-2,2.1272552E-1,0E0,0E0,0E0,0E0,0E0,0E0,0E0,0E0,0E0,0E0,0E0,0E0,0E0,0E0,0E0,0E0,0E0,0E0,0E0,0E0,0E0,0E0,0E0,0E0],"parents":[2147483647,0,0,1,1,2,2,3,3,4,4,5,5,6,6,7,7,8,8,9,9,10,10,11,11,12,12,13,13,14,14,15,15,16,16,17,17,19,19,20,20,21,21,22,22,23,23,25,25,26,26],"right_children":[2,4,6,8,10,12,14,16,18,20,22,24,26,28,30,32,34,36,-1,38,40,42,44,46,-1,48,50,-1,-1,-1,-1,-1,-1,-1,-1,-1,-1,-1,-1,-1,-1,-1,-1,-1,-1,-1,-1,-1,-1,-1,-1],"split_conditions":[9.6044207E-1,-3.6485735E-1,1.3110096E0,2.26025E-1,1.5703117E0,3.1383069E0,6.9747216E-1,-6.5650874E-1,1.1302016E0,3.3616132E-1,3.3757907E-1,1.1719892E0,3.9179878E0,1.7443633E0,1.4494944E0,-1.2917837E0,2.4660194E-1,-1.4051034E0,-6.3535236E-2,-1.0438398E-1,7.5759256E-1,-1.4760897E-1,-6.3908154E-1,-8.862534E-1,-2.6972828E-2,2.6981416E-1,-1.6052352E-1,6.4649075E-2,-1.8511413E-2,-6.933692E-2,4.042745E-2,-3.883902E-2,3.1421542E-2,-6.7035414E-2,-3.1221686E-2,-6.510686E-2,4.027668E-3,1.362323E-3,-3.1665053E-2,2.1678979E-2,-4.8333947E-2,4.281726E-2,-2.9391488E-2,-1.7176662E-2,6.861255E-2,2.8748086E-2,4.875833E-2,-1.654447E-2,-5.2353937E-2,6.530994E-3,5.834287E-2],"split_indices":[12,0,7,8,5,11,2,6,3,8,0,6,11,7,3,0,5,4,0,8,0,0,7,0,0,9,2,0,0,0,0,0,0,0,0,0,0,0,0,0,0,0,0,0,0,0,0,0,0,0,0],"split_type":[0,0,0,0,0,0,0,0,0,0,0,0,0,0,0,0,0,0,0,0,0,0,0,0,0,0,0,0,0,0,0,0,0,0,0,0,0,0,0,0,0,0,0,0,0,0,0,0,0,0,0],"sum_hessian":[8.527301E2,4.2698257E2,4.2574753E2,1.3820299E2,2.887796E2,4.1480508E2,1.0942463E1,9.91992E1,3.900379E1,2.695062E2,1.9273405E1,4.0673734E2,8.06774E0,5.914376E0,5.0280867E0,1.4036367E1,8.5162834E1,3.4944786E1,4.059003E0,2.1872581E2,5.0780373E1,8.668546E0,1.0604858E1,4.0531998E2,1.417357E0,3.65379E0,4.4139504E0,4.451448E0,1.4629278E0,3.7592368E0,1.2688501E0,7.8564596E0,6.179908E0,6.2367435E1,2.27954E1,3.69816E0,3.1246628E1,6.0691364E1,1.5803445E2,4.0474083E1,1.030629E1,3.3440738E0,5.3244715E0,1.8246187E0,8.78024E0,3.157963E1,3.7374036E2,1.8079559E0,1.8458343E0,1.3266827E0,3.0872676E0],"tree_param":{"num_deleted":"0","num_feature":"14","num_nodes":"51","size_leaf_vector":"1"}},{"base_weights":[-1.22682326E-1,2.1886036E-1,-4.6517017E-1,3.8799763E-1,-2.0238409E-2,-6.843507E-1,-3.0138183E-1,-4.4320607E-1,4.0595537E-1,6.41667E-1,-9.131502E-2,-1.1572852E-2,-6.892416E-2,-5.097698E-1,-1.0656038E-1,-8.2364306E-2,4.5644205E-2,3.538414E-1,6.945939E-1,1.9907234E-2,6.893001E-2,8.7069236E-2,-1.4924824E-1,-6.239684E-1,-1.3317302E-1,1.252266E-1,-2.573027E-1,-1.0099247E-2,4.5801327E-2,5.457298E-3,7.381662E-2,-6.1571427E-2,-5.4486995E-3,-4.3155634E-4,-6.5010436E-2,4.8798863E-2,-6.895511E-2,7.919397E-2,-6.874364E-3,-3.619243E-2,1.2607194E-2],"categories":[],"categories_nodes":[],"categories_segments":[],"categories_sizes":[],"default_left":[0,0,0,0,0,0,0,0,0,0,0,0,0,0,0,0,0,0,0,0,0,0,0,0,0,0,0,0,0,0,0,0,0,0,0,0,0,0,0,0,0],"id":13,"left_children":[1,3,5,7,9,11,13,15,17,19,21,-1,-1,23,25,-1,-1,27,29,-1,-1,-1,31,33,35,37,39,-1,-1,-1,-1,-1,-1,-1,-1,-1,-1,-1,-1,-1,-1],"loss_changes":[1.01097336E2,1.7517645E1,1.5281517E1,3.96587E0,8.542774E0,4.3117523E-1,1.0042473E1,2.3753977E0,3.496647E0,2.3407364E-1,9.254769E0,0E0,0E0,5.0734825E0,4.567367E0,0E0,0E0,1.012818E1,9.918747E-1,0E0,0E0,0E0,6.830284E0,1.4827995E0,1.041769E1,6.7561493E0,3.213297E0,0E0,0E0,0E0,0E0,0E0,0E0,0E0,0E0,0E0,0E0,0E0,0E0,0E0,0E0],"parents":[2147483647,0,0,1,1,2,2,3,3,4,4,5,5,6,6,7,7,8,8,9,9,10,10,13,13,14,14,17,17,18,18,22,22,23,23,24,24,25,25,26,26],"right_children":[2,4,6,8,10,12,14,16,18,20,22,-1,-1,24,26,-1,-1,28,30,-1,-1,-1,32,34,36,38,40,-1,-1,-1,-1,-1,-1,-1,-1,-1,-1,-1,-1,-1,-1],"split_conditions":[9.6044207E-1,9.1173446E-1,2.7127114E-1,-3.6725569E0,-1.9807434E0,-1.6393812E0,-7.5539577E-1,9.903856E-1,9.777855E-1,-1.5597234E0,-8.699688E-1,-1.1572852E-2,-6.892416E-2,7.349212E-1,1.5000031E-2,-8.2364306E-2,4.5644205E-2,-5.495528E-1,-9.2142946E-1,1.9907234E-2,6.893001E-2,8.7069236E-2,-6.252875E-1,-1.1048479E0,9.1173446E-1,-5.8062345E-1,6.024498E-1,-1.0099247E-2,4.5801327E-2,5.457298E-3,7.381662E-2,-6.1571427E-2,-5.4486995E-3,-4.3155634E-4,-6.5010436E-2,4.8798863E-2,-6.895511E-2,7.919397E-2,-6.874364E-3,-3.619243E-2,1.2607194E-2],"split_indices":[12,13,10,7,10,0,1,1,10,0,1,0,0,10,4,0,0,1,1,0,0,0,1,3,13,1,10,0,0,0,0,0,0,0,0,0,0,0,0,0,0],"split_type":[0,0,0,0,0,0,0,0,0,0,0,0,0,0,0,0,0,0,0,0,0,0,0,0,0,0,0,0,0,0,0,0,0,0,0,0,0,0,0,0,0],"sum_hessian":[8.6239996E2,4.3197653E2,4.3042343E2,2.5263853E2,1.7933798E2,1.8272443E2,2.47699E2,4.841922E0,2.4779662E2,1.6611794E1,1.627262E2,1.7685592E0,1.8095586E2,1.1890132E2,1.2879768E2,3.462294E0,1.3796277E0,2.117846E2,3.6012016E1,2.1173341E0,1.449446E1,8.4460745E0,1.5428012E2,9.073125E1,2.8170073E1,5.0821674E1,7.797601E1,3.9472187E1,1.7231242E2,2.438979E0,3.3573036E1,2.5121418E1,1.291587E2,3.719167E0,8.7012085E1,1.3368211E1,1.4801862E1,1.0758803E1,4.0062874E1,6.1302685E1,1.6673332E1],"tree_param":{"num_deleted":"0","num_feature":"14","num_nodes":"41","size_leaf_vector":"1"}},{"base_weights":[1.1269703E-1,-2.1783559E-1,4.5032516E-1,-5.97911E-1,-1.732604E-1,5.8829856E-1,1.4096153E-1,-6.339738E-1,-2.6393357E-1,-1.267502E-1,-6.155441E-1,6.8073995E-2,4.871052E-1,-4.668725E-1,1.7043164E-1,-6.547544E-2,-3.1446385E-1,4.227669E-2,-5.5103093E-2,-3.5093448E-1,-6.6290095E-2,-2.9224598E-1,-6.748019E-1,4.0834793E-1,5.8710897E-1,-7.278211E-2,-1.11733876E-1,2.8900042E-1,7.126336E-2,-4.7144722E-2,3.4995575E-3,-4.7064584E-2,7.2975876E-3,1.7266504E-2,-1.4412907E-2,-5.9976757E-2,2.5156874E-2,-7.27492E-2,-2.8434008E-2,5.4492988E-2,3.346992E-2,6.14113E-2,-7.405159E-3,4.3900218E-2,-5.8807272E-2,1.7891299E-2,5.502684E-2,1.8859966E-2,-1.7046833E-2],"categories":[],"categories_nodes":[],"categories_segments":[],"categories_sizes":[],"default_left":[0,0,0,0,0,0,0,0,0,0,0,0,0,0,0,0,0,0,0,0,0,0,0,0,0,0,0,0,0,0,0,0,0,0,0,0,0,0,0,0,0,0,0,0,0,0,0,0,0],"id":14,"left_children":[1,3,5,7,9,11,13,15,17,19,21,-1,23,25,27,-1,29,-1,-1,31,33,35,37,39,41,-1,43,45,47,-1,-1,-1,-1,-1,-1,-1,-1,-1,-1,-1,-1,-1,-1,-1,-1,-1,-1,-1,-1],"loss_changes":[9.370502E1,7.0886707E0,1.7642395E1,3.6447144E-1,7.7670383E0,2.3519363E0,2.3974633E0,5.3962708E-2,1.419078E0,4.671118E0,4.9303722E-1,0E0,8.6658096E-1,4.9797726E-1,1.4391539E0,0E0,2.531689E-1,0E0,0E0,3.7557154E0,5.121465E0,1.3791968E0,4.0385628E-1,6.411104E-1,1.1096096E0,0E0,1.2626605E0,1.5184317E0,1.9873137E0,0E0,0E0,0E0,0E0,0E0,0E0,0E0,0E0,0E0,0E0,0E0,0E0,0E0,0E0,0E0,0E0,0E0,0E0,0E0,0E0],"parents":[2147483647,0,0,1,1,2,2,3,3,4,4,5,5,6,6,7,7,8,8,9,9,10,10,12,12,13,13,14,14,16,16,19,19,20,20,21,21,22,22,23,23,24,24,26,26,27,27,28,28],"right_children":[2,4,6,8,10,12,14,16,18,20,22,-1,24,26,28,-1,30,-1,-1,32,34,36,38,40,42,-1,44,46,48,-1,-1,-1,-1,-1,-1,-1,-1,-1,-1,-1,-1,-1,-1,-1,-1,-1,-1,-1,-1],"split_conditions":[9.6044207E-1,-1.9586649E0,4.699783E-1,2.0248747E0,1.0219426E0,1.8295684E-1,-5.4492927E-1,8.7765604E-1,2.5390294E0,-6.9505167E-1,-1.578275E-1,6.8073995E-2,1.3481392E-1,8.399585E-3,6.024498E-1,-6.547544E-2,-2.7976506E0,4.227669E-2,-5.5103093E-2,3.3616132E-1,-1.0438398E-1,1.5000031E-2,8.7765604E-1,8.399585E-3,1.1196733E0,-7.278211E-2,7.569998E-1,5.582926E-1,4.9161598E-1,-4.7144722E-2,3.4995575E-3,-4.7064584E-2,7.2975876E-3,1.7266504E-2,-1.4412907E-2,-5.9976757E-2,2.5156874E-2,-7.27492E-2,-2.8434008E-2,5.4492988E-2,3.346992E-2,6.14113E-2,-7.405159E-3,4.3900218E-2,-5.8807272E-2,1.7891299E-2,5.502684E-2,1.8859966E-2,-1.7046833E-2],"split_indices":[12,10,10,0,10,10,8,7,0,4,6,0,0,6,10,0,10,0,0,8,8,4,7,6,0,0,10,10,3,0,0,0,0,0,0,0,0,0,0,0,0,0,0,0,0,0,0,0,0],"split_type":[0,0,0,0,0,0,0,0,0,0,0,0,0,0,0,0,0,0,0,0,0,0,0,0,0,0,0,0,0,0,0,0,0,0,0,0,0,0,0,0,0,0,0,0,0,0,0,0,0],"sum_hessian":[8.377934E2,4.2352444E2,4.1426895E2,4.315394E1,3.803705E2,2.8587128E2,1.2839769E2,3.81376E1,5.016338E0,3.4534128E2,3.5029232E1,1.4640317E2,1.394681E2,5.2510138E0,1.23146675E2,3.4823467E1,3.3141325E0,1.3396084E0,3.6767292E0,7.2332E1,2.7300928E2,6.3448496E0,2.8684383E1,8.086601E1,5.8602085E1,2.4219873E0,2.8290265E0,5.5215282E1,6.79314E1,2.045971E0,1.2681617E0,5.631774E1,1.6014257E1,6.678134E1,2.0622794E2,3.9872255E0,2.357624E0,2.4513323E1,4.1710606E0,2.6087538E1,5.477847E1,5.6370872E1,2.2312124E0,1.3484039E0,1.4806224E0,4.0032177E1,1.5183105E1,4.5880733E1,2.2050661E1],"tree_param":{"num_deleted":"0","num_feature":"14","num_nodes":"49","size_leaf_vector":"1"}},{"base_weights":[-1.2531991E-1,1.1560991E-1,-3.297282E-1,-3.7242168E-1,1.8366951E-1,-3.6029306E-1,4.434841E-1,-5.529218E-1,-1.9266534E-1,1.2071943E-1,5.151874E-1,-3.3016148E-1,-5.8220696E-1,4.35808E-3,4.719722E-1,-4.4041406E-3,-5.805663E-1,6.5978706E-2,-6.081658E-1,-5.036642E-1,1.4246388E-1,3.6728716E-1,6.718816E-2,-5.059981E-1,-2.7020937E-1,-6.189342E-1,5.3800553E-2,5.689159E-1,2.2923142E-1,-6.1266113E-2,-5.455505E-3,-1.2532662E-2,3.4701195E-2,-7.5833336E-2,-1.6793638E-2,-6.586659E-2,2.288246E-2,1.6259065E-2,-5.3655963E-2,4.5196634E-2,-8.078213E-2,-5.195613E-2,-9.900698E-4,1.4163618E-2,-3.7571263E-2,-2.6173496E-3,-6.343263E-2,-4.3537054E-2,4.9515422E-2,6.317492E-2,1.999434E-2,-8.224623E-3,3.5869062E-2],"categories":[],"categories_nodes":[],"categories_segments":[],"categories_sizes":[],"default_left":[0,0,0,0,0,0,0,0,0,0,0,0,0,0,0,0,0,0,0,0,0,0,0,0,0,0,0,0,0,0,0,0,0,0,0,0,0,0,0,0,0,0,0,0,0,0,0,0,0,0,0,0,0],"id":15,"left_children":[1,3,5,7,9,11,13,15,17,19,21,23,25,-1,27,-1,29,31,33,35,37,39,-1,41,43,45,47,49,51,-1,-1,-1,-1,-1,-1,-1,-1,-1,-1,-1,-1,-1,-1,-1,-1,-1,-1,-1,-1,-1,-1,-1,-1],"loss_changes":[4.1473495E1,1.2920088E1,1.0923233E1,1.4406695E0,7.0382185E0,2.7410088E0,1.8184161E-1,3.016281E-1,2.7726483E0,3.971662E0,1.0044403E0,3.959175E0,1.2276936E0,0E0,2.5748634E-1,0E0,3.3761644E-1,9.345358E-1,5.2402115E-1,1.2732966E0,3.8914495E0,3.348333E0,0E0,6.5187645E-1,1.2736349E1,4.2518044E-1,1.0168899E0,1.3113141E-1,2.8673363E-1,0E0,0E0,0E0,0E0,0E0,0E0,0E0,0E0,0E0,0E0,0E0,0E0,0E0,0E0,0E0,0E0,0E0,0E0,0E0,0E0,0E0,0E0,0E0,0E0],"parents":[2147483647,0,0,1,1,2,2,3,3,4,4,5,5,6,6,7,7,8,8,9,9,10,10,11,11,12,12,14,14,16,16,17,17,18,18,19,19,20,20,21,21,23,23,24,24,25,25,26,26,27,27,28,28],"right_children":[2,4,6,8,10,12,14,16,18,20,22,24,26,-1,28,-1,30,32,34,36,38,40,-1,42,44,46,48,50,52,-1,-1,-1,-1,-1,-1,-1,-1,-1,-1,-1,-1,-1,-1,-1,-1,-1,-1,-1,-1,-1,-1,-1,-1],"split_conditions":[9.1173446E-1,-8.4666574E-1,2.0632935E0,-9.2142946E-1,9.903856E-1,1.1302016E0,-3.550843E-1,-8.725646E-1,-8.699688E-1,-2.8821666E0,2.3128295E0,-6.5053236E-1,1.0057621E0,4.35808E-3,3.4085375E-1,-4.4041406E-3,1.2122695E0,1.723232E-1,3.3616132E-1,-6.5650874E-1,2.0031247E0,2.1633022E0,6.718816E-2,1.5276865E0,-4.3400887E-1,-9.2628425E-1,1.7901293E0,6.9747216E-1,-3.3212265E-1,-6.1266113E-2,-5.455505E-3,-1.2532662E-2,3.4701195E-2,-7.5833336E-2,-1.6793638E-2,-6.586659E-2,2.288246E-2,1.6259065E-2,-5.3655963E-2,4.5196634E-2,-8.078213E-2,-5.195613E-2,-9.900698E-4,1.4163618E-2,-3.7571263E-2,-2.6173496E-3,-6.343263E-2,-4.3537054E-2,4.9515422E-2,6.317492E-2,1.999434E-2,-8.224623E-3,3.5869062E-2],"split_indices":[13,1,1,1,1,3,5,4,1,5,1,1,6,0,6,0,2,3,8,6,6,1,0,7,1,1,4,2,2,0,0,0,0,0,0,0,0,0,0,0,0,0,0,0,0,0,0,0,0,0,0,0,0],"split_type":[0,0,0,0,0,0,0,0,0,0,0,0,0,0,0,0,0,0,0,0,0,0,0,0,0,0,0,0,0,0,0,0,0,0,0,0,0,0,0,0,0,0,0,0,0,0,0,0,0,0,0,0,0],"sum_hessian":[8.403607E2,3.8592136E2,4.5443933E2,4.6685314E1,3.3923605E2,4.3767233E2,1.6767025E1,2.2258633E1,2.4426683E1,2.8624643E2,5.2989597E1,3.875398E2,5.0132526E1,1.2832407E0,1.5483785E1,1.280491E0,2.0978142E1,1.5573545E1,8.853138E0,8.887325E0,2.7735913E2,2.8979988E1,2.400961E1,9.664492E1,2.9089487E2,4.7420975E1,2.7115514E0,1.0104584E1,5.3792E0,1.9616503E1,1.3616387E0,9.595638E0,5.9779067E0,6.062545E0,2.7905927E0,7.41832E0,1.4690049E0,2.701133E2,7.245812E0,2.7606058E1,1.3739297E0,9.402695E1,2.6179755E0,5.925252E1,2.3164235E2,1.2685522E0,4.6152424E1,1.2925355E0,1.4190159E0,8.025685E0,2.0788991E0,1.6864091E0,3.692791E0],"tree_param":{"num_deleted":"0","num_feature":"14","num_nodes":"53","size_leaf_vector":"1"}},{"base_weights":[1.04830615E-1,-1.8990056E-1,4.1885263E-1,-3.200432E-1,-5.745123E-3,6.362918E-1,2.6632348E-1,1.0068609E-1,-3.5635218E-1,-6.375273E-2,6.2427517E-2,6.628989E-2,5.1570314E-1,4.685554E-1,7.9014406E-2,6.434837E-1,-5.834534E-1,-1.2109579E-1,-4.3873686E-1,-8.404512E-2,1.218247E-1,2.902151E-1,6.1052465E-1,5.652705E-1,1.7151847E-1,1.802507E-1,-2.8860968E-1,7.714014E-2,1.7202849E-4,-6.593957E-2,-8.827183E-3,6.617497E-3,-3.526625E-2,-4.6066713E-2,7.183567E-2,3.2275834E-3,6.2176224E-2,5.647064E-2,-4.4079693E-3,2.6096746E-2,6.513594E-2,6.628957E-2,3.4472387E-2,-4.0177926E-2,6.546441E-2,-1.7982235E-2,2.4021355E-2,1.0490596E-3,-6.691121E-2],"categories":[],"categories_nodes":[],"categories_segments":[],"categories_sizes":[],"default_left":[0,0,0,0,0,0,0,0,0,0,0,0,0,0,0,0,0,0,0,0,0,0,0,0,0,0,0,0,0,0,0,0,0,0,0,0,0,0,0,0,0,0,0,0,0,0,0,0,0],"id":16,"left_children":[1,3,5,7,9,11,13,15,17,-1,19,-1,21,23,25,27,29,31,33,-1,35,37,39,41,43,45,47,-1,-1,-1,-1,-1,-1,-1,-1,-1,-1,-1,-1,-1,-1,-1,-1,-1,-1,-1,-1,-1,-1],"loss_changes":[7.503121E1,1.0026592E1,1.2844696E1,3.7809143E0,7.5461535E0,1.7488861E-1,8.764015E0,7.897395E0,4.3251247E0,0E0,8.587382E0,0E0,5.4156303E-1,3.1067066E0,4.5859165E0,9.6491575E-1,2.9850197E-1,2.6240265E0,4.566757E0,0E0,6.665057E0,1.1129401E0,1.5487385E-1,1.57341E0,8.247361E0,2.1188467E0,3.0444026E0,0E0,0E0,0E0,0E0,0E0,0E0,0E0,0E0,0E0,0E0,0E0,0E0,0E0,0E0,0E0,0E0,0E0,0E0,0E0,0E0,0E0,0E0],"parents":[2147483647,0,0,1,1,2,2,3,3,4,4,5,5,6,6,7,7,8,8,10,10,12,12,13,13,14,14,15,15,16,16,17,17,18,18,20,20,21,21,22,22,23,23,24,24,25,25,26,26],"right_children":[2,4,6,8,10,12,14,16,18,-1,20,-1,22,24,26,28,30,32,34,-1,36,38,40,42,44,46,48,-1,-1,-1,-1,-1,-1,-1,-1,-1,-1,-1,-1,-1,-1,-1,-1,-1,-1,-1,-1,-1,-1],"split_conditions":[9.6044207E-1,9.1173446E-1,2.933497E-1,-7.845245E-1,-2.0911362E0,1.6087827E-1,-7.5539577E-1,1.0219426E0,-2.3474707E-1,-6.375273E-2,-8.699688E-1,6.628989E-2,5.92744E-3,7.349212E-1,6.024498E-1,6.609793E-1,5.331026E-1,4.2582116E-1,5.4211035E0,-8.404512E-2,8.874641E-1,-4.7576004E-1,-4.8072314E-1,-8.602592E-1,9.1173446E-1,3.3750686E-1,-5.5537856E-1,7.714014E-2,1.7202849E-4,-6.593957E-2,-8.827183E-3,6.617497E-3,-3.526625E-2,-4.6066713E-2,7.183567E-2,3.2275834E-3,6.2176224E-2,5.647064E-2,-4.4079693E-3,2.6096746E-2,6.513594E-2,6.628957E-2,3.4472387E-2,-4.0177926E-2,6.546441E-2,-1.7982235E-2,2.4021355E-2,1.0490596E-3,-6.691121E-2],"split_indices":[12,13,10,1,10,10,1,10,5,0,1,0,5,10,10,7,0,10,5,0,1,1,0,1,13,10,1,0,0,0,0,0,0,0,0,0,0,0,0,0,0,0,0,0,0,0,0,0,0],"split_type":[0,0,0,0,0,0,0,0,0,0,0,0,0,0,0,0,0,0,0,0,0,0,0,0,0,0,0,0,0,0,0,0,0,0,0,0,0,0,0,0,0,0,0,0,0,0,0,0,0],"sum_hessian":[8.0883246E2,4.1743573E2,3.9139676E2,2.441541E2,1.7328162E2,1.60056E2,2.3134074E2,1.9255733E1,2.2489838E2,1.606348E1,1.5721814E2,1.2744005E2,3.261595E1,1.105172E2,1.2082355E2,1.0770123E1,8.48561E0,5.897114E1,1.6592723E2,8.892731E0,1.4832541E2,1.0857409E1,2.1758545E1,8.2690254E1,2.7826946E1,9.513498E1,2.5688574E1,8.811745E0,1.9583781E0,7.0697517E0,1.415858E0,3.2998825E1,2.5972317E1,1.6343161E2,2.4956217E0,1.26696144E2,2.1629269E1,5.583511E0,5.273898E0,3.0490012E0,1.8709543E1,5.5927994E1,2.676226E1,1.28028755E1,1.5024072E1,1.3295778E1,8.1839195E1,1.4927217E1,1.0761358E1],"tree_param":{"num_deleted":"0","num_feature":"14","num_nodes":"49","size_leaf_vector":"1"}},{"base_weights":[-1.1744902E-1,1.2411789E-1,-3.316277E-1,-3.550029E-2,4.4778907E-1,6.274206E-2,-3.6287194E-1,-4.7786838E-1,1.907573E-1,-1.9129461E-1,4.9818045E-1,-4.35227E-1,-1.6276252E-1,-5.410032E-1,-1.6681223E-1,3.3527296E-2,4.5590255E-1,-6.558219E-2,4.2238247E-1,5.241752E-1,-2.428699E-1,2.2314966E-1,-4.511722E-1,-4.1323125E-1,1.2798707E-1,-4.4829383E-2,-7.197594E-2,-4.274455E-2,4.4726472E-2,-2.6920918E-2,2.8418532E-2,3.7152052E-3,5.0361414E-2,-4.2934003E-3,7.399762E-2,2.7396252E-2,5.784576E-2,4.477274E-2,-6.6572525E-2,-4.6351664E-2,7.320848E-2,-4.233901E-2,-6.679299E-2,-4.689974E-2,1.9689439E-2,2.1409487E-2,-7.5422324E-2],"categories":[],"categories_nodes":[],"categories_segments":[],"categories_sizes":[],"default_left":[0,0,0,0,0,0,0,0,0,0,0,0,0,0,0,0,0,0,0,0,0,0,0,0,0,0,0,0,0,0,0,0,0,0,0,0,0,0,0,0,0,0,0,0,0,0,0],"id":17,"left_children":[1,3,5,7,9,-1,11,13,15,17,19,21,23,25,27,29,31,-1,33,35,37,39,41,43,45,-1,-1,-1,-1,-1,-1,-1,-1,-1,-1,-1,-1,-1,-1,-1,-1,-1,-1,-1,-1,-1,-1],"loss_changes":[4.2144733E1,1.98116E1,1.3160831E1,2.586823E1,4.1730957E0,0E0,5.9904556E0,1.6268463E0,7.117915E0,3.121141E0,2.39357E0,3.3220978E0,8.265035E0,8.744755E-1,2.7836804E0,8.309151E0,1.2522745E0,0E0,7.568864E-1,1.389555E0,1.6619053E0,3.1089423E0,1.5234146E0,2.1615906E0,4.1838965E0,0E0,0E0,0E0,0E0,0E0,0E0,0E0,0E0,0E0,0E0,0E0,0E0,0E0,0E0,0E0,0E0,0E0,0E0,0E0,0E0,0E0,0E0],"parents":[2147483647,0,0,1,1,2,2,3,3,4,4,6,6,7,7,8,8,9,9,10,10,11,11,12,12,13,13,14,14,15,15,16,16,18,18,19,19,20,20,21,21,22,22,23,23,24,24],"right_children":[2,4,6,8,10,-1,12,14,16,18,20,22,24,26,28,30,32,-1,34,36,38,40,42,44,46,-1,-1,-1,-1,-1,-1,-1,-1,-1,-1,-1,-1,-1,-1,-1,-1,-1,-1,-1,-1,-1,-1],"split_conditions":[9.1173446E-1,6.2452835E-1,-2.0911362E0,-3.9225772E-1,-9.2142946E-1,6.274206E-2,4.9205688E-1,-5.0780165E-1,7.0006937E-1,8.0115694E-1,5.097617E-1,-9.8896295E-1,-6.5053236E-1,-7.136446E-1,4.9205688E-1,2.4919257E-1,-1.8765149E0,-6.558219E-2,-1.4696959E-1,-8.0394363E-1,7.1284264E-1,2.3109692E-1,4.4629765E-1,9.998641E-1,-1.6505368E-1,-4.4829383E-2,-7.197594E-2,-4.274455E-2,4.4726472E-2,-2.6920918E-2,2.8418532E-2,3.7152052E-3,5.0361414E-2,-4.2934003E-3,7.399762E-2,2.7396252E-2,5.784576E-2,4.477274E-2,-6.6572525E-2,-4.6351664E-2,7.320848E-2,-4.233901E-2,-6.679299E-2,-4.689974E-2,1.9689439E-2,2.1409487E-2,-7.5422324E-2],"split_indices":[13,10,10,1,1,0,10,1,1,10,1,6,1,1,10,10,2,0,3,1,10,1,8,10,1,0,0,0,0,0,0,0,0,0,0,0,0,0,0,0,0,0,0,0,0,0,0],"split_type":[0,0,0,0,0,0,0,0,0,0,0,0,0,0,0,0,0,0,0,0,0,0,0,0,0,0,0,0,0,0,0,0,0,0,0,0,0,0,0,0,0,0,0,0,0,0,0],"sum_hessian":[8.1277673E2,3.8216388E2,4.3061285E2,2.5654114E2,1.2562274E2,1.2984032E1,4.176288E2,8.6435165E1,1.7010599E2,8.976974E0,1.1664577E2,3.058613E2,1.11767525E2,7.1237E1,1.519817E1,1.0749082E2,6.2615158E1,5.0702987E0,3.906675E0,1.1297544E2,3.6703274E0,6.9252E0,2.989361E2,5.9816677E1,5.195085E1,4.9218403E1,2.2018597E1,1.0883007E1,4.315163E0,4.8654057E1,5.8836765E1,6.5864573E0,5.6028698E1,1.9355924E0,1.9710827E0,2.1218134E1,9.17573E1,1.3715405E0,2.2987869E0,2.985858E0,3.939342E0,2.675918E2,3.1344305E1,5.5019176E1,4.797501E0,4.8021088E1,3.9297602E0],"tree_param":{"num_deleted":"0","num_feature":"14","num_nodes":"47","size_leaf_vector":"1"}},{"base_weights":[9.925668E-2,-1.03660695E-1,2.8302783E-1,5.8647405E-2,-3.6881578E-1,-6.213994E-2,3.2102278E-1,5.2704936E-1,-1.1426184E-1,-2.7101463E-1,-6.515784E-1,4.471486E-1,2.4338493E-1,-1.9121254E-3,5.482124E-1,4.0111065E-2,-4.1527033E-1,-3.0346448E-3,-4.9694973E-1,-6.731947E-2,-5.9873145E-3,3.4675407E-1,6.06726E-1,4.955142E-1,1.0339282E-1,6.4613506E-2,4.252071E-2,1.9067941E-2,-3.3945955E-2,-5.295668E-2,-1.0900621E-2,1.160121E-2,-4.2072725E-2,-5.391549E-2,5.250128E-2,6.0826283E-2,2.8289983E-2,6.353718E-2,-3.3684954E-2,5.2773584E-2,-2.4872309E-2,1.6519187E-2,-4.618725E-2],"categories":[],"categories_nodes":[],"categories_segments":[],"categories_sizes":[],"default_left":[0,0,0,0,0,0,0,0,0,0,0,0,0,0,0,0,0,0,0,0,0,0,0,0,0,0,0,0,0,0,0,0,0,0,0,0,0,0,0,0,0,0,0],"id":18,"left_children":[1,3,5,7,9,-1,11,13,15,17,19,21,23,-1,25,27,29,31,33,-1,-1,35,37,39,41,-1,-1,-1,-1,-1,-1,-1,-1,-1,-1,-1,-1,-1,-1,-1,-1,-1,-1],"loss_changes":[2.9909384E1,1.6441694E1,1.4657837E1,1.929793E1,3.8334942E0,0E0,3.8515205E0,7.527771E-1,8.116349E0,6.6254635E0,4.2722416E-1,2.2392712E0,8.862314E0,0E0,4.7034454E-1,6.701733E0,2.0137997E0,2.5884695E0,2.8442125E0,0E0,0E0,1.4341669E0,1.7740173E0,2.2869892E0,5.792761E0,0E0,0E0,0E0,0E0,0E0,0E0,0E0,0E0,0E0,0E0,0E0,0E0,0E0,0E0,0E0,0E0,0E0,0E0],"parents":[2147483647,0,0,1,1,2,2,3,3,4,4,6,6,7,7,8,8,9,9,10,10,11,11,12,12,14,14,15,15,16,16,17,17,18,18,21,21,22,22,23,23,24,24],"right_children":[2,4,6,8,10,-1,12,14,16,18,20,22,24,-1,26,28,30,32,34,-1,-1,36,38,40,42,-1,-1,-1,-1,-1,-1,-1,-1,-1,-1,-1,-1,-1,-1,-1,-1,-1,-1],"split_conditions":[9.1173446E-1,5.803712E-1,-2.0911362E0,-5.0100493E-1,9.777855E-1,-6.213994E-2,2.8406829E-2,-1.4051034E0,7.0006937E-1,-6.000426E-1,1.0327739E0,-6.339504E-1,-6.5830004E-1,-1.9121254E-3,-7.7384394E-1,4.0374258E-1,8.109088E-1,3.669392E-1,9.5570695E-1,-6.731947E-2,-5.9873145E-3,4.6615023E-2,4.8727643E-1,1.0219426E0,2.0973587E-1,6.4613506E-2,4.252071E-2,1.9067941E-2,-3.3945955E-2,-5.295668E-2,-1.0900621E-2,1.160121E-2,-4.2072725E-2,-5.391549E-2,5.250128E-2,6.0826283E-2,2.8289983E-2,6.353718E-2,-3.3684954E-2,5.2773584E-2,-2.4872309E-2,1.6519187E-2,-4.618725E-2],"split_indices":[13,10,10,1,10,0,10,4,1,1,0,10,1,0,1,10,3,5,10,0,0,1,5,10,1,0,0,0,0,0,0,0,0,0,0,0,0,0,0,0,0,0,0],"split_type":[0,0,0,0,0,0,0,0,0,0,0,0,0,0,0,0,0,0,0,0,0,0,0,0,0,0,0,0,0,0,0,0,0,0,0,0,0,0,0,0,0,0,0],"sum_hessian":[8.002807E2,3.8053528E2,4.1974545E2,2.3652884E2,1.4400642E2,1.630352E1,4.0344193E2,6.3220295E1,1.7330855E2,1.0845335E2,3.555308E1,1.5190565E2,2.5153629E2,2.3618774E0,6.0858418E1,1.15130394E2,5.817815E1,5.007417E1,5.837918E1,3.4167164E1,1.3859166E0,9.519121E1,5.671445E1,8.889485E1,1.6264143E2,3.1516056E1,2.934236E1,8.2787735E1,3.2342655E1,4.1836006E1,1.6342142E1,3.9529972E1,1.0544198E1,5.6517544E1,1.861639E0,1.7008554E1,7.818265E1,5.5360405E1,1.3540437E0,8.54847E1,3.4101422E0,1.4725066E2,1.5390784E1],"tree_param":{"num_deleted":"0","num_feature":"14","num_nodes":"43","size_leaf_vector":"1"}},{"base_weights":[-1.0281126E-1,1.807149E-1,-4.1170913E-1,3.1089297E-1,2.6523462E-3,-5.360612E-1,-1.03811935E-1,-4.026723E-1,3.3910146E-1,6.168781E-2,-5.4707687E-2,-6.298899E-2,-4.115824E-1,1.418753E-1,-4.6688136E-1,-6.325932E-1,4.3964934E-2,9.0433225E-2,4.2629376E-1,7.336154E-1,-1.0761183E-1,-6.124737E-1,-2.6842365E-1,-6.1054576E-2,4.8405784E-1,1.0315827E-1,-5.5449367E-1,-2.6842112E-2,-7.964067E-2,-7.812859E-2,3.0833876E-2,4.5580003E-2,-3.4821093E-2,1.6808955E-2,8.102595E-2,-3.4571216E-3,-5.3797096E-2,5.7995445E-3,-6.3041404E-2,-3.5423231E-3,-3.6470562E-2,-3.2882072E-2,5.1816385E-2,5.573049E-2,-1.5405362E-2,-4.8557498E-2,5.899697E-2,-6.468305E-2,-3.6488272E-2],"categories":[],"categories_nodes":[],"categories_segments":[],"categories_sizes":[],"default_left":[0,0,0,0,0,0,0,0,0,0,0,0,0,0,0,0,0,0,0,0,0,0,0,0,0,0,0,0,0,0,0,0,0,0,0,0,0,0,0,0,0,0,0,0,0,0,0,0,0],"id":19,"left_children":[1,3,5,7,9,11,13,15,17,-1,19,-1,21,23,25,27,-1,29,31,33,35,37,39,41,43,45,47,-1,-1,-1,-1,-1,-1,-1,-1,-1,-1,-1,-1,-1,-1,-1,-1,-1,-1,-1,-1,-1,-1],"loss_changes":[6.9733345E1,9.628343E0,1.453035E1,4.966675E0,6.2503524E0,2.9073563E0,9.953025E0,2.1339529E0,4.978243E0,0E0,6.8475814E0,0E0,3.2698517E0,4.673021E0,2.302885E0,2.5976872E-1,0E0,1.1892161E1,4.06752E0,3.117485E-1,4.7895374E0,6.248417E-1,1.5912251E0,6.8185163E0,1.2546387E0,2.2449486E0,4.4910622E-1,0E0,0E0,0E0,0E0,0E0,0E0,0E0,0E0,0E0,0E0,0E0,0E0,0E0,0E0,0E0,0E0,0E0,0E0,0E0,0E0,0E0,0E0],"parents":[2147483647,0,0,1,1,2,2,3,3,4,4,5,5,6,6,7,7,8,8,10,10,12,12,13,13,14,14,15,15,17,17,18,18,19,19,20,20,21,21,22,22,23,23,24,24,25,25,26,26],"right_children":[2,4,6,8,10,12,14,16,18,-1,20,-1,22,24,26,28,-1,30,32,34,36,38,40,42,44,46,48,-1,-1,-1,-1,-1,-1,-1,-1,-1,-1,-1,-1,-1,-1,-1,-1,-1,-1,-1,-1,-1,-1],"split_conditions":[9.6044207E-1,9.1173446E-1,4.9205688E-1,-2.8821666E0,-2.0911362E0,2.7127114E-1,9.1173446E-1,9.903856E-1,-5.621753E-1,6.168781E-2,-8.699688E-1,-6.298899E-2,-7.592796E-1,7.1284264E-1,5.141355E-1,4.369399E-1,4.3964934E-2,5.803712E-1,3.9770567E0,-3.0661598E-1,8.874641E-1,-1.2275904E0,-4.8935345E-1,-5.1556927E-1,1.289848E0,-8.845331E-1,-7.670473E-1,-2.6842112E-2,-7.964067E-2,-7.812859E-2,3.0833876E-2,4.5580003E-2,-3.4821093E-2,1.6808955E-2,8.102595E-2,-3.4571216E-3,-5.3797096E-2,5.7995445E-3,-6.3041404E-2,-3.5423231E-3,-3.6470562E-2,-3.2882072E-2,5.1816385E-2,5.573049E-2,-1.5405362E-2,-4.8557498E-2,5.899697E-2,-6.468305E-2,-3.6488272E-2],"split_indices":[12,13,10,5,10,10,13,1,1,0,1,0,1,10,10,1,0,10,5,3,1,4,1,1,3,1,1,0,0,0,0,0,0,0,0,0,0,0,0,0,0,0,0,0,0,0,0,0,0],"split_type":[0,0,0,0,0,0,0,0,0,0,0,0,0,0,0,0,0,0,0,0,0,0,0,0,0,0,0,0,0,0,0,0,0,0,0,0,0,0,0,0,0,0,0,0,0,0,0,0,0],"sum_hessian":[7.943693E2,4.1441122E2,3.799581E2,2.3896361E2,1.7544762E2,2.7012158E2,1.0983651E2,8.582583E0,2.3038103E2,1.4151823E1,1.6129579E2,1.5170808E2,1.1841351E2,6.587111E1,4.3965405E1,6.937818E0,1.6447651E0,6.0337788E1,1.7004324E2,9.33458E0,1.5196121E2,4.7907616E1,7.05059E1,4.186489E1,2.4006216E1,5.8334274E0,3.8131977E1,2.9711843E0,3.9666336E0,1.1549442E1,4.8788345E1,1.6419925E2,5.8439913E0,1.4952024E0,7.8393784E0,1.3083603E2,2.112518E1,1.1903116E0,4.6717304E1,2.1015856E1,4.9490044E1,2.8925337E1,1.2939553E1,2.1647945E1,2.3582718E0,2.6414666E0,3.1919606E0,2.4022257E1,1.4109722E1],"tree_param":{"num_deleted":"0","num_feature":"14","num_nodes":"49","size_leaf_vector":"1"}},{"base_weights":[8.4856816E-2,-1.7123225E-1,3.6213934E-1,-2.9813215E-1,-3.4084904E-3,6.13633E-1,2.007459E-1,3.1370315E-1,-3.2682085E-1,-3.9845052E-1,8.0468126E-2,6.316222E-2,4.938233E-1,5.2816653E-1,5.4036357E-2,5.434604E-1,-4.6804044E-2,-3.470531E-1,4.1515133E-1,2.4196918E-1,-5.246482E-1,-7.9122804E-2,1.3162439E-1,3.0197385E-3,5.2794653E-1,6.0630973E-2,8.741077E-3,1.3490304E-1,-1.4901587E-1,1.2523539E-2,7.862368E-2,-1.5221051E-2,-4.187074E-2,5.9228417E-2,-1.2353553E-2,-4.5529217E-2,6.842979E-2,-5.7606857E-2,-4.3021827E-3,6.108034E-3,5.6469537E-2,3.2496117E-2,6.0232192E-2,-3.8311277E-2,5.1924337E-2,5.8359024E-3,3.3428945E-2,-4.8694547E-2,4.6593226E-2],"categories":[],"categories_nodes":[],"categories_segments":[],"categories_sizes":[],"default_left":[0,0,0,0,0,0,0,0,0,0,0,0,0,0,0,0,0,0,0,0,0,0,0,0,0,0,0,0,0,0,0,0,0,0,0,0,0,0,0,0,0,0,0,0,0,0,0,0,0],"id":20,"left_children":[1,3,5,7,9,11,13,15,17,19,21,-1,23,25,27,29,-1,31,33,35,37,-1,39,-1,41,-1,43,45,47,-1,-1,-1,-1,-1,-1,-1,-1,-1,-1,-1,-1,-1,-1,-1,-1,-1,-1,-1,-1],"loss_changes":[5.5801765E1,8.704226E0,1.51875305E1,4.187868E0,5.8973E0,4.8332214E-3,1.1079635E1,2.2183785E0,3.4888744E0,2.6460414E0,6.6522317E0,0E0,3.6009216E-1,2.894453E0,2.6605847E0,8.065951E-1,0E0,2.9720402E0,6.809614E-1,2.105119E0,6.278844E-1,0E0,4.2291346E0,0E0,1.3759565E-1,0E0,2.270735E0,1.7436986E0,9.843625E0,0E0,0E0,0E0,0E0,0E0,0E0,0E0,0E0,0E0,0E0,0E0,0E0,0E0,0E0,0E0,0E0,0E0,0E0,0E0,0E0],"parents":[2147483647,0,0,1,1,2,2,3,3,4,4,5,5,6,6,7,7,8,8,9,9,10,10,12,12,13,13,14,14,15,15,17,17,18,18,19,19,20,20,22,22,24,24,26,26,27,27,28,28],"right_children":[2,4,6,8,10,12,14,16,18,20,22,-1,24,26,28,30,-1,32,34,36,38,-1,40,-1,42,-1,44,46,48,-1,-1,-1,-1,-1,-1,-1,-1,-1,-1,-1,-1,-1,-1,-1,-1,-1,-1,-1,-1],"split_conditions":[9.6044207E-1,9.1173446E-1,2.7127114E-1,-2.8821666E0,-8.988933E-1,1.8295684E-1,-8.4666574E-1,9.903856E-1,3.9770567E0,-8.469201E-1,-8.699688E-1,6.316222E-2,-8.469201E-1,8.0115694E-1,6.024498E-1,4.369399E-1,-4.6804044E-2,-5.495528E-1,8.02799E0,-1.9807434E0,4.4430247E-1,-7.9122804E-2,8.262938E-1,3.0197385E-3,2.2711399E-1,6.0630973E-2,9.1173446E-1,5.25873E-1,9.1173446E-1,1.2523539E-2,7.862368E-2,-1.5221051E-2,-4.187074E-2,5.9228417E-2,-1.2353553E-2,-4.5529217E-2,6.842979E-2,-5.7606857E-2,-4.3021827E-3,6.108034E-3,5.6469537E-2,3.2496117E-2,6.0232192E-2,-3.8311277E-2,5.1924337E-2,5.8359024E-3,3.3428945E-2,-4.8694547E-2,4.6593226E-2],"split_indices":[12,13,10,5,10,10,1,1,5,2,1,0,2,10,10,1,0,1,7,10,7,0,1,0,10,0,13,2,13,0,0,0,0,0,0,0,0,0,0,0,0,0,0,0,0,0,0,0,0],"split_type":[0,0,0,0,0,0,0,0,0,0,0,0,0,0,0,0,0,0,0,0,0,0,0,0,0,0,0,0,0,0,0,0,0,0,0,0,0,0,0,0,0,0,0,0,0,0,0,0,0],"sum_hessian":[7.839672E2,4.0775787E2,3.7620935E2,2.3174641E2,1.7601146E2,1.4596118E2,2.3024815E2,9.934822E0,2.218116E2,3.0169367E1,1.458421E2,1.23192215E2,2.2768963E1,7.0440865E1,1.598073E2,7.913752E0,2.0210702E0,2.1644186E2,5.3697233E0,4.8153524E0,2.5354013E1,7.2824903E0,1.385596E2,1.6901512E0,2.1078812E1,6.1084026E1,9.356841E0,1.145305E2,4.527679E1,3.4633574E0,4.4503946E0,5.9035778E1,1.574061E2,3.966086E0,1.4036376E0,1.8576901E0,2.9576623E0,2.2731064E1,2.6229513E0,1.2013203E2,1.8427576E1,7.092139E0,1.3986672E1,5.434748E0,3.922093E0,8.369345E1,3.0837051E1,2.9354113E1,1.5922677E1],"tree_param":{"num_deleted":"0","num_feature":"14","num_nodes":"49","size_leaf_vector":"1"}},{"base_weights":[-7.77353E-2,1.7921594E-1,-3.669728E-1,-2.765275E-2,2.4908027E-1,-6.0632133E-1,-2.1310723E-1,-7.2107844E-2,1.5464647E-1,3.2949114E-1,2.9631313E-2,-1.2663144E-2,-6.1220646E-1,-4.55824E-1,-2.6945774E-2,5.7691403E-2,6.478841E-2,5.551914E-2,4.3527386E-1,2.9320553E-1,-2.8777686E-1,-6.311514E-2,-4.9284476E-1,-5.771198E-1,-2.42663E-1,-1.225487E-1,2.810379E-1,2.8156368E-2,-7.1642892E-3,-2.7203977E-3,5.253565E-2,-6.0490396E-2,4.577363E-2,6.492323E-3,4.3305885E-2,4.5172524E-2,-3.836694E-2,-1.6907673E-2,-6.0780168E-2,-6.0359914E-2,-4.876075E-3,1.1509649E-2,-6.2120963E-2,1.7838994E-2,-1.8724725E-2,4.9624838E-2,-4.540967E-2],"categories":[],"categories_nodes":[],"categories_segments":[],"categories_sizes":[],"default_left":[0,0,0,0,0,0,0,0,0,0,0,0,0,0,0,0,0,0,0,0,0,0,0,0,0,0,0,0,0,0,0,0,0,0,0,0,0,0,0,0,0,0,0,0,0,0,0],"id":21,"left_children":[1,3,5,7,9,11,13,-1,15,17,19,-1,21,23,25,27,-1,29,31,33,35,-1,37,39,41,43,45,-1,-1,-1,-1,-1,-1,-1,-1,-1,-1,-1,-1,-1,-1,-1,-1,-1,-1,-1,-1],"loss_changes":[5.763328E1,5.944957E0,1.3302868E1,1.3337445E1,5.4117203E0,3.2384872E-1,1.0088808E1,0E0,3.963873E0,6.4893456E0,7.0689745E0,0E0,5.962372E-3,2.367258E0,3.7908816E0,2.0765855E0,0E0,2.4920537E0,4.061922E0,1.4438965E0,2.894968E0,0E0,7.818241E-1,8.2509995E-1,5.0680656E0,1.9425368E0,5.0546436E0,0E0,0E0,0E0,0E0,0E0,0E0,0E0,0E0,0E0,0E0,0E0,0E0,0E0,0E0,0E0,0E0,0E0,0E0,0E0,0E0],"parents":[2147483647,0,0,1,1,2,2,3,3,4,4,5,5,6,6,8,8,9,9,10,10,12,12,13,13,14,14,15,15,17,17,18,18,19,19,20,20,22,22,23,23,24,24,25,25,26,26],"right_children":[2,4,6,8,10,12,14,-1,16,18,20,-1,22,24,26,28,-1,30,32,34,36,-1,38,40,42,44,46,-1,-1,-1,-1,-1,-1,-1,-1,-1,-1,-1,-1,-1,-1,-1,-1,-1,-1,-1,-1],"split_conditions":[9.6044207E-1,-5.621753E-1,2.7127114E-1,5.803712E-1,2.26025E-1,-1.6393812E0,-7.592796E-1,-7.2107844E-2,1.1102569E0,-2.145203E-1,9.1173446E-1,-1.2663144E-2,1.8295684E-1,6.024498E-1,5.803712E-1,-1.625129E-1,6.478841E-2,1.140884E0,-1.9863255E0,2.933497E-1,-8.988933E-1,-6.311514E-2,8.399585E-3,-7.7384394E-1,9.1173446E-1,3.3750686E-1,9.1173446E-1,2.8156368E-2,-7.1642892E-3,-2.7203977E-3,5.253565E-2,-6.0490396E-2,4.577363E-2,6.492323E-3,4.3305885E-2,4.5172524E-2,-3.836694E-2,-1.6907673E-2,-6.0780168E-2,-6.0359914E-2,-4.876075E-3,1.1509649E-2,-6.2120963E-2,1.7838994E-2,-1.8724725E-2,4.9624838E-2,-4.540967E-2],"split_indices":[12,1,10,10,8,0,1,0,10,8,13,0,10,10,10,4,0,1,6,10,10,0,6,1,13,10,13,0,0,0,0,0,0,0,0,0,0,0,0,0,0,0,0,0,0,0,0],"split_type":[0,0,0,0,0,0,0,0,0,0,0,0,0,0,0,0,0,0,0,0,0,0,0,0,0,0,0,0,0,0,0,0,0,0,0,0,0,0,0,0,0,0,0,0,0,0,0],"sum_hessian":[7.735906E2,4.0986093E2,3.6372964E2,1.03626495E2,3.0623444E2,1.4117757E2,2.2255208E2,2.095664E1,8.266985E1,2.2374716E2,8.248728E1,1.9839512E0,1.391936E2,9.597353E1,1.2657855E2,7.0022575E1,1.2647281E1,6.275073E1,1.6099643E2,4.510694E1,3.738034E1,1.164267E2,2.2766912E1,6.007907E1,3.589446E1,9.705367E1,2.9524876E1,2.5209301E1,4.4813274E1,5.4157455E1,8.593271E0,2.8550858E0,1.5814134E2,1.769221E1,2.7414734E1,3.864836E0,3.3515503E1,6.6129084E0,1.6154005E1,5.707623E1,3.0028417E0,1.8811708E1,1.708275E1,1.6862453E1,8.0191216E1,2.3090187E1,6.43469E0],"tree_param":{"num_deleted":"0","num_feature":"14","num_nodes":"47","size_leaf_vector":"1"}},{"base_weights":[1.0253886E-1,-1.4455006E-1,3.833663E-1,-9.92382E-2,-5.3542507E-1,5.921561E-1,2.396524E-1,1.8434833E-1,-1.6939639E-1,-8.059401E-2,-5.654583E-1,6.154098E-2,4.8991543E-1,5.010131E-1,1.3316265E-1,7.234916E-2,3.8305614E-2,-1.2535392E-1,-5.608638E-1,2.8296009E-2,-4.2285886E-2,-6.502808E-2,-2.879312E-1,-1.5174684E-2,5.175255E-1,5.854707E-1,-7.402197E-2,1.0557407E-1,5.7844114E-1,-1.9918835E-2,3.118988E-2,-2.1314805E-2,1.1197953E-2,-6.063236E-2,-2.2932254E-2,5.9990067E-2,-4.9645543E-2,3.4042045E-2,6.038055E-2,6.1458863E-2,2.8744563E-2,-2.5078777E-2,4.025922E-2,1.509154E-2,-7.0761956E-2,6.437536E-2,1.3318284E-2],"categories":[],"categories_nodes":[],"categories_segments":[],"categories_sizes":[],"default_left":[0,0,0,0,0,0,0,0,0,0,0,0,0,0,0,0,0,0,0,0,0,0,0,0,0,0,0,0,0,0,0,0,0,0,0,0,0,0,0,0,0,0,0,0,0,0,0],"id":22,"left_children":[1,3,5,7,9,11,13,15,17,19,21,-1,23,25,27,-1,29,31,33,-1,-1,-1,35,-1,37,39,41,43,45,-1,-1,-1,-1,-1,-1,-1,-1,-1,-1,-1,-1,-1,-1,-1,-1,-1,-1],"loss_changes":[5.1733494E1,6.9765043E0,1.0325775E1,7.1320543E0,5.145359E-1,3.5030365E-2,5.7309475E0,5.583356E0,4.871641E0,5.808001E-1,7.14303E-1,0E0,6.300745E-1,2.9544506E0,1.7738345E0,0E0,3.7742054E0,5.419202E0,2.9350471E-1,0E0,0E0,0E0,2.2898061E0,0E0,2.5400543E-1,2.7786255E-1,8.224837E-1,5.3379006E0,1.61196E-1,0E0,0E0,0E0,0E0,0E0,0E0,0E0,0E0,0E0,0E0,0E0,0E0,0E0,0E0,0E0,0E0,0E0,0E0],"parents":[2147483647,0,0,1,1,2,2,3,3,4,4,5,5,6,6,7,7,8,8,9,9,10,10,12,12,13,13,14,14,16,16,17,17,18,18,22,22,24,24,25,25,26,26,27,27,28,28],"right_children":[2,4,6,8,10,12,14,16,18,20,22,-1,24,26,28,-1,30,32,34,-1,-1,-1,36,-1,38,40,42,44,46,-1,-1,-1,-1,-1,-1,-1,-1,-1,-1,-1,-1,-1,-1,-1,-1,-1,-1],"split_conditions":[9.6044207E-1,9.777855E-1,2.933497E-1,-5.621753E-1,-9.1560376E-1,1.6087827E-1,-8.505496E-1,5.582926E-1,2.3128295E0,1.0440212E0,9.1173446E-1,6.154098E-2,-3.240546E-1,8.232355E-1,3.1079706E-2,7.234916E-2,8.232355E-1,2.26025E-1,-2.113215E0,2.8296009E-2,-4.2285886E-2,-6.502808E-2,-1.1440981E-1,-1.5174684E-2,2.2711399E-1,8.7765604E-1,9.1173446E-1,-9.999954E-2,5.141355E-1,-1.9918835E-2,3.118988E-2,-2.1314805E-2,1.1197953E-2,-6.063236E-2,-2.2932254E-2,5.9990067E-2,-4.9645543E-2,3.4042045E-2,6.038055E-2,6.1458863E-2,2.8744563E-2,-2.5078777E-2,4.025922E-2,1.509154E-2,-7.0761956E-2,6.437536E-2,1.3318284E-2],"split_indices":[12,10,10,1,1,10,1,10,1,10,13,0,6,10,1,0,10,8,10,0,0,0,5,0,10,7,13,1,10,0,0,0,0,0,0,0,0,0,0,0,0,0,0,0,0,0,0],"split_type":[0,0,0,0,0,0,0,0,0,0,0,0,0,0,0,0,0,0,0,0,0,0,0,0,0,0,0,0,0,0,0,0,0,0,0,0,0,0,0,0,0,0,0,0,0,0,0],"sum_hessian":[7.437553E2,3.9590204E2,3.4785324E2,3.5589868E2,4.0003365E1,1.4054576E2,2.073075E2,7.026258E1,2.856361E2,2.7060306E0,3.7297333E1,1.1041393E2,3.0131819E1,5.894134E1,1.4836615E2,1.4133226E1,5.6129356E1,2.5793686E2,2.7699251E1,1.3962276E0,1.309803E0,2.7537683E1,9.75965E0,1.0575732E0,2.9074245E1,5.137723E1,7.5641117E0,1.4087491E2,7.4912333E0,3.019253E1,2.5936827E1,1.8836061E2,6.957624E1,2.3630337E1,4.0689154E0,1.499282E0,8.260367E0,1.1144243E1,1.7930002E1,4.583665E1,5.540582E0,5.8633404E0,1.7007711E0,1.3420636E2,6.668544E0,6.14418E0,1.3470534E0],"tree_param":{"num_deleted":"0","num_feature":"14","num_nodes":"47","size_leaf_vector":"1"}},{"base_weights":[-8.118813E-2,1.5672556E-1,-3.5022372E-1,2.6751062E-1,9.790918E-3,-5.8984464E-1,-2.0047334E-1,2.1909858E-1,5.7130957E-1,4.3839929E-1,-8.2020074E-2,-1.4414577E-1,-5.960909E-1,-8.123356E-2,-3.2199612E-1,4.2820188E-1,1.346701E-1,5.9558517E-1,4.681007E-4,-1.3141035E-1,5.2195156E-1,4.9278997E-2,-3.1616357E-1,-3.4489892E-2,1.2351289E-2,-6.1572123E-2,-4.6904022E-1,-2.3476915E-1,4.433012E-1,2.2516597E-2,-4.016321E-1,5.264112E-2,1.11014545E-2,-5.1549304E-2,1.6382148E-2,2.2995254E-2,6.1457347E-2,4.3824915E-2,-6.1834823E-2,6.798365E-2,3.422647E-2,-9.229258E-3,2.2751728E-2,-4.331353E-2,-6.308213E-3,-1.6400479E-2,-5.895653E-2,-5.3304937E-2,-1.447618E-2,5.1761348E-2,-3.408593E-2,3.3485096E-2,-5.7792343E-2,-3.5117555E-2,-6.295825E-2],"categories":[],"categories_nodes":[],"categories_segments":[],"categories_sizes":[],"default_left":[0,0,0,0,0,0,0,0,0,0,0,0,0,0,0,0,0,0,0,0,0,0,0,0,0,0,0,0,0,0,0,0,0,0,0,0,0,0,0,0,0,0,0,0,0,0,0,0,0,0,0,0,0,0,0],"id":23,"left_children":[1,3,5,7,9,11,13,15,17,19,21,23,25,27,29,31,33,35,-1,37,39,41,43,-1,-1,-1,45,47,49,51,53,-1,-1,-1,-1,-1,-1,-1,-1,-1,-1,-1,-1,-1,-1,-1,-1,-1,-1,-1,-1,-1,-1,-1,-1],"loss_changes":[4.872654E1,6.5776014E0,1.2698284E1,3.2638893E0,6.9147224E0,2.9507065E-1,3.180853E0,3.479888E0,4.243269E-1,1.5442896E0,4.467424E0,2.1510297E-1,4.7000885E-2,9.2082815E0,3.0070295E0,1.7226467E0,2.8175538E0,6.534386E-2,0E0,1.5921091E0,5.3992987E-1,2.384016E0,1.5168781E0,0E0,0E0,0E0,7.200947E-1,2.2881842E0,1.6882296E0,4.2187505E0,8.0036163E-1,0E0,0E0,0E0,0E0,0E0,0E0,0E0,0E0,0E0,0E0,0E0,0E0,0E0,0E0,0E0,0E0,0E0,0E0,0E0,0E0,0E0,0E0,0E0,0E0],"parents":[2147483647,0,0,1,1,2,2,3,3,4,4,5,5,6,6,7,7,8,8,9,9,10,10,11,11,12,12,13,13,14,14,15,15,16,16,17,17,19,19,20,20,21,21,22,22,26,26,27,27,28,28,29,29,30,30],"right_children":[2,4,6,8,10,12,14,16,18,20,22,24,26,28,30,32,34,36,-1,38,40,42,44,-1,-1,-1,46,48,50,52,54,-1,-1,-1,-1,-1,-1,-1,-1,-1,-1,-1,-1,-1,-1,-1,-1,-1,-1,-1,-1,-1,-1,-1,-1],"split_conditions":[9.6044207E-1,9.1173446E-1,2.7127114E-1,9.777855E-1,-8.988933E-1,-1.6393812E0,9.1173446E-1,5.0485402E-2,9.096664E-1,-8.469201E-1,2.2762565E-1,-1.9362873E0,1.8295684E-1,6.686855E-1,3.3750686E-1,8.109088E-1,-2.8821666E0,-1.0185192E0,4.681007E-4,-1.1901183E0,-2.3450832E-1,5.141355E-1,6.7330796E-1,-3.4489892E-2,1.2351289E-2,-6.1572123E-2,8.399585E-3,4.0374258E-1,1.289848E0,3.319696E-1,7.569998E-1,5.264112E-2,1.11014545E-2,-5.1549304E-2,1.6382148E-2,2.2995254E-2,6.1457347E-2,4.3824915E-2,-6.1834823E-2,6.798365E-2,3.422647E-2,-9.229258E-3,2.2751728E-2,-4.331353E-2,-6.308213E-3,-1.6400479E-2,-5.895653E-2,-5.3304937E-2,-1.447618E-2,5.1761348E-2,-3.408593E-2,3.3485096E-2,-5.7792343E-2,-3.5117555E-2,-6.295825E-2],"split_indices":[12,13,10,10,10,0,13,10,0,2,7,0,10,10,10,3,5,2,0,2,0,10,6,0,0,0,6,10,3,3,10,0,0,0,0,0,0,0,0,0,0,0,0,0,0,0,0,0,0,0,0,0,0,0,0],"split_type":[0,0,0,0,0,0,0,0,0,0,0,0,0,0,0,0,0,0,0,0,0,0,0,0,0,0,0,0,0,0,0,0,0,0,0,0,0,0,0,0,0,0,0,0,0,0,0,0,0,0,0,0,0,0,0],"sum_hessian":[7.594084E2,4.0323602E2,3.561724E2,2.2943051E2,1.7380551E2,1.3585197E2,2.2032042E2,1.9937949E2,3.0051022E1,2.9996323E1,1.4380919E2,2.2103634E0,1.336416E2,1.1204692E2,1.0827349E2,5.6176315E1,1.4320317E2,2.8767458E1,1.2835636E0,3.7626963E0,2.6233627E1,9.264616E1,5.1163025E1,1.0981419E0,1.1122215E0,1.1242485E2,2.1216757E1,8.7103455E1,2.4943466E1,2.0463549E1,8.7809944E1,4.239127E1,1.3785044E1,5.4293385E0,1.3777383E2,2.067454E0,2.6700005E1,1.7801371E0,1.9825592E0,1.2482347E1,1.375128E1,5.1902836E1,4.0743324E1,3.450412E1,1.6658903E1,6.677501E0,1.4539256E1,1.9050081E1,6.8053375E1,2.3094767E1,1.8486995E0,1.3752273E1,6.7112756E0,7.397601E1,1.3833933E1],"tree_param":{"num_deleted":"0","num_feature":"14","num_nodes":"55","size_leaf_vector":"1"}},{"base_weights":[1.0415439E-1,-1.3185094E-1,3.685853E-1,-1.0547579E-1,-5.979066E-2,2.0348814E-1,4.6716842E-1,-3.3091363E-1,-6.20654E-2,5.3286146E-2,1.8051817E-1,3.5481438E-1,5.465361E-1,2.063076E-1,-3.9075193E-1,1.25441E-1,-1.23176835E-1,-4.3260958E-2,1.9296375E-1,5.556976E-1,3.1050703E-2,3.2169893E-1,5.641813E-1,5.3203195E-2,-4.7324393E-2,-4.8150074E-2,-7.4135973E-3,-4.1046437E-2,1.7201671E-2,-2.2165349E-2,4.056646E-3,-1.895018E-2,2.1135388E-2,5.716274E-2,1.3063948E-3,-3.8901266E-2,2.7759885E-2,-8.46179E-3,5.421249E-2,2.8539333E-2,5.714168E-2],"categories":[],"categories_nodes":[],"categories_segments":[],"categories_sizes":[],"default_left":[0,0,0,0,0,0,0,0,0,0,0,0,0,0,0,0,0,0,0,0,0,0,0,0,0,0,0,0,0,0,0,0,0,0,0,0,0,0,0,0,0],"id":24,"left_children":[1,3,5,7,-1,9,11,13,15,-1,17,19,21,23,25,27,29,-1,31,33,35,37,39,-1,-1,-1,-1,-1,-1,-1,-1,-1,-1,-1,-1,-1,-1,-1,-1,-1,-1],"loss_changes":[4.54207E1,4.6682606E0,5.489689E0,3.5563755E0,0E0,8.878031E-1,1.715023E0,1.970365E0,3.5414872E0,0E0,1.0227709E0,5.9318933E0,3.088684E-1,1.7007296E0,1.4940138E0,1.9709036E0,3.7593417E0,0E0,8.934798E-1,4.7995377E-1,3.8449235E0,1.0598183E0,6.542969E-2,0E0,0E0,0E0,0E0,0E0,0E0,0E0,0E0,0E0,0E0,0E0,0E0,0E0,0E0,0E0,0E0,0E0,0E0],"parents":[2147483647,0,0,1,1,2,2,3,3,5,5,6,6,7,7,8,8,10,10,11,11,12,12,13,13,14,14,15,15,16,16,18,18,19,19,20,20,21,21,22,22],"right_children":[2,4,6,8,-1,10,12,14,16,-1,18,20,22,24,26,28,30,-1,32,34,36,38,40,-1,-1,-1,-1,-1,-1,-1,-1,-1,-1,-1,-1,-1,-1,-1,-1,-1,-1],"split_conditions":[9.6044207E-1,2.4817762E0,9.1173446E-1,-9.803944E-1,-5.979066E-2,-9.6123874E-1,-4.2332834E-1,-3.4823692E0,-1.0438398E-1,5.3286146E-2,-9.573549E-1,-6.5053236E-1,-9.007367E-1,9.447506E-1,3.4085375E-1,-1.7049158E0,2.26025E-1,-4.3260958E-2,-8.7533826E-1,1.5276865E0,1.8948117E-2,1.0098864E-1,-3.240546E-1,5.3203195E-2,-4.7324393E-2,-4.8150074E-2,-7.4135973E-3,-4.1046437E-2,1.7201671E-2,-2.2165349E-2,4.056646E-3,-1.895018E-2,2.1135388E-2,5.716274E-2,1.3063948E-3,-3.8901266E-2,2.7759885E-2,-8.46179E-3,5.421249E-2,2.8539333E-2,5.714168E-2],"split_indices":[12,1,13,0,0,1,1,6,8,0,1,1,0,1,6,2,8,0,8,7,0,1,6,0,0,0,0,0,0,0,0,0,0,0,0,0,0,0,0,0,0],"split_type":[0,0,0,0,0,0,0,0,0,0,0,0,0,0,0,0,0,0,0,0,0,0,0,0,0,0,0,0,0,0,0,0,0,0,0,0,0,0,0,0,0],"sum_hessian":[7.2603424E2,3.83902E2,3.4213226E2,3.645004E2,1.9401592E1,1.2905988E2,2.1307239E2,5.7785767E1,3.0671463E2,6.966535E0,1.2209334E2,9.047092E1,1.2260147E2,5.5460653E0,5.22397E1,7.5133156E1,2.315815E2,1.7573631E0,1.20335976E2,5.538823E1,3.5082687E1,1.0321055E1,1.1228042E2,3.8958032E0,1.6502624E0,4.0197483E1,1.2042217E1,5.382993E0,6.975016E1,1.4439027E2,8.719122E1,5.0938125E0,1.15242165E2,5.3756695E1,1.6315346E0,1.2761718E1,2.232097E1,3.846612E0,6.474443E0,3.8634322E0,1.08416985E2],"tree_param":{"num_deleted":"0","num_feature":"14","num_nodes":"41","size_leaf_vector":"1"}},{"base_weights":[-8.464966E-2,1.3014896E-1,-3.3795652E-1,2.309506E-1,-1.6153848E-3,-5.814402E-1,-1.9703743E-1,4.6591714E-1,1.5491371E-1,5.791921E-2,-4.7226477E-2,-3.333387E-1,-5.8824386E-2,-3.2217246E-1,-7.746129E-2,2.624611E-1,5.683545E-1,-1.09791994E-1,3.2810792E-1,3.696426E-2,-2.5507116E-1,-4.6776764E-2,4.669504E-3,-4.062593E-1,-1.4972563E-1,1.2571213E-1,-4.0607798E-1,5.154964E-2,-3.979091E-2,6.0285E-2,3.3562355E-2,-6.1071087E-2,4.1295122E-4,2.5255546E-2,5.845352E-2,-1.6269807E-2,1.5937354E-2,-4.1813556E-2,-3.267875E-3,-4.8194658E-2,-1.8085314E-2,2.181215E-2,-2.5418747E-2,-1.5898526E-3,3.764319E-2,6.6243634E-3,-5.1032353E-2],"categories":[],"categories_nodes":[],"categories_segments":[],"categories_sizes":[],"default_left":[0,0,0,0,0,0,0,0,0,0,0,0,0,0,0,0,0,0,0,0,0,0,0,0,0,0,0,0,0,0,0,0,0,0,0,0,0,0,0,0,0,0,0,0,0,0,0],"id":25,"left_children":[1,3,5,7,9,11,13,15,17,-1,19,21,-1,23,25,27,29,31,33,35,37,-1,-1,39,41,43,45,-1,-1,-1,-1,-1,-1,-1,-1,-1,-1,-1,-1,-1,-1,-1,-1,-1,-1,-1,-1],"loss_changes":[4.0375942E1,5.337658E0,1.1565716E1,3.9955387E0,4.667676E0,1.3702393E-2,3.2240925E0,1.0005817E0,7.990719E0,0E0,2.8675575E0,3.0920398E-1,0E0,1.473115E0,7.5522966E0,3.6025574E0,8.53529E-2,3.9614232E0,1.8892517E0,2.888415E0,1.6985264E0,0E0,0E0,1.1160612E0,1.4486969E0,2.4980621E0,2.1589298E0,0E0,0E0,0E0,0E0,0E0,0E0,0E0,0E0,0E0,0E0,0E0,0E0,0E0,0E0,0E0,0E0,0E0,0E0,0E0,0E0],"parents":[2147483647,0,0,1,1,2,2,3,3,4,4,5,5,6,6,7,7,8,8,10,10,11,11,13,13,14,14,15,15,16,16,17,17,18,18,19,19,20,20,23,23,24,24,25,25,26,26],"right_children":[2,4,6,8,10,12,14,16,18,-1,20,22,-1,24,26,28,30,32,34,36,38,-1,-1,40,42,44,46,-1,-1,-1,-1,-1,-1,-1,-1,-1,-1,-1,-1,-1,-1,-1,-1,-1,-1,-1,-1],"split_conditions":[9.6044207E-1,9.1173446E-1,2.7127114E-1,5.0485402E-2,-1.9807434E0,-3.240546E-1,4.699783E-1,-1.8924291E0,4.699783E-1,5.791921E-2,2.26025E-1,1.6087827E-1,-5.8824386E-2,1.1588867E-1,9.1173446E-1,-2.5547864E0,1.4351035E0,-9.8896295E-1,1.0219426E0,-1.0438398E-1,5.141355E-1,-4.6776764E-2,4.669504E-3,2.4660194E-1,-1.1440981E-1,6.686855E-1,5.141355E-1,5.154964E-2,-3.979091E-2,6.0285E-2,3.3562355E-2,-6.1071087E-2,4.1295122E-4,2.5255546E-2,5.845352E-2,-1.6269807E-2,1.5937354E-2,-4.1813556E-2,-3.267875E-3,-4.8194658E-2,-1.8085314E-2,2.181215E-2,-2.5418747E-2,-1.5898526E-3,3.764319E-2,6.6243634E-3,-5.1032353E-2],"split_indices":[12,13,10,10,10,6,10,10,10,0,8,10,0,8,13,10,4,6,10,8,10,0,0,5,5,10,10,0,0,0,0,0,0,0,0,0,0,0,0,0,0,0,0,0,0,0,0],"split_type":[0,0,0,0,0,0,0,0,0,0,0,0,0,0,0,0,0,0,0,0,0,0,0,0,0,0,0,0,0,0,0,0,0,0,0,0,0,0,0,0,0,0,0,0,0,0,0],"sum_hessian":[7.402605E2,4.0084174E2,3.3941876E2,2.2667747E2,1.7416428E2,1.232823E2,2.1613646E2,5.4166504E1,1.7251097E2,1.1829536E1,1.6233473E2,4.624887E0,1.1865742E2,1.0478544E2,1.1135103E2,1.9332129E1,3.4834373E1,6.837476E1,1.041362E2,1.16120476E2,4.6214256E1,3.2458706E0,1.3790163E0,6.952734E1,3.5258095E1,6.9190285E1,4.216074E1,1.4135272E1,5.1968565E0,2.8952667E1,5.881706E0,1.1860909E1,5.651385E1,8.1969894E1,2.2166306E1,4.4008644E1,7.211183E1,2.6155869E1,2.005839E1,5.1197903E1,1.8329443E1,7.55748E0,2.7700613E1,4.4814762E1,2.4375525E1,7.688733E0,3.4472004E1],"tree_param":{"num_deleted":"0","num_feature":"14","num_nodes":"47","size_leaf_vector":"1"}},{"base_weights":[8.549813E-2,-1.2445728E-1,3.2751504E-1,-9.833593E-2,-5.833127E-2,5.7625586E-1,1.9007154E-1,-6.000168E-2,-4.248563E-1,3.067319E-3,5.84067E-2,5.016963E-1,7.49034E-2,2.1322858E-1,-1.17784314E-1,1.3071145E-1,-4.9534202E-1,5.4829407E-1,-2.3622184E-1,1.5890151E-1,-1.3301921E-1,-4.466356E-2,3.5965525E-2,-3.5633307E-3,-3.252297E-2,6.4151555E-2,-2.5753422E-2,-1.2107889E-2,-5.712843E-2,5.940293E-2,2.7020574E-2,-5.712126E-2,1.7421195E-2,8.049585E-3,3.5522293E-2,5.2613798E-3,-5.652642E-2],"categories":[],"categories_nodes":[],"categories_segments":[],"categories_sizes":[],"default_left":[0,0,0,0,0,0,0,0,0,0,0,0,0,0,0,0,0,0,0,0,0,0,0,0,0,0,0,0,0,0,0,0,0,0,0,0,0],"id":26,"left_children":[1,3,5,7,-1,9,11,13,15,-1,-1,17,19,21,23,25,27,29,31,33,35,-1,-1,-1,-1,-1,-1,-1,-1,-1,-1,-1,-1,-1,-1,-1,-1],"loss_changes":[3.5803654E1,4.468482E0,1.1077431E1,4.46134E0,0E0,4.7628403E-1,7.5800767E0,5.1082625E0,1.5331573E0,0E0,0E0,2.0929394E0,2.748386E0,5.62544E0,4.528438E0,1.1593827E0,8.8255596E-1,5.2641296E-1,6.6191906E-1,1.6904261E0,3.6787324E0,0E0,0E0,0E0,0E0,0E0,0E0,0E0,0E0,0E0,0E0,0E0,0E0,0E0,0E0,0E0,0E0],"parents":[2147483647,0,0,1,1,2,2,3,3,5,5,6,6,7,7,8,8,11,11,12,12,13,13,14,14,15,15,16,16,17,17,18,18,19,19,20,20],"right_children":[2,4,6,8,-1,10,12,14,16,-1,-1,18,20,22,24,26,28,30,32,34,36,-1,-1,-1,-1,-1,-1,-1,-1,-1,-1,-1,-1,-1,-1,-1,-1],"split_conditions":[9.6044207E-1,2.4817762E0,2.7127114E-1,9.777855E-1,-5.833127E-2,-1.6393812E0,-8.505496E-1,-6.252875E-1,-9.1560376E-1,3.067319E-3,5.84067E-2,9.115498E-1,6.024498E-1,-8.8064927E-1,4.699783E-1,1.0219426E0,-1.578275E-1,7.1284264E-1,8.399585E-3,5.25873E-1,-5.7091385E-1,-4.466356E-2,3.5965525E-2,-3.5633307E-3,-3.252297E-2,6.4151555E-2,-2.5753422E-2,-1.2107889E-2,-5.712843E-2,5.940293E-2,2.7020574E-2,-5.712126E-2,1.7421195E-2,8.049585E-3,3.5522293E-2,5.2613798E-3,-5.652642E-2],"split_indices":[12,1,10,10,0,0,1,1,1,0,0,10,10,1,10,10,6,10,6,2,1,0,0,0,0,0,0,0,0,0,0,0,0,0,0,0,0],"split_type":[0,0,0,0,0,0,0,0,0,0,0,0,0,0,0,0,0,0,0,0,0,0,0,0,0,0,0,0,0,0,0,0,0,0,0,0,0],"sum_hessian":[7.028172E2,3.7659653E2,3.2622064E2,3.5746155E2,1.9134975E1,1.1496608E2,2.1125458E2,3.2096347E2,3.6498093E1,1.6922854E0,1.13273796E2,5.6100445E1,1.5515413E2,5.5558765E1,2.654047E2,4.0130258E0,3.248507E1,5.300996E1,3.0904853E0,1.1067755E2,4.4476578E1,9.717431E0,4.5841335E1,1.9095561E2,7.444908E1,1.4512767E0,2.561749E0,5.9173245E0,2.6567743E1,4.454744E1,8.46252E0,1.4859462E0,1.6045392E0,8.0098366E1,3.0579187E1,3.1728605E1,1.274797E1],"tree_param":{"num_deleted":"0","num_feature":"14","num_nodes":"37","size_leaf_vector":"1"}},{"base_weights":[-7.039789E-2,1.4738287E-1,-3.2700333E-1,1.2281426E-1,5.8645345E-2,-2.853582E-1,-5.3873277E-1,-8.6339556E-2,1.7963971E-1,-5.225627E-1,-2.3404E-1,-1.1344608E-2,-5.494064E-2,3.4216225E-1,-1.5467605E-1,2.8757638E-1,-1.257763E-2,5.2613262E-2,-5.523075E-1,-1.3750179E-1,-3.5348424E-1,-1.0290991E-2,5.8736958E-2,2.5265152E-2,-2.335954E-2,-1.0240503E-4,3.770194E-2,2.0775262E-2,-9.586167E-3,-3.1100783E-2,3.6637526E-2,-5.658971E-2,-1.5099679E-2,-3.637195E-3,-2.716333E-2,2.3114015E-3,-3.9514653E-2],"categories":[],"categories_nodes":[],"categories_segments":[],"categories_sizes":[],"default_left":[0,0,0,0,0,0,0,0,0,0,0,0,0,0,0,0,0,0,0,0,0,0,0,0,0,0,0,0,0,0,0,0,0,0,0,0,0],"id":27,"left_children":[1,3,5,7,-1,9,11,13,15,17,19,-1,-1,21,23,25,27,29,31,33,35,-1,-1,-1,-1,-1,-1,-1,-1,-1,-1,-1,-1,-1,-1,-1,-1],"loss_changes":[4.0744484E1,4.184717E0,2.7968369E0,4.472001E0,0E0,3.3074493E0,1.8222237E-1,2.4184675E0,6.1277094E0,8.7255764E-1,2.6432896E0,0E0,0E0,1.3070484E0,2.32086E0,4.880928E0,1.9852809E0,4.9470195E-1,1.7068672E-1,1.7635806E0,1.636323E0,0E0,0E0,0E0,0E0,0E0,0E0,0E0,0E0,0E0,0E0,0E0,0E0,0E0,0E0,0E0,0E0],"parents":[2147483647,0,0,1,1,2,2,3,3,5,5,6,6,7,7,8,8,9,9,10,10,13,13,14,14,15,15,16,16,17,17,18,18,19,19,20,20],"right_children":[2,4,6,8,-1,10,12,14,16,18,20,-1,-1,22,24,26,28,30,32,34,36,-1,-1,-1,-1,-1,-1,-1,-1,-1,-1,-1,-1,-1,-1,-1,-1],"split_conditions":[9.6044207E-1,2.4817762E0,1.0098864E-1,-2.145203E-1,5.8645345E-2,-8.9618456E-1,-1.9362873E0,-1.1107434E0,2.26025E-1,-8.364333E-1,-4.291541E-1,-1.1344608E-2,-5.494064E-2,-1.3158836E0,-8.725646E-1,-5.621753E-1,-1.578275E-1,3.700259E-1,9.969793E-1,1.2033069E-1,-9.007367E-1,-1.0290991E-2,5.8736958E-2,2.5265152E-2,-2.335954E-2,-1.0240503E-4,3.770194E-2,2.0775262E-2,-9.586167E-3,-3.1100783E-2,3.6637526E-2,-5.658971E-2,-1.5099679E-2,-3.637195E-3,-2.716333E-2,2.3114015E-3,-3.9514653E-2],"split_indices":[12,1,1,8,0,1,0,0,8,5,1,0,0,8,4,1,6,4,8,0,0,0,0,0,0,0,0,0,0,0,0,0,0,0,0,0,0],"split_type":[0,0,0,0,0,0,0,0,0,0,0,0,0,0,0,0,0,0,0,0,0,0,0,0,0,0,0,0,0,0,0,0,0,0,0,0,0],"sum_hessian":[7.2723145E2,3.9360498E2,3.3362643E2,3.7395944E2,1.9645535E1,2.8075284E2,5.287362E1,7.9784035E1,2.941754E2,4.8302906E1,2.3244992E2,1.57921E0,5.129441E1,1.0422578E1,6.936146E1,1.8807097E2,1.0610443E2,2.3373199E0,4.5965588E1,1.2974086E2,1.0270907E2,3.9085467E0,6.514031E0,1.0900285E1,5.8461174E1,4.473044E1,1.4334053E2,2.8695412E1,7.740902E1,1.086706E0,1.2506137E0,4.406334E1,1.9022448E0,7.469497E1,5.5045883E1,1.0275035E1,9.243404E1],"tree_param":{"num_deleted":"0","num_feature":"14","num_nodes":"37","size_leaf_vector":"1"}},{"base_weights":[7.312351E-2,-1.0956235E-1,2.909347E-1,-7.615284E-2,-4.6303943E-1,5.6700397E-1,1.3737188E-1,-4.550958E-2,-5.350487E-1,-1.0247443E-2,-5.257985E-1,5.251705E-3,5.747035E-2,3.7920934E-1,-3.2372702E-2,-9.478365E-2,2.0718008E-1,-5.661943E-2,-2.2074543E-1,-4.3411136E-2,3.274921E-2,-6.06696E-2,-2.0528778E-1,5.8185037E-2,2.602705E-1,6.069877E-2,-3.0071172E-1,-1.6840713E-2,1.1536888E-2,-5.7106562E-2,2.4800343E-2,-3.9810363E-2,9.011742E-3,-5.321144E-2,6.240914E-2,2.9197449E-2,-4.4587743E-2,-4.038363E-3,3.271013E-2,6.567462E-2,-4.3775838E-2],"categories":[],"categories_nodes":[],"categories_segments":[],"categories_sizes":[],"default_left":[0,0,0,0,0,0,0,0,0,0,0,0,0,0,0,0,0,0,0,0,0,0,0,0,0,0,0,0,0,0,0,0,0,0,0,0,0,0,0,0,0],"id":28,"left_children":[1,3,5,7,9,11,13,15,17,19,21,-1,-1,23,25,27,29,-1,31,-1,-1,-1,33,-1,35,37,39,-1,-1,-1,-1,-1,-1,-1,-1,-1,-1,-1,-1,-1,-1],"loss_changes":[2.743106E1,4.395787E0,1.3249355E1,4.813087E0,9.097581E-1,4.1365814E-1,8.358791E0,4.048369E0,8.4899426E-2,8.4938294E-1,6.083021E-1,0E0,0E0,1.8715038E0,3.0249505E0,4.219388E0,1.8290555E0,0E0,2.3281926E-1,0E0,0E0,0E0,2.28581E0,0E0,1.3547697E0,2.442672E0,4.377649E0,0E0,0E0,0E0,0E0,0E0,0E0,0E0,0E0,0E0,0E0,0E0,0E0,0E0,0E0],"parents":[2147483647,0,0,1,1,2,2,3,3,4,4,5,5,6,6,7,7,8,8,9,9,10,10,13,13,14,14,15,15,16,16,18,18,22,22,24,24,25,25,26,26],"right_children":[2,4,6,8,10,12,14,16,18,20,22,-1,-1,24,26,28,30,-1,32,-1,-1,-1,34,-1,36,38,40,-1,-1,-1,-1,-1,-1,-1,-1,-1,-1,-1,-1,-1,-1],"split_conditions":[9.6044207E-1,9.998641E-1,2.7127114E-1,2.3128295E0,-9.1560376E-1,-1.6393812E0,-7.592796E-1,8.690713E-1,-2.113215E0,1.8267475E-1,9.1173446E-1,5.251705E-3,5.747035E-2,-9.2142946E-1,5.803712E-1,2.26025E-1,-9.078361E-1,-5.661943E-2,-2.048114E0,-4.3411136E-2,3.274921E-2,-6.06696E-2,5.25873E-1,5.8185037E-2,1.1071156E0,5.25873E-1,-4.7542155E-1,-1.6840713E-2,1.1536888E-2,-5.7106562E-2,2.4800343E-2,-3.9810363E-2,9.011742E-3,-5.321144E-2,6.240914E-2,2.9197449E-2,-4.4587743E-2,-4.038363E-3,3.271013E-2,6.567462E-2,-4.3775838E-2],"split_indices":[12,10,10,1,1,0,1,2,10,2,13,0,0,1,10,8,1,0,2,0,0,0,2,0,8,2,5,0,0,0,0,0,0,0,0,0,0,0,0,0,0],"split_type":[0,0,0,0,0,0,0,0,0,0,0,0,0,0,0,0,0,0,0,0,0,0,0,0,0,0,0,0,0,0,0,0,0,0,0,0,0,0,0,0,0],"sum_hessian":[6.87577E2,3.7421057E2,3.133665E2,3.4300616E2,3.1204401E1,1.11043846E2,2.0232263E2,3.2256567E2,2.044049E1,3.9401839E0,2.7264215E1,1.7526293E0,1.09291214E2,8.293294E1,1.193897E2,2.7045273E2,5.2112934E1,1.7868414E1,2.5720773E0,1.62077E0,2.319414E0,2.1056591E1,6.207626E0,2.9233906E1,5.3699028E1,8.921865E1,3.0171053E1,2.0043298E2,7.001975E1,1.9499977E0,5.0162937E1,1.4590164E0,1.113061E0,4.71001E0,1.497616E0,5.1953014E1,1.7460124E0,6.5292725E1,2.3925924E1,3.302994E0,2.686806E1],"tree_param":{"num_deleted":"0","num_feature":"14","num_nodes":"41","size_leaf_vector":"1"}},{"base_weights":[-6.256918E-2,-1.590949E-1,1.864472E-1,-3.167356E-1,-1.1847101E-2,3.352664E-1,-5.9806757E-2,-5.8083624E-2,-2.5495517E-1,3.1880045E-1,-1.02931E-1,-1.8817772E-1,3.8131553E-1,-2.9424432E-1,2.0957042E-1,-2.23333E-1,-6.790162E-1,3.5786864E-1,-2.5974745E-1,-1.4405741E-1,5.5041816E-2,-5.9805453E-2,1.4455695E-1,3.9586416E-1,-5.3273786E-2,1.8683761E-1,-5.067926E-1,4.2636645E-1,-4.3210635E-1,-2.4081342E-2,6.304068E-2,-7.3770136E-2,-6.377475E-3,2.6470128E-2,6.0220864E-2,4.182222E-2,-7.1288295E-2,-6.7567253E-3,-3.646574E-2,4.6438705E-2,-2.4164308E-2,1.2925193E-2,4.5839287E-2,3.8012724E-2,-8.651406E-3,-5.943945E-2,1.2066079E-2,-4.1964073E-2,6.3263066E-2,1.4375781E-2,-8.746778E-2],"categories":[],"categories_nodes":[],"categories_segments":[],"categories_sizes":[],"default_left":[0,0,0,0,0,0,0,0,0,0,0,0,0,0,0,0,0,0,0,0,0,0,0,0,0,0,0,0,0,0,0,0,0,0,0,0,0,0,0,0,0,0,0,0,0,0,0,0,0,0,0],"id":29,"left_children":[1,3,5,7,9,11,13,-1,15,17,19,21,23,25,27,29,31,33,35,37,-1,-1,39,41,-1,43,45,47,49,-1,-1,-1,-1,-1,-1,-1,-1,-1,-1,-1,-1,-1,-1,-1,-1,-1,-1,-1,-1,-1,-1],"loss_changes":[1.6798517E1,1.1678922E1,7.1788716E0,3.8172855E0,7.901274E0,3.0103283E0,4.762215E0,0E0,2.5134077E0,1.3738856E0,5.603601E0,1.5221703E0,1.7054024E0,4.2065926E0,5.083681E0,2.9341745E0,4.332118E-1,1.0586553E0,1.5774536E0,3.2524433E0,0E0,0E0,9.2938673E-1,1.7945099E0,0E0,7.2255826E-1,1.6195626E0,4.947057E0,2.5190897E0,0E0,0E0,0E0,0E0,0E0,0E0,0E0,0E0,0E0,0E0,0E0,0E0,0E0,0E0,0E0,0E0,0E0,0E0,0E0,0E0,0E0,0E0],"parents":[2147483647,0,0,1,1,2,2,3,3,4,4,5,5,6,6,8,8,9,9,10,10,11,11,12,12,13,13,14,14,15,15,16,16,17,17,18,18,19,19,22,22,23,23,25,25,26,26,27,27,28,28],"right_children":[2,4,6,8,10,12,14,-1,16,18,20,22,24,26,28,30,32,34,36,38,-1,-1,40,42,-1,44,46,48,50,-1,-1,-1,-1,-1,-1,-1,-1,-1,-1,-1,-1,-1,-1,-1,-1,-1,-1,-1,-1,-1,-1],"split_conditions":[6.024498E-1,-9.999954E-2,9.1173446E-1,-8.602592E-1,-9.803944E-1,-9.1560376E-1,-6.5830004E-1,-5.8083624E-2,8.482882E-1,1.4375246E0,2.3128295E0,8.0115694E-1,3.7862566E0,-8.699688E-1,-3.7478048E-1,7.2795093E-1,2.7736843E0,2.4660194E-1,-4.573218E-1,5.25873E-1,5.5041816E-2,-5.9805453E-2,9.998641E-1,6.686855E-1,-5.3273786E-2,1.9998842E-1,9.998641E-1,-1.578275E-1,1.1075613E-2,-2.4081342E-2,6.304068E-2,-7.3770136E-2,-6.377475E-3,2.6470128E-2,6.0220864E-2,4.182222E-2,-7.1288295E-2,-6.7567253E-3,-3.646574E-2,4.6438705E-2,-2.4164308E-2,1.2925193E-2,4.5839287E-2,3.8012724E-2,-8.651406E-3,-5.943945E-2,1.2066079E-2,-4.1964073E-2,6.3263066E-2,1.4375781E-2,-8.746778E-2],"split_indices":[10,1,13,1,0,1,1,0,5,8,1,10,2,1,1,5,5,5,10,2,0,0,10,10,0,0,10,6,2,0,0,0,0,0,0,0,0,0,0,0,0,0,0,0,0,0,0,0,0,0,0],"split_type":[0,0,0,0,0,0,0,0,0,0,0,0,0,0,0,0,0,0,0,0,0,0,0,0,0,0,0,0,0,0,0,0,0,0,0,0,0,0,0,0,0,0,0,0,0,0,0,0,0,0,0],"sum_hessian":[6.9664166E2,5.02298E2,1.9434366E2,2.4203204E2,2.6026596E2,1.2091149E2,7.3432175E1,4.4291576E1,1.9774046E2,5.567126E1,2.045947E2,9.527313E0,1.1138418E2,3.9212994E1,3.421918E1,1.8543896E2,1.2301507E1,5.2507004E1,3.1642568E0,1.9321207E2,1.1382621E1,3.9115305E0,5.6157827E0,1.1019712E2,1.1870515E0,1.2053057E1,2.7159935E1,2.582838E1,8.390798E0,1.8242178E2,3.017174E0,1.1048586E1,1.2529207E0,3.9520924E1,1.2986079E1,1.2985091E0,1.8657477E0,1.444368E2,4.8775272E1,2.961104E0,2.654679E0,2.1517418E1,8.86797E1,6.8316875E0,5.2213697E0,2.3878786E1,3.281149E0,4.8600526E0,2.0968328E1,3.9397101E0,4.451088E0],"tree_param":{"num_deleted":"0","num_feature":"14","num_nodes":"51","size_leaf_vector":"1"}},{"base_weights":[5.4917283E-2,-1.414086E-1,2.9057255E-1,-2.3910528E-1,-1.448385E-2,5.4951334E-1,1.5515015E-1,-3.181846E-1,2.4037497E-2,-3.5626465E-1,5.2938495E-2,5.7474125E-2,3.8912135E-1,2.2023478E-1,-7.173893E-3,-2.750556E-1,-5.9259087E-2,-8.241158E-2,6.4894885E-1,2.9685473E-1,-4.7289366E-1,1.6190794E-1,-7.283871E-2,-1.8529022E-3,4.3060166E-1,1.8785143E-1,4.934033E-1,-2.4548405E-1,4.4025722E-1,-5.0971698E-2,-1.9920936E-2,5.9810616E-2,-1.2071644E-2,8.481949E-2,-4.89667E-3,-3.6371496E-2,6.462767E-2,3.2631863E-2,-5.367114E-2,-6.451312E-3,4.8000053E-2,-2.7239943E-2,4.9098595E-3,1.5888814E-2,5.357037E-2,4.1754168E-2,1.4288709E-2,-1.1739511E-2,5.500078E-2,-3.7731286E-2,5.8353017E-3,-1.43136205E-2,5.535636E-2],"categories":[],"categories_nodes":[],"categories_segments":[],"categories_sizes":[],"default_left":[0,0,0,0,0,0,0,0,0,0,0,0,0,0,0,0,0,0,0,0,0,0,0,0,0,0,0,0,0,0,0,0,0,0,0,0,0,0,0,0,0,0,0,0,0,0,0,0,0,0,0,0,0],"id":30,"left_children":[1,3,5,7,9,11,13,15,17,19,21,-1,23,25,27,29,-1,31,33,35,37,39,41,-1,43,45,47,49,51,-1,-1,-1,-1,-1,-1,-1,-1,-1,-1,-1,-1,-1,-1,-1,-1,-1,-1,-1,-1,-1,-1,-1,-1],"loss_changes":[3.180997E1,4.649878E0,1.0869585E1,4.4188433E0,3.8045242E0,2.0884705E-1,2.1834102E0,1.7669086E0,3.3738241E0,2.2120733E0,1.904367E0,0E0,3.0597615E-1,1.2116237E0,6.513651E0,2.439804E0,0E0,1.20707E0,1.067445E0,1.3280208E0,1.3718004E0,5.3819876E0,1.5899371E0,0E0,3.728559E-1,1.3184128E0,5.83586E-1,1.6177576E0,1.4829249E0,0E0,0E0,0E0,0E0,0E0,0E0,0E0,0E0,0E0,0E0,0E0,0E0,0E0,0E0,0E0,0E0,0E0,0E0,0E0,0E0,0E0,0E0,0E0,0E0],"parents":[2147483647,0,0,1,1,2,2,3,3,4,4,5,5,6,6,7,7,8,8,9,9,10,10,12,12,13,13,14,14,15,15,17,17,18,18,19,19,20,20,21,21,22,22,24,24,25,25,26,26,27,27,28,28],"right_children":[2,4,6,8,10,12,14,16,18,20,22,-1,24,26,28,30,-1,32,34,36,38,40,42,-1,44,46,48,50,52,-1,-1,-1,-1,-1,-1,-1,-1,-1,-1,-1,-1,-1,-1,-1,-1,-1,-1,-1,-1,-1,-1,-1,-1],"split_conditions":[9.6044207E-1,9.1173446E-1,2.7127114E-1,6.489684E-1,-8.988933E-1,1.8295684E-1,6.024498E-1,9.998641E-1,1.3838687E0,-8.469201E-1,4.9205688E-1,5.7474125E-2,-8.469201E-1,9.705552E-1,9.1173446E-1,5.0485402E-2,-5.9259087E-2,-3.8448646E0,1.1588867E-1,-1.5333166E0,-4.3479297E-1,2.7127114E-1,-1.4696959E-1,-1.8529022E-3,2.2711399E-1,-2.145203E-1,-1.0438398E-1,2.26025E-1,6.9076407E-1,-5.0971698E-2,-1.9920936E-2,5.9810616E-2,-1.2071644E-2,8.481949E-2,-4.89667E-3,-3.6371496E-2,6.462767E-2,3.2631863E-2,-5.367114E-2,-6.451312E-3,4.8000053E-2,-2.7239943E-2,4.9098595E-3,1.5888814E-2,5.357037E-2,4.1754168E-2,1.4288709E-2,-1.1739511E-2,5.500078E-2,-3.7731286E-2,5.8353017E-3,-1.43136205E-2,5.535636E-2],"split_indices":[12,13,10,0,10,10,10,10,2,2,10,0,2,3,13,10,0,5,8,2,8,10,3,0,10,8,8,8,10,0,0,0,0,0,0,0,0,0,0,0,0,0,0,0,0,0,0,0,0,0,0,0,0],"split_type":[0,0,0,0,0,0,0,0,0,0,0,0,0,0,0,0,0,0,0,0,0,0,0,0,0,0,0,0,0,0,0,0,0,0,0,0,0,0,0,0,0,0,0,0,0,0,0,0,0,0,0,0,0],"sum_hessian":[6.8566864E2,3.7426556E2,3.1140308E2,2.1098335E2,1.6328221E2,1.0588428E2,2.055188E2,1.6206932E2,4.891403E1,2.6197323E1,1.3708488E2,8.926113E1,1.6623144E1,1.4644441E2,5.907439E1,1.4178676E2,2.0282562E1,4.253639E1,6.37764E0,3.7351706E0,2.2462152E1,7.329614E1,6.3788746E1,1.5863638E0,1.503678E1,1.3243257E2,1.4011835E1,3.8839237E1,2.0235153E1,3.3236294E1,1.0855047E2,1.4879178E0,4.104847E1,4.793757E0,1.5838832E0,1.2780874E0,2.4570832E0,1.3568277E0,2.1105326E1,4.3283653E1,3.001249E1,2.37257E1,4.0063046E1,4.894667E0,1.0142114E1,2.0324312E1,1.1210826E2,1.0973011E0,1.2914535E1,2.691816E1,1.1921076E1,3.248087E0,1.6987066E1],"tree_param":{"num_deleted":"0","num_feature":"14","num_nodes":"53","size_leaf_vector":"1"}},{"base_weights":[-7.067532E-2,1.2054288E-1,