{"learner":{"attributes":{},"feature_names":[],"feature_types":[],"gradient_booster":{"model":{"gbtree_model_param":{"num_parallel_tree":"1","num_trees":"1200"},"iteration_indptr":[0,2,4,6,8,10,12,14,16,18,20,22,24,26,28,30,32,34,36,38,40,42,44,46,48,50,52,54,56,58,60,62,64,66,68,70,72,74,76,78,80,82,84,86,88,90,92,94,96,98,100,102,104,106,108,110,112,114,116,118,120,122,124,126,128,130,132,134,136,138,140,142,144,146,148,150,152,154,156,158,160,162,164,166,168,170,172,174,176,178,180,182,184,186,188,190,192,194,196,198,200,202,204,206,208,210,212,214,216,218,220,222,224,226,228,230,232,234,236,238,240,242,244,246,248,250,252,254,256,258,260,262,264,266,268,270,272,274,276,278,280,282,284,286,288,290,292,294,296,298,300,302,304,306,308,310,312,314,316,318,320,322,324,326,328,330,332,334,336,338,340,342,344,346,348,350,352,354,356,358,360,362,364,366,368,370,372,374,376,378,380,382,384,386,388,390,392,394,396,398,400,402,404,406,408,410,412,414,416,418,420,422,424,426,428,430,432,434,436,438,440,442,444,446,448,450,452,454,456,458,460,462,464,466,468,470,472,474,476,478,480,482,484,486,488,490,492,494,496,498,500,502,504,506,508,510,512,514,516,518,520,522,524,526,528,530,532,534,536,538,540,542,544,546,548,550,552,554,556,558,560,562,564,566,568,570,572,574,576,578,580,582,584,586,588,590,592,594,596,598,600,602,604,606,608,610,612,614,616,618,620,622,624,626,628,630,632,634,636,638,640,642,644,646,648,650,652,654,656,658,660,662,664,666,668,670,672,674,676,678,680,682,684,686,688,690,692,694,696,698,700,702,704,706,708,710,712,714,716,718,720,722,724,726,728,730,732,734,736,738,740,742,744,746,748,750,752,754,756,758,760,762,764,766,768,770,772,774,776,778,780,782,784,786,788,790,792,794,796,798,800,802,804,806,808,810,812,814,816,818,820,822,824,826,828,830,832,834,836,838,840,842,844,846,848,850,852,854,856,858,860,862,864,866,868,870,872,874,876,878,880,882,884,886,888,890,892,894,896,898,900,902,904,906,908,910,912,914,916,918,920,922,924,926,928,930,932,934,936,938,940,942,944,946,948,950,952,954,956,958,960,962,964,966,968,970,972,974,976,978,980,982,984,986,988,990,992,994,996,998,1000,1002,1004,1006,1008,1010,1012,1014,1016,1018,1020,1022,1024,1026,1028,1030,1032,1034,1036,1038,1040,1042,1044,1046,1048,1050,1052,1054,1056,1058,1060,1062,1064,1066,1068,1070,1072,1074,1076,1078,1080,1082,1084,1086,1088,1090,1092,1094,1096,1098,1100,1102,1104,1106,1108,1110,1112,1114,1116,1118,1120,1122,1124,1126,1128,1130,1132,1134,1136,1138,1140,1142,1144,1146,1148,1150,1152,1154,1156,1158,1160,1162,1164,1166,1168,1170,1172,1174,1176,1178,1180,1182,1184,1186,1188,1190,1192,1194,1196,1198,1200],"tree_info":[0,1,0,1,0,1,0,1,0,1,0,1,0,1,0,1,0,1,0,1,0,1,0,1,0,1,0,1,0,1,0,1,0,1,0,1,0,1,0,1,0,1,0,1,0,1,0,1,0,1,0,1,0,1,0,1,0,1,0,1,0,1,0,1,0,1,0,1,0,1,0,1,0,1,0,1,0,1,0,1,0,1,0,1,0,1,0,1,0,1,0,1,0,1,0,1,0,1,0,1,0,1,0,1,0,1,0,1,0,1,0,1,0,1,0,1,0,1,0,1,0,1,0,1,0,1,0,1,0,1,0,1,0,1,0,1,0,1,0,1,0,1,0,1,0,1,0,1,0,1,0,1,0,1,0,1,0,1,0,1,0,1,0,1,0,1,0,1,0,1,0,1,0,1,0,1,0,1,0,1,0,1,0,1,0,1,0,1,0,1,0,1,0,1,0,1,0,1,0,1,0,1,0,1,0,1,0,1,0,1,0,1,0,1,0,1,0,1,0,1,0,1,0,1,0,1,0,1,0,1,0,1,0,1,0,1,0,1,0,1,0,1,0,1,0,1,0,1,0,1,0,1,0,1,0,1,0,1,0,1,0,1,0,1,0,1,0,1,0,1,0,1,0,1,0,1,0,1,0,1,0,1,0,1,0,1,0,1,0,1,0,1,0,1,0,1,0,1,0,1,0,1,0,1,0,1,0,1,0,1,0,1,0,1,0,1,0,1,0,1,0,1,0,1,0,1,0,1,0,1,0,1,0,1,0,1,0,1,0,1,0,1,0,1,0,1,0,1,0,1,0,1,0,1,0,1,0,1,0,1,0,1,0,1,0,1,0,1,0,1,0,1,0,1,0,1,0,1,0,1,0,1,0,1,0,1,0,1,0,1,0,1,0,1,0,1,0,1,0,1,0,1,0,1,0,1,0,1,0,1,0,1,0,1,0,1,0,1,0,1,0,1,0,1,0,1,0,1,0,1,0,1,0,1,0,1,0,1,0,1,0,1,0,1,0,1,0,1,0,1,0,1,0,1,0,1,0,1,0,1,0,1,0,1,0,1,0,1,0,1,0,1,0,1,0,1,0,1,0,1,0,1,0,1,0,1,0,1,0,1,0,1,0,1,0,1,0,1,0,1,0,1,0,1,0,1,0,1,0,1,0,1,0,1,0,1,0,1,0,1,0,1,0,1,0,1,0,1,0,1,0,1,0,1,0,1,0,1,0,1,0,1,0,1,0,1,0,1,0,1,0,1,0,1,0,1,0,1,0,1,0,1,0,1,0,1,0,1,0,1,0,1,0,1,0,1,0,1,0,1,0,1,0,1,0,1,0,1,0,1,0,1,0,1,0,1,0,1,0,1,0,1,0,1,0,1,0,1,0,1,0,1,0,1,0,1,0,1,0,1,0,1,0,1,0,1,0,1,0,1,0,1,0,1,0,1,0,1,0,1,0,1,0,1,0,1,0,1,0,1,0,1,0,1,0,1,0,1,0,1,0,1,0,1,0,1,0,1,0,1,0,1,0,1,0,1,0,1,0,1,0,1,0,1,0,1,0,1,0,1,0,1,0,1,0,1,0,1,0,1,0,1,0,1,0,1,0,1,0,1,0,1,0,1,0,1,0,1,0,1,0,1,0,1,0,1,0,1,0,1,0,1,0,1,0,1,0,1,0,1,0,1,0,1,0,1,0,1,0,1,0,1,0,1,0,1,0,1,0,1,0,1,0,1,0,1,0,1,0,1,0,1,0,1,0,1,0,1,0,1,0,1,0,1,0,1,0,1,0,1,0,1,0,1,0,1,0,1,0,1,0,1,0,1,0,1,0,1,0,1,0,1,0,1,0,1,0,1,0,1,0,1,0,1,0,1,0,1,0,1,0,1,0,1,0,1,0,1,0,1,0,1,0,1,0,1,0,1,0,1,0,1,0,1,0,1,0,1,0,1,0,1,0,1,0,1,0,1,0,1,0,1,0,1,0,1,0,1,0,1,0,1,0,1,0,1,0,1,0,1,0,1,0,1,0,1,0,1,0,1,0,1,0,1,0,1,0,1,0,1,0,1,0,1,0,1,0,1,0,1,0,1,0,1,0,1,0,1,0,1,0,1,0,1,0,1,0,1,0,1,0,1,0,1,0,1,0,1,0,1,0,1,0,1,0,1,0,1,0,1,0,1,0,1,0,1,0,1,0,1,0,1,0,1,0,1,0,1,0,1,0,1,0,1,0,1,0,1,0,1,0,1,0,1,0,1,0,1,0,1,0,1,0,1,0,1,0,1,0,1,0,1,0,1,0,1,0,1,0,1,0,1,0,1,0,1,0,1,0,1,0,1,0,1,0,1,0,1,0,1,0,1,0,1,0,1,0,1,0,1,0,1,0,1,0,1,0,1,0,1,0,1,0,1,0,1,0,1,0,1,0,1,0,1,0,1,0,1,0,1,0,1,0,1,0,1,0,1,0,1,0,1,0,1,0,1,0,1,0,1,0,1,0,1,0,1,0,1,0,1,0,1,0,1,0,1,0,1,0,1,0,1,0,1,0,1,0,1,0,1,0,1,0,1,0,1,0,1,0,1,0,1,0,1,0,1,0,1,0,1,0,1,0,1,0,1,0,1,0,1,0,1,0,1,0,1,0,1,0,1,0,1,0,1,0,1,0,1,0,1,0,1,0,1,0,1,0,1,0,1,0,1,0,1,0,1,0,1,0,1],"trees":[{"base_weights":[4.4562334E-1,-1.2012012E-2,8.056872E-1,-3.3512065E-1,3.9661017E-1,8.9250356E-1,3.52518E-1,-2.3026316E-1,-7.746479E-1,-8.787879E-1,5.530303E-1,5.8787876E-1,9.816176E-1,6.4705884E-1,-4.3589744E-1,-3.115942E-2,-5.6962026E-3,1.1538462E-2,-4.8333332E-2,-0E0,-4.6774194E-2,3.4710746E-2,-4.5833334E-2,1.8269232E-2,4.6825398E-2,4.9437147E-2,2.6923079E-2,4.0361445E-2,-2.3809525E-3,-4.4999998E-2,2.3809525E-3],"categories":[],"categories_nodes":[],"categories_segments":[],"categories_sizes":[],"default_left":[0,0,0,0,0,0,0,0,0,0,0,0,0,0,0,0,0,0,0,0,0,0,0,0,0,0,0,0,0,0,0],"id":0,"left_children":[1,3,5,7,9,11,13,15,17,19,21,23,25,27,29,-1,-1,-1,-1,-1,-1,-1,-1,-1,-1,-1,-1,-1,-1,-1,-1],"loss_changes":[1.2425224E2,4.4098686E1,1.6287903E1,8.416986E0,2.9911942E1,9.019165E0,1.642138E1,6.8773146E0,7.0766697E0,8.2209206E-1,2.8026173E1,6.057169E0,3.2647705E-1,5.7130375E0,4.4186816E0,0E0,0E0,0E0,0E0,0E0,0E0,0E0,0E0,0E0,0E0,0E0,0E0,0E0,0E0,0E0,0E0],"parents":[2147483647,0,0,1,1,2,2,3,3,4,4,5,5,6,6,7,7,8,8,9,9,10,10,11,11,12,12,13,13,14,14],"right_children":[2,4,6,8,10,12,14,16,18,20,22,24,26,28,30,-1,-1,-1,-1,-1,-1,-1,-1,-1,-1,-1,-1,-1,-1,-1,-1],"split_conditions":[8.838541E-1,7.7778375E-1,1.1065845E0,5.723498E-1,-1.9118418E0,-6.563901E-1,-6.720543E-1,-1.1104896E0,-7.8147274E-1,6.859558E-1,9.463141E-1,-2.9011405E-1,1.0798728E0,4.7705522E-1,7.7778375E-1,-3.115942E-2,-5.6962026E-3,1.1538462E-2,-4.8333332E-2,-0E0,-4.6774194E-2,3.4710746E-2,-4.5833334E-2,1.8269232E-2,4.6825398E-2,4.9437147E-2,2.6923079E-2,4.0361445E-2,-2.3809525E-3,-4.4999998E-2,2.3809525E-3],"split_indices":[12,13,10,10,10,10,18,10,18,18,10,18,10,17,13,0,0,0,0,0,0,0,0,0,0,0,0,0,0,0,0],"split_type":[0,0,0,0,0,0,0,0,0,0,0,0,0,0,0,0,0,0,0,0,0,0,0,0,0,0,0,0,0,0,0],"sum_hessian":[7.53E2,3.32E2,4.21E2,1.855E2,1.465E2,3.525E2,6.85E1,1.51E2,3.45E1,1.55E1,1.31E2,8.15E1,2.71E2,5E1,1.85E1,3.35E1,1.175E2,5.5E0,2.9E1,1E0,1.45E1,1.2E2,1.1E1,5.1E1,3.05E1,2.655E2,5.5E0,4.05E1,9.5E0,9E0,9.5E0],"tree_param":{"num_deleted":"0","num_feature":"19","num_nodes":"31","size_leaf_vector":"1"}},{"base_weights":[-4.48E-1,-1.3615734E-2,-7.883472E-1,-3.5526314E-1,7.3913044E-1,-8.7731814E-1,-3.3802816E-1,-4.8915663E-1,4.7674417E-2,8.75E-1,5.0617284E-1,-5.365854E-1,-9.7773653E-1,-9.322034E-1,8.235294E-2,-3.5714287E-2,-1.3551402E-2,4.5041323E-2,1.6666668E-2,1.2222222E-2,3.9473686E-2,-4.0588237E-2,-1.1728395E-2,-4.9065422E-2,-1.6666668E-2,-4.8181817E-2,-1.6666668E-2,1.4285715E-2,-3.8235296E-2],"categories":[],"categories_nodes":[],"categories_segments":[],"categories_sizes":[],"default_left":[0,0,0,0,0,0,0,0,0,0,0,0,0,0,0,0,0,0,0,0,0,0,0,0,0,0,0,0,0],"id":1,"left_children":[1,3,5,7,9,11,13,15,-1,17,19,21,23,25,27,-1,-1,-1,-1,-1,-1,-1,-1,-1,-1,-1,-1,-1,-1],"loss_changes":[1.1087038E2,8.525852E1,1.6550903E1,4.0419594E1,2.8330612E0,1.1468018E1,1.7811153E1,9.996128E0,0E0,5.950432E-1,2.8100061E0,6.6245213E0,2.932129E-1,2.3410416E-1,7.539496E0,0E0,0E0,0E0,0E0,0E0,0E0,0E0,0E0,0E0,0E0,0E0,0E0,0E0,0E0],"parents":[2147483647,0,0,1,1,2,2,3,3,4,4,5,5,6,6,7,7,9,9,10,10,11,11,12,12,13,13,14,14],"right_children":[2,4,6,8,10,12,14,16,-1,18,20,22,24,26,28,-1,-1,-1,-1,-1,-1,-1,-1,-1,-1,-1,-1,-1,-1],"split_conditions":[8.838541E-1,2.72744E-1,1.1065845E0,9.463141E-1,2.2293746E-1,-6.563901E-1,-6.3174367E-1,-5.342386E-1,4.7674417E-2,1.6119721E0,4.1148475E-1,6.2938946E-1,2.4912908E0,-6.53554E-1,6.2938946E-1,-3.5714287E-2,-1.3551402E-2,4.5041323E-2,1.6666668E-2,1.2222222E-2,3.9473686E-2,-4.0588237E-2,-1.1728395E-2,-4.9065422E-2,-1.6666668E-2,-4.8181817E-2,-1.6666668E-2,1.4285715E-2,-3.8235296E-2],"split_indices":[12,1,10,10,0,10,1,1,0,3,14,14,16,1,14,0,0,0,0,0,0,0,0,0,0,0,0,0,0],"split_type":[0,0,0,0,0,0,0,0,0,0,0,0,0,0,0,0,0,0,0,0,0,0,0,0,0,0,0,0,0],"sum_hessian":[7.49E2,3.295E2,4.195E2,2.27E2,1.025E2,3.495E2,7E1,2.065E2,2.05E1,6.3E1,3.95E1,8.1E1,2.685E2,2.85E1,4.15E1,1.005E2,1.06E2,5.95E1,3.5E0,2.15E1,1.8E1,4.15E1,3.95E1,2.665E2,2E0,2.65E1,2E0,3.4E1,7.5E0],"tree_param":{"num_deleted":"0","num_feature":"19","num_nodes":"29","size_leaf_vector":"1"}},{"base_weights":[3.858286E-1,-3.4837607E-2,7.3069453E-1,3.2202798E-1,-6.869983E-1,4.708313E-2,6.1604816E-1,6.0497224E-1,1.6917255E-2,3.5691373E-2,-7.24003E-1,8.5629326E-1,5.204813E-1,4.0009078E-2,1.337643E-2,-1.5925493E-2,9.641585E-3,-4.287971E-2,-2.3258401E-2,-1.0888263E-2,4.4094488E-2,2.1676496E-2,4.5003932E-2],"categories":[],"categories_nodes":[],"categories_segments":[],"categories_sizes":[],"default_left":[0,0,0,0,0,0,0,0,0,0,0,0,0,0,0,0,0,0,0,0,0,0,0],"id":2,"left_children":[1,3,5,7,9,-1,11,13,15,-1,17,19,21,-1,-1,-1,-1,-1,-1,-1,-1,-1,-1],"loss_changes":[1.0542493E2,7.661561E1,9.077103E0,1.8363781E1,6.551258E0,0E0,5.560196E0,7.058262E0,6.164787E0,0E0,3.5399399E0,2.196045E0,5.8708954E0,0E0,0E0,0E0,0E0,0E0,0E0,0E0,0E0,0E0,0E0],"parents":[2147483647,0,0,1,1,2,2,3,3,4,4,6,6,7,7,8,8,10,10,11,11,12,12],"right_children":[2,4,6,8,10,-1,12,14,16,-1,18,20,22,-1,-1,-1,-1,-1,-1,-1,-1,-1,-1],"split_conditions":[8.838541E-1,1.9320042E-1,-4.959388E-1,-5.1884305E-1,-2.6415753E0,4.708313E-2,-7.5105906E-1,-1.5461993E-1,4.1471416E-1,3.5691373E-2,2.5390828E-1,-1.2709583E0,6.767527E-1,4.0009078E-2,1.337643E-2,-1.5925493E-2,9.641585E-3,-4.287971E-2,-2.3258401E-2,-1.0888263E-2,4.4094488E-2,2.1676496E-2,4.5003932E-2],"split_indices":[12,1,17,1,17,0,1,18,17,0,18,2,18,0,0,0,0,0,0,0,0,0,0],"split_type":[0,0,0,0,0,0,0,0,0,0,0,0,0,0,0,0,0,0,0,0,0,0,0],"sum_hessian":[7.25525E2,3.2724802E2,3.9827698E2,2.1183633E2,1.1541169E2,1.3769049E2,2.6058646E2,1.0940079E2,1.02435555E2,2.499566E0,1.12912125E2,7.189351E1,1.8869296E2,6.84383E1,4.0962486E1,3.496156E1,6.747399E1,7.294837E1,3.996375E1,1.4987016E0,7.0394806E1,1.5526881E2,3.3424145E1],"tree_param":{"num_deleted":"0","num_feature":"19","num_nodes":"23","size_leaf_vector":"1"}},{"base_weights":[-3.9575753E-1,3.5625804E-2,-7.555457E-1,3.2784814E-1,-3.2326594E-1,-8.3985674E-1,-3.2726914E-1,6.265356E-1,1.7540699E-1,8.60745E-1,-4.832863E-1,-5.5865705E-1,-9.201079E-1,-6.67673E-1,3.1174353E-1,3.6120176E-2,1.3843402E-2,-2.1434275E-2,1.3411983E-2,4.543649E-2,9.027465E-3,-3.1290743E-2,4.422272E-2,-4.034718E-2,-1.3665005E-2,-4.7053035E-2,-3.511249E-2,-3.9042287E-2,-7.5559877E-3,2.7645484E-2,-3.2172725E-2],"categories":[],"categories_nodes":[],"categories_segments":[],"categories_sizes":[],"default_left":[0,0,0,0,0,0,0,0,0,0,0,0,0,0,0,0,0,0,0,0,0,0,0,0,0,0,0,0,0,0,0],"id":3,"left_children":[1,3,5,7,9,11,13,15,17,19,21,23,25,27,29,-1,-1,-1,-1,-1,-1,-1,-1,-1,-1,-1,-1,-1,-1,-1,-1],"loss_changes":[1.1821129E2,3.6522552E1,1.4718506E1,8.6273155E0,3.003772E1,7.300644E0,1.5420835E1,1.9605789E0,7.317705E0,4.552164E-1,2.7527557E1,5.4072227E0,5.618744E-1,2.5680847E0,6.1121764E0,0E0,0E0,0E0,0E0,0E0,0E0,0E0,0E0,0E0,0E0,0E0,0E0,0E0,0E0,0E0,0E0],"parents":[2147483647,0,0,1,1,2,2,3,3,4,4,5,5,6,6,7,7,8,8,9,9,10,10,11,11,12,12,13,13,14,14],"right_children":[2,4,6,8,10,12,14,16,18,20,22,24,26,28,30,-1,-1,-1,-1,-1,-1,-1,-1,-1,-1,-1,-1,-1,-1,-1,-1],"split_conditions":[8.838541E-1,7.7778375E-1,1.1065845E0,-5.21859E-1,-1.9118418E0,-6.8310183E-1,-7.7533716E-1,5.373798E-1,-4.601342E-1,-2.0186887E0,9.463141E-1,-1.1906248E0,9.7302586E-1,4.7705522E-1,6.1130637E-1,3.6120176E-2,1.3843402E-2,-2.1434275E-2,1.3411983E-2,4.543649E-2,9.027465E-3,-3.1290743E-2,4.422272E-2,-4.034718E-2,-1.3665005E-2,-4.7053035E-2,-3.511249E-2,-3.9042287E-2,-7.5559877E-3,2.7645484E-2,-3.2172725E-2],"split_indices":[12,13,10,0,10,10,18,3,14,10,10,10,10,17,18,0,0,0,0,0,0,0,0,0,0,0,0,0,0,0,0],"split_type":[0,0,0,0,0,0,0,0,0,0,0,0,0,0,0,0,0,0,0,0,0,0,0,0,0,0,0,0,0,0,0],"sum_hessian":[7.604649E2,3.4623395E2,4.1423096E2,1.908906E2,1.5534337E2,3.4529474E2,6.893621E1,6.345305E1,1.2743754E2,1.797382E1,1.3736954E2,7.843168E1,2.6686307E2,4.4947628E1,2.3988579E1,4.8962963E1,1.4490085E1,1.6493181E1,1.1094436E2,1.647556E1,1.4982594E0,1.2489683E2,1.2472716E1,4.0962624E1,3.746905E1,2.404207E2,2.6442366E1,3.645006E1,8.497566E0,1.948916E1,4.499419E0],"tree_param":{"num_deleted":"0","num_feature":"19","num_nodes":"31","size_leaf_vector":"1"}},{"base_weights":[4.0246952E-1,-2.3569406E-3,7.199897E-1,3.5007176E-1,-6.6347647E-1,4.2112222E-1,8.0201226E-1,1.7323619E-2,6.945762E-1,3.9995693E-2,-7.3015237E-1,6.4638275E-1,-1.523878E-1,4.487367E-2,5.9621525E-1,1.1709619E-2,-6.2945755E-3,4.3812238E-2,2.1852236E-2,-3.9430346E-2,-2.2115227E-2,-7.183385E-3,3.4620047E-2,-2.8501963E-2,1.8959522E-2,2.278401E-2,4.5331948E-2],"categories":[],"categories_nodes":[],"categories_segments":[],"categories_sizes":[],"default_left":[0,0,0,0,0,0,0,0,0,0,0,0,0,0,0,0,0,0,0,0,0,0,0,0,0,0,0],"id":4,"left_children":[1,3,5,7,9,11,13,15,17,-1,19,21,23,-1,25,-1,-1,-1,-1,-1,-1,-1,-1,-1,-1,-1,-1],"loss_changes":[9.626841E1,7.716761E1,9.951309E0,2.4752981E1,1.182066E1,1.2047283E1,5.9132385E0,3.4745083E0,4.581806E0,0E0,1.5132561E0,2.5207653E0,6.1866546E0,0E0,4.254242E0,0E0,0E0,0E0,0E0,0E0,0E0,0E0,0E0,0E0,0E0,0E0,0E0],"parents":[2147483647,0,0,1,1,2,2,3,3,4,4,5,5,6,6,7,7,8,8,10,10,11,11,12,12,14,14],"right_children":[2,4,6,8,10,12,14,16,18,-1,20,22,24,-1,26,-1,-1,-1,-1,-1,-1,-1,-1,-1,-1,-1,-1],"split_conditions":[8.838541E-1,2.034641E-1,7.7778375E-1,7.7778375E-1,-2.5539823E0,-2.6481673E-1,1.4641087E-1,-5.1884305E-1,-5.54766E-1,3.9995693E-2,1.0520505E0,-1.1014738E0,2.034641E-1,4.487367E-2,7.650867E-1,1.1709619E-2,-6.2945755E-3,4.3812238E-2,2.1852236E-2,-3.9430346E-2,-2.2115227E-2,-7.183385E-3,3.4620047E-2,-2.8501963E-2,1.8959522E-2,2.278401E-2,4.5331948E-2],"split_indices":[12,1,13,13,17,1,17,1,1,0,0,5,1,0,17,0,0,0,0,0,0,0,0,0,0,0,0],"split_type":[0,0,0,0,0,0,0,0,0,0,0,0,0,0,0,0,0,0,0,0,0,0,0,0,0,0,0],"sum_hessian":[7.4792096E2,3.2919815E2,4.1872284E2,2.15037E2,1.1416115E2,9.1490585E1,3.2723224E2,1.0991916E2,1.0511785E2,4.4955935E0,1.0966555E2,6.559818E1,2.5892403E1,2.2124458E2,1.05987656E2,4.3465176E1,6.645399E1,6.0228695E1,4.4889153E1,8.970838E1,1.9957169E1,3.4938028E0,6.2104378E1,1.445949E1,1.1432914E1,7.46569E1,3.133076E1],"tree_param":{"num_deleted":"0","num_feature":"19","num_nodes":"27","size_leaf_vector":"1"}},{"base_weights":[-4.0845144E-1,5.4434612E-3,-7.287553E-1,3.101601E-1,-3.4502858E-1,-8.1186503E-1,-2.9205686E-1,2.0268396E-1,7.3645735E-1,4.4166226E-2,-5.1250064E-1,-5.0287354E-1,-9.02864E-1,7.234234E-1,-5.5947816E-1,3.2385E-2,3.7233208E-3,-3.431457E-2,4.326197E-2,-3.1623133E-2,4.269814E-2,-4.429197E-2,-1.7224833E-2,-4.5311637E-2,-2.2297386E-2,4.178852E-2,-8.689643E-3,-4.2661488E-2,-4.2802533E-3],"categories":[],"categories_nodes":[],"categories_segments":[],"categories_sizes":[],"default_left":[0,0,0,0,0,0,0,0,0,0,0,0,0,0,0,0,0,0,0,0,0,0,0,0,0,0,0,0,0],"id":5,"left_children":[1,3,5,7,9,11,13,15,17,-1,19,21,23,25,27,-1,-1,-1,-1,-1,-1,-1,-1,-1,-1,-1,-1,-1,-1],"loss_changes":[1.00345474E2,3.5476597E1,1.52491455E1,7.9917946E0,3.2236702E1,9.609543E0,1.9355183E1,8.127699E0,7.0795727E0,0E0,2.2932125E1,4.7703896E0,1.9500732E-2,1.6554761E0,7.694498E0,0E0,0E0,0E0,0E0,0E0,0E0,0E0,0E0,0E0,0E0,0E0,0E0,0E0,0E0],"parents":[2147483647,0,0,1,1,2,2,3,3,4,4,5,5,6,6,7,7,8,8,10,10,11,11,12,12,13,13,14,14],"right_children":[2,4,6,8,10,12,14,16,18,-1,20,22,24,26,28,-1,-1,-1,-1,-1,-1,-1,-1,-1,-1,-1,-1,-1,-1],"split_conditions":[8.838541E-1,7.7778375E-1,1.1065845E0,5.9906155E-1,-2.0186887E0,-6.563901E-1,7.7778375E-1,-1.0837779E0,-4.8568016E-1,4.4166226E-2,9.463141E-1,-9.591566E-1,2.669359E0,6.2938946E-1,2.1585408E-1,3.2385E-2,3.7233208E-3,-3.431457E-2,4.326197E-2,-3.1623133E-2,4.269814E-2,-4.429197E-2,-1.7224833E-2,-4.5311637E-2,-2.2297386E-2,4.178852E-2,-8.689643E-3,-4.2661488E-2,-4.2802533E-3],"split_indices":[12,13,10,10,10,10,13,10,17,0,10,17,16,14,17,0,0,0,0,0,0,0,0,0,0,0,0,0,0],"split_type":[0,0,0,0,0,0,0,0,0,0,0,0,0,0,0,0,0,0,0,0,0,0,0,0,0,0,0,0,0],"sum_hessian":[7.558823E2,3.3019244E2,4.256899E2,1.7668732E2,1.5350513E2,3.5690652E2,6.878336E1,1.422894E2,3.4397915E1,1.7904799E1,1.3560033E2,8.268195E1,2.7422458E2,1.398247E1,5.480089E1,3.0920233E1,1.1136917E2,2.4958096E0,3.1902103E1,1.25150505E2,1.04498205E1,2.2845879E1,5.9836075E1,2.7124142E2,2.9831498E0,1.2487327E1,1.4951432E0,3.3335705E1,2.1465187E1],"tree_param":{"num_deleted":"0","num_feature":"19","num_nodes":"29","size_leaf_vector":"1"}},{"base_weights":[3.7624925E-1,-2.0595973E-2,6.9146556E-1,-2.695876E-1,2.9637316E-1,7.52675E-1,3.549666E-1,-1.5802686E-1,-6.899903E-1,4.150684E-1,-4.314769E-2,4.1067126E-1,8.573485E-1,6.9230527E-1,-3.3051828E-1,-1.2026142E-2,1.6419005E-2,1.5506585E-2,-4.5024596E-2,-3.908997E-2,2.8275976E-2,3.4062762E-3,3.5421174E-2,4.3531064E-2,3.396469E-2,4.1860662E-2,2.4726603E-2,-4.286226E-2,5.993023E-3],"categories":[],"categories_nodes":[],"categories_segments":[],"categories_sizes":[],"default_left":[0,0,0,0,0,0,0,0,0,0,0,0,0,0,0,0,0,0,0,0,0,0,0,0,0,0,0,0,0],"id":6,"left_children":[1,3,5,7,9,11,13,15,17,19,-1,21,23,25,27,-1,-1,-1,-1,-1,-1,-1,-1,-1,-1,-1,-1,-1,-1],"loss_changes":[9.348507E1,2.6262465E1,8.310745E0,8.629531E0,2.0507631E1,1.2230347E1,1.5488135E1,6.039564E0,8.442976E0,2.4482174E1,0E0,8.548177E0,4.2404175E-2,8.626747E-1,5.4262905E0,0E0,0E0,0E0,0E0,0E0,0E0,0E0,0E0,0E0,0E0,0E0,0E0,0E0,0E0],"parents":[2147483647,0,0,1,1,2,2,3,3,4,4,5,5,6,6,7,7,8,8,9,9,11,11,12,12,13,13,14,14],"right_children":[2,4,6,8,10,12,14,16,18,20,-1,22,24,26,28,-1,-1,-1,-1,-1,-1,-1,-1,-1,-1,-1,-1,-1,-1],"split_conditions":[8.838541E-1,7.7778375E-1,1.1065845E0,5.723498E-1,9.463141E-1,-6.563901E-1,-6.960856E-1,3.3194417E-1,-7.8147274E-1,-1.9118418E0,-4.314769E-2,-5.130408E-1,9.7302586E-1,-1.1092154E0,7.7778375E-1,-1.2026142E-2,1.6419005E-2,1.5506585E-2,-4.5024596E-2,-3.908997E-2,2.8275976E-2,3.4062762E-3,3.5421174E-2,4.3531064E-2,3.396469E-2,4.1860662E-2,2.4726603E-2,-4.286226E-2,5.993023E-3],"split_indices":[12,13,10,10,10,10,18,10,18,10,0,18,10,18,13,0,0,0,0,0,0,0,0,0,0,0,0,0,0],"split_type":[0,0,0,0,0,0,0,0,0,0,0,0,0,0,0,0,0,0,0,0,0,0,0,0,0,0,0,0,0],"sum_hessian":[7.462161E2,3.3074966E2,4.1546646E2,1.853217E2,1.4542796E2,3.5047754E2,6.498892E1,1.475443E2,3.777741E1,1.3250381E2,1.2924147E1,8.328398E1,2.6719357E2,4.3548176E1,2.1440744E1,1.2658126E2,2.096303E1,6.486389E0,3.129102E1,1.4327717E1,1.18176094E2,3.9300247E1,4.3983734E1,2.4503804E2,2.2155537E1,2.326718E1,2.0280998E1,9.466314E0,1.1974429E1],"tree_param":{"num_deleted":"0","num_feature":"19","num_nodes":"29","size_leaf_vector":"1"}},{"base_weights":[-3.7534395E-1,3.551305E-2,-6.2427056E-1,-3.510082E-1,3.9791664E-1,7.925958E-1,-6.750636E-1,-4.4596195E-2,-6.7537594E-1,2.459847E-1,7.5135183E-1,8.108917E-3,4.2160314E-2,-7.322589E-1,-2.1146409E-1,-3.801397E-2,4.3632663E-3,-3.8063716E-2,2.7996698E-2,-6.5970146E-3,2.346373E-2,1.1976829E-2,4.2001076E-2,-3.7740525E-2,-9.22802E-3,-4.181452E-2,2.3294827E-2],"categories":[],"categories_nodes":[],"categories_segments":[],"categories_sizes":[],"default_left":[0,0,0,0,0,0,0,0,0,0,0,0,0,0,0,0,0,0,0,0,0,0,0,0,0,0,0],"id":7,"left_children":[1,3,5,7,9,11,13,15,17,19,21,-1,-1,23,25,-1,-1,-1,-1,-1,-1,-1,-1,-1,-1,-1,-1],"loss_changes":[7.7608635E1,4.036438E1,3.4536392E1,1.3833675E1,7.7986603E0,3.9961338E-1,1.1953461E1,6.9365907E0,7.6087418E0,8.961645E0,1.8051395E0,0E0,0E0,4.8764954E0,2.220997E1,0E0,0E0,0E0,0E0,0E0,0E0,0E0,0E0,0E0,0E0,0E0,0E0],"parents":[2147483647,0,0,1,1,2,2,3,3,4,4,5,5,6,6,7,7,8,8,9,9,10,10,13,13,14,14],"right_children":[2,4,6,8,10,12,14,16,18,20,22,-1,-1,24,26,-1,-1,-1,-1,-1,-1,-1,-1,-1,-1,-1,-1],"split_conditions":[7.7778375E-1,-2.7892932E-1,-1.9118418E0,1.7167374E-1,4.6550286E-1,7.1970165E-1,1.2935667E0,-1.27076E0,1.160008E0,2.6504624E-1,-4.601342E-1,8.108917E-3,4.2160314E-2,1.7189132E0,-6.3174367E-1,-3.801397E-2,4.3632663E-3,-3.8063716E-2,2.7996698E-2,-6.5970146E-3,2.346373E-2,1.1976829E-2,4.2001076E-2,-3.7740525E-2,-9.22802E-3,-4.181452E-2,2.3294827E-2],"split_indices":[13,1,10,10,10,18,10,10,10,1,14,0,0,14,1,0,0,0,0,0,0,0,0,0,0,0,0],"split_type":[0,0,0,0,0,0,0,0,0,0,0,0,0,0,0,0,0,0,0,0,0,0,0,0,0,0,0],"sum_hessian":[7.576193E2,2.8616205E2,4.714573E2,1.384886E2,1.4767345E2,1.5810865E1,4.5564642E2,7.180033E1,6.668826E1,1.04463486E2,4.320996E1,1.4874345E0,1.4323431E1,4.0509006E2,5.0556374E1,1.0429283E1,6.137105E1,6.271131E1,3.9769506E0,3.8949448E1,6.551404E1,6.927099E0,3.6282864E1,3.8870688E2,1.6383175E1,2.617594E1,2.4380436E1],"tree_param":{"num_deleted":"0","num_feature":"19","num_nodes":"27","size_leaf_vector":"1"}},{"base_weights":[3.677299E-1,-3.99908E-2,6.0602146E-1,3.4089527E-1,-3.9514467E-1,-4.027202E-2,6.4768493E-1,5.654352E-2,6.3814545E-1,-2.2853386E-1,-7.688304E-1,7.20139E-1,1.7572917E-1,-3.7312362E-2,9.529199E-3,4.2801384E-2,7.7444683E-3,1.3011037E-2,-2.3028685E-2,-4.4889934E-4,-4.1238256E-2,3.9487686E-2,2.651163E-2,4.1991852E-2,-1.3751267E-2],"categories":[],"categories_nodes":[],"categories_segments":[],"categories_sizes":[],"default_left":[0,0,0,0,0,0,0,0,0,0,0,0,0,0,0,0,0,0,0,0,0,0,0,0,0],"id":8,"left_children":[1,3,5,7,9,-1,11,13,15,17,19,21,23,-1,-1,-1,-1,-1,-1,-1,-1,-1,-1,-1,-1],"loss_changes":[7.11872E1,3.6809475E1,2.7710281E1,1.1066592E1,8.588058E0,0E0,1.5248917E1,7.484399E0,6.6192303E0,1.1322235E1,1.8194752E0,4.7302094E0,1.8540432E1,0E0,0E0,0E0,0E0,0E0,0E0,0E0,0E0,0E0,0E0,0E0,0E0],"parents":[2147483647,0,0,1,1,2,2,3,3,4,4,6,6,7,7,8,8,9,9,10,10,11,11,12,12],"right_children":[2,4,6,8,10,-1,12,14,16,18,20,22,24,-1,-1,-1,-1,-1,-1,-1,-1,-1,-1,-1,-1],"split_conditions":[7.7778375E-1,-2.6096785E-1,-2.0186887E0,1.4496201E-1,4.6550286E-1,-4.027202E-2,1.160008E0,3.9878674E-2,-4.842031E-1,1.9320042E-1,-4.5095855E-1,2.72744E-1,-6.830621E-1,-3.7312362E-2,9.529199E-3,4.2801384E-2,7.7444683E-3,1.3011037E-2,-2.3028685E-2,-4.4889934E-4,-4.1238256E-2,3.9487686E-2,2.651163E-2,4.1991852E-2,-1.3751267E-2],"split_indices":[13,1,10,10,10,0,10,17,1,1,17,1,1,0,0,0,0,0,0,0,0,0,0,0,0],"split_type":[0,0,0,0,0,0,0,0,0,0,0,0,0,0,0,0,0,0,0,0,0,0,0,0,0],"sum_hessian":[7.3145764E2,2.701164E2,4.6134125E2,1.303559E2,1.3976051E2,1.2701784E1,4.4863947E2,6.723174E1,6.3124157E1,9.777728E1,4.1983227E1,3.8847534E2,6.0164127E1,8.965935E0,5.826581E1,4.2976345E1,2.0147812E1,3.1437593E1,6.633968E1,2.9581647E0,3.9025063E1,2.8195828E2,1.0651706E2,2.3976208E1,3.6187923E1],"tree_param":{"num_deleted":"0","num_feature":"19","num_nodes":"25","size_leaf_vector":"1"}},{"base_weights":[-3.563098E-1,6.319467E-2,-6.83542E-1,3.382383E-1,-2.984879E-1,-4.641917E-1,-7.521461E-1,3.884108E-1,-2.4692203E-1,-4.3402547E-1,4.13044E-2,-7.2650504E-1,-2.8998935E-1,-4.208296E-2,-5.817312E-1,1.0123859E-2,2.6187126E-2,-2.651879E-2,3.3604648E-2,-1.2561564E-2,-4.3294914E-2,-1.5370815E-2,-4.0696416E-2,6.6419034E-3,-2.3985414E-2,-2.199903E-2,-4.053633E-2],"categories":[],"categories_nodes":[],"categories_segments":[],"categories_sizes":[],"default_left":[0,0,0,0,0,0,0,0,0,0,0,0,0,0,0,0,0,0,0,0,0,0,0,0,0,0,0],"id":9,"left_children":[1,3,5,7,9,11,13,15,17,19,-1,21,23,-1,25,-1,-1,-1,-1,-1,-1,-1,-1,-1,-1,-1,-1],"loss_changes":[9.9528404E1,3.178449E1,5.778778E0,5.4212E0,2.1409668E1,4.3419666E0,4.2176666E0,4.10746E0,4.247122E0,9.564468E0,0E0,1.182169E0,4.9999146E0,0E0,3.1979523E0,0E0,0E0,0E0,0E0,0E0,0E0,0E0,0E0,0E0,0E0,0E0,0E0],"parents":[2147483647,0,0,1,1,2,2,3,3,4,4,5,5,6,6,7,7,8,8,9,9,11,11,12,12,14,14],"right_children":[2,4,6,8,10,12,14,16,18,20,-1,22,24,-1,26,-1,-1,-1,-1,-1,-1,-1,-1,-1,-1,-1,-1],"split_conditions":[8.838541E-1,7.7778375E-1,7.7778375E-1,5.5608577E-1,1.001427E0,-6.889277E-1,1.3837471E-2,-3.8163665E-1,2.1017442E0,6.2938946E-1,4.13044E-2,-7.748087E-1,-2.9011405E-1,-4.208296E-2,6.577654E-1,1.0123859E-2,2.6187126E-2,-2.651879E-2,3.3604648E-2,-1.2561564E-2,-4.3294914E-2,-1.5370815E-2,-4.0696416E-2,6.6419034E-3,-2.3985414E-2,-2.199903E-2,-4.053633E-2],"split_indices":[12,13,13,18,18,18,17,18,18,14,0,0,18,0,17,0,0,0,0,0,0,0,0,0,0,0,0],"split_type":[0,0,0,0,0,0,0,0,0,0,0,0,0,0,0,0,0,0,0,0,0,0,0,0,0,0,0],"sum_hessian":[7.237126E2,3.174963E2,4.062163E2,1.8038573E2,1.3711057E2,9.862986E1,3.0758646E2,1.6645027E2,1.3935457E1,1.2291098E2,1.4199581E1,3.809543E1,6.053443E1,1.990785E2,1.0850796E2,7.1167984E1,9.528229E1,1.0973702E1,2.9617555E0,8.747015E1,3.5440834E1,7.3547454E0,3.0740683E1,1.884169E1,4.1692745E1,6.8825554E1,3.9682404E1],"tree_param":{"num_deleted":"0","num_feature":"19","num_nodes":"27","size_leaf_vector":"1"}},{"base_weights":[3.3428037E-1,-4.0695813E-2,6.416162E-1,2.748148E-1,-6.160616E-1,7.523042E-1,4.6982706E-1,5.4686576E-1,4.9034014E-2,3.958455E-2,-6.850564E-1,4.1152164E-2,6.4074934E-1,7.595896E-1,2.7582562E-1,3.599067E-2,5.8496874E-3,-1.5646355E-2,8.262105E-3,-4.1920286E-2,-2.0685961E-2,-5.032947E-3,3.3613887E-2,5.428958E-3,3.865461E-2,5.8266084E-4,2.9200738E-2],"categories":[],"categories_nodes":[],"categories_segments":[],"categories_sizes":[],"default_left":[0,0,0,0,0,0,0,0,0,0,0,0,0,0,0,0,0,0,0,0,0,0,0,0,0,0,0],"id":10,"left_children":[1,3,5,7,9,11,13,15,17,-1,19,-1,21,23,25,-1,-1,-1,-1,-1,-1,-1,-1,-1,-1,-1,-1],"loss_changes":[8.452884E1,6.029731E1,7.310196E0,1.3155279E1,1.1965836E1,1.3937073E0,8.817955E0,7.144573E0,5.0309362E0,0E0,4.3406105E0,0E0,2.381424E0,4.7714996E-1,7.9523E0,0E0,0E0,0E0,0E0,0E0,0E0,0E0,0E0,0E0,0E0,0E0,0E0],"parents":[2147483647,0,0,1,1,2,2,3,3,4,4,5,5,6,6,7,7,8,8,10,10,12,12,13,13,14,14],"right_children":[2,4,6,8,10,12,14,16,18,-1,20,-1,22,24,26,-1,-1,-1,-1,-1,-1,-1,-1,-1,-1,-1,-1],"split_conditions":[8.838541E-1,1.9320042E-1,-1.3781987E-2,-5.4835117E-1,-2.5539823E0,-4.7384325E-1,-6.830621E-1,-1.4337187E-1,1.7087382E-1,3.958455E-2,2.5390828E-1,4.1152164E-2,-7.6306945E-1,-1.5612478E0,-2.9011405E-1,3.599067E-2,5.8496874E-3,-1.5646355E-2,8.262105E-3,-4.1920286E-2,-2.0685961E-2,-5.032947E-3,3.3613887E-2,5.428958E-3,3.865461E-2,5.8266084E-4,2.9200738E-2],"split_indices":[12,1,17,1,17,17,1,18,17,0,18,0,6,7,18,0,0,0,0,0,0,0,0,0,0,0,0],"split_type":[0,0,0,0,0,0,0,0,0,0,0,0,0,0,0,0,0,0,0,0,0,0,0,0,0,0,0],"sum_hessian":[7.322531E2,3.302217E2,4.0203137E2,2.1360857E2,1.1661315E2,2.4244128E2,1.5959009E2,9.623256E1,1.1737601E2,4.9588747E0,1.1165428E2,1.4445905E2,9.798224E1,6.2830463E1,9.675962E1,6.814268E1,2.8089882E1,2.8114155E1,8.926185E1,7.000197E1,4.1652313E1,3.907302E0,9.4074936E1,1.4604013E0,6.137006E1,5.265921E1,4.4100414E1],"tree_param":{"num_deleted":"0","num_feature":"19","num_nodes":"27","size_leaf_vector":"1"}},{"base_weights":[-3.2322705E-1,6.1697E-2,-6.4201486E-1,-2.3819123E-1,6.419768E-1,-7.2335976E-1,-2.7240652E-1,-4.651089E-1,4.4806573E-1,-3.7999142E-2,6.9272304E-1,-4.267159E-1,-4.043221E-2,-6.3011235E-1,2.7258337E-1,-5.063218E-3,-4.2813983E-2,-3.877443E-2,3.181752E-2,3.9792262E-2,2.4533292E-2,-3.999832E-2,-1.33994315E-2,-4.0533226E-2,-1.8314345E-2,-2.5247524E-2,2.975933E-2],"categories":[],"categories_nodes":[],"categories_segments":[],"categories_sizes":[],"default_left":[0,0,0,0,0,0,0,0,0,0,0,0,0,0,0,0,0,0,0,0,0,0,0,0,0,0,0],"id":11,"left_children":[1,3,5,7,9,11,13,15,17,-1,19,21,-1,23,25,-1,-1,-1,-1,-1,-1,-1,-1,-1,-1,-1,-1],"loss_changes":[9.074896E1,5.8586235E1,1.1962616E1,3.4795902E1,8.6852E0,8.025848E0,1.4706536E1,2.3739452E1,1.3325828E1,0E0,1.9264488E0,4.288369E0,0E0,1.8616238E0,7.8864574E0,0E0,0E0,0E0,0E0,0E0,0E0,0E0,0E0,0E0,0E0,0E0,0E0],"parents":[2147483647,0,0,1,1,2,2,3,3,4,4,5,5,6,6,7,7,8,8,10,10,11,11,13,13,14,14],"right_children":[2,4,6,8,10,12,14,16,18,-1,20,22,-1,24,26,-1,-1,-1,-1,-1,-1,-1,-1,-1,-1,-1,-1],"split_conditions":[8.838541E-1,2.034641E-1,1.0798728E0,6.2577325E-1,-2.5539823E0,-6.8310183E-1,-4.2903578E-1,7.7778375E-1,-7.5105906E-1,-3.7999142E-2,2.5390828E-1,-9.591566E-1,-4.043221E-2,-6.830621E-1,-1.1864216E0,-5.063218E-3,-4.2813983E-2,-3.877443E-2,3.181752E-2,3.9792262E-2,2.4533292E-2,-3.999832E-2,-1.33994315E-2,-4.0533226E-2,-1.8314345E-2,-2.5247524E-2,2.975933E-2],"split_indices":[12,1,10,10,17,10,1,13,1,0,18,17,0,1,18,0,0,0,0,0,0,0,0,0,0,0,0],"split_type":[0,0,0,0,0,0,0,0,0,0,0,0,0,0,0,0,0,0,0,0,0,0,0,0,0,0,0],"sum_hessian":[7.3822266E2,3.3478687E2,4.034358E2,2.2110796E2,1.13678925E2,3.2987784E2,7.3557945E1,1.6640631E2,5.4701645E1,3.4828396E0,1.1019608E2,7.500216E1,2.5487569E2,4.4315277E1,2.9242664E1,8.686674E1,7.9539566E1,6.879164E0,4.782248E1,7.101439E1,3.9181698E1,2.117316E1,5.3829E1,2.5079258E1,1.9236021E1,8.409345E0,2.083332E1],"tree_param":{"num_deleted":"0","num_feature":"19","num_nodes":"27","size_leaf_vector":"1"}},{"base_weights":[3.0497885E-1,-5.253033E-2,5.9909815E-1,2.2751628E-1,-6.0765475E-1,6.8320286E-1,1.868659E-1,-1.264126E-1,6.328648E-1,3.242007E-2,-6.422942E-1,3.4967E-1,7.779219E-1,3.9331526E-2,-1.09622195E-1,4.8531266E-3,-3.409891E-2,3.9855722E-2,-4.104827E-2,-3.554805E-2,-1.6277801E-2,3.8752772E-2,8.052641E-3,3.9760824E-2,2.8772388E-2,-1.2642867E-2,3.1835865E-2],"categories":[],"categories_nodes":[],"categories_segments":[],"categories_sizes":[],"default_left":[0,0,0,0,0,0,0,0,0,0,0,0,0,0,0,0,0,0,0,0,0,0,0,0,0,0,0],"id":12,"left_children":[1,3,5,7,9,11,13,15,17,-1,19,21,23,-1,25,-1,-1,-1,-1,-1,-1,-1,-1,-1,-1,-1,-1],"loss_changes":[7.634557E1,5.1207016E1,1.3680359E1,3.1509602E1,5.2209015E0,1.0165939E1,1.2331545E1,1.4690357E1,2.5079464E1,0E0,2.116661E0,5.884218E0,4.406128E-1,0E0,5.181094E0,0E0,0E0,0E0,0E0,0E0,0E0,0E0,0E0,0E0,0E0,0E0,0E0],"parents":[2147483647,0,0,1,1,2,2,3,3,4,4,5,5,6,6,7,7,8,8,10,10,11,11,12,12,14,14],"right_children":[2,4,6,8,10,12,14,16,18,-1,20,22,24,-1,26,-1,-1,-1,-1,-1,-1,-1,-1,-1,-1,-1,-1],"split_conditions":[8.838541E-1,2.034641E-1,1.1065845E0,7.7778375E-1,-2.6415753E0,-6.563901E-1,-6.7793024E-1,5.456381E-1,9.463141E-1,3.242007E-2,1.1012352E0,-9.591566E-1,9.7302586E-1,3.9331526E-2,6.2938946E-1,4.8531266E-3,-3.409891E-2,3.9855722E-2,-4.104827E-2,-3.554805E-2,-1.6277801E-2,3.8752772E-2,8.052641E-3,3.9760824E-2,2.8772388E-2,-1.2642867E-2,3.1835865E-2],"split_indices":[12,1,10,13,17,10,1,10,10,0,0,17,10,0,14,0,0,0,0,0,0,0,0,0,0,0,0],"split_type":[0,0,0,0,0,0,0,0,0,0,0,0,0,0,0,0,0,0,0,0,0,0,0,0,0,0,0],"sum_hessian":[7.247617E2,3.2749948E2,3.972622E2,2.1807576E2,1.09423706E2,3.2939987E2,6.786235E1,1.1678949E2,1.0128628E2,2.4611673E0,1.0696254E2,7.3893036E1,2.5550684E2,2.1902569E1,4.5959778E1,8.387588E1,3.2913612E1,9.141067E1,9.875609E0,8.688238E1,2.0080164E1,2.1744305E1,5.2148735E1,2.3270268E2,2.2804152E1,3.9114292E1,6.845489E0],"tree_param":{"num_deleted":"0","num_feature":"19","num_nodes":"27","size_leaf_vector":"1"}},{"base_weights":[-3.3039182E-1,-6.102855E-1,-1.6557916E-1,-4.5566136E-1,-7.382208E-1,-2.0790275E-2,-5.172514E-1,-4.8015904E-1,3.4601007E-2,-4.062822E-2,-4.0203077E-1,-1.6473442E-1,4.7044358E-1,5.719236E-1,-7.175232E-1,-1.9025356E-2,-3.6764227E-2,-3.7782546E-2,1.9209554E-2,-1.4305665E-2,1.9314367E-2,4.220852E-2,1.15156E-2,-1.01330215E-2,3.4237083E-2,-3.6530707E-2,7.917038E-3],"categories":[],"categories_nodes":[],"categories_segments":[],"categories_sizes":[],"default_left":[0,0,0,0,0,0,0,0,0,0,0,0,0,0,0,0,0,0,0,0,0,0,0,0,0,0,0],"id":13,"left_children":[1,3,5,7,9,11,13,15,-1,-1,17,19,21,23,25,-1,-1,-1,-1,-1,-1,-1,-1,-1,-1,-1,-1],"loss_changes":[3.3259018E1,4.9581223E0,2.3235004E1,3.8128242E0,3.2936172E0,2.3017982E1,2.9444016E1,2.8167686E0,0E0,0E0,8.133385E0,1.6941332E1,6.427004E0,1.9939365E0,1.4098625E0,0E0,0E0,0E0,0E0,0E0,0E0,0E0,0E0,0E0,0E0,0E0,0E0],"parents":[2147483647,0,0,1,1,2,2,3,3,4,4,5,5,6,6,7,7,10,10,11,11,12,12,13,13,14,14],"right_children":[2,4,6,8,10,12,14,16,-1,-1,18,20,22,24,26,-1,-1,-1,-1,-1,-1,-1,-1,-1,-1,-1,-1],"split_conditions":[-5.1884305E-1,1.7167374E-1,5.729588E-1,3.8115066E-2,-6.497051E-1,5.485807E-1,-2.0186887E0,6.467176E-1,3.4601007E-2,-4.062822E-2,1.266855E0,1.1065845E0,-2.0370449E-1,-2.287258E0,2.9579818E0,-1.9025356E-2,-3.6764227E-2,-3.7782546E-2,1.9209554E-2,-1.4305665E-2,1.9314367E-2,4.220852E-2,1.15156E-2,-1.01330215E-2,3.4237083E-2,-3.6530707E-2,7.917038E-3],"split_indices":[1,10,18,10,1,1,10,17,0,0,10,10,18,17,1,0,0,0,0,0,0,0,0,0,0,0,0],"split_type":[0,0,0,0,0,0,0,0,0,0,0,0,0,0,0,0,0,0,0,0,0,0,0,0,0,0,0],"sum_hessian":[7.2217474E2,2.666435E2,4.5553125E2,1.2279435E2,1.4384915E2,3.2342947E2,1.3210179E2,1.2079751E2,1.9968401E0,1.166391E2,2.721006E1,2.5064786E2,7.278161E1,2.022931E1,1.11872475E2,8.865884E1,3.213867E1,1.8795338E1,8.414722E0,2.0579596E2,4.4851894E1,2.7487001E1,4.529461E1,2.4705698E0,1.775874E1,1.1038842E2,1.4840603E0],"tree_param":{"num_deleted":"0","num_feature":"19","num_nodes":"27","size_leaf_vector":"1"}},{"base_weights":[3.208183E-1,-3.6383692E-2,6.010059E-1,2.4963666E-1,-6.102481E-1,6.770985E-1,2.5425395E-1,4.3157914E-1,-4.3426153E-1,1.6761552E-1,-6.822094E-1,6.959151E-1,-3.4642197E-2,4.572568E-1,-4.8385006E-1,3.620235E-2,1.5890315E-2,1.9812718E-2,-3.5119735E-2,3.4663927E-2,-3.193077E-2,-3.853984E-2,-2.606825E-2,2.4468027E-2,3.8050525E-2,3.582777E-2,8.6477E-3,3.2576893E-2,-3.6661167E-2],"categories":[],"categories_nodes":[],"categories_segments":[],"categories_sizes":[],"default_left":[0,0,0,0,0,0,0,0,0,0,0,0,0,0,0,0,0,0,0,0,0,0,0,0,0,0,0,0,0],"id":14,"left_children":[1,3,5,7,9,11,13,15,17,19,21,23,-1,25,27,-1,-1,-1,-1,-1,-1,-1,-1,-1,-1,-1,-1,-1,-1],"loss_changes":[7.148579E1,5.1826904E1,1.0387665E1,2.6419315E1,5.992382E0,8.926773E0,1.1252543E1,5.327406E0,1.0254364E1,4.5514345E0,9.705086E-1,3.9793549E0,0E0,4.1706104E0,5.111684E0,0E0,0E0,0E0,0E0,0E0,0E0,0E0,0E0,0E0,0E0,0E0,0E0,0E0,0E0],"parents":[2147483647,0,0,1,1,2,2,3,3,4,4,5,5,6,6,7,7,8,8,9,9,10,10,11,11,13,13,14,14],"right_children":[2,4,6,8,10,12,14,16,18,20,22,24,-1,26,28,-1,-1,-1,-1,-1,-1,-1,-1,-1,-1,-1,-1,-1,-1],"split_conditions":[8.838541E-1,2.72744E-1,1.1065845E0,6.52485E-1,-1.9550345E0,1.9582473E0,-1.9938572E-1,1.3837471E-2,-5.4835117E-1,3.4711664E0,-1.4886709E-1,-6.563901E-1,-3.4642197E-2,-6.2532884E-1,-5.8668923E-1,3.620235E-2,1.5890315E-2,1.9812718E-2,-3.5119735E-2,3.4663927E-2,-3.193077E-2,-3.853984E-2,-2.606825E-2,2.4468027E-2,3.8050525E-2,3.582777E-2,8.6477E-3,3.2576893E-2,-3.6661167E-2],"split_indices":[12,1,10,10,17,17,1,17,1,1,10,10,0,1,17,0,0,0,0,0,0,0,0,0,0,0,0,0,0],"split_type":[0,0,0,0,0,0,0,0,0,0,0,0,0,0,0,0,0,0,0,0,0,0,0,0,0,0,0,0,0],"sum_hessian":[7.130424E2,3.1382602E2,3.992164E2,2.0981627E2,1.0400976E2,3.265945E2,7.262191E1,1.6601817E2,4.3798096E1,8.694761E0,9.5314995E1,3.2265475E2,3.9397464E0,5.7255318E1,1.5366592E1,4.4993248E1,1.2102493E2,1.0572621E1,3.3225475E1,5.3479767E0,3.3467846E0,5.901785E1,3.6297146E1,7.935869E1,2.4329607E2,2.9149286E1,2.810603E1,2.476855E0,1.2889737E1],"tree_param":{"num_deleted":"0","num_feature":"19","num_nodes":"29","size_leaf_vector":"1"}},{"base_weights":[-3.2777765E-1,3.3350687E-2,-5.5028605E-1,-4.356048E-1,1.19595855E-1,3.7425652E-2,-5.9073144E-1,-3.8116988E-2,-6.734569E-2,-3.6974058E-3,5.71033E-1,-6.519021E-1,-2.4355692E-1,7.1103694E-3,-1.8734237E-2,1.8157518E-2,-6.6883797E-3,-2.1455674E-2,3.760793E-2,-2.5612993E-2,-3.6713183E-2,-2.6439387E-2,2.1299448E-2],"categories":[],"categories_nodes":[],"categories_segments":[],"categories_sizes":[],"default_left":[0,0,0,0,0,0,0,0,0,0,0,0,0,0,0,0,0,0,0,0,0,0,0],"id":15,"left_children":[1,3,5,7,9,-1,11,-1,13,15,17,19,21,-1,-1,-1,-1,-1,-1,-1,-1,-1,-1],"loss_changes":[5.712081E1,1.1047869E1,2.354332E1,5.056094E0,1.2827157E1,0E0,8.910309E0,0E0,1.4091549E0,8.732114E0,9.278418E0,3.7927551E0,1.2747166E1,0E0,0E0,0E0,0E0,0E0,0E0,0E0,0E0,0E0,0E0],"parents":[2147483647,0,0,1,1,2,2,3,3,4,4,6,6,8,8,9,9,10,10,11,11,12,12],"right_children":[2,4,6,8,10,-1,12,-1,14,16,18,20,22,-1,-1,-1,-1,-1,-1,-1,-1,-1,-1],"split_conditions":[7.7778375E-1,-8.816875E-1,-2.0186887E0,1.6140507E-1,5.723498E-1,3.7425652E-2,1.1065845E0,-3.8116988E-2,-7.2170556E-2,-6.9049215E-1,-4.0124354E-1,-2.5571403E-1,-6.720543E-1,7.1103694E-3,-1.8734237E-2,1.8157518E-2,-6.6883797E-3,-2.1455674E-2,3.760793E-2,-2.5612993E-2,-3.6713183E-2,-2.6439387E-2,2.1299448E-2],"split_indices":[13,18,10,17,10,0,10,0,0,0,17,10,18,0,0,0,0,0,0,0,0,0,0],"split_type":[0,0,0,0,0,0,0,0,0,0,0,0,0,0,0,0,0,0,0,0,0,0,0],"sum_hessian":[7.0963544E2,2.708688E2,4.3876663E2,4.1447655E1,2.2942114E2,1.2722112E1,4.260445E2,2.1394997E1,2.0052658E1,1.8098393E2,4.8437218E1,3.6147623E2,6.456828E1,1.2242586E1,7.8100715E0,4.690419E1,1.3407974E2,7.216994E0,4.1220226E1,1.3678314E2,2.2469308E2,4.5426525E1,1.914176E1],"tree_param":{"num_deleted":"0","num_feature":"19","num_nodes":"23","size_leaf_vector":"1"}},{"base_weights":[3.1481808E-1,-7.927806E-3,5.787573E-1,2.7461064E-1,-5.9832335E-1,6.5472233E-1,2.3248945E-1,-8.26016E-2,6.350988E-1,3.1257592E-2,-6.34824E-1,3.3357266E-1,7.4540484E-1,7.284155E-1,-1.19738705E-1,5.5459864E-3,-2.7044196E-2,3.858021E-2,-3.9050773E-2,-3.7444364E-2,-2.1719612E-2,-3.3132676E-3,2.778331E-2,3.8028125E-2,2.5387213E-2,9.584149E-3,3.7932448E-2,7.918888E-3,-2.334245E-2],"categories":[],"categories_nodes":[],"categories_segments":[],"categories_sizes":[],"default_left":[0,0,0,0,0,0,0,0,0,0,0,0,0,0,0,0,0,0,0,0,0,0,0,0,0,0,0,0,0],"id":16,"left_children":[1,3,5,7,9,11,13,15,17,-1,19,21,23,25,27,-1,-1,-1,-1,-1,-1,-1,-1,-1,-1,-1,-1,-1,-1],"loss_changes":[5.8924095E1,5.2234425E1,9.856789E0,2.7326824E1,4.9228134E0,8.82309E0,1.2316343E1,9.573587E0,2.1003208E1,0E0,1.9359131E0,6.2884564E0,4.859619E-1,3.2866096E-1,4.108607E0,0E0,0E0,0E0,0E0,0E0,0E0,0E0,0E0,0E0,0E0,0E0,0E0,0E0,0E0],"parents":[2147483647,0,0,1,1,2,2,3,3,4,4,5,5,6,6,7,7,8,8,10,10,11,11,12,12,13,13,14,14],"right_children":[2,4,6,8,10,12,14,16,18,-1,20,22,24,26,28,-1,-1,-1,-1,-1,-1,-1,-1,-1,-1,-1,-1,-1,-1],"split_conditions":[8.838541E-1,2.72744E-1,1.0798728E0,7.7778375E-1,-2.6415753E0,-6.8310183E-1,-6.2532884E-1,5.456381E-1,9.463141E-1,3.1257592E-2,2.2293746E-1,7.7778375E-1,9.7302586E-1,-1.2261788E0,2.198005E-1,5.5459864E-3,-2.7044196E-2,3.858021E-2,-3.9050773E-2,-3.7444364E-2,-2.1719612E-2,-3.3132676E-3,2.778331E-2,3.8028125E-2,2.5387213E-2,9.584149E-3,3.7932448E-2,7.918888E-3,-2.334245E-2],"split_indices":[12,1,10,13,17,10,1,10,10,0,0,13,10,15,17,0,0,0,0,0,0,0,0,0,0,0,0,0,0],"split_type":[0,0,0,0,0,0,0,0,0,0,0,0,0,0,0,0,0,0,0,0,0,0,0,0,0,0,0,0,0],"sum_hessian":[6.9066284E2,3.1115332E2,3.7950952E2,2.1080553E2,1.00347786E2,3.1050046E2,6.900907E1,1.06271065E2,1.0453447E2,2.4398139E0,9.7907974E1,6.9400154E1,2.4110028E2,2.8215096E1,4.079398E1,7.5251976E1,3.1019087E1,9.575897E1,8.775496E0,6.065408E1,3.725389E1,2.5033552E1,4.4366604E1,2.245769E2,1.6523378E1,1.8959794E0,2.6319117E1,2.2949661E1,1.7844316E1],"tree_param":{"num_deleted":"0","num_feature":"19","num_nodes":"29","size_leaf_vector":"1"}},{"base_weights":[-3.0377957E-1,3.634067E-2,-5.863471E-1,-2.2880904E-1,5.766549E-1,-6.501854E-1,-2.7913022E-1,-3.8203278E-1,6.783313E-1,-3.2881755E-1,6.576405E-1,-3.6699986E-1,-7.4056625E-1,-7.295471E-1,5.1381525E-2,-1.1736689E-3,-3.7775256E-2,3.9706E-2,-8.211204E-4,-3.5739478E-2,2.8090814E-2,3.5163984E-2,1.1357701E-2,-3.710601E-2,-1.0255835E-2,-3.798567E-2,-2.6085291E-2,-3.8023554E-2,-4.548333E-3,1.2118484E-2,-3.7644066E-2],"categories":[],"categories_nodes":[],"categories_segments":[],"categories_sizes":[],"default_left":[0,0,0,0,0,0,0,0,0,0,0,0,0,0,0,0,0,0,0,0,0,0,0,0,0,0,0,0,0,0,0],"id":17,"left_children":[1,3,5,7,9,11,13,15,17,19,21,23,25,27,29,-1,-1,-1,-1,-1,-1,-1,-1,-1,-1,-1,-1,-1,-1,-1,-1],"loss_changes":[6.654236E1,4.5264915E1,7.2343445E0,2.973226E1,7.84182E0,7.721817E0,9.982857E0,2.4359995E1,2.5068932E0,3.5655217E0,1.7221451E0,4.5567207E0,5.916748E-1,4.9046993E-1,6.2446847E0,0E0,0E0,0E0,0E0,0E0,0E0,0E0,0E0,0E0,0E0,0E0,0E0,0E0,0E0,0E0,0E0],"parents":[2147483647,0,0,1,1,2,2,3,3,4,4,5,5,6,6,7,7,8,8,9,9,10,10,11,11,12,12,13,13,14,14],"right_children":[2,4,6,8,10,12,14,16,18,20,22,24,26,28,30,-1,-1,-1,-1,-1,-1,-1,-1,-1,-1,-1,-1,-1,-1,-1,-1],"split_conditions":[8.838541E-1,2.72744E-1,1.1065845E0,8.6617893E-1,-1.9550345E0,-6.563901E-1,-6.2532884E-1,7.7778375E-1,7.019565E-1,3.4711664E0,1.4328734E0,-9.591566E-1,9.7302586E-1,9.449389E-1,8.472942E-1,-1.1736689E-3,-3.7775256E-2,3.9706E-2,-8.211204E-4,-3.5739478E-2,2.8090814E-2,3.5163984E-2,1.1357701E-2,-3.710601E-2,-1.0255835E-2,-3.798567E-2,-2.6085291E-2,-3.8023554E-2,-4.548333E-3,1.2118484E-2,-3.7644066E-2],"split_indices":[12,1,10,10,17,10,1,13,17,1,3,17,10,2,14,0,0,0,0,0,0,0,0,0,0,0,0,0,0,0,0],"split_type":[0,0,0,0,0,0,0,0,0,0,0,0,0,0,0,0,0,0,0,0,0,0,0,0,0,0,0,0,0,0,0],"sum_hessian":[6.911567E2,3.1403323E2,3.7712344E2,2.1104375E2,1.0298948E2,3.1131683E2,6.580661E1,1.8104291E2,3.0000834E1,8.203934E0,9.4785545E1,7.654454E1,2.347723E2,2.7340298E1,3.8466312E1,9.290781E1,8.813511E1,2.5592522E1,4.4083104E0,5.8612804E0,2.3426526E0,8.5126915E1,9.658631E0,2.1994337E1,5.455021E1,2.13613E2,2.1159277E1,2.5895407E1,1.4448913E0,3.164922E1,6.8170905E0],"tree_param":{"num_deleted":"0","num_feature":"19","num_nodes":"31","size_leaf_vector":"1"}},{"base_weights":[3.0335426E-1,-2.31848E-2,5.670487E-1,2.4108039E-1,-5.5290526E-1,6.438512E-1,1.7172642E-1,3.8690525E-1,-6.8267405E-1,-6.580527E-1,-4.0506306E-1,3.7437767E-1,7.2945267E-1,3.6292214E-2,-1.3892564E-1,4.0760683E-3,3.7621673E-2,-1.2576829E-2,-3.9472222E-2,-9.813914E-3,-3.4568872E-2,2.0906646E-2,-2.2531329E-2,2.475504E-3,2.8253872E-2,1.3677143E-2,3.666619E-2,-3.332724E-2,2.578331E-3],"categories":[],"categories_nodes":[],"categories_segments":[],"categories_sizes":[],"default_left":[0,0,0,0,0,0,0,0,0,0,0,0,0,0,0,0,0,0,0,0,0,0,0,0,0,0,0,0,0],"id":18,"left_children":[1,3,5,7,9,11,13,15,17,19,21,23,25,-1,27,-1,-1,-1,-1,-1,-1,-1,-1,-1,-1,-1,-1,-1,-1],"loss_changes":[6.0652138E1,4.4311054E1,1.1719772E1,2.8720089E1,1.3710022E0,7.2444916E0,1.1246614E1,2.0375433E1,1.1438551E0,7.869644E-1,1.9281387E0,4.966712E0,2.3405457E-1,0E0,4.2887063E0,0E0,0E0,0E0,0E0,0E0,0E0,0E0,0E0,0E0,0E0,0E0,0E0,0E0,0E0],"parents":[2147483647,0,0,1,1,2,2,3,3,4,4,5,5,6,6,7,7,8,8,9,9,10,10,11,11,12,12,14,14],"right_children":[2,4,6,8,10,12,14,16,18,20,22,24,26,-1,28,-1,-1,-1,-1,-1,-1,-1,-1,-1,-1,-1,-1,-1,-1],"split_conditions":[8.838541E-1,1.7908785E-1,1.1332963E0,8.6617893E-1,1.4209943E0,-6.563901E-1,-6.7793024E-1,7.7778375E-1,9.463141E-1,2.72744E-1,1.5120846E0,7.7778375E-1,-1.5111151E0,3.6292214E-2,7.7778375E-1,4.0760683E-3,3.7621673E-2,-1.2576829E-2,-3.9472222E-2,-9.813914E-3,-3.4568872E-2,2.0906646E-2,-2.2531329E-2,2.475504E-3,2.8253872E-2,1.3677143E-2,3.666619E-2,-3.332724E-2,2.578331E-3],"split_indices":[12,1,10,10,1,10,1,13,10,1,1,13,6,0,13,0,0,0,0,0,0,0,0,0,0,0,0,0,0],"split_type":[0,0,0,0,0,0,0,0,0,0,0,0,0,0,0,0,0,0,0,0,0,0,0,0,0,0,0,0,0],"sum_hessian":[7.03232E2,3.1458548E2,3.886465E2,2.1024435E2,1.0434111E2,3.248974E2,6.3749134E1,1.8208188E2,2.8162483E1,5.8958187E1,4.5382923E1,7.96217E1,2.452757E2,2.242054E1,4.1328598E1,9.986868E1,8.2213196E1,6.2561398E0,2.1906343E1,4.432183E0,5.4526005E1,1.9513295E0,4.3431595E1,2.9916645E1,4.9705048E1,2.6684191E0,2.4260727E2,1.0300247E1,3.1028349E1],"tree_param":{"num_deleted":"0","num_feature":"19","num_nodes":"29","size_leaf_vector":"1"}},{"base_weights":[-3.1116852E-1,8.805018E-3,-5.7427263E-1,-2.7557153E-1,5.5426615E-1,-6.3819134E-1,-2.3850043E-1,-4.4633806E-1,3.309112E-1,7.5438607E-1,2.1503496E-1,-3.5876393E-1,-7.193709E-1,-5.1091564E-1,3.975927E-1,-2.7540421E-2,1.6020162E-2,-1.7861668E-2,3.405265E-2,3.2604747E-3,3.8413726E-2,-3.0423398E-3,3.347416E-2,-2.9798776E-2,-5.3346637E-3,-3.6819484E-2,-2.7335664E-2,-3.6739226E-2,-1.0429165E-2,-2.4390796E-2,3.109409E-2],"categories":[],"categories_nodes":[],"categories_segments":[],"categories_sizes":[],"default_left":[0,0,0,0,0,0,0,0,0,0,0,0,0,0,0,0,0,0,0,0,0,0,0,0,0,0,0,0,0,0,0],"id":19,"left_children":[1,3,5,7,9,11,13,15,17,19,21,23,25,27,29,-1,-1,-1,-1,-1,-1,-1,-1,-1,-1,-1,-1,-1,-1,-1,-1],"loss_changes":[5.8221657E1,4.8707584E1,7.992653E0,2.1526058E1,7.1425095E0,6.9601746E0,1.0996187E1,1.3112473E1,1.1309124E1,5.9386444E-1,5.2215576E0,4.3390856E0,3.190155E-1,2.8279896E0,4.1239543E0,0E0,0E0,0E0,0E0,0E0,0E0,0E0,0E0,0E0,0E0,0E0,0E0,0E0,0E0,0E0,0E0],"parents":[2147483647,0,0,1,1,2,2,3,3,4,4,5,5,6,6,7,7,8,8,9,9,10,10,11,11,12,12,13,13,14,14],"right_children":[2,4,6,8,10,12,14,16,18,20,22,24,26,28,30,-1,-1,-1,-1,-1,-1,-1,-1,-1,-1,-1,-1,-1,-1,-1,-1],"split_conditions":[8.838541E-1,1.7908785E-1,1.1065845E0,6.52485E-1,2.4061425E-1,-6.563901E-1,-3.3153072E-1,1.5010084E0,-5.265408E-1,-3.11469E-2,2.0388536E0,6.2938946E-1,9.7302586E-1,-6.53554E-1,-1.1864216E0,-2.7540421E-2,1.6020162E-2,-1.7861668E-2,3.405265E-2,3.2604747E-3,3.8413726E-2,-3.0423398E-3,3.347416E-2,-2.9798776E-2,-5.3346637E-3,-3.6819484E-2,-2.7335664E-2,-3.6739226E-2,-1.0429165E-2,-2.4390796E-2,3.109409E-2],"split_indices":[12,1,10,10,18,10,1,14,1,9,18,14,10,1,18,0,0,0,0,0,0,0,0,0,0,0,0,0,0,0,0],"split_type":[0,0,0,0,0,0,0,0,0,0,0,0,0,0,0,0,0,0,0,0,0,0,0,0,0,0,0,0,0,0,0],"sum_hessian":[6.9052057E2,3.120221E2,3.784985E2,2.0542067E2,1.0660142E2,3.1721225E2,6.1286247E1,1.604945E2,4.4926174E1,6.627848E1,4.0322945E1,7.263057E1,2.4458168E2,4.304742E1,1.8238829E1,1.4149684E2,1.8997665E1,1.5143646E1,2.9782526E1,1.4217726E0,6.4856705E1,2.562991E1,1.4693033E1,3.671527E1,3.59153E1,2.1966444E2,2.4917244E1,2.3911337E1,1.9136082E1,3.4489067E0,1.4789923E1],"tree_param":{"num_deleted":"0","num_feature":"19","num_nodes":"31","size_leaf_vector":"1"}},{"base_weights":[2.767318E-1,-4.4179104E-2,5.4115987E-1,2.1875724E-1,-5.1221853E-1,6.3137215E-1,1.3055494E-1,3.6430672E-1,-5.420403E-1,-5.976998E-1,-1.6332392E-1,3.8211122E-1,7.054123E-1,6.5842277E-1,-2.1460684E-1,1.4120922E-3,3.6753222E-2,1.5537672E-3,-3.873665E-2,-1.3038471E-2,-3.1988207E-2,3.415872E-3,-3.535863E-2,3.1507846E-2,5.9648314E-3,1.8811135E-2,3.565438E-2,3.601552E-2,7.5686546E-3,-1.8224355E-2,3.547982E-2],"categories":[],"categories_nodes":[],"categories_segments":[],"categories_sizes":[],"default_left":[0,0,0,0,0,0,0,0,0,0,0,0,0,0,0,0,0,0,0,0,0,0,0,0,0,0,0,0,0,0,0],"id":20,"left_children":[1,3,5,7,9,11,13,15,17,19,21,23,25,27,29,-1,-1,-1,-1,-1,-1,-1,-1,-1,-1,-1,-1,-1,-1,-1,-1],"loss_changes":[5.859079E1,3.859596E1,1.3936462E1,2.2447086E1,3.2660465E0,5.452156E0,1.27920475E1,2.106882E1,4.380803E0,1.1117401E0,3.0177217E0,4.695612E0,3.3267975E-1,7.6010036E-1,6.178463E0,0E0,0E0,0E0,0E0,0E0,0E0,0E0,0E0,0E0,0E0,0E0,0E0,0E0,0E0,0E0,0E0],"parents":[2147483647,0,0,1,1,2,2,3,3,4,4,5,5,6,6,7,7,8,8,9,9,10,10,11,11,12,12,13,13,14,14],"right_children":[2,4,6,8,10,12,14,16,18,20,22,24,26,28,30,-1,-1,-1,-1,-1,-1,-1,-1,-1,-1,-1,-1,-1,-1,-1,-1],"split_conditions":[8.838541E-1,1.9320042E-1,1.1065845E0,7.860437E-1,1.1012352E0,-6.563901E-1,-6.2532884E-1,7.7778375E-1,-2.4222946E-1,-1.7675626E0,7.3302186E-1,-1.1639131E0,-1.7909034E0,1.2669699E0,8.472942E-1,1.4120922E-3,3.6753222E-2,1.5537672E-3,-3.873665E-2,-1.3038471E-2,-3.1988207E-2,3.415872E-3,-3.535863E-2,3.1507846E-2,5.9648314E-3,1.8811135E-2,3.565438E-2,3.601552E-2,7.5686546E-3,-1.8224355E-2,3.547982E-2],"split_indices":[12,1,10,10,0,10,1,13,14,14,6,10,3,4,14,0,0,0,0,0,0,0,0,0,0,0,0,0,0,0,0],"split_type":[0,0,0,0,0,0,0,0,0,0,0,0,0,0,0,0,0,0,0,0,0,0,0,0,0,0,0,0,0,0,0],"sum_hessian":[6.891764E2,3.117131E2,3.774633E2,1.9992908E2,1.1178404E2,3.0902994E2,6.8433365E1,1.682601E2,3.1668976E1,8.921316E1,2.2570885E1,7.218277E1,2.3684717E2,2.6697058E1,4.173631E1,8.882389E1,7.943621E1,9.395232E0,2.2273745E1,1.0700743E1,7.851241E1,1.6442091E1,6.1287947E0,3.6415714E1,3.5767056E1,6.5360594E0,2.303111E2,2.3418175E1,3.278883E0,3.6433434E1,5.302876E0],"tree_param":{"num_deleted":"0","num_feature":"19","num_nodes":"31","size_leaf_vector":"1"}},{"base_weights":[-2.787496E-1,4.9474407E-2,-5.475571E-1,2.8173372E-1,-2.3506632E-1,-3.635421E-2,-4.5224354E-1,-4.8551217E-2,3.3473688E-1,-3.8151745E-2,-7.1365494E-1,-2.4999048E-1,-5.4751533E-1,4.7906204E-3,-2.9031416E-2,-3.2536972E-2,1.7448654E-2,3.1863257E-2,-6.1582155E-3,6.4246827E-3,-3.72907E-2,-1.52391335E-2,3.2836337E-2,-3.529096E-2,-2.2104232E-2],"categories":[],"categories_nodes":[],"categories_segments":[],"categories_sizes":[],"default_left":[0,0,0,0,0,0,0,0,0,0,0,0,0,0,0,0,0,0,0,0,0,0,0,0,0],"id":21,"left_children":[1,3,5,7,9,-1,11,13,15,17,19,21,23,-1,-1,-1,-1,-1,-1,-1,-1,-1,-1,-1,-1],"loss_changes":[6.0723534E1,2.059662E1,6.1441574E0,3.0184917E0,1.3181562E1,0E0,4.675434E0,1.9443587E0,2.302147E0,5.8409605E0,1.2008381E0,4.264644E0,2.50745E0,0E0,0E0,0E0,0E0,0E0,0E0,0E0,0E0,0E0,0E0,0E0,0E0],"parents":[2147483647,0,0,1,1,2,2,3,3,4,4,6,6,7,7,8,8,9,9,10,10,11,11,12,12],"right_children":[2,4,6,8,10,-1,12,14,16,18,20,22,24,-1,-1,-1,-1,-1,-1,-1,-1,-1,-1,-1,-1],"split_conditions":[8.838541E-1,7.7778375E-1,-4.5095855E-1,-4.601342E-1,6.2938946E-1,-3.635421E-2,7.7778375E-1,-6.7803895E-1,-9.1654366E-1,-1.3876528E0,-4.6753022E-1,1.9582473E0,2.7253425E-2,4.7906204E-3,-2.9031416E-2,-3.2536972E-2,1.7448654E-2,3.1863257E-2,-6.1582155E-3,6.4246827E-3,-3.72907E-2,-1.52391335E-2,3.2836337E-2,-3.529096E-2,-2.2104232E-2],"split_indices":[12,13,17,14,14,0,13,14,17,17,17,17,17,0,0,0,0,0,0,0,0,0,0,0,0],"split_type":[0,0,0,0,0,0,0,0,0,0,0,0,0,0,0,0,0,0,0,0,0,0,0,0,0],"sum_hessian":[6.8694147E2,3.0965594E2,3.7728552E2,1.7049638E2,1.3915958E2,1.2854234E2,2.4874318E2,2.3588776E1,1.4690761E2,9.935842E1,3.980116E1,8.081164E1,1.6793155E2,1.9199482E1,4.3892922E0,1.4553173E0,1.4545229E2,1.0381583E1,8.897684E1,1.3537941E0,3.8447365E1,7.6832565E1,3.9790685E0,6.485593E1,1.0307562E2],"tree_param":{"num_deleted":"0","num_feature":"19","num_nodes":"25","size_leaf_vector":"1"}},{"base_weights":[2.6716504E-1,-4.070911E-2,4.729439E-1,2.2748518E-1,-2.86346E-1,-3.4472678E-2,5.097998E-1,-6.045162E-2,5.359022E-1,-1.258183E-1,-6.908076E-1,5.689407E-1,1.601743E-1,-4.3861624E-2,4.2183935E-3,3.283442E-2,-7.0462287E-3,-1.8480128E-2,9.265913E-3,-8.481113E-3,-3.663841E-2,2.07048E-2,3.263047E-2,3.464855E-2,-8.228943E-3],"categories":[],"categories_nodes":[],"categories_segments":[],"categories_sizes":[],"default_left":[0,0,0,0,0,0,0,0,0,0,0,0,0,0,0,0,0,0,0,0,0,0,0,0,0],"id":22,"left_children":[1,3,5,7,9,-1,11,13,15,17,19,21,23,-1,-1,-1,-1,-1,-1,-1,-1,-1,-1,-1,-1],"loss_changes":[4.3049026E1,1.8051207E1,1.7795418E1,1.1672373E1,9.19412E0,0E0,8.081276E0,8.198627E0,5.2745686E0,7.923046E0,7.5904083E-1,4.104393E0,1.0249213E1,0E0,0E0,0E0,0E0,0E0,0E0,0E0,0E0,0E0,0E0,0E0,0E0],"parents":[2147483647,0,0,1,1,2,2,3,3,4,4,6,6,7,7,8,8,9,9,10,10,11,11,12,12],"right_children":[2,4,6,8,10,-1,12,14,16,18,20,22,24,-1,-1,-1,-1,-1,-1,-1,-1,-1,-1,-1,-1],"split_conditions":[7.7778375E-1,-2.6481673E-1,-2.1255355E0,1.7167374E-1,4.6550286E-1,-3.4472678E-2,1.160008E0,3.9878674E-2,8.6617893E-1,-5.1337853E-2,-4.0124354E-1,-3.8927272E-1,-6.7793024E-1,-4.3861624E-2,4.2183935E-3,3.283442E-2,-7.0462287E-3,-1.8480128E-2,9.265913E-3,-8.481113E-3,-3.663841E-2,2.07048E-2,3.263047E-2,3.464855E-2,-8.228943E-3],"split_indices":[13,1,10,10,10,0,10,17,10,18,17,10,1,0,0,0,0,0,0,0,0,0,0,0,0],"split_type":[0,0,0,0,0,0,0,0,0,0,0,0,0,0,0,0,0,0,0,0,0,0,0,0,0],"sum_hessian":[6.7819586E2,2.7201913E2,4.0617673E2,1.30074E2,1.4194511E2,1.1938599E1,3.9423813E2,6.768633E1,6.2387672E1,1.025535E2,3.939162E1,3.3666263E2,5.7575497E1,9.4320755E0,5.8254257E1,5.296527E1,9.4224E0,5.7394993E1,4.515851E1,3.3108296E0,3.608079E1,1.2018559E2,2.1647704E2,2.1374392E1,3.6201103E1],"tree_param":{"num_deleted":"0","num_feature":"19","num_nodes":"25","size_leaf_vector":"1"}},{"base_weights":[-2.63212E-1,4.860083E-2,-5.3873605E-1,-1.9492134E-1,5.098316E-1,-4.1331118E-1,-6.3511074E-1,-2.628553E-1,4.1869304E-1,7.0564276E-1,1.8591897E-1,-6.868585E-1,-2.2085956E-1,-5.8033586E-1,-7.0374614E-1,-2.224995E-2,-3.972821E-3,2.6396364E-2,-2.4576534E-2,3.3824823E-3,3.590229E-2,-1.1735731E-3,3.1417493E-2,-3.499832E-2,-7.109268E-3,-2.3382869E-2,7.4168143E-4,-3.4201227E-2,-1.5919982E-2,-3.5657834E-2,-1.1591111E-2],"categories":[],"categories_nodes":[],"categories_segments":[],"categories_sizes":[],"default_left":[0,0,0,0,0,0,0,0,0,0,0,0,0,0,0,0,0,0,0,0,0,0,0,0,0,0,0,0,0,0,0],"id":23,"left_children":[1,3,5,7,9,11,13,15,17,19,21,23,25,27,29,-1,-1,-1,-1,-1,-1,-1,-1,-1,-1,-1,-1,-1,-1,-1,-1],"loss_changes":[5.8523067E1,3.607875E1,4.1080017E0,8.879189E0,6.9067764E0,8.26973E0,3.5326385E-1,6.31196E0,2.3826723E0,4.9584198E-1,4.013545E0,3.6875916E-1,5.5548763E0,2.997326E0,2.1313477E-1,0E0,0E0,0E0,0E0,0E0,0E0,0E0,0E0,0E0,0E0,0E0,0E0,0E0,0E0,0E0,0E0],"parents":[2147483647,0,0,1,1,2,2,3,3,4,4,5,5,6,6,7,7,8,8,9,9,10,10,11,11,12,12,13,13,14,14],"right_children":[2,4,6,8,10,12,14,16,18,20,22,24,26,28,30,-1,-1,-1,-1,-1,-1,-1,-1,-1,-1,-1,-1,-1,-1,-1,-1],"split_conditions":[8.838541E-1,2.034641E-1,-3.1210008E-1,1.5010084E0,2.5390828E-1,-7.690205E-1,6.767527E-1,-5.1884305E-1,1.3893168E0,-2.831688E0,2.1017442E0,1.422882E0,-8.2800084E-1,3.3827254E-1,3.1608362E0,-2.224995E-2,-3.972821E-3,2.6396364E-2,-2.4576534E-2,3.3824823E-3,3.590229E-2,-1.1735731E-3,3.1417493E-2,-3.499832E-2,-7.109268E-3,-2.3382869E-2,7.4168143E-4,-3.4201227E-2,-1.5919982E-2,-3.5657834E-2,-1.1591111E-2],"split_indices":[12,1,18,14,18,1,18,1,0,8,18,16,18,18,2,0,0,0,0,0,0,0,0,0,0,0,0,0,0,0,0],"split_type":[0,0,0,0,0,0,0,0,0,0,0,0,0,0,0,0,0,0,0,0,0,0,0,0,0,0,0,0,0,0,0],"sum_hessian":[6.798935E2,3.1932938E2,3.605641E2,2.0936536E2,1.09964035E2,1.5896753E2,2.0159656E2,1.8901132E2,2.0354033E1,6.77995E1,4.2164536E1,6.45906E1,9.437693E1,1.1737787E2,8.421869E1,9.411452E1,9.4896805E1,1.8548111E1,1.8059212E0,1.4160255E0,6.638348E1,2.9262392E1,1.2902142E1,6.2794308E1,1.7962912E0,4.562165E1,4.8755276E1,8.29359E1,3.4441975E1,8.207097E1,2.1477158E0],"tree_param":{"num_deleted":"0","num_feature":"19","num_nodes":"31","size_leaf_vector":"1"}},{"base_weights":[2.689031E-1,-4.0260922E-2,5.282875E-1,2.1592899E-1,-5.6828195E-1,2.815903E-1,5.924612E-1,-8.501996E-2,5.4962105E-1,-2.358981E-1,-6.101829E-1,1.0931755E-1,6.559638E-1,6.8537486E-1,2.538774E-1,3.4615004E-3,-2.7459739E-2,3.482927E-2,-3.7158277E-2,-3.1667788E-2,6.3224398E-3,-7.981157E-3,-3.199957E-2,2.8570244E-2,-1.3949031E-2,2.260751E-3,3.450953E-2,1.6716184E-2,3.4668576E-2,3.49716E-2,-3.5415273E-3],"categories":[],"categories_nodes":[],"categories_segments":[],"categories_sizes":[],"default_left":[0,0,0,0,0,0,0,0,0,0,0,0,0,0,0,0,0,0,0,0,0,0,0,0,0,0,0,0,0,0,0],"id":24,"left_children":[1,3,5,7,9,11,13,15,17,19,21,23,25,27,29,-1,-1,-1,-1,-1,-1,-1,-1,-1,-1,-1,-1,-1,-1,-1,-1],"loss_changes":[5.3545E1,4.1439476E1,5.5801697E0,2.0771885E1,1.249546E0,4.8842306E0,8.860031E0,7.869356E0,1.91367E1,1.9280274E0,1.0827332E0,9.817335E0,4.7083664E-1,3.99086E-1,9.225384E0,0E0,0E0,0E0,0E0,0E0,0E0,0E0,0E0,0E0,0E0,0E0,0E0,0E0,0E0,0E0,0E0],"parents":[2147483647,0,0,1,1,2,2,3,3,4,4,5,5,6,6,7,7,8,8,9,9,10,10,11,11,12,12,13,13,14,14],"right_children":[2,4,6,8,10,12,14,16,18,20,22,24,26,28,30,-1,-1,-1,-1,-1,-1,-1,-1,-1,-1,-1,-1,-1,-1,-1,-1],"split_conditions":[8.838541E-1,1.7908785E-1,-6.563901E-1,7.7778375E-1,-1.3317531E0,2.034641E-1,1.1065845E0,5.9906155E-1,9.463141E-1,-2.203372E0,2.72744E-1,-7.690205E-1,-1.9700022E0,-1.7909034E0,-5.829911E-1,3.4615004E-3,-2.7459739E-2,3.482927E-2,-3.7158277E-2,-3.1667788E-2,6.3224398E-3,-7.981157E-3,-3.199957E-2,2.8570244E-2,-1.3949031E-2,2.260751E-3,3.450953E-2,1.6716184E-2,3.4668576E-2,3.49716E-2,-3.5415273E-3],"split_indices":[12,1,10,13,14,1,10,10,10,14,1,1,3,3,1,0,0,0,0,0,0,0,0,0,0,0,0,0,0,0,0],"split_type":[0,0,0,0,0,0,0,0,0,0,0,0,0,0,0,0,0,0,0,0,0,0,0,0,0,0,0,0,0,0,0],"sum_hessian":[6.664421E2,3.04431E2,3.6201105E2,2.0537595E2,9.905505E1,7.584299E1,2.8616806E2,1.083778E2,9.699815E1,1.1831358E1,8.7223694E1,5.2826286E1,2.3016697E1,2.2374428E2,6.2423786E1,8.198441E1,2.6393393E1,8.751104E1,9.487108E0,5.285632E0,6.545726E0,5.806872E0,8.1416824E1,2.3905916E1,2.8920372E1,1.344593E0,2.1672104E1,5.936571E0,2.1780771E2,2.5828564E1,3.6595222E1],"tree_param":{"num_deleted":"0","num_feature":"19","num_nodes":"31","size_leaf_vector":"1"}},{"base_weights":[-2.544256E-1,4.5587722E-2,-5.1662046E-1,-2.1175453E-1,5.595844E-1,-5.8398104E-1,-2.2927587E-1,-3.1453598E-1,3.797893E-2,7.238302E-1,2.433039E-1,-2.852606E-1,-6.8427247E-1,-5.64244E-1,1.7501263E-1,-8.572875E-5,-3.3821367E-2,3.2691446E-3,3.682859E-2,-1.6201789E-3,3.5010263E-2,-3.9195376E-3,-3.35742E-2,-1.7399704E-2,-3.4425713E-2,-3.5917725E-2,-1.760274E-2,3.7755694E-2,-7.1407347E-3],"categories":[],"categories_nodes":[],"categories_segments":[],"categories_sizes":[],"default_left":[0,0,0,0,0,0,0,0,0,0,0,0,0,0,0,0,0,0,0,0,0,0,0,0,0,0,0,0,0],"id":25,"left_children":[1,3,5,7,9,11,13,15,-1,17,19,21,23,25,27,-1,-1,-1,-1,-1,-1,-1,-1,-1,-1,-1,-1,-1,-1],"loss_changes":[5.328109E1,4.200527E1,6.860771E0,2.137838E1,5.326454E0,8.555885E0,9.615449E0,2.1756104E1,0E0,5.3250885E-1,4.773302E0,5.95044E0,7.130432E-2,1.0115747E0,6.11933E0,0E0,0E0,0E0,0E0,0E0,0E0,0E0,0E0,0E0,0E0,0E0,0E0,0E0,0E0],"parents":[2147483647,0,0,1,1,2,2,3,3,4,4,5,5,6,6,7,7,9,9,10,10,11,11,12,12,13,13,14,14],"right_children":[2,4,6,8,10,12,14,16,-1,18,20,22,24,26,28,-1,-1,-1,-1,-1,-1,-1,-1,-1,-1,-1,-1,-1,-1],"split_conditions":[8.838541E-1,2.72744E-1,1.0798728E0,9.463141E-1,2.8100705E-1,-6.563901E-1,-4.5597798E-1,7.7778375E-1,3.797893E-2,-2.831688E0,2.1017442E0,-2.9011405E-1,-1.5111151E0,-1.0233171E0,7.7778375E-1,-8.572875E-5,-3.3821367E-2,3.2691446E-3,3.682859E-2,-1.6201789E-3,3.5010263E-2,-3.9195376E-3,-3.35742E-2,-1.7399704E-2,-3.4425713E-2,-3.5917725E-2,-1.760274E-2,3.7755694E-2,-7.1407347E-3],"split_indices":[12,1,10,10,18,10,1,13,0,8,18,18,6,18,13,0,0,0,0,0,0,0,0,0,0,0,0,0,0],"split_type":[0,0,0,0,0,0,0,0,0,0,0,0,0,0,0,0,0,0,0,0,0,0,0,0,0,0,0,0,0],"sum_hessian":[6.7604333E2,3.1566898E2,3.6037433E2,2.10744E2,1.0492499E2,2.9110083E2,6.927348E1,1.911895E2,1.9554504E1,6.8213066E1,3.6711926E1,7.41343E1,2.1696654E2,3.766827E1,3.1605215E1,1.0308598E2,8.810351E1,1.4113162E0,6.680175E1,2.347532E1,1.3236607E1,4.9059765E1,2.5074537E1,3.737125E0,2.1322942E2,2.0438553E1,1.7229717E1,1.0699865E1,2.090535E1],"tree_param":{"num_deleted":"0","num_feature":"19","num_nodes":"29","size_leaf_vector":"1"}},{"base_weights":[2.6762736E-1,4.8802933E-1,1.369305E-1,3.2110944E-1,6.4675766E-1,2.0003124E-1,-3.659159E-1,3.6718577E-2,2.4706377E-1,6.8225133E-1,2.1468502E-1,-4.9823618E-1,2.4087106E-1,-1.0438557E-1,-6.5253264E-1,2.790956E-3,1.9267857E-2,2.0552943E-2,3.4832682E-2,2.5913684E-2,-3.0700007E-2,3.8968928E-3,-3.4360502E-2,3.0835507E-2,5.629202E-3,2.4665163E-3,-3.3095147E-2,-5.2641616E-3,-3.7442204E-2],"categories":[],"categories_nodes":[],"categories_segments":[],"categories_sizes":[],"default_left":[0,0,0,0,0,0,0,0,0,0,0,0,0,0,0,0,0,0,0,0,0,0,0,0,0,0,0,0,0],"id":26,"left_children":[1,3,5,7,9,11,13,-1,15,17,19,21,23,25,27,-1,-1,-1,-1,-1,-1,-1,-1,-1,-1,-1,-1,-1,-1],"loss_changes":[1.8862175E1,6.263031E0,1.320619E1,3.5220175E0,1.7582169E0,1.0625638E1,3.417583E0,0E0,2.732874E0,1.6011047E-1,3.0572205E0,2.3054442E0,1.6743977E1,2.2184315E0,1.0804987E0,0E0,0E0,0E0,0E0,0E0,0E0,0E0,0E0,0E0,0E0,0E0,0E0,0E0,0E0],"parents":[2147483647,0,0,1,1,2,2,3,3,4,4,5,5,6,6,8,8,9,9,10,10,11,11,12,12,13,13,14,14],"right_children":[2,4,6,8,10,12,14,-1,16,18,20,22,24,26,28,-1,-1,-1,-1,-1,-1,-1,-1,-1,-1,-1,-1,-1,-1],"split_conditions":[-5.1884305E-1,2.5180897E-1,1.1065845E0,-1.2173365E0,1.5606841E0,-1.9118418E0,2.198005E-1,3.6718577E-2,-6.029666E-1,-7.6306945E-1,-6.330266E-1,-2.157051E0,-5.3144956E-1,1.4538372E0,-1.23781E-2,2.790956E-3,1.9267857E-2,2.0552943E-2,3.4832682E-2,2.5913684E-2,-3.0700007E-2,3.8968928E-3,-3.4360502E-2,3.0835507E-2,5.629202E-3,2.4665163E-3,-3.3095147E-2,-5.2641616E-3,-3.7442204E-2],"split_indices":[1,10,10,10,10,10,17,0,10,6,1,17,17,10,8,0,0,0,0,0,0,0,0,0,0,0,0,0,0],"split_type":[0,0,0,0,0,0,0,0,0,0,0,0,0,0,0,0,0,0,0,0,0,0,0,0,0,0,0,0,0],"sum_hessian":[6.561235E2,2.432248E2,4.1289865E2,1.2002679E2,1.2319801E2,3.6739722E2,4.5501415E1,1.688284E1,1.0314394E2,1.133108E2,9.88722E0,1.9681911E1,3.4771533E2,2.4505228E1,2.0996185E1,4.3874256E1,5.9269688E1,7.2038817E0,1.0610691E2,7.510378E0,2.3768425E0,5.006095E0,1.4675817E1,8.7515686E1,2.6019965E2,1.992353E1,4.581699E0,3.455412E0,1.7540773E1],"tree_param":{"num_deleted":"0","num_feature":"19","num_nodes":"29","size_leaf_vector":"1"}},{"base_weights":[-2.715006E-1,2.7479688E-2,-5.125602E-1,1.9301547E-1,-2.018441E-1,-5.806318E-1,-2.1002077E-1,-7.571319E-2,3.471586E-1,6.230554E-1,-3.050379E-1,-2.812713E-1,-6.7297375E-1,4.3120962E-1,-3.922327E-1,1.4868542E-2,-2.8334288E-2,-6.32412E-3,2.15618E-2,3.3383545E-2,6.4914473E-3,-2.013977E-2,3.5633E-2,-2.7357504E-2,-8.273194E-4,-3.4215238E-2,-2.5762254E-2,3.879065E-2,-4.469627E-3,-3.4910254E-2,-4.871316E-3],"categories":[],"categories_nodes":[],"categories_segments":[],"categories_sizes":[],"default_left":[0,0,0,0,0,0,0,0,0,0,0,0,0,0,0,0,0,0,0,0,0,0,0,0,0,0,0,0,0,0,0],"id":27,"left_children":[1,3,5,7,9,11,13,15,17,19,21,23,25,27,29,-1,-1,-1,-1,-1,-1,-1,-1,-1,-1,-1,-1,-1,-1,-1,-1],"loss_changes":[4.8245285E1,1.1414667E1,7.5091248E0,7.256576E0,1.0925691E1,8.156761E0,8.304178E0,1.1973481E1,4.478916E0,2.2912884E-1,1.1505817E1,5.121531E0,5.8517456E-2,2.9188063E0,4.8698874E0,0E0,0E0,0E0,0E0,0E0,0E0,0E0,0E0,0E0,0E0,0E0,0E0,0E0,0E0,0E0,0E0],"parents":[2147483647,0,0,1,1,2,2,3,3,4,4,5,5,6,6,7,7,8,8,9,9,10,10,11,11,12,12,13,13,14,14],"right_children":[2,4,6,8,10,12,14,16,18,20,22,24,26,28,30,-1,-1,-1,-1,-1,-1,-1,-1,-1,-1,-1,-1,-1,-1,-1,-1],"split_conditions":[8.838541E-1,7.7778375E-1,1.0798728E0,-6.2967837E-1,-1.9118418E0,-6.8310183E-1,7.7778375E-1,-1.0036427E0,-2.4222946E-1,-2.0186887E0,9.463141E-1,-1.1906248E0,9.7302586E-1,1.9358002E-1,-3.1142E-2,1.4868542E-2,-2.8334288E-2,-6.32412E-3,2.15618E-2,3.3383545E-2,6.4914473E-3,-2.013977E-2,3.5633E-2,-2.7357504E-2,-8.273194E-4,-3.4215238E-2,-2.5762254E-2,3.879065E-2,-4.469627E-3,-3.4910254E-2,-4.871316E-3],"split_indices":[12,13,10,10,10,10,13,10,14,10,10,10,10,14,17,0,0,0,0,0,0,0,0,0,0,0,0,0,0,0,0],"split_type":[0,0,0,0,0,0,0,0,0,0,0,0,0,0,0,0,0,0,0,0,0,0,0,0,0,0,0,0,0,0,0],"sum_hessian":[6.68208E2,2.98666E2,3.6954202E2,1.735491E2,1.2511688E2,3.009164E2,6.86256E1,6.344673E1,1.1010236E2,1.3351484E1,1.11765396E2,7.1893425E1,2.2902298E2,1.4883138E1,5.3742466E1,3.6275642E1,2.7171091E1,1.6522156E1,9.358021E1,1.1919601E1,1.431883E0,1.0252163E2,9.243763E0,3.5336273E1,3.655715E1,2.1055833E2,1.8464645E1,8.660351E0,6.2227874E0,2.570035E1,2.8042118E1],"tree_param":{"num_deleted":"0","num_feature":"19","num_nodes":"31","size_leaf_vector":"1"}},{"base_weights":[2.3639892E-1,-6.541932E-2,4.9326408E-1,1.6854885E-1,-5.575084E-1,3.3724036E-2,3.9992863E-1,4.146645E-1,-3.2060497E-2,3.2154918E-2,-6.0209185E-1,3.453597E-2,3.3870384E-1,3.0966466E-2,8.34101E-3,-8.353187E-3,1.4736329E-2,-3.639136E-2,-1.78612E-2,8.255919E-3,2.4271164E-2],"categories":[],"categories_nodes":[],"categories_segments":[],"categories_sizes":[],"default_left":[0,0,0,0,0,0,0,0,0,0,0,0,0,0,0,0,0,0,0,0,0],"id":28,"left_children":[1,3,5,7,9,-1,11,13,15,-1,17,-1,19,-1,-1,-1,-1,-1,-1,-1,-1],"loss_changes":[4.9636402E1,3.406499E1,5.5786743E0,9.924709E0,5.489048E0,0E0,3.8730507E0,4.4730835E0,4.969442E0,0E0,2.5853882E0,0E0,4.823118E0,0E0,0E0,0E0,0E0,0E0,0E0,0E0,0E0],"parents":[2147483647,0,0,1,1,2,2,3,3,4,4,6,6,7,7,8,8,10,10,12,12],"right_children":[2,4,6,8,10,-1,12,14,16,-1,18,-1,20,-1,-1,-1,-1,-1,-1,-1,-1],"split_conditions":[8.838541E-1,2.72744E-1,-4.959388E-1,-5.1884305E-1,-2.5539823E0,3.3724036E-2,-8.357345E-1,-2.4511953E-1,6.2938946E-1,3.2154918E-2,2.6311165E-1,3.453597E-2,-4.7980607E-1,3.0966466E-2,8.34101E-3,-8.353187E-3,1.4736329E-2,-3.639136E-2,-1.78612E-2,8.255919E-3,2.4271164E-2],"split_indices":[12,1,17,1,17,0,1,18,14,0,18,0,18,0,0,0,0,0,0,0,0],"split_type":[0,0,0,0,0,0,0,0,0,0,0,0,0,0,0,0,0,0,0,0,0],"sum_hessian":[6.3883374E2,2.9405844E2,3.4477527E2,1.9974525E2,9.431319E1,1.1509154E2,2.2968375E2,8.9219795E1,1.1052547E2,2.8961768E0,9.1417015E1,3.8159798E1,1.9152394E2,4.8045734E1,4.1174057E1,7.855951E1,3.1965963E1,5.90986E1,3.2318413E1,8.870337E1,1.0282058E2],"tree_param":{"num_deleted":"0","num_feature":"19","num_nodes":"21","size_leaf_vector":"1"}},{"base_weights":[-2.4474536E-1,5.3719245E-2,-4.4189677E-1,-2.2806887E-1,3.1052995E-1,-4.793669E-1,2.8755108E-1,-4.6310812E-1,-1.0525709E-1,-2.5618634E-1,3.471349E-1,-6.511075E-1,-4.0164983E-1,-3.247054E-2,3.345738E-2,-3.096888E-2,1.0049638E-2,5.4521277E-4,-3.589159E-2,-3.476465E-2,2.7849061E-2,1.1716853E-2,2.5157074E-2,-7.925714E-3,-3.2932024E-2,-1.2091549E-2,-3.136758E-2],"categories":[],"categories_nodes":[],"categories_segments":[],"categories_sizes":[],"default_left":[0,0,0,0,0,0,0,0,0,0,0,0,0,0,0,0,0,0,0,0,0,0,0,0,0,0,0],"id":29,"left_children":[1,3,5,7,9,11,13,15,17,19,21,23,25,-1,-1,-1,-1,-1,-1,-1,-1,-1,-1,-1,-1,-1,-1],"loss_changes":[3.8971935E1,1.9189293E1,1.1035667E1,3.6040783E0,2.9650621E0,4.8051834E0,7.6230693E0,4.601034E0,6.0142655E0,3.5963283E0,2.1813002E0,3.284645E-1,9.369442E0,0E0,0E0,0E0,0E0,0E0,0E0,0E0,0E0,0E0,0E0,0E0,0E0,0E0,0E0],"parents":[2147483647,0,0,1,1,2,2,3,3,4,4,5,5,6,6,7,7,8,8,9,9,10,10,11,11,12,12],"right_children":[2,4,6,8,10,12,14,16,18,20,22,24,26,-1,-1,-1,-1,-1,-1,-1,-1,-1,-1,-1,-1,-1,-1],"split_conditions":[7.7778375E-1,-3.0330557E-1,2.4666078E0,-8.101053E-1,-8.3210707E-1,-6.7793024E-1,-2.6415753E0,-5.124283E-1,5.1058036E-1,3.2363844E0,4.3311417E-1,-1.1191014E0,2.8100705E-1,-3.247054E-2,3.345738E-2,-3.096888E-2,1.0049638E-2,5.4521277E-4,-3.589159E-2,-3.476465E-2,2.7849061E-2,1.1716853E-2,2.5157074E-2,-7.925714E-3,-3.2932024E-2,-1.2091549E-2,-3.136758E-2],"split_indices":[13,1,1,18,17,1,17,1,18,1,1,0,18,0,0,0,0,0,0,0,0,0,0,0,0,0,0],"split_type":[0,0,0,0,0,0,0,0,0,0,0,0,0,0,0,0,0,0,0,0,0,0,0,0,0,0,0],"sum_hessian":[6.609035E2,2.631906E2,3.977129E2,1.2554597E2,1.3764465E2,3.7860748E2,1.9105413E1,4.2135487E1,8.341048E1,7.9872785E0,1.2965738E2,1.1565443E2,2.6295303E2,5.326078E0,1.3779335E1,3.416376E1,7.9717264E0,7.094039E1,1.247009E1,5.280689E0,2.7065897E0,7.670167E1,5.2955708E1,2.07403E0,1.135804E2,1.5515773E2,1.0779532E2],"tree_param":{"num_deleted":"0","num_feature":"19","num_nodes":"27","size_leaf_vector":"1"}},{"base_weights":[2.538455E-1,-4.0517054E-2,4.4710708E-1,2.2903542E-1,-2.7223438E-1,4.752807E-1,-3.718207E-1,5.4571193E-1,6.687763E-2,-3.614211E-2,-2.187911E-1,6.350453E-1,3.9702252E-1,4.10784E-1,-3.190924E-2,3.1772602E-2,3.5890713E-3,-2.5926596E-3,3.488912E-2,-1.2697811E-2,1.917832E-2,3.2051865E-2,1.6222952E-2,1.1919996E-2,2.880225E-2,6.906934E-3,2.4373502E-2],"categories":[],"categories_nodes":[],"categories_segments":[],"categories_sizes":[],"default_left":[0,0,0,0,0,0,0,0,0,0,0,0,0,0,0,0,0,0,0,0,0,0,0,0,0,0,0],"id":30,"left_children":[1,3,5,7,9,11,13,15,17,-1,19,21,23,25,-1,-1,-1,-1,-1,-1,-1,-1,-1,-1,-1,-1,-1],"loss_changes":[3.6533607E1,1.6009157E1,9.118576E0,6.051948E0,3.1591005E0,4.437828E0,3.0660992E0,1.656126E0,5.995237E0,0E0,2.7362018E0,1.8424988E-2,7.0882225E0,1.679504E-2,0E0,0E0,0E0,0E0,0E0,0E0,0E0,0E0,0E0,0E0,0E0,0E0,0E0],"parents":[2147483647,0,0,1,1,2,2,3,3,4,4,5,5,6,6,7,7,8,8,10,10,11,11,12,12,13,13],"right_children":[2,4,6,8,10,12,14,16,18,-1,20,22,24,26,-1,-1,-1,-1,-1,-1,-1,-1,-1,-1,-1,-1,-1],"split_conditions":[7.7778375E-1,-3.520581E-1,2.8771553E0,-7.8147274E-1,-1.6334125E0,-6.497051E-1,6.859558E-1,-5.4835117E-1,5.1058036E-1,-3.614211E-2,8.838289E-1,2.1723652E0,1.1739108E-1,7.3302186E-1,-3.190924E-2,3.1772602E-2,3.5890713E-3,-2.5926596E-3,3.488912E-2,-1.2697811E-2,1.917832E-2,3.2051865E-2,1.6222952E-2,1.1919996E-2,2.880225E-2,6.906934E-3,2.4373502E-2],"split_indices":[13,1,1,18,4,1,18,1,18,0,18,5,18,6,0,0,0,0,0,0,0,0,0,0,0,0,0],"split_type":[0,0,0,0,0,0,0,0,0,0,0,0,0,0,0,0,0,0,0,0,0,0,0,0,0,0,0],"sum_hessian":[6.408729E2,2.5431238E2,3.8656055E2,1.17563965E2,1.3674841E2,3.7410968E2,1.2450889E1,3.9012157E1,7.855181E1,1.3171056E1,1.23577354E2,1.2066224E2,2.5344743E2,3.02397E0,9.426918E0,3.251461E1,6.497548E0,6.688285E1,1.16689625E1,1.1730744E2,6.2699122E0,1.17334595E2,3.3276415E0,1.356164E2,1.1783103E2,1.2787887E0,1.7451812E0],"tree_param":{"num_deleted":"0","num_feature":"19","num_nodes":"27","size_leaf_vector":"1"}},{"base_weights":[-2.1918392E-1,6.71318E-2,-4.0837905E-1,4.625933E-1,5.37947E-3,-4.1611558E-1,4.925548E-1,5.6262165E-1,-5.3609725E-2,-4.4350547E-1,4.289256E-2,-4.2275232E-1,3.4667236E-1,8.340475E-4,3.683726E-2,3.3403795E-2,1.6113238E-2,-2.4759172E-2,2.8080836E-2,2.6117282E-3,-3.83827E-2,-1.2293893E-3,1.4530713E-2,-2.4396874E-2,-1.6419705E-2,3.0010298E-2,-6.212532E-3],"categories":[],"categories_nodes":[],"categories_segments":[],"categories_sizes":[],"default_left":[0,0,0,0,0,0,0,0,0,0,0,0,0,0,0,0,0,0,0,0,0,0,0,0,0,0,0],"id":31,"left_children":[1,3,5,7,9,11,13,15,17,19,21,23,25,-1,-1,-1,-1,-1,-1,-1,-1,-1,-1,-1,-1,-1,-1],"loss_changes":[3.4569862E1,6.2143936E0,2.8821793E0,1.8049412E0,3.743873E0,2.0771942E0,4.209425E-1,5.166979E-1,2.0418541E0,2.7957165E0,3.4349098E0,2.1680222E0,5.329285E-1,0E0,0E0,0E0,0E0,0E0,0E0,0E0,0E0,0E0,0E0,0E0,0E0,0E0,0E0],"parents":[2147483647,0,0,1,1,2,2,3,3,4,4,5,5,6,6,7,7,8,8,9,9,10,10,11,11,12,12],"right_children":[2,4,6,8,10,12,14,16,18,20,22,24,26,-1,-1,-1,-1,-1,-1,-1,-1,-1,-1,-1,-1,-1,-1],"split_conditions":[7.7778375E-1,-1.3017874E0,2.3726275E0,5.373798E-1,-7.69766E-1,2.4912908E0,-7.6306945E-1,-1.6039218E0,1.4482439E0,-3.7038647E-2,7.3131865E-1,1.3837471E-2,2.444129E0,8.340475E-4,3.683726E-2,3.3403795E-2,1.6113238E-2,-2.4759172E-2,2.8080836E-2,2.6117282E-3,-3.83827E-2,-1.2293893E-3,1.4530713E-2,-2.4396874E-2,-1.6419705E-2,3.0010298E-2,-6.212532E-3],"split_indices":[13,0,14,3,17,16,6,0,4,0,15,17,15,0,0,0,0,0,0,0,0,0,0,0,0,0,0],"split_type":[0,0,0,0,0,0,0,0,0,0,0,0,0,0,0,0,0,0,0,0,0,0,0,0,0,0,0],"sum_hessian":[6.366729E2,2.535746E2,3.8309833E2,3.337166E1,2.2020294E2,3.8037012E2,2.728209E0,2.7879349E1,5.492307E0,1.61483E1,2.0405464E2,3.7753116E2,2.838966E0,1.2874875E0,1.4407216E0,1.8140755E1,9.738596E0,3.3109906E0,2.1813164E0,6.7159877E0,9.432312E0,1.6107732E2,4.2977337E1,2.2081511E2,1.5671603E2,1.6669754E0,1.1719904E0],"tree_param":{"num_deleted":"0","num_feature":"19","num_nodes":"27","size_leaf_vector":"1"}},{"base_weights":[2.2187127E-1,3.8008347E-1,7.840786E-2,-4.5402807E-1,4.265238E-1,-6.1234605E-1,1.04767345E-1,8.509837E-2,-3.2395452E-2,5.769496E-1,2.8814223E-1,-6.956599E-1,3.6556881E-3,1.5345635E-1,-2.8040618E-1,2.645571E-2,-2.4285069E-2,-2.0372933E-2,2.9471967E-2,-5.7590674E-3,1.8915428E-2,-3.73581E-2,-7.8032785E-3,1.9281352E-2,3.4280636E-3,1.8047947E-2,-3.597648E-2],"categories":[],"categories_nodes":[],"categories_segments":[],"categories_sizes":[],"default_left":[0,0,0,0,0,0,0,0,0,0,0,0,0,0,0,0,0,0,0,0,0,0,0,0,0,0,0],"id":32,"left_children":[1,3,5,7,9,11,13,15,-1,17,19,21,-1,23,25,-1,-1,-1,-1,-1,-1,-1,-1,-1,-1,-1,-1],"loss_changes":[1.4266378E1,1.1786282E1,6.1015835E0,1.7555575E0,5.7455864E0,7.5525475E-1,6.048875E0,1.5715476E0,0E0,1.901001E0,5.4956083E0,1.9166374E-1,0E0,5.590079E0,1.0481131E1,0E0,0E0,0E0,0E0,0E0,0E0,0E0,0E0,0E0,0E0,0E0,0E0],"parents":[2147483647,0,0,1,1,2,2,3,3,4,4,5,5,6,6,7,7,9,9,10,10,11,11,13,13,14,14],"right_children":[2,4,6,8,10,12,14,16,-1,18,20,22,-1,24,26,-1,-1,-1,-1,-1,-1,-1,-1,-1,-1,-1,-1],"split_conditions":[1.3837471E-2,-2.0186887E0,-1.6118047E0,-1.9550345E0,-5.125105E-1,6.1130637E-1,1.160008E0,2.3031952E0,-3.2395452E-2,-2.6649053E0,-3.8927272E-1,-6.3784486E-1,3.6556881E-3,-2.4324723E-2,-1.0233171E0,2.645571E-2,-2.4285069E-2,-2.0372933E-2,2.9471967E-2,-5.7590674E-3,1.8915428E-2,-3.73581E-2,-7.8032785E-3,1.9281352E-2,3.4280636E-3,1.8047947E-2,-3.597648E-2],"split_indices":[17,10,3,17,17,18,10,18,0,0,10,2,0,14,18,0,0,0,0,0,0,0,0,0,0,0,0],"split_type":[0,0,0,0,0,0,0,0,0,0,0,0,0,0,0,0,0,0,0,0,0,0,0,0,0,0,0],"sum_hessian":[6.2885223E2,2.982696E2,3.305826E2,1.5267875E1,2.8300174E2,1.1334332E1,3.192483E2,4.186769E0,1.1081105E1,1.3408128E2,1.4892044E2,1.0092736E1,1.241596E0,2.8395563E2,3.5292664E1,2.395994E0,1.7907748E0,1.283658E0,1.3279762E2,2.7158794E1,1.2176165E2,8.862201E0,1.2305355E0,7.5081276E1,2.0887434E2,1.4415701E1,2.087696E1],"tree_param":{"num_deleted":"0","num_feature":"19","num_nodes":"27","size_leaf_vector":"1"}},{"base_weights":[-2.2351734E-1,5.5250604E-2,-4.657807E-1,-1.5203147E-1,4.559096E-1,-2.552281E-1,-5.4004395E-1,5.9464958E-2,-4.3963963E-1,6.483147E-1,1.5416709E-1,-4.352573E-1,1.8150876E-1,-5.68792E-1,-5.1498808E-2,-2.0743017E-3,3.37398E-2,-3.19023E-2,-8.088334E-3,3.8692143E-2,2.6179934E-2,-2.6267546E-4,3.2550637E-2,1.0853083E-2,-2.4348324E-2,2.6050791E-2,-1.8456247E-2,-2.2735285E-2,-3.1570595E-2,1.02463355E-2,-2.9063094E-2],"categories":[],"categories_nodes":[],"categories_segments":[],"categories_sizes":[],"default_left":[0,0,0,0,0,0,0,0,0,0,0,0,0,0,0,0,0,0,0,0,0,0,0,0,0,0,0,0,0,0,0],"id":33,"left_children":[1,3,5,7,9,11,13,15,17,19,21,23,25,27,29,-1,-1,-1,-1,-1,-1,-1,-1,-1,-1,-1,-1,-1,-1,-1,-1],"loss_changes":[4.2528942E1,2.4446096E1,5.1288986E0,1.1838535E1,5.7247963E0,7.1333356E0,3.4552765E0,7.0339575E0,4.4401245E0,5.4903984E-1,3.2015476E0,2.2586184E0,5.220088E0,1.3861694E0,2.141545E0,0E0,0E0,0E0,0E0,0E0,0E0,0E0,0E0,0E0,0E0,0E0,0E0,0E0,0E0,0E0,0E0],"parents":[2147483647,0,0,1,1,2,2,3,3,4,4,5,5,6,6,7,7,8,8,9,9,10,10,11,11,12,12,13,13,14,14],"right_children":[2,4,6,8,10,12,14,16,18,20,22,24,26,28,30,-1,-1,-1,-1,-1,-1,-1,-1,-1,-1,-1,-1,-1,-1,-1,-1],"split_conditions":[8.838541E-1,2.6504624E-1,7.7778375E-1,7.7778375E-1,2.5390828E-1,-3.097204E-1,1.7189132E0,1.5010084E0,-1.4337187E-1,4.1148475E-1,2.3031952E0,-1.1014738E0,3.0738395E-1,-4.7980607E-1,-5.130408E-1,-2.0743017E-3,3.37398E-2,-3.19023E-2,-8.088334E-3,3.8692143E-2,2.6179934E-2,-2.6267546E-4,3.2550637E-2,1.0853083E-2,-2.4348324E-2,2.6050791E-2,-1.8456247E-2,-2.2735285E-2,-3.1570595E-2,1.02463355E-2,-2.9063094E-2],"split_indices":[12,1,13,13,18,1,14,14,18,14,18,5,1,18,18,0,0,0,0,0,0,0,0,0,0,0,0,0,0,0,0],"split_type":[0,0,0,0,0,0,0,0,0,0,0,0,0,0,0,0,0,0,0,0,0,0,0,0,0,0,0,0,0,0,0],"sum_hessian":[6.283484E2,2.925214E2,3.35827E2,1.9319301E2,9.932839E1,8.872081E1,2.4710619E2,1.1178425E2,8.140876E1,5.9951782E1,3.937661E1,6.28263E1,2.589451E1,2.332184E2,1.3887795E1,9.6830795E1,1.4953446E1,4.673963E1,3.4669125E1,2.7284643E1,3.2667137E1,3.0560295E1,8.816317E0,4.3795753E0,5.8446728E1,1.6051403E1,9.843107E0,8.557389E1,1.4764452E2,9.771291E0,4.116504E0],"tree_param":{"num_deleted":"0","num_feature":"19","num_nodes":"31","size_leaf_vector":"1"}},{"base_weights":[2.2011921E-1,-3.1774953E-2,4.4695172E-1,3.161709E-2,-6.63498E-1,5.445661E-1,5.8451027E-2,-2.8733218E-1,1.2043345E-1,1.0470512E-2,-7.172408E-1,6.191838E-1,1.4481819E-1,4.412464E-1,-2.8019243E-1,-2.3677165E-2,1.1411068E-3,7.653837E-3,-3.18915E-2,-8.527785E-3,-3.699424E-2,3.1533178E-2,1.3571634E-2,1.1901612E-2,-4.0445272E-2,2.9862536E-2,-4.529461E-3,1.3681391E-2,-2.709351E-2],"categories":[],"categories_nodes":[],"categories_segments":[],"categories_sizes":[],"default_left":[0,0,0,0,0,0,0,0,0,0,0,0,0,0,0,0,0,0,0,0,0,0,0,0,0,0,0,0,0],"id":34,"left_children":[1,3,5,7,9,11,13,15,17,-1,19,21,23,25,27,-1,-1,-1,-1,-1,-1,-1,-1,-1,-1,-1,-1,-1,-1],"loss_changes":[3.5248512E1,1.1759327E1,1.2275597E1,7.6078753E0,1.4063749E0,7.6432114E0,8.716693E0,3.390926E0,5.2910757E0,0E0,1.8885803E-1,6.9973755E-1,3.9339004E0,2.6679683E0,5.33422E0,0E0,0E0,0E0,0E0,0E0,0E0,0E0,0E0,0E0,0E0,0E0,0E0,0E0,0E0],"parents":[2147483647,0,0,1,1,2,2,3,3,4,4,5,5,6,6,7,7,8,8,10,10,11,11,12,12,13,13,14,14],"right_children":[2,4,6,8,10,12,14,16,18,-1,20,22,24,26,28,-1,-1,-1,-1,-1,-1,-1,-1,-1,-1,-1,-1,-1,-1],"split_conditions":[8.838541E-1,8.6617893E-1,1.0798728E0,-8.591253E-1,-4.4299266E-1,8.472942E-1,-1.0233171E0,8.3651896E-5,2.3031952E0,1.0470512E-2,-4.5095855E-1,1.9570864E0,1.9582473E0,4.6600744E-1,-3.0654824E-1,-2.3677165E-2,1.1411068E-3,7.653837E-3,-3.18915E-2,-8.527785E-3,-3.699424E-2,3.1533178E-2,1.3571634E-2,1.1901612E-2,-4.0445272E-2,2.9862536E-2,-4.529461E-3,1.3681391E-2,-2.709351E-2],"split_indices":[12,10,10,0,18,14,18,3,18,0,17,16,17,17,17,0,0,0,0,0,0,0,0,0,0,0,0,0,0],"split_type":[0,0,0,0,0,0,0,0,0,0,0,0,0,0,0,0,0,0,0,0,0,0,0,0,0,0,0,0,0],"sum_hessian":[6.156552E2,2.921201E2,3.2353513E2,2.6634308E2,2.5777002E1,2.5824658E2,6.528854E1,5.752596E1,2.0881712E2,1.3269958E0,2.4450006E1,2.1716182E2,4.1084766E1,3.050423E1,3.4784313E1,3.5615967E1,2.1909992E1,2.0096375E2,7.853382E0,1.3117979E0,2.3138208E1,2.0943456E2,7.727255E0,3.811039E1,2.974376E0,2.3490671E1,7.0135593E0,1.1146969E1,2.3637346E1],"tree_param":{"num_deleted":"0","num_feature":"19","num_nodes":"29","size_leaf_vector":"1"}},{"base_weights":[-2.3153041E-1,3.2387223E-2,-4.5839503E-1,-4.073267E-1,2.3780592E-1,-2.5526723E-1,-5.302486E-1,-1.5293182E-1,-5.914428E-1,5.1417977E-2,4.5034763E-1,-4.6441674E-1,1.895718E-1,-2.6363355E-1,-5.5382544E-1,6.5175453E-3,-2.7330015E-2,-3.303878E-2,-1.9238839E-2,9.759939E-3,-1.1172506E-2,2.7611425E-2,1.3989086E-2,9.66297E-3,-2.592747E-2,3.254476E-2,-1.9014392E-2,-6.087106E-3,-2.8159443E-2,-2.4543075E-2,-3.228265E-2],"categories":[],"categories_nodes":[],"categories_segments":[],"categories_sizes":[],"default_left":[0,0,0,0,0,0,0,0,0,0,0,0,0,0,0,0,0,0,0,0,0,0,0,0,0,0,0,0,0,0,0],"id":35,"left_children":[1,3,5,7,9,11,13,15,17,19,21,23,25,27,29,-1,-1,-1,-1,-1,-1,-1,-1,-1,-1,-1,-1,-1,-1,-1,-1],"loss_changes":[3.7696762E1,2.6458841E1,4.8052444E0,4.279517E0,7.882304E0,8.496819E0,1.4199677E0,4.59024E0,5.1630783E-1,4.2900605E0,1.4634686E0,2.2991886E0,8.032805E0,8.728498E-1,1.0011749E0,0E0,0E0,0E0,0E0,0E0,0E0,0E0,0E0,0E0,0E0,0E0,0E0,0E0,0E0,0E0,0E0],"parents":[2147483647,0,0,1,1,2,2,3,3,4,4,5,5,6,6,7,7,8,8,9,9,10,10,11,11,12,12,13,13,14,14],"right_children":[2,4,6,8,10,12,14,16,18,20,22,24,26,28,30,-1,-1,-1,-1,-1,-1,-1,-1,-1,-1,-1,-1,-1,-1,-1,-1],"split_conditions":[8.838541E-1,-5.1884305E-1,7.7778375E-1,7.7778375E-1,2.034641E-1,-2.6481673E-1,-9.293891E-1,-7.151361E-1,-6.4072436E-1,7.7778375E-1,2.2293746E-1,-1.1014738E0,3.0738395E-1,3.3432615E-1,-1.634628E-1,6.5175453E-3,-2.7330015E-2,-3.303878E-2,-1.9238839E-2,9.759939E-3,-1.1172506E-2,2.7611425E-2,1.3989086E-2,9.66297E-3,-2.592747E-2,3.254476E-2,-1.9014392E-2,-6.087106E-3,-2.8159443E-2,-2.4543075E-2,-3.228265E-2],"split_indices":[12,1,13,13,1,1,0,1,1,13,0,5,1,1,1,0,0,0,0,0,0,0,0,0,0,0,0,0,0,0,0],"split_type":[0,0,0,0,0,0,0,0,0,0,0,0,0,0,0,0,0,0,0,0,0,0,0,0,0,0,0,0,0,0,0],"sum_hessian":[6.2835803E2,2.9085544E2,3.3750262E2,9.229922E1,1.9855621E2,8.938017E1,2.4812245E2,3.9521976E1,5.277724E1,1.0644843E2,9.210778E1,6.0765915E1,2.8614256E1,2.1148653E1,2.269738E2,2.3372252E1,1.6149725E1,3.7873905E1,1.4903337E1,7.008008E1,3.636835E1,5.6263412E1,3.584437E1,4.425758E0,5.6340157E1,1.57344265E1,1.2879828E1,1.5305331E1,5.843321E0,1.3841284E2,8.856096E1],"tree_param":{"num_deleted":"0","num_feature":"19","num_nodes":"31","size_leaf_vector":"1"}},{"base_weights":[2.1873939E-1,-7.380432E-2,4.1792467E-1,1.8216841E-1,-3.0814838E-1,4.4410658E-1,-4.602637E-1,2.475538E-1,-3.1738803E-1,4.1336855E-1,-3.3596703E-1,5.8132404E-1,3.5106927E-1,2.0815713E-2,-3.095152E-2,7.846294E-3,2.5658567E-2,-2.2553593E-2,2.5600815E-2,3.908596E-2,-2.0371608E-2,-1.2073028E-2,-2.4737805E-2,2.9577881E-2,-8.274767E-3,2.9322987E-2,1.1765911E-2],"categories":[],"categories_nodes":[],"categories_segments":[],"categories_sizes":[],"default_left":[0,0,0,0,0,0,0,0,0,0,0,0,0,0,0,0,0,0,0,0,0,0,0,0,0,0,0],"id":36,"left_children":[1,3,5,7,9,11,13,15,17,19,21,23,25,-1,-1,-1,-1,-1,-1,-1,-1,-1,-1,-1,-1,-1,-1],"loss_changes":[3.544537E1,1.48748045E1,8.52142E0,3.9556937E0,2.734911E0,4.2866287E0,1.7834702E0,2.4596362E0,1.8027757E0,1.9057853E0,1.7576885E0,1.1725235E0,5.64246E0,0E0,0E0,0E0,0E0,0E0,0E0,0E0,0E0,0E0,0E0,0E0,0E0,0E0,0E0],"parents":[2147483647,0,0,1,1,2,2,3,3,4,4,5,5,6,6,7,7,8,8,9,9,10,10,11,11,12,12],"right_children":[2,4,6,8,10,12,14,16,18,20,22,24,26,-1,-1,-1,-1,-1,-1,-1,-1,-1,-1,-1,-1,-1,-1],"split_conditions":[7.7778375E-1,-2.6096785E-1,2.9579818E0,1.5010084E0,-1.9550345E0,-2.505202E-1,-3.0629694E0,6.317242E-1,1.3682376E0,3.2363844E0,6.422368E-1,1.8952163E0,-6.497051E-1,2.0815713E-2,-3.095152E-2,7.846294E-3,2.5658567E-2,-2.2553593E-2,2.5600815E-2,3.908596E-2,-2.0371608E-2,-1.2073028E-2,-2.4737805E-2,2.9577881E-2,-8.274767E-3,2.9322987E-2,1.1765911E-2],"split_indices":[13,1,1,14,17,17,17,17,0,1,1,0,1,0,0,0,0,0,0,0,0,0,0,0,0,0,0],"split_type":[0,0,0,0,0,0,0,0,0,0,0,0,0,0,0,0,0,0,0,0,0,0,0,0,0,0,0],"sum_hessian":[6.067618E2,2.4603673E2,3.6072504E2,1.1769824E2,1.2833849E2,3.5076187E2,9.963165E0,1.0452212E2,1.3176122E1,4.249967E0,1.24088524E2,1.3960907E2,2.111528E2,1.2790635E0,8.684102E0,7.911806E1,2.540406E1,1.174001E1,1.4361118E0,2.9663658E0,1.2836014E0,7.937033E1,4.4718193E1,1.3792697E2,1.6820986E0,6.826434E1,1.4288846E2],"tree_param":{"num_deleted":"0","num_feature":"19","num_nodes":"27","size_leaf_vector":"1"}},{"base_weights":[-1.9088078E-1,6.4204425E-2,-4.3525726E-1,-1.5060276E-1,4.8046818E-1,-5.136163E-1,-1.2144596E-1,-3.3623165E-1,3.9171696E-1,5.4751474E-1,5.001046E-2,-1.8964127E-1,-6.2276214E-1,-3.902966E-1,4.4720426E-1,-2.7718411E-3,-3.391787E-2,-3.3119217E-2,3.0812278E-2,6.23301E-3,2.8748978E-2,-1.1241286E-2,2.3401406E-2,-3.395197E-2,-3.1743143E-3,-1.1230018E-2,-3.1387527E-2,-3.0210689E-2,-5.665296E-3,3.0147234E-2,-2.785459E-2],"categories":[],"categories_nodes":[],"categories_segments":[],"categories_sizes":[],"default_left":[0,0,0,0,0,0,0,0,0,0,0,0,0,0,0,0,0,0,0,0,0,0,0,0,0,0,0,0,0,0,0],"id":37,"left_children":[1,3,5,7,9,11,13,15,17,19,21,23,25,27,29,-1,-1,-1,-1,-1,-1,-1,-1,-1,-1,-1,-1,-1,-1,-1,-1],"loss_changes":[3.8126854E1,2.688912E1,7.6163216E0,2.0123352E1,2.9257355E0,8.70668E0,9.913719E0,1.4226809E1,1.2502743E1,9.5534897E-1,1.8159027E0,3.928505E0,2.2890472E-1,2.5261078E0,3.6073494E0,0E0,0E0,0E0,0E0,0E0,0E0,0E0,0E0,0E0,0E0,0E0,0E0,0E0,0E0,0E0,0E0],"parents":[2147483647,0,0,1,1,2,2,3,3,4,4,5,5,6,6,7,7,8,8,9,9,10,10,11,11,12,12,13,13,14,14],"right_children":[2,4,6,8,10,12,14,16,18,20,22,24,26,28,30,-1,-1,-1,-1,-1,-1,-1,-1,-1,-1,-1,-1,-1,-1,-1,-1],"split_conditions":[8.838541E-1,1.9320042E-1,1.0798728E0,6.2577325E-1,1.2537746E0,-6.563901E-1,-2.7892932E-1,7.7778375E-1,-6.7793024E-1,-1.5875151E0,4.1148475E-1,-8.421493E-1,-1.5111151E0,-6.2532884E-1,8.472942E-1,-2.7718411E-3,-3.391787E-2,-3.3119217E-2,3.0812278E-2,6.23301E-3,2.8748978E-2,-1.1241286E-2,2.3401406E-2,-3.395197E-2,-3.1743143E-3,-1.1230018E-2,-3.1387527E-2,-3.0210689E-2,-5.665296E-3,3.0147234E-2,-2.785459E-2],"split_indices":[12,1,10,10,3,10,1,13,1,2,14,1,6,1,14,0,0,0,0,0,0,0,0,0,0,0,0,0,0,0,0],"split_type":[0,0,0,0,0,0,0,0,0,0,0,0,0,0,0,0,0,0,0,0,0,0,0,0,0,0,0,0,0,0,0],"sum_hessian":[6.101783E2,2.989086E2,3.1126968E2,1.9758551E2,1.0132309E2,2.485658E2,6.2703888E1,1.4748378E2,5.010174E1,8.7432915E1,1.3890174E1,6.332805E1,1.8523773E2,4.2787937E1,1.9915953E1,8.1640526E1,6.5843254E1,8.455472E0,4.1646267E1,5.6703196E0,8.1762596E1,8.659157E0,5.231017E0,1.2080623E1,5.124743E1,2.861526E0,1.8237622E2,2.3476171E1,1.9311764E1,1.7588123E1,2.3278298E0],"tree_param":{"num_deleted":"0","num_feature":"19","num_nodes":"31","size_leaf_vector":"1"}},{"base_weights":[2.1164049E-1,-2.7188681E-2,4.2972308E-1,1.7433904E-1,-4.748577E-1,3.1586297E-2,3.3408087E-1,5.084136E-1,7.897919E-2,5.1697874E-1,-5.2336526E-1,5.86267E-1,2.571899E-1,3.159565E-2,-1.4805215E-2,-8.162529E-3,1.0938665E-2,8.143211E-3,3.0580733E-2,-2.9544849E-2,-8.502201E-3,1.3416776E-4,3.108852E-2,3.982847E-3,2.1592839E-2],"categories":[],"categories_nodes":[],"categories_segments":[],"categories_sizes":[],"default_left":[0,0,0,0,0,0,0,0,0,0,0,0,0,0,0,0,0,0,0,0,0,0,0,0,0],"id":38,"left_children":[1,3,5,7,9,-1,11,13,15,17,19,21,23,-1,-1,-1,-1,-1,-1,-1,-1,-1,-1,-1,-1],"loss_changes":[3.1846878E1,2.6487257E1,5.9626083E0,6.4126196E0,4.6546154E0,0E0,4.0956097E0,4.637801E0,5.4116154E0,5.9631705E-2,1.9842243E0,1.042305E0,5.2248325E0,0E0,0E0,0E0,0E0,0E0,0E0,0E0,0E0,0E0,0E0,0E0,0E0],"parents":[2147483647,0,0,1,1,2,2,3,3,4,4,6,6,7,7,8,8,9,9,10,10,11,11,12,12],"right_children":[2,4,6,8,10,-1,12,14,16,18,20,22,24,-1,-1,-1,-1,-1,-1,-1,-1,-1,-1,-1,-1],"split_conditions":[8.838541E-1,2.72744E-1,-4.959388E-1,-2.4222946E-1,-2.287258E0,3.1586297E-2,-7.690205E-1,-9.019624E-2,4.1148475E-1,-1.7756628E-1,1.1433935E0,-4.3991077E-1,-3.0647528E-1,3.159565E-2,-1.4805215E-2,-8.162529E-3,1.0938665E-2,8.143211E-3,3.0580733E-2,-2.9544849E-2,-8.502201E-3,1.3416776E-4,3.108852E-2,3.982847E-3,2.1592839E-2],"split_indices":[12,1,17,14,17,0,1,18,14,0,0,17,18,0,0,0,0,0,0,0,0,0,0,0,0],"split_type":[0,0,0,0,0,0,0,0,0,0,0,0,0,0,0,0,0,0,0,0,0,0,0,0,0],"sum_hessian":[6.102222E2,2.91675E2,3.185472E2,2.0155244E2,9.012255E1,1.00557625E2,2.1798958E2,4.3794716E1,1.5775772E2,3.7517903E0,8.6370766E1,4.938677E1,1.6860281E2,3.8152565E1,5.642154E0,5.7666927E1,1.000908E2,1.365022E0,2.3867683E0,7.194685E1,1.4423911E1,2.8939142E0,4.6492855E1,8.433749E1,8.426533E1],"tree_param":{"num_deleted":"0","num_feature":"19","num_nodes":"25","size_leaf_vector":"1"}},{"base_weights":[-2.0481373E-1,4.826295E-2,-4.3520862E-1,-1.6614571E-1,5.0986063E-1,-5.200855E-1,-8.1271805E-2,-2.73653E-1,6.2869245E-1,-3.1146774E-1,5.81685E-1,-2.4187489E-1,-6.24871E-1,-3.0879108E-2,1.7102648E-1,1.7247222E-3,-3.305497E-2,3.619016E-2,5.2364995E-3,-3.90183E-2,2.5237164E-2,3.2661967E-2,1.990008E-2,-2.5583236E-2,-1.7750704E-4,-1.0926055E-2,-3.1505875E-2,-2.7245833E-2,2.5383536E-2],"categories":[],"categories_nodes":[],"categories_segments":[],"categories_sizes":[],"default_left":[0,0,0,0,0,0,0,0,0,0,0,0,0,0,0,0,0,0,0,0,0,0,0,0,0,0,0,0,0],"id":39,"left_children":[1,3,5,7,9,11,13,15,17,19,21,23,25,-1,27,-1,-1,-1,-1,-1,-1,-1,-1,-1,-1,-1,-1,-1,-1],"loss_changes":[3.4405624E1,2.7986755E1,9.234055E0,1.6686253E1,5.4705257E0,7.10421E0,8.347657E0,2.0430363E1,1.0867653E0,3.4027045E0,8.2829285E-1,4.481179E0,2.4637604E-1,0E0,1.0449471E1,0E0,0E0,0E0,0E0,0E0,0E0,0E0,0E0,0E0,0E0,0E0,0E0,0E0,0E0],"parents":[2147483647,0,0,1,1,2,2,3,3,4,4,5,5,6,6,7,7,8,8,9,9,10,10,11,11,12,12,14,14],"right_children":[2,4,6,8,10,12,14,16,18,20,22,24,26,-1,28,-1,-1,-1,-1,-1,-1,-1,-1,-1,-1,-1,-1,-1,-1],"split_conditions":[8.838541E-1,2.034641E-1,1.1065845E0,8.6617893E-1,-1.9550345E0,-6.563901E-1,-6.7793024E-1,7.7778375E-1,6.467176E-1,3.4711664E0,3.571901E-1,-1.2173365E0,-1.5111151E0,-3.0879108E-2,-1.1864216E0,1.7247222E-3,-3.305497E-2,3.619016E-2,5.2364995E-3,-3.90183E-2,2.5237164E-2,3.2661967E-2,1.990008E-2,-2.5583236E-2,-1.7750704E-4,-1.0926055E-2,-3.1505875E-2,-2.7245833E-2,2.5383536E-2],"split_indices":[12,1,10,10,17,10,1,13,17,1,18,10,6,0,18,0,0,0,0,0,0,0,0,0,0,0,0,0,0],"split_type":[0,0,0,0,0,0,0,0,0,0,0,0,0,0,0,0,0,0,0,0,0,0,0,0,0,0,0,0,0],"sum_hessian":[5.8871106E2,2.809227E2,3.0778833E2,1.9225961E2,8.8663086E1,2.4787619E2,5.991215E1,1.69931E2,2.2328617E1,6.8616753E0,8.180141E1,6.87226E1,1.791536E2,1.8704397E1,4.1207752E1,9.515913E1,7.477187E1,1.8575375E1,3.7532415E0,4.385946E0,2.4757292E0,5.7029213E1,2.4772198E1,3.1695522E1,3.7027077E1,2.8272498E0,1.7632634E2,1.29814205E1,2.8226332E1],"tree_param":{"num_deleted":"0","num_feature":"19","num_nodes":"29","size_leaf_vector":"1"}},{"base_weights":[1.9711003E-1,-5.448516E-2,4.1850156E-1,1.596284E-1,-4.9290925E-1,5.027303E-1,7.7697374E-2,2.793956E-1,-6.014478E-1,-6.537679E-1,-1.4746049E-1,1.9368963E-1,6.125283E-1,3.4970096E-1,-4.748515E-1,-1.12425415E-2,1.6072555E-2,2.3089381E-2,-3.408773E-2,-1.1811857E-2,-3.6224183E-2,-2.0589015E-2,8.8137565E-3,3.978682E-4,2.790967E-2,3.08772E-2,3.5144784E-3,3.0356267E-2,6.9621126E-3,6.9679064E-4,-3.0086849E-2],"categories":[],"categories_nodes":[],"categories_segments":[],"categories_sizes":[],"default_left":[0,0,0,0,0,0,0,0,0,0,0,0,0,0,0,0,0,0,0,0,0,0,0,0,0,0,0,0,0,0,0],"id":40,"left_children":[1,3,5,7,9,11,13,15,17,19,21,23,25,27,29,-1,-1,-1,-1,-1,-1,-1,-1,-1,-1,-1,-1,-1,-1,-1,-1],"loss_changes":[3.2773796E1,2.5996939E1,8.9422455E0,1.7146057E1,4.9514275E0,8.387852E0,9.662575E0,3.4995985E0,2.5043383E0,1.6502514E0,2.6526814E0,4.5437164E0,4.5841217E-1,2.2406344E0,1.3274174E0,0E0,0E0,0E0,0E0,0E0,0E0,0E0,0E0,0E0,0E0,0E0,0E0,0E0,0E0,0E0,0E0],"parents":[2147483647,0,0,1,1,2,2,3,3,4,4,5,5,6,6,7,7,8,8,9,9,10,10,11,11,12,12,13,13,14,14],"right_children":[2,4,6,8,10,12,14,16,18,20,22,24,26,28,30,-1,-1,-1,-1,-1,-1,-1,-1,-1,-1,-1,-1,-1,-1,-1,-1],"split_conditions":[8.838541E-1,2.72744E-1,1.0798728E0,8.6617893E-1,3.2600123E-1,-6.8310183E-1,-2.6096785E-1,-9.544016E-1,-7.686904E-1,-1.3508953E0,2.0185833E-1,-3.0647528E-1,2.4912908E0,-6.7793024E-1,-1.1864216E0,-1.12425415E-2,1.6072555E-2,2.3089381E-2,-3.408773E-2,-1.1811857E-2,-3.6224183E-2,-2.0589015E-2,8.8137565E-3,3.978682E-4,2.790967E-2,3.08772E-2,3.5144784E-3,3.0356267E-2,6.9621126E-3,6.9679064E-4,-3.0086849E-2],"split_indices":[12,1,10,10,18,10,1,2,18,10,0,18,16,1,18,0,0,0,0,0,0,0,0,0,0,0,0,0,0,0,0],"split_type":[0,0,0,0,0,0,0,0,0,0,0,0,0,0,0,0,0,0,0,0,0,0,0,0,0,0,0,0,0,0,0],"sum_hessian":[5.869781E2,2.751005E2,3.118776E2,1.8526054E2,8.983996E1,2.4969185E2,6.218575E1,1.6061774E2,2.464281E1,6.0688E1,2.9151958E1,6.618097E1,1.8351088E2,4.1917908E1,2.0267841E1,1.2030095E1,1.4858765E2,1.3969791E0,2.3245832E1,9.418502E0,5.1269497E1,1.5898983E1,1.3252975E1,4.4518482E1,2.1662489E1,1.8169135E2,1.8195256E0,1.8007322E1,2.3910587E1,4.360506E0,1.5907335E1],"tree_param":{"num_deleted":"0","num_feature":"19","num_nodes":"31","size_leaf_vector":"1"}},{"base_weights":[-1.9432808E-1,4.1239247E-2,-4.1109535E-1,-1.6742249E-1,4.7649106E-1,-4.728329E-1,-2.8518008E-2,-3.519767E-1,4.099623E-1,-3.155865E-1,5.5566394E-1,-4.9648523E-1,3.7355077E-2,-5.670668E-1,3.7233207E-1,1.583784E-2,-1.950799E-2,-3.0308649E-2,2.7741963E-2,-3.735039E-2,2.4699291E-2,3.3242118E-2,1.58132E-2,-1.3180042E-2,-2.8770918E-2,9.5491373E-4,-3.0535374E-2,-3.0025048E-2,4.0340535E-2],"categories":[],"categories_nodes":[],"categories_segments":[],"categories_sizes":[],"default_left":[0,0,0,0,0,0,0,0,0,0,0,0,0,0,0,0,0,0,0,0,0,0,0,0,0,0,0,0,0],"id":41,"left_children":[1,3,5,7,9,11,13,15,17,19,21,23,-1,25,27,-1,-1,-1,-1,-1,-1,-1,-1,-1,-1,-1,-1,-1,-1],"loss_changes":[2.9658539E1,2.5426775E1,7.128971E0,2.032543E1,5.863226E0,7.8821487E0,9.511646E0,3.8019218E0,7.1575546E0,3.4704618E0,1.9544163E0,4.553547E0,0E0,4.9206734E-1,1.1179179E1,0E0,0E0,0E0,0E0,0E0,0E0,0E0,0E0,0E0,0E0,0E0,0E0,0E0,0E0],"parents":[2147483647,0,0,1,1,2,2,3,3,4,4,5,5,6,6,7,7,8,8,9,9,10,10,11,11,13,13,14,14],"right_children":[2,4,6,8,10,12,14,16,18,20,22,24,-1,26,28,-1,-1,-1,-1,-1,-1,-1,-1,-1,-1,-1,-1,-1,-1],"split_conditions":[8.838541E-1,2.6504624E-1,1.2134315E0,6.2577325E-1,-1.9550345E0,1.9582473E0,-6.3174367E-1,-9.3965435E-1,-7.151361E-1,3.4711664E0,2.6311165E-1,-6.563901E-1,3.7355077E-2,-1.2261788E0,-1.1434724E0,1.583784E-2,-1.950799E-2,-3.0308649E-2,2.7741963E-2,-3.735039E-2,2.4699291E-2,3.3242118E-2,1.58132E-2,-1.3180042E-2,-2.8770918E-2,9.5491373E-4,-3.0535374E-2,-3.0025048E-2,4.0340535E-2],"split_indices":[12,1,10,10,17,17,1,1,1,1,18,10,0,15,18,0,0,0,0,0,0,0,0,0,0,0,0,0,0],"split_type":[0,0,0,0,0,0,0,0,0,0,0,0,0,0,0,0,0,0,0,0,0,0,0,0,0,0,0,0,0],"sum_hessian":[5.7948724E2,2.7808923E2,3.0139798E2,1.883897E2,8.969955E1,2.5931558E2,4.2082382E1,1.4305444E2,4.533526E1,7.8798904E0,8.181966E1,2.549653E2,4.3502984E0,1.7779999E1,2.4302385E1,7.3328176E0,1.3572162E2,5.2598395E0,4.0075417E1,5.1909256E0,2.6889646E0,5.497238E1,2.6847277E1,6.564012E1,1.8932518E2,1.2709845E0,1.6509014E1,7.384892E0,1.6917494E1],"tree_param":{"num_deleted":"0","num_feature":"19","num_nodes":"29","size_leaf_vector":"1"}},{"base_weights":[1.9615272E-1,-3.594112E-2,4.12779E-1,-1.8144284E-1,1.4822116E-1,2.8846487E-1,5.182233E-1,-2.2292252E-1,2.6822886E-1,2.2902107E-1,-3.109332E-2,4.5295298E-1,8.644475E-2,3.047616E-1,5.779613E-1,-3.216959E-2,-8.840453E-3,2.9041056E-2,-2.686716E-2,7.1553597E-3,2.8778775E-2,3.334455E-2,1.9583551E-2,-3.4437917E-2,7.043092E-3,2.6086837E-2,4.1801245E-3,2.9266348E-2,2.164806E-3],"categories":[],"categories_nodes":[],"categories_segments":[],"categories_sizes":[],"default_left":[0,0,0,0,0,0,0,0,0,0,0,0,0,0,0,0,0,0,0,0,0,0,0,0,0,0,0,0,0],"id":42,"left_children":[1,3,5,7,9,11,13,15,17,19,-1,21,23,25,27,-1,-1,-1,-1,-1,-1,-1,-1,-1,-1,-1,-1,-1,-1],"loss_changes":[2.844826E1,7.367294E0,3.6858635E0,2.9225564E0,7.6997957E0,4.497925E0,1.8265991E0,2.6213913E0,3.690444E0,3.2122164E0,0E0,7.2239304E-1,2.7340846E0,1.7058232E0,4.5352554E-1,0E0,0E0,0E0,0E0,0E0,0E0,0E0,0E0,0E0,0E0,0E0,0E0,0E0,0E0],"parents":[2147483647,0,0,1,1,2,2,3,3,4,4,5,5,6,6,7,7,8,8,9,9,11,11,12,12,13,13,14,14],"right_children":[2,4,6,8,10,12,14,16,18,20,-1,22,24,26,28,-1,-1,-1,-1,-1,-1,-1,-1,-1,-1,-1,-1,-1,-1],"split_conditions":[8.838541E-1,7.7778375E-1,-2.9011405E-1,5.4943955E-1,9.5643336E-1,-8.172636E-1,7.7778375E-1,-7.867734E-1,2.0388536E0,2.8100705E-1,-3.109332E-2,-1.3326533E0,-1.0745087E0,3.3827254E-1,2.669359E0,-3.216959E-2,-8.840453E-3,2.9041056E-2,-2.686716E-2,7.1553597E-3,2.8778775E-2,3.334455E-2,1.9583551E-2,-3.4437917E-2,7.043092E-3,2.6086837E-2,4.1801245E-3,2.9266348E-2,2.164806E-3],"split_indices":[12,13,18,18,18,18,13,7,18,18,0,18,3,18,16,0,0,0,0,0,0,0,0,0,0,0,0,0,0],"split_type":[0,0,0,0,0,0,0,0,0,0,0,0,0,0,0,0,0,0,0,0,0,0,0,0,0,0,0,0,0],"sum_hessian":[5.6452844E2,2.7293713E2,2.9159134E2,1.5248085E2,1.2045629E2,1.3553607E2,1.5605525E2,1.400649E2,1.2415946E1,1.096537E2,1.0802593E1,7.402312E1,6.1512955E1,3.545731E1,1.20597946E2,1.2562831E1,1.27502075E2,9.145964E0,3.2699823E0,8.900221E1,2.0651487E1,1.4281933E1,5.9741184E1,3.270189E0,5.8242767E1,1.7211914E1,1.8245396E1,1.1886568E2,1.7322711E0],"tree_param":{"num_deleted":"0","num_feature":"19","num_nodes":"29","size_leaf_vector":"1"}},{"base_weights":[-1.7532958E-1,3.7647575E-2,-3.7835246E-1,-1.8189748E-1,4.5784974E-1,-2.4437536E-1,-5.059773E-1,-2.3812276E-1,2.768029E-1,6.279163E-1,1.9205713E-1,-5.6888527E-1,-5.7055306E-2,-4.2576325E-1,-3.041361E-2,-7.6746005E-3,-2.4564989E-2,2.031371E-2,-2.5701387E-2,-2.4593368E-3,3.215308E-2,-2.9139637E-3,2.5793392E-2,-3.1272594E-2,-1.5314286E-2,-2.847862E-2,4.085744E-3,-2.7360557E-2,-8.042648E-3],"categories":[],"categories_nodes":[],"categories_segments":[],"categories_sizes":[],"default_left":[0,0,0,0,0,0,0,0,0,0,0,0,0,0,0,0,0,0,0,0,0,0,0,0,0,0,0,0,0],"id":43,"left_children":[1,3,5,7,9,11,13,15,17,19,21,23,25,27,-1,-1,-1,-1,-1,-1,-1,-1,-1,-1,-1,-1,-1,-1,-1],"loss_changes":[2.5198992E1,2.6390835E1,4.9766617E0,4.915062E0,4.315853E0,8.930922E0,9.8685837E-1,3.5248451E0,2.3582637E0,6.4087677E-1,3.2511306E0,6.0840225E-1,6.774744E0,2.7570915E0,0E0,0E0,0E0,0E0,0E0,0E0,0E0,0E0,0E0,0E0,0E0,0E0,0E0,0E0,0E0],"parents":[2147483647,0,0,1,1,2,2,3,3,4,4,5,5,6,6,7,7,8,8,9,9,10,10,11,11,12,12,13,13],"right_children":[2,4,6,8,10,12,14,16,18,20,22,24,26,28,-1,-1,-1,-1,-1,-1,-1,-1,-1,-1,-1,-1,-1,-1,-1],"split_conditions":[8.838541E-1,1.7908785E-1,-3.1210008E-1,1.5010084E0,2.5390828E-1,-7.690205E-1,6.767527E-1,8.472942E-1,1.3893168E0,-5.7624006E-1,9.3240225E-1,-5.728628E-1,-1.1864216E0,3.0350456E-1,-3.041361E-2,-7.6746005E-3,-2.4564989E-2,2.031371E-2,-2.5701387E-2,-2.4593368E-3,3.215308E-2,-2.9139637E-3,2.5793392E-2,-3.1272594E-2,-1.5314286E-2,-2.847862E-2,4.085744E-3,-2.7360557E-2,-8.042648E-3],"split_indices":[12,1,18,14,18,1,18,14,0,8,18,18,18,18,0,0,0,0,0,0,0,0,0,0,0,0,0,0,0],"split_type":[0,0,0,0,0,0,0,0,0,0,0,0,0,0,0,0,0,0,0,0,0,0,0,0,0,0,0,0,0],"sum_hessian":[5.8145123E2,2.8416653E2,2.9728473E2,1.8702026E2,9.7146255E1,1.4645499E2,1.5082974E2,1.6702768E2,1.9992579E1,5.841023E1,3.873603E1,5.285426E1,9.360073E1,8.743228E1,6.339745E1,1.2638619E2,4.064149E1,1.759781E1,2.3947675E0,1.228751E0,5.718148E1,2.2309042E1,1.6426987E1,4.2349895E1,1.0504365E1,1.9282104E1,7.431863E1,5.9218143E1,2.8214142E1],"tree_param":{"num_deleted":"0","num_feature":"19","num_nodes":"29","size_leaf_vector":"1"}},{"base_weights":[1.7151925E-1,-4.141897E-2,3.8746434E-1,1.392329E-1,-4.1635507E-1,4.7101E-1,3.9867464E-2,2.9431707E-1,-3.9321056E-1,-5.696427E-1,-1.1971315E-1,1.697949E-1,5.947507E-1,5.219866E-1,-2.4083677E-1,1.5960556E-3,3.267504E-2,3.0414302E-2,-2.7253885E-2,-1.22573795E-2,-3.1357262E-2,2.948167E-3,-2.9738745E-2,-1.07567E-3,2.9020509E-2,8.50009E-3,3.0027932E-2,3.007622E-2,8.3084183E-4,2.5590733E-2,-3.3341978E-2],"categories":[],"categories_nodes":[],"categories_segments":[],"categories_sizes":[],"default_left":[0,0,0,0,0,0,0,0,0,0,0,0,0,0,0,0,0,0,0,0,0,0,0,0,0,0,0,0,0,0,0],"id":44,"left_children":[1,3,5,7,9,11,13,15,17,19,21,23,25,27,29,-1,-1,-1,-1,-1,-1,-1,-1,-1,-1,-1,-1,-1,-1,-1,-1],"loss_changes":[2.6149326E1,1.9501263E1,8.178318E0,1.617376E1,4.187437E0,8.377686E0,7.6758537E0,1.4227158E1,7.0684533E0,9.9264145E-1,2.8490138E0,5.325696E0,2.9468536E-1,8.278966E-1,1.1866165E1,0E0,0E0,0E0,0E0,0E0,0E0,0E0,0E0,0E0,0E0,0E0,0E0,0E0,0E0,0E0,0E0],"parents":[2147483647,0,0,1,1,2,2,3,3,4,4,5,5,6,6,7,7,8,8,9,9,10,10,11,11,12,12,13,13,14,14],"right_children":[2,4,6,8,10,12,14,16,18,20,22,24,26,28,30,-1,-1,-1,-1,-1,-1,-1,-1,-1,-1,-1,-1,-1,-1,-1,-1],"split_conditions":[8.838541E-1,2.72744E-1,1.1332963E0,6.52485E-1,2.871425E-1,-6.563901E-1,-6.2532884E-1,7.7778375E-1,-6.7793024E-1,-1.3508953E0,3.2363844E0,-3.0647528E-1,-1.5111151E0,1.2669699E0,-1.1864216E0,1.5960556E-3,3.267504E-2,3.0414302E-2,-2.7253885E-2,-1.22573795E-2,-3.1357262E-2,2.948167E-3,-2.9738745E-2,-1.07567E-3,2.9020509E-2,8.50009E-3,3.0027932E-2,3.007622E-2,8.3084183E-4,2.5590733E-2,-3.3341978E-2],"split_indices":[12,1,10,10,18,10,1,13,1,10,1,18,6,4,18,0,0,0,0,0,0,0,0,0,0,0,0,0,0,0,0],"split_type":[0,0,0,0,0,0,0,0,0,0,0,0,0,0,0,0,0,0,0,0,0,0,0,0,0,0,0,0,0,0,0],"sum_hessian":[5.6732526E2,2.860583E2,2.8126694E2,1.9346944E2,9.2588875E1,2.2647752E2,5.4789402E1,1.501753E2,4.329414E1,6.0437767E1,3.2151104E1,6.663757E1,1.5983995E2,1.9845139E1,3.4944267E1,8.740894E1,6.276635E1,5.30495E0,3.798919E1,9.890041E0,5.0547726E1,2.4000214E1,8.150889E0,4.6104702E1,2.053287E1,2.564466E0,1.5727548E2,1.6982132E1,2.8630052E0,1.2557154E1,2.2387112E1],"tree_param":{"num_deleted":"0","num_feature":"19","num_nodes":"31","size_leaf_vector":"1"}},{"base_weights":[-2.1156986E-1,2.2798717E-2,-4.375167E-1,-1.8392347E-1,4.4378212E-1,-5.1063097E-1,-1.03157945E-1,-3.562066E-1,4.436979E-1,6.060562E-1,1.5089329E-1,-5.8712107E-1,-1.7045441E-1,-4.2070073E-1,2.0443301E-1,-5.1398627E-3,-3.2858744E-2,-2.9223582E-2,2.9563671E-2,3.1805974E-2,-1.3117508E-3,2.5811583E-2,-5.989335E-3,-1.9098518E-2,-3.0209864E-2,-3.1551916E-2,2.1188487E-3,-2.7183874E-2,3.3049032E-3,-2.3435038E-2,2.6929855E-2],"categories":[],"categories_nodes":[],"categories_segments":[],"categories_sizes":[],"default_left":[0,0,0,0,0,0,0,0,0,0,0,0,0,0,0,0,0,0,0,0,0,0,0,0,0,0,0,0,0,0,0],"id":45,"left_children":[1,3,5,7,9,11,13,15,17,19,21,23,25,27,29,-1,-1,-1,-1,-1,-1,-1,-1,-1,-1,-1,-1,-1,-1,-1,-1],"loss_changes":[3.0446228E1,2.4716425E1,7.102455E0,2.0762486E1,4.3532543E0,6.1425705E0,5.337987E0,1.1377853E1,6.6405087E0,1.1542664E0,3.4905543E0,4.539566E-1,4.4822435E0,1.6393862E0,6.5476294E0,0E0,0E0,0E0,0E0,0E0,0E0,0E0,0E0,0E0,0E0,0E0,0E0,0E0,0E0,0E0,0E0],"parents":[2147483647,0,0,1,1,2,2,3,3,4,4,5,5,6,6,7,7,8,8,9,9,10,10,11,11,12,12,13,13,14,14],"right_children":[2,4,6,8,10,12,14,16,18,20,22,24,26,28,30,-1,-1,-1,-1,-1,-1,-1,-1,-1,-1,-1,-1,-1,-1,-1,-1],"split_conditions":[8.838541E-1,1.7908785E-1,1.1065845E0,6.52485E-1,2.5390828E-1,6.2938946E-1,-1.0233171E0,7.7778375E-1,-6.830621E-1,2.8704786E0,-2.0186887E0,-9.502192E-1,-8.2931966E-1,5.2677107E-1,-3.0654824E-1,-5.1398627E-3,-3.2858744E-2,-2.9223582E-2,2.9563671E-2,3.1805974E-2,-1.3117508E-3,2.5811583E-2,-5.989335E-3,-1.9098518E-2,-3.0209864E-2,-3.1551916E-2,2.1188487E-3,-2.7183874E-2,3.3049032E-3,-2.3435038E-2,2.6929855E-2],"split_indices":[12,1,10,10,18,14,18,13,1,17,10,10,1,17,17,0,0,0,0,0,0,0,0,0,0,0,0,0,0,0,0],"split_type":[0,0,0,0,0,0,0,0,0,0,0,0,0,0,0,0,0,0,0,0,0,0,0,0,0,0,0,0,0,0,0],"sum_hessian":[5.7375867E2,2.8207205E2,2.9168665E2,1.8955496E2,9.251708E1,2.3891573E2,5.2770916E1,1.49068E2,4.0486965E1,5.8844982E1,3.3672104E1,1.944638E2,4.445192E1,2.5784475E1,2.6986439E1,8.165644E1,6.741156E1,4.7101946E0,3.577677E1,5.616832E1,2.6766627E0,1.3944272E1,1.972783E1,1.6738508E1,1.777253E2,1.3427905E1,3.1024014E1,2.0491104E1,5.2933726E0,8.819002E0,1.8167437E1],"tree_param":{"num_deleted":"0","num_feature":"19","num_nodes":"31","size_leaf_vector":"1"}},{"base_weights":[1.8203783E-1,-5.6373633E-2,4.0714365E-1,-1.904003E-1,1.3288577E-1,1.815132E-1,4.890626E-1,-2.442466E-1,3.6220333E-1,2.0561601E-1,-3.0670086E-2,2.2246534E-1,-3.8619667E-2,3.0696625E-2,3.0900517E-1,-5.221701E-3,-1.7672649E-2,2.978214E-2,-2.4745405E-2,-4.650732E-3,1.5227243E-2,1.4484259E-2,-1.5028539E-2,8.324321E-3,2.7991353E-2],"categories":[],"categories_nodes":[],"categories_segments":[],"categories_sizes":[],"default_left":[0,0,0,0,0,0,0,0,0,0,0,0,0,0,0,0,0,0,0,0,0,0,0,0,0],"id":46,"left_children":[1,3,5,7,9,11,13,15,17,19,-1,21,-1,-1,23,-1,-1,-1,-1,-1,-1,-1,-1,-1,-1],"loss_changes":[3.032567E1,